tree
version=v3
num_class=1
num_tree_per_iteration=1
label_index=0
max_feature_idx=7
objective=binary sigmoid:1
feature_names=pos_score_data.posx pos_score_data.dnet pos_score_data.view pos_score_data.dopp eval_data.close_opp_dir_change eval_data.small_cone_angle eval_data.angle_diff eval_data.timestep
feature_infos=[-0.95999962690956953:0.95994081138661069] [0.042105566198463285:1.9961068109983575] [0:1.9474666648060039] [0.00074262867172197964:0.10000000000000001] [0:0.018114300856901733] [0.00027139377391449671:200] [0:180] [5:7]
tree_sizes=1178 1210 1214 1217 1224 1214 1224 1223 1219 1217

Tree=0
num_leaves=10
num_cat=0
split_feature=5 7 4 4 1 5 5 4 0
split_gain=115027 39542.5 49287.3 21669.9 12966.2 12310.3 9032.66 8411.22 7623.39
threshold=41.724181964253169 5.5000000000000009 0.0076608713726568113 0.0093676232667247086 1.4408541211166896 63.227782874109373 18.614650961797626 0.0044188232296436441 0.85622031262596188
decision_type=2 10 2 2 2 2 2 2 2
left_child=1 2 6 4 -2 -5 7 -1 -4
right_child=3 -3 8 5 -6 -7 -8 -9 -10
leaf_value=2.3554595392118962 2.4371134491556119 2.4254628369121924 2.0113733978880277 2.2412151682594024 2.352704531475271 2.3749661462821217 2.3360940545881776 1.7392256465961253 2.2576037491546352
leaf_weight=391.01690246164799 142007.91035303846 6747.4770102910697 13517.383888192475 9258.9282311424613 20873.407310228795 26798.127671089023 10553.179798502475 510.90780481696129 1386.3314713649452
leaf_count=7446 2503271 95523 292876 178550 385616 487827 190092 11741 24899
internal_value=2.38205 2.20946 2.15416 2.41077 2.4263 2.34062 2.31013 2.00639 2.03428
internal_weight=0 33106.3 26358.8 198938 162881 36057.1 11455.1 901.925 14903.7
internal_count=4177841 622577 527054 3555264 2888887 666377 209279 19187 317775
shrinkage=1


Tree=1
num_leaves=10
num_cat=0
split_feature=5 7 4 6 5 5 5 1 4
split_gain=81055.1 22289.6 29206.8 16354.4 8284.43 6105.7 5875.45 4939.57 4566.86
threshold=44.239950549510262 5.5000000000000009 0.00671038777504701 29.416697717911024 61.94472853650624 30.338355956490066 23.449595019409561 1.4184704646668795 0.0043598239986838315
decision_type=2 10 2 2 2 2 2 2 2
left_child=1 2 6 -2 -5 -4 8 -6 -1
right_child=3 -3 5 4 7 -7 -8 -9 -10
leaf_value=-0.0015348476316146839 0.055199787440859717 0.039810179249379643 -0.26310669747879573 -0.071352745315295729 0.025898123172097876 -0.16236280150689381 0.0038699420544219265 -0.035007656732246206 -0.33582425034890506
leaf_weight=695.61181140318513 104230.503341984 6997.6773768924177 13349.623447921127 14974.434901673347 52793.871717713773 10950.667655616999 9990.7108231559396 17807.418659947813 990.7071793936193
leaf_count=12603 1899453 102476 219551 268526 976546 182580 174991 325827 15288
internal_value=0 -0.123488 -0.15525 0.0286023 -0.00379314 -0.217708 -0.0252725 0.0105362 -0.197929
internal_weight=0 42975 35977.3 189806 85575.7 24300.3 11677 70601.3 1686.32
internal_count=4177841 707489 605013 3470352 1570899 402131 202882 1302373 27891
shrinkage=0.1


Tree=2
num_leaves=10
num_cat=0
split_feature=5 4 7 4 1 5 3 6 4
split_gain=60521.6 15066.9 17608.5 14405.6 10663.6 8031.2 5733.53 5068.3 4681.67
threshold=45.488169128865643 0.0047949123600307493 5.5000000000000009 0.0092926692839555482 1.4408541211166896 28.968817920687545 0.056664489413253395 50.52720009727728 0.006625178000984098
decision_type=2 2 10 2 2 2 2 2 2
left_child=1 -1 5 4 8 -3 -5 -7 -2
right_child=3 2 -4 6 -6 7 -8 -9 -10
leaf_value=0.03514260975811849 0.067761667897832376 -0.19678301073104273 0.037569275547544217 -0.089517784161025404 -0.024351466085110664 -0.065458191998538792 -0.0030022311222993453 -0.17351261840550691 0.02802098792081429
leaf_weight=7334.160332351923 77045.248355276883 16932.705881081522 6065.7139345742762 10893.296702068299 21115.244994845241 12693.663517069072 25808.33765456453 6596.7824427559972 48181.670786194503
leaf_count=125040 1463797 230692 91085 196013 378902 206399 460362 97139 928412
internal_value=0 -0.0971721 -0.120119 0.0273377 0.0413867 -0.146525 -0.0286806 -0.10241 0.0524712
internal_weight=0 49623 42288.9 183044 146342 36223.2 36701.6 19290.4 125227
internal_count=4177841 750355 625315 3427486 2771111 534230 656375 303538 2392209
shrinkage=0.1


Tree=3
num_leaves=10
num_cat=0
split_feature=5 6 4 7 5 1 4 0 5
split_gain=46390 12058.6 11514.9 12892.4 5084.39 3842.85 3801.32 3734.27 3502.82
threshold=47.033735173662159 29.416697717911024 0.0056433710022956865 5.5000000000000009 68.819204061889124 1.4184704646668795 0.010649344126897413 -0.52868992071598753 34.84613052427698
decision_type=2 2 2 10 2 2 2 2 2
left_child=2 7 -1 8 6 -6 -3 -2 -4
right_child=1 4 3 -5 5 -7 -8 -9 -10
leaf_value=0.01199075548087547 -0.02270288522386343 -0.019369141186825867 -0.14681697009237621 0.036085850225639399 0.027880305810510004 -0.026794643749151265 -0.11862587795516755 0.056458570533297919 -0.085814201749718544
leaf_weight=11318.997830767184 6400.6644458062947 14581.645272411406 22991.838753022254 5960.5231734216213 45384.413195692003 17935.308991260827 5246.8345517404377 86371.308980382979 15937.587508425117
leaf_count=193840 116619 256721 278479 92013 873397 312963 87343 1724340 242126
internal_value=0 0.0262108 -0.078145 -0.100873 -0.00144421 0.0123936 -0.0456336 0.0509969 -0.121843
internal_weight=0 175920 56208.9 44889.9 83148.2 63319.7 19828.5 92772 38929.4
internal_count=4177841 3371383 806458 612618 1530424 1186360 344064 1840959 520605
shrinkage=0.1


Tree=4
num_leaves=10
num_cat=0
split_feature=5 6 4 7 5 4 4 2 1
split_gain=36338.7 10126.2 9615.86 8468.56 4449.03 4361.5 4081.58 3291.98 3231.74
threshold=48.563733702168328 27.977630518023478 0.0047503238436400683 5.5000000000000009 30.338355956490066 0.0074084434132544062 0.010585292667782404 0.097103509045932984 1.3979356672780818
decision_type=2 2 2 10 2 2 2 2 2
left_child=2 7 -1 4 -4 -6 8 -2 -3
right_child=1 6 3 -5 5 -7 -8 -9 -10
leaf_value=0.038017666750014695 0.028702102903902346 0.024630803953076805 -0.12579344448619065 0.03148467014262659 -0.01091839364379486 -0.096390756433486324 -0.04401138263869344 0.068282819227812416 -0.024509422533021907
leaf_weight=8014.571327816695 39762.911231696606 49904.547975413501 22548.777910944074 6120.5872171148658 9451.2809481173754 16208.878218088299 16473.234034158289 44562.575497925282 18287.589596409351
leaf_count=144168 818776 968448 247474 97142 158031 217357 284328 928619 313498
internal_value=0 0.0250907 -0.0642349 -0.079319 -0.0933866 -0.0649091 0.000660968 0.0496189 0.0114525
internal_weight=0 168991 62344.1 54329.5 48208.9 25660.2 84665.4 84325.5 68192.1
internal_count=4177841 3313669 864172 720004 622862 375388 1566274 1747395 1281946
shrinkage=0.1


Tree=5
num_leaves=10
num_cat=0
split_feature=5 6 4 7 5 3 1 0 0
split_gain=28880.4 8277.34 8251.33 7608 3844.78 3598.94 3123.2 2963.1 2953.64
threshold=50.803418783869851 27.977630518023478 0.0065991487737660963 5.5000000000000009 26.377897654826473 0.051071334901387169 1.4408541211166896 0.79127144834478436 0.82226131332541896
decision_type=2 2 2 10 2 2 2 2 2
left_child=2 6 4 8 -1 7 -2 -3 -4
right_child=1 5 3 -5 -6 -7 -8 -9 -10
leaf_value=-0.099320618912079883 0.053714830322228194 -0.073478395554621198 -0.095330020235975602 0.033969106900859115 0.0251073324332825 0.010758952713678504 -0.017652928309801873 0.05285460685479082 -0.0063018371115083974
leaf_weight=2965.3038193359971 71607.257110860199 9519.1185143068433 41236.57370338589 5841.4208799824119 15278.662317220122 70770.890226656571 6706.169047318399 2306.410935074091 4096.7331844829023
leaf_count=42143 1569344 175464 493705 94360 277188 1320304 123792 37880 43661
internal_value=0 0.0243109 -0.0528587 -0.0734439 0.00488329 0.00222619 0.0476034 -0.0488388 -0.0872846
internal_weight=0 160910 69418.7 51174.7 18244 82596.4 78313.4 11825.5 45333.3
internal_count=4177841 3226784 951057 631726 319331 1533648 1693136 213344 537366
shrinkage=0.1


Tree=6
num_leaves=10
num_cat=0
split_feature=5 4 6 7 0 5 6 4 0
split_gain=23136.5 8030.52 6765.41 5263.59 3122.9 3115.61 2800.86 3052.93 2434.87
threshold=53.873828407649128 0.0057271940953408538 37.163144334396186 5.5000000000000009 0.35452356876695423 22.323452486630121 51.318202545353508 0.014542713377551886 0.90988481848021074
decision_type=2 2 2 10 2 2 2 2 2
left_child=1 5 4 6 -2 -1 -3 8 -8
right_child=2 3 -4 -5 -6 -7 7 -9 -10
leaf_value=-0.099480021332121804 0.025508772410407072 -0.043864931269767669 -0.00080259867735150395 0.028124536181750495 0.063706604782072435 0.038930568948127048 -0.10866157831455919 -0.0086855030532444356 0.01343979144274416
leaf_weight=1851.5546150878072 49497.857186513022 25494.463369904086 63915.683515843004 6266.3566223755479 37709.075738705695 13368.927808886394 25320.996327348053 4151.0484393835068 1745.7872180230916
leaf_count=24459 1069751 367905 1173931 103756 854882 256578 267758 40546 18275
internal_value=0 -0.0430928 0.023912 -0.0588467 0.0420259 0.0220931 -0.0684565 -0.0885395 -0.100786
internal_weight=0 78199.1 151123 62978.7 87206.9 15220.5 56712.3 31217.8 27066.8
internal_count=4177841 1079277 3098564 798240 1924633 281037 694484 326579 286033
shrinkage=0.1


Tree=7
num_leaves=10
num_cat=0
split_feature=5 4 1 3 4 7 0 3 3
split_gain=18657.2 9075.92 8068.58 5700.29 3756.76 3804.4 3267.74 3055.31 1850.96
threshold=42.988903518286925 0.0074893643223464699 1.3979356672780818 0.055450209575043811 0.0046184181653864701 5.5000000000000009 0.72389267286025061 0.041759767617788206 0.034958443478931074
decision_type=2 2 2 2 2 10 2 2 2
left_child=4 2 8 6 -1 -6 7 -3 -2
right_child=1 3 -4 -5 5 -7 -8 -9 -10
leaf_value=0.030706810136041471 -0.061875341451678847 -0.14260382989075879 -0.020792513229709333 0.0094496749804473396 -0.066145106090943151 0.02601334259429941 0.028840671928881123 -0.046424908627791431 0.053693082656891905
leaf_weight=5373.7786051481962 1411.1916859019548 4309.9464208576828 19133.480730298907 51378.958470771089 46114.91337981075 4961.2638721205294 4199.5005531478673 14135.643887454644 77202.19815803878
leaf_count=98438 31791 74608 332255 972290 480369 86172 68647 255848 1777423
internal_value=0 0.0174409 0.0374444 -0.00897316 -0.0488256 -0.0571933 -0.0507723 -0.0688978 0.0516185
internal_weight=0 171771 97746.9 74024 56450 51076.2 22645.1 18445.6 78613.4
internal_count=4177841 3512862 2141469 1371393 664979 566541 399103 330456 1809214
shrinkage=0.1


Tree=8
num_leaves=10
num_cat=0
split_feature=5 4 1 4 7 3 5 0 0
split_gain=15681.7 5833.14 5479.28 6091.99 3821.3 3019.07 2899.85 2148.28 2024.36
threshold=55.446368308070646 0.0068033556273281448 1.3979356672780818 0.0066805729416879482 5.5000000000000009 0.048042891057192012 28.070528034210586 0.8111676492259845 0.68802112923003744
decision_type=2 2 2 2 10 2 2 2 2
left_child=1 6 3 -2 7 8 -1 -3 -5
right_child=2 4 -4 5 -6 -7 -8 -9 -10
leaf_value=-0.066464592658617747 0.055859569835142932 -0.063224615051317531 -0.018064820791380217 -0.073073113724824321 0.028027711986927457 0.018750256893264986 0.026340126811545725 0.0051736830560637813 0.034264271183819348
leaf_weight=4092.1272788643837 53107.03982100077 50874.400607420132 28287.778318196535 6528.1288301255554 5829.550765812397 51994.59157400392 18999.199448749423 5047.594741281122 2404.128264695406
leaf_count=53759 1296301 566400 482666 126538 99701 1077644 375068 53946 45818
internal_value=0 -0.0329851 0.0213304 0.031103 -0.0490192 0.00952383 0.00989375 -0.0570509 -0.0441831
internal_weight=0 84842.9 142322 114034 61751.5 60926.8 23091.3 55922 8932.26
internal_count=4177841 1148874 3028967 2546301 720047 1250000 428827 620346 172356
shrinkage=0.1


Tree=9
num_leaves=10
num_cat=0
split_feature=4 5 1 7 4 5 3 0 1
split_gain=13464.5 5434.28 4597.41 4519.64 4479.03 4247.67 4053.94 3231.81 2362.09
threshold=0.0090941178124838064 34.84613052427698 1.4926958033533604 5.5000000000000009 0.0057271940953408538 72.827917246317881 0.042432170132318557 0.8111676492259845 1.1084099408550208
decision_type=2 2 2 10 2 2 2 2 2
left_child=1 -1 4 5 -3 7 -6 8 -2
right_child=3 2 -4 -5 6 -7 -8 -9 -10
leaf_value=-0.043848446528025768 -0.082447440662380869 0.055058216534916431 -0.017158494871418135 0.034880344897438124 -0.06063854296475462 -0.0023899100851706104 0.023629431475705367 0.017294592067227953 -0.0344975266411107
leaf_weight=12585.98240756616 28539.055127253756 50668.412725728005 21790.698419906199 8928.412308383733 6366.804369777441 20560.794654186815 55247.21288413927 5316.9396795779467 16051.950550915673
leaf_count=161795 331386 1238958 361104 143007 117349 392522 1208683 60508 162529
internal_value=0 0.0189782 0.024876 -0.0321483 0.0330337 -0.0406408 0.0149217 -0.0563992 -0.0651863
internal_weight=0 146659 134073 79397.2 112282 70468.7 61614 49907.9 44591
internal_count=4177841 3087889 2926094 1089952 2564990 946945 1326032 554423 493915
shrinkage=0.1


end of trees

feature_importances:
eval_data.small_cone_angle=23
eval_data.close_opp_dir_change=22
pos_score_data.posx=10
pos_score_data.dnet=10
eval_data.timestep=10
pos_score_data.dopp=7
eval_data.angle_diff=7
pos_score_data.view=1

parameters:
[boosting: gbdt]
[objective: binary]
[metric: binary_logloss]
[tree_learner: serial]
[device_type: cpu]
[data: ]
[valid: ]
[num_iterations: 10]
[learning_rate: 0.1]
[num_leaves: 10]
[num_threads: -1]
[force_col_wise: 0]
[force_row_wise: 0]
[histogram_pool_size: -1]
[max_depth: -1]
[min_data_in_leaf: 20]
[min_sum_hessian_in_leaf: 0.001]
[bagging_fraction: 1]
[pos_bagging_fraction: 1]
[neg_bagging_fraction: 1]
[bagging_freq: 0]
[bagging_seed: 3]
[feature_fraction: 1]
[feature_fraction_bynode: 1]
[feature_fraction_seed: 2]
[extra_trees: 0]
[extra_seed: 6]
[early_stopping_round: 0]
[first_metric_only: 0]
[max_delta_step: 0]
[lambda_l1: 0]
[lambda_l2: 0]
[min_gain_to_split: 0]
[drop_rate: 0.1]
[max_drop: 50]
[skip_drop: 0.5]
[xgboost_dart_mode: 0]
[uniform_drop: 0]
[drop_seed: 4]
[top_rate: 0.2]
[other_rate: 0.1]
[min_data_per_group: 100]
[max_cat_threshold: 32]
[cat_l2: 10]
[cat_smooth: 10]
[max_cat_to_onehot: 4]
[top_k: 20]
[monotone_constraints: ]
[monotone_constraints_method: basic]
[monotone_penalty: 0]
[feature_contri: ]
[forcedsplits_filename: ]
[refit_decay_rate: 0.9]
[cegb_tradeoff: 1]
[cegb_penalty_split: 0]
[cegb_penalty_feature_lazy: ]
[cegb_penalty_feature_coupled: ]
[path_smooth: 0]
[interaction_constraints: ]
[verbosity: -1]
[saved_feature_importance_type: 0]
[max_bin: 255]
[max_bin_by_feature: ]
[min_data_in_bin: 3]
[bin_construct_sample_cnt: 200000]
[data_random_seed: 1]
[is_enable_sparse: 1]
[enable_bundle: 1]
[use_missing: 1]
[zero_as_missing: 0]
[feature_pre_filter: 1]
[pre_partition: 0]
[two_round: 0]
[header: 0]
[label_column: ]
[weight_column: ]
[group_column: ]
[ignore_column: ]
[categorical_feature: ]
[forcedbins_filename: ]
[objective_seed: 5]
[num_class: 1]
[is_unbalance: 0]
[scale_pos_weight: 1]
[sigmoid: 1]
[boost_from_average: 1]
[reg_sqrt: 0]
[alpha: 0.9]
[fair_c: 1]
[poisson_max_delta_step: 0.7]
[tweedie_variance_power: 1.5]
[lambdarank_truncation_level: 20]
[lambdarank_norm: 1]
[label_gain: ]
[eval_at: ]
[multi_error_top_k: 1]
[auc_mu_weights: ]
[num_machines: 1]
[local_listen_port: 12400]
[time_out: 120]
[machine_list_filename: ]
[machines: ]
[gpu_platform_id: -1]
[gpu_device_id: -1]
[gpu_use_dp: 0]

end of parameters

pandas_categorical:[]
