tree
version=v3
num_class=1
num_tree_per_iteration=1
label_index=0
max_feature_idx=6
objective=binary sigmoid:1
feature_names=pos_score_data.posx.val pos_score_data.dnet.val pos_score_data.view.val pos_score_data.dopp.val eval_data.close_opp_dir_change eval_data.small_cone_angle eval_data.angle_diff
feature_infos=[-0.95998186224096571:0.95998504129266304] [0.04171375979743535:1.9913877909766706] [0:1] [0.00068596704457262164:0.10000000000000001] [0:0.018095887609239355] [0.00026050496296647907:200] [0:180]
tree_sizes=1191 1210 1207 1210 1213 1224 1218 1214 1221 1216 1217 1226 1220 1215 1227 1212 1220 1222 1221 1221 1226 1232 1221 1215 1227 1215 1212 1230 1210 1230

Tree=0
num_leaves=10
num_cat=0
split_feature=5 4 5 4 4 4 5 5 6
split_gain=123073 27624.1 25487.4 17139.3 11631.3 7454.72 3976.45 3238.42 2679.51
threshold=27.049942971412381 0.0055907895392727763 48.283980490627634 0.0067042566064414348 0.009085908379757146 0.012652640259297599 16.0082463518678 40.621306328055205 12.172099667158919
decision_type=2 2 2 2 2 2 2 2 2
left_child=1 -1 3 -2 8 6 -3 -5 -4
right_child=2 5 4 7 -6 -7 -8 -9 -10
leaf_value=-2.437970136582762 -2.5202775620346212 -1.9319644113607999 -2.5860389885146109 -2.2727704978574672 -2.4844695276188662 -2.2754809803619978 -2.1021451138406864 -2.3954321154801859 -2.552884076722961
leaf_weight=2664.7265139967203 9469.5671942085028 3065.818927064538 45448.610692843795 4943.3391697704792 19938.259472697973 1284.7578037530184 2486.6481397300959 3812.2502434998751 52572.577805444598
leaf_count=38427 136557 44211 655397 71286 287522 18527 35859 54975 758129
internal_value=-2.51281 -2.16485 -2.53709 -2.42703 -2.55409 -2.05841 -2.00818 -2.32618 -2.56826
internal_weight=0 9501.95 136185 18225.2 117959 6837.22 5552.47 8755.59 98021.2
internal_count=2100890 137024 1963866 262818 1701048 98597 80070 126261 1413526
shrinkage=1


Tree=1
num_leaves=10
num_cat=0
split_feature=5 4 4 5 5 6 4 5 4
split_gain=79986.4 22198.5 12463.8 6844.4 5170.26 2725.65 2337.82 2008.29 2649.47
threshold=41.775463360973838 0.0059046755659981302 0.0074080817346892707 29.180588289517235 62.208384188941771 64.610195504055397 0.011540903835062285 24.286027204104361 0.0044709696875352865
decision_type=2 2 2 2 2 2 2 2 2
left_child=1 7 -2 6 -4 -6 -3 8 -1
right_child=2 3 4 -5 5 -7 -8 -9 -10
leaf_value=0.0094440937046808074 -0.058556523295749834 0.30462194566928236 0.073829886465785463 0.14746840885416668 -0.026307825786691455 0.039632499230034479 0.20094412622057145 -0.014032610192178302 0.22105849077979098
leaf_weight=1462.2024582177401 77833.356675408781 7362.4464941248298 9458.3039312809706 7235.9990790635347 25174.424325317144 8346.9916342198849 3086.7397447675467 5389.5712531283498 993.7655903249979
leaf_count=19794 1175654 72366 133209 89822 369434 117510 33408 77212 12481
internal_value=0 0.160119 -0.0346884 0.222226 0.00853503 -0.00988837 0.273995 0.020121 0.0950703
internal_weight=0 25530.7 120813 17685.2 42979.7 33521.4 10449.2 7845.54 2455.97
internal_count=2100890 305083 1795807 195596 620153 486944 105774 109487 32275
shrinkage=0.1


Tree=2
num_leaves=10
num_cat=0
split_feature=5 4 4 5 3 0 6 2 6
split_gain=58055.2 13409.9 10752.3 3891.59 3742.17 2979.55 2111.16 1678.41 1644.79
threshold=42.359647131513846 0.0057091325500161381 0.0077363210723345064 32.458370806981655 0.053226620013502431 0.78248514782174505 0.70938792403376294 0.1052016257140002 47.856853824705063
decision_type=2 2 2 2 2 2 2 2 2
left_child=1 -1 6 7 5 -4 -2 -3 -6
right_child=2 3 4 -5 8 -7 -8 -9 -10
leaf_value=0.010379232000094458 -0.087824597995092901 0.16589985818567371 0.084919583833058476 0.10297041599819251 -0.030492831276843144 -0.043417804168035028 -0.046064171776992291 0.23460541347232713 0.018776060692103646
leaf_weight=7635.637515373528 14991.047789029777 8881.053469017148 8952.8349841162562 7010.4321373403072 15879.23077634722 2267.126638866961 62897.059417776763 5929.5429195985198 11819.285896271467
leaf_count=105716 241202 77402 126375 78933 235035 31511 992279 50086 162351
internal_value=0 0.12444 -0.0326551 0.164352 0.0102664 0.0589875 -0.0541018 0.193407 -0.00946921
internal_weight=0 29456.7 116807 21821 38918.5 11220 77888.1 14810.6 27698.5
internal_count=2100890 312137 1788753 206421 555272 157886 1233481 127488 397386
shrinkage=0.1


Tree=3
num_leaves=10
num_cat=0
split_feature=5 4 4 5 4 5 6 0 5
split_gain=44161.8 9706.96 8825.78 3293.18 2420.21 2288.52 2081.33 2070.19 1665.22
threshold=44.390712666923925 0.0066566921499793472 0.0067612813319271282 65.708351697239209 0.0047066194067230472 20.625378799954607 55.482672221710054 0.90032863558749654 26.178361297929374
decision_type=2 2 2 2 2 2 2 2 2
left_child=1 4 -2 -4 -1 -6 -5 8 -3
right_child=2 7 3 6 5 -7 -8 -9 -10
leaf_value=-0.021260016071426063 -0.057081706452992167 0.17473354485831163 0.04265471171461125 -0.030492865746032789 0.1806780711942827 0.037263990299204415 0.022540110283270864 0.042216238492900696 0.11690473959687507
leaf_weight=5658.3333088606596 61529.591799095273 10574.433644920588 13057.767063688487 26668.240192502737 1412.4148431420326 5243.2499021813273 10242.521136790514 2060.0396645590663 9411.1966255828738
leaf_count=79445 1028070 74941 181385 412368 11039 65650 137639 17742 92611
internal_value=0 0.0979395 -0.0317276 -0.000507284 0.0268216 0.0676982 -0.0157765 0.137664 0.147502
internal_weight=0 34359.7 111498 49968.5 12314 6655.66 36910.8 22045.7 19985.6
internal_count=2100890 341428 1759462 731392 156134 76689 550007 185294 167552
shrinkage=0.1


Tree=4
num_leaves=10
num_cat=0
split_feature=5 4 4 5 6 3 5 2 6
split_gain=34306.8 8599.74 6566.88 2713.93 2228.05 1963.47 1838.39 1547.34 1544.15
threshold=50.610001155139464 0.0057611426659386301 0.0089245853614392627 33.958303750163971 1.0938941959475843 0.060616652657328227 25.263692998179639 0.16244749712384368 76.106091563175198
decision_type=2 2 2 2 2 2 2 2 2
left_child=1 6 4 -3 -2 8 7 -1 -4
right_child=2 3 5 -5 -6 -7 -8 -9 -10
leaf_value=0.044220558705318769 -0.082413526827449748 0.12245167121111898 0.024599151644866479 0.063808766317516752 -0.03863747631268305 -0.010141795102609607 -0.030534722768128165 0.34416884319289742 0.11533584565929891
leaf_weight=2644.0394449979067 14144.277882184833 19442.916258946061 6754.151194345206 13283.069419965148 65316.930085346103 13154.369444787502 7706.9131781645119 183.95079515129328 2596.5412595868111
leaf_count=32033 256510 135501 92492 148740 1100121 182662 117757 2145 32929
internal_value=0 0.0733525 -0.0329241 0.0986492 -0.0464297 0.0147616 -0.00522999 0.0637311 0.0497953
internal_weight=0 43260.9 101966 32726 79461.2 22505.1 10534.9 2827.99 9350.69
internal_count=2100890 436176 1664714 284241 1356631 308083 151935 34178 125421
shrinkage=0.1


Tree=5
num_leaves=10
num_cat=0
split_feature=5 4 6 5 0 3 4 0 0
split_gain=27045.3 6436.99 6071.82 3039.87 1786.01 1764.58 1708.16 1648.29 1360.35
threshold=50.610001155139464 0.0047433708249839642 26.525084022792175 21.960828091019994 0.36081105063189783 0.050871251895257541 0.0075900274859651883 0.75364883404676852 0.88993518601651289
decision_type=2 2 2 2 2 2 2 2 2
left_child=1 -1 4 -3 -2 7 -5 -4 -8
right_child=2 3 5 6 -6 -7 8 -9 -10
leaf_value=-0.026167570730037455 -0.037674750100993637 0.11706082680342139 0.064037271812088667 0.028265544419691441 -0.074429474253020184 -0.012561301788670532 0.092240954499413941 -0.044572682428962299 -0.0033467907033430376
leaf_weight=6925.0240776874125 31562.234588451684 13378.857084944844 6151.2312413491309 10900.009195163846 22750.596289262176 36811.395844914019 12528.764849461615 1808.0330623984337 1689.6138889566064
leaf_count=102999 562297 80822 82165 127004 416884 577103 109942 26265 15409
internal_value=0 0.0625912 -0.0305954 0.0785574 -0.0530706 -0.00332986 0.0580493 0.0393653 0.080882
internal_weight=0 45422.3 99083.5 38497.2 54312.8 44770.7 25118.4 7959.26 14218.4
internal_count=2100890 436176 1664714 333177 979181 685533 252355 108430 125351
shrinkage=0.1


Tree=6
num_leaves=10
num_cat=0
split_feature=5 4 6 0 5 5 5 0 4
split_gain=21735.8 5372.1 5147.65 1690.73 1644.43 1502.84 1357.16 1294.39 1024.7
threshold=53.827560896439834 0.0061019244014535699 28.262987506686574 0.36954623388578217 26.178361297929374 35.37106124105663 86.189481540731506 0.78248514782174505 0.013186013322541166
decision_type=2 2 2 2 2 2 2 2 2
left_child=1 4 3 -2 -1 8 7 -4 -3
right_child=2 5 6 -5 -6 -7 -8 -9 -10
leaf_value=0.053441567776438305 -0.036183078711911579 0.094773575359275747 0.032360585671834786 -0.073019667029364729 -0.025392223301147401 0.046289317741569642 -0.017371922585296486 -0.050049845853585073 0.026204623624854092
leaf_weight=3670.9159484133124 31349.918640073389 19985.622825041413 12954.69689701125 20678.531811483204 9477.2609494067729 14856.080707047135 26054.911260873079 2234.6732782199979 2446.170540034771
leaf_count=39774 576100 122021 181595 403248 149548 159547 418769 33366 16922
internal_value=0 0.0515786 -0.0299072 -0.0508237 -0.00338216 0.0709584 -0.00352164 0.0202363 0.0872962
internal_weight=0 50436.1 93272.7 52028.5 13148.2 37287.9 41244.3 15189.4 22431.8
internal_count=2100890 487812 1613078 979348 189322 298490 633730 214961 138943
shrinkage=0.1


Tree=7
num_leaves=10
num_cat=0
split_feature=5 4 6 5 0 3 6 3 2
split_gain=17490.8 4609.8 4458.03 2240.03 1752.6 1556.32 1394.05 1093.89 917.038
threshold=56.065314836977073 0.0047066194067230472 37.812140063863048 33.212041025157951 0.39188474134988199 0.065691324782014421 73.086344536449516 0.023327090057284412 0.10067823773502298
decision_type=2 2 2 2 2 2 2 2 2
left_child=1 7 4 8 -2 -4 -5 -1 -3
right_child=2 3 5 6 -6 -7 -8 -9 -10
leaf_value=0.11696912227386103 -0.03219952201844891 0.058579307972760258 0.03100684303395055 0.022965250725705516 -0.068637216508298127 -0.015443069216243374 0.099372273952027343 -0.038585187306462571 0.097571818032645363
leaf_weight=482.66968553513288 37645.416012942791 13384.846329525113 11625.928132630885 19575.926240839064 20328.304490823299 19004.119685988873 2719.6251970380545 7132.0903173573315 10978.758764982224
leaf_count=6519 698312 85131 157390 230056 413047 307334 24039 114134 64928
internal_value=0 0.0434164 -0.0286719 0.0551899 -0.0449763 0.00218744 0.0322854 -0.0287252 0.0761502
internal_weight=0 54273.9 88603.8 46659.2 57973.7 30630 22295.6 7614.76 24363.6
internal_count=2100890 524807 1576083 404154 1111359 464724 254095 120653 150059
shrinkage=0.1


Tree=8
num_leaves=10
num_cat=0
split_feature=5 4 6 5 0 3 0 4 6
split_gain=14177.8 3986.95 3805.48 1520.02 1457.38 1333.72 1316.27 1154.9 1121.18
threshold=58.181627880491511 0.0068256429763346388 25.277815684777213 24.286027204104361 0.85103316311724497 0.062901904788068758 0.33118336296160739 0.010798676745651903 0.63906373513296455
decision_type=2 2 2 2 2 2 2 2 2
left_child=1 3 6 -1 5 -3 -2 -4 -5
right_child=2 4 7 8 -6 -7 -8 -9 -10
leaf_value=0.050525403029418603 -0.03350453580266282 0.073904782034488886 -0.013672108140469567 -0.058344048854632846 0.00071319829087169388 0.025737219996744318 -0.069210502561918172 0.030218957667661007 0.0022916364731465802
leaf_weight=4784.3562712445855 24428.392118621618 25897.32476170361 34634.947303462774 4162.5096785835922 4201.8981010690331 7388.5858876742423 17881.909618005157 7249.9624706730247 11403.901441179216
leaf_count=40768 480367 188512 570629 70972 34404 61926 395069 93345 164898
internal_value=0 0.036863 -0.0274425 0.00122882 0.0562075 0.0632129 -0.0485952 -0.0060749 -0.0139225
internal_weight=0 57838.6 84195.2 20350.8 37487.8 33285.9 42310.3 41884.9 15566.4
internal_count=2100890 561480 1539410 276638 284842 250438 875436 663974 235870
shrinkage=0.1


Tree=9
num_leaves=10
num_cat=0
split_feature=5 4 4 5 6 3 6 3 2
split_gain=11466.5 3448.93 3129.21 1537.41 1331.63 1329.94 952.819 906.079 1082.35
threshold=58.181627880491511 0.0067612813319271282 0.0048833431122659371 34.697584974619964 0.70938792403376294 0.042919344304261767 68.528459776376238 0.021011175263515449 0.11803502549186842
decision_type=2 2 2 2 2 2 2 2 2
left_child=2 4 7 -4 -2 -3 -5 8 -1
right_child=1 5 3 6 -6 -7 -8 -9 -10
leaf_value=0.0093042016252219018 -0.080962959929261571 0.05497017848195699 0.057899027847665478 0.014871944964876023 -0.036309535562847738 -0.0096245201217619765 0.07242670749675971 -0.032007724219132436 0.36519125359198068
leaf_weight=265.50947150215507 8258.826057959348 3501.8187265954912 27164.112001791596 20299.190709639341 34900.095869705081 35500.190055303276 3351.2639880776405 7885.7977905869484 126.01498771458864
leaf_count=3426 198828 48485 158828 238287 717539 574558 27893 131710 1336
internal_value=0 -0.0253775 0.0323812 0.0416689 -0.0448543 -0.00382485 0.0230274 -0.0246356 0.123849
internal_weight=0 82160.9 59091.9 50814.6 43158.9 39002 23650.5 8277.32 391.524
internal_count=2100890 1539410 561480 425008 916367 623043 266180 136472 4762
shrinkage=0.1


Tree=10
num_leaves=10
num_cat=0
split_feature=5 6 6 5 0 4 3 2 0
split_gain=9322.22 3061.01 2747.66 1738.86 1488.65 1124.19 957.129 952.53 925.941
threshold=60.211598313101256 38.340386493287248 0.55655143259441797 35.37106124105663 0.42824895208437996 0.0070236974111313457 0.064813021675125052 0.10067823773502298 0.81169547804151698
decision_type=2 2 2 2 2 2 2 2 2
left_child=2 4 -1 7 -2 -5 -3 -4 -7
right_child=1 6 3 5 -6 8 -8 -9 -10
leaf_value=-0.038758538969472373 -0.027714187325019037 0.026530612781029729 0.035211159854108026 -0.011258877836234105 -0.065366560806445706 0.040145642361528261 -0.011725446001772499 0.071322162496880406 -0.029464644979407713
leaf_weight=5653.8086279630661 34817.265632387251 10234.656542863697 16649.362465694547 9707.1667485311627 15034.763274077326 15031.038140073419 18115.705868098885 13014.606391962618 2189.2082205563784
leaf_count=89700 708056 135143 108110 155047 355065 146951 304347 74386 24085
internal_value=0 -0.02415 0.0277126 0.0343534 -0.0390697 0.0159553 0.00208523 0.0510543 0.0312961
internal_weight=0 78202.4 62245.2 56591.4 49852 26927.4 28350.4 29664 17220.2
internal_count=2100890 1502611 598279 508579 1063121 326083 439490 182496 171036
shrinkage=0.1


Tree=11
num_leaves=10
num_cat=0
split_feature=5 6 4 5 0 3 4 4 3
split_gain=7656.92 2583.65 2476.49 1079.39 993.996 1008.4 889.68 836.169 861.076
threshold=64.180123747518095 20.748148289433235 0.0056641034912890279 26.178361297929374 0.83138028543894216 0.063736346290962212 0.0057331227930738386 0.0072505908268333088 0.036350134197766747
decision_type=2 2 2 2 2 2 2 2 2
left_child=2 6 3 -1 5 7 -2 8 -4
right_child=1 -3 4 -5 -6 -7 -8 -9 -10
leaf_value=0.033289800341502855 -0.060311135835565612 -0.0073870147064510191 0.082186661198679761 -0.032543900117374111 -0.0078335475996738242 0.0090607047679640805 -0.026024622981147216 0.053621182065428097 0.007359912982531247
leaf_weight=3341.7291558086872 17605.012844674289 41577.636691886932 1868.4197961650789 9776.6963336057961 5451.083401478827 10092.775818493217 13274.669313140213 27970.372628439218 8693.6687843129039
leaf_count=36142 434833 705406 15641 184997 48636 96538 288612 196083 94002
internal_value=0 -0.0236606 0.0232037 -0.0157737 0.0326593 0.0371987 -0.0455719 0.0445689 0.0205967
internal_weight=0 72457.3 67194.7 13118.4 54076.3 48625.2 30879.7 38532.5 10562.1
internal_count=2100890 1428851 672039 221139 450900 402264 723445 305726 109643
shrinkage=0.1


Tree=12
num_leaves=10
num_cat=0
split_feature=5 4 6 6 3 0 6 3 1
split_gain=6297.35 3675.46 1449.96 1398.13 1341.5 1360.24 1018.69 759.555 736.454
threshold=43.86123146784842 0.0065721885713572745 0.4489768086021258 0.63906373513296455 0.045150087315647555 0.70994222152498587 48.737279533896547 0.036811506018649999 0.90755791961522381
decision_type=2 2 2 2 2 2 2 2 2
left_child=2 3 -1 -2 5 -3 -6 -5 -4
right_child=1 4 8 7 6 -7 -8 -9 -10
leaf_value=-0.030466800317760525 -0.075321086675688764 0.060459403067697461 0.043165118513672648 0.070637532031439201 -0.015917500737274933 -0.037130037973522746 0.016887874442263306 -0.031003180195991589 0.013589296986840874
leaf_weight=3700.2684138603508 7932.3105841167271 6503.9524362795055 29953.259709991515 751.37850745394826 28085.280418686569 1830.1739268600941 14277.729574922472 34211.500050742179 11710.903788033873
leaf_count=52187 220024 78139 195170 14989 492695 26544 182019 752693 86430
internal_value=0 -0.0158743 0.0295241 -0.0374182 0.00235405 0.0390288 -0.00486101 -0.0288188 0.034852
internal_weight=0 93592.3 45364.4 42895.2 50697.1 8334.13 42363 34962.9 41664.2
internal_count=2100890 1767103 333787 987706 779397 104683 674714 767682 281600
shrinkage=0.1


Tree=13
num_leaves=10
num_cat=0
split_feature=5 4 6 3 6 0 3 3 5
split_gain=5293.93 1897.09 1864.44 1253.57 1083.98 988.7 846.699 829.074 764.89
threshold=67.97616563887162 0.0066798662971327477 11.120478367945099 0.027992821758283343 0.55655143259441797 0.83138028543894216 0.057743965427005106 0.041520300247023009 33.212041025157951
decision_type=2 2 2 2 2 2 2 2 2
left_child=1 3 -2 -1 -5 6 -3 -4 -6
right_child=2 5 7 4 8 -7 -8 -9 -10
leaf_value=0.081208011616118361 -0.047443247728892309 0.043256114776209456 0.04988567611039757 -0.055495860280096468 0.028758497152891385 -0.011647683920492672 0.013955773592997224 -0.013556004079521075 -0.016508280221486194
leaf_weight=1523.3085726760328 19516.581705544144 29591.087283592671 2160.5787707567215 4624.9941623434424 5738.4065095670521 5448.2790569663048 14792.68456120044 44200.394464790821 10680.577422449365
leaf_count=18891 506873 212565 29020 91742 47378 48237 133302 819308 193574
internal_value=0 0.0176621 -0.0215146 -0.00639214 -0.0127332 0.0285555 0.0334906 -0.0105994 -0.00068762
internal_weight=0 72399.3 65877.6 22567.3 21044 49832.1 44383.8 46361 16419
internal_count=2100890 745689 1355201 351585 332694 394104 345867 848328 240952
shrinkage=0.1


Tree=14
num_leaves=10
num_cat=0
split_feature=4 5 5 6 0 3 2 3 2
split_gain=4374.35 1893.57 1675.06 1341.98 952.571 769.232 740.007 737.864 737.672
threshold=0.0066566921499793472 78.393910355416182 37.836609313163756 0.63906373513296455 0.83138028543894216 0.035906545142865932 0.10434357424070999 0.062901904788068758 0.13929865602026958
decision_type=2 2 2 2 2 2 2 2 2
left_child=2 4 8 -4 7 -5 -7 -2 -1
right_child=1 -3 3 5 -6 6 -8 -9 -10
leaf_value=0.0016933686591038652 0.034872272867671625 -0.0092625923819296147 -0.06967987652238565 0.062148114978064495 -0.014177935431787848 -0.017595894459134131 -0.050892373638628779 0.0072290004847988271 0.076033054460514282
leaf_weight=9258.6945480778813 38676.600719517097 25250.822109784931 7616.4102124869823 1018.7359583303332 5984.5504632517695 26480.441892076284 8924.3284499421716 12868.847483228892 1559.6745946295559
leaf_count=100423 306356 434418 230804 17148 58057 578710 221143 139946 13885
internal_value=0 0.0135663 -0.0228454 -0.0315061 0.0235863 -0.0235237 -0.0259888 0.0279708 0.0124109
internal_weight=0 82780.8 54858.3 44039.9 57530 36423.5 35404.8 51545.4 10818.4
internal_count=2100890 938777 1162113 1047805 504359 817001 799853 446302 114308
shrinkage=0.1


Tree=15
num_leaves=10
num_cat=0
split_feature=5 6 4 0 5 6 4 0 3
split_gain=3632.23 1537.2 1437.16 1046.1 1035.97 927.155 876.346 673.25 878.169
threshold=69.485918890120345 39.535632538191841 0.0046807078294695782 0.43301614892203366 19.175415923723808 73.086344536449516 0.011364339202309155 0.75364883404676852 0.03765911397758024
decision_type=2 2 2 2 2 2 2 2 2
left_child=2 3 -1 -2 6 7 -4 8 -6
right_child=1 -3 4 -5 5 -7 -8 -9 -10
leaf_value=-0.02479885868967667 -0.02108051354071358 0.0012906200084418359 0.058922096415987869 -0.058226807385126228 0.046071522756094191 0.041185303139867804 0.0078260825693888154 -0.028559417373124514 0.003895462037109033
leaf_weight=8496.9112455993891 28079.37094450742 23643.881675411016 10073.462203167379 10385.18899541907 5855.7528208866715 9034.952955275774 5034.0182816684246 5000.6733881533146 31458.502528563142
leaf_count=167512 646598 383759 45262 295826 51929 61204 24887 63322 360591
internal_value=0 -0.0187754 0.0139265 -0.0311098 0.0188778 0.0121056 0.0418962 0.00589656 0.0105142
internal_weight=0 62108.4 74954.3 38464.6 66457.4 51349.9 15107.5 42314.9 37314.3
internal_count=2100890 1326183 774707 942424 607195 537046 70149 475842 412520
shrinkage=0.1


Tree=16
num_leaves=10
num_cat=0
split_feature=4 5 6 5 3 0 1 1 2
split_gain=3198.46 1538.43 1092.71 1110.61 937.304 715.226 714.837 651.236 633.839
threshold=0.0057611426659386301 80.888629752261593 0.63906373513296455 33.212041025157951 0.025272714869525637 0.79190249249790845 1.4568648651401175 0.90755791961522381 0.099557109925927104
decision_type=2 2 2 2 2 2 2 2 2
left_child=2 5 4 8 -1 7 -5 -2 -4
right_child=1 -3 3 6 -6 -7 -8 -9 -10
leaf_value=0.081616349405645841 0.028376525727642168 -0.011063511244209706 0.006729182515147196 -0.028192405236626479 -0.062546659279314604 -0.012112854034562977 0.022077009055740206 0.0070874980154760313 0.097891687419650597
leaf_weight=475.77157637663186 38825.116668647155 27384.34467955865 2173.8578118607402 24136.771386496723 8660.5937919914722 7549.3583909664303 3204.3234944194555 22811.385026633739 1174.8913785591722
leaf_count=6033 341068 519240 23695 567217 250856 81423 69201 231370 10787
internal_value=0 0.00899849 -0.024681 -0.0156433 -0.0550394 0.0169392 -0.0223009 0.0204976 0.0387131
internal_weight=0 96570.2 39826.2 30689.8 9136.37 69185.9 27341.1 61636.5 3348.75
internal_count=2100890 1173101 927789 670900 256889 653861 636418 572438 34482
shrinkage=0.1


Tree=17
num_leaves=10
num_cat=0
split_feature=4 3 6 3 0 5 4 1 2
split_gain=2749.56 1261.38 1399.1 1129.27 880.015 730.924 714.519 564.807 547.801
threshold=0.0067612813319271282 0.028980575184754036 0.63906373513296455 0.060190309257019722 0.81169547804151698 36.01867279308204 0.010402865854500721 0.86618450457808172 0.10434357424070999
decision_type=2 2 2 2 2 2 2 2 2
left_child=1 -1 -3 4 7 -4 -5 -2 -7
right_child=3 2 5 6 -6 8 -8 -9 -10
leaf_value=0.058231899294329231 0.035167700503408741 -0.057751751089266661 0.01542136248924238 -0.012732780797449404 -0.016244441067116425 -0.012663861374186179 0.020885189809797363 0.0122920798323301 -0.041255606586008908
leaf_weight=2069.5573414582759 24495.569928355515 8784.6020058747381 7075.0870310403407 23749.135217938572 5837.8631993867457 27082.386324780062 8615.8517001606524 19295.215627525002 8904.2131214588881
leaf_count=25246 197620 265402 57724 363718 61606 606541 93023 195853 234157
internal_value=0 -0.0183252 -0.0213812 0.010749 0.0202262 -0.0139616 -0.00378337 0.0250882 -0.0197384
internal_weight=0 53915.8 51846.3 81993.6 49628.6 43061.7 32365 43790.8 35986.6
internal_count=2100890 1189070 1163824 911820 455079 898422 456741 393473 840698
shrinkage=0.1


Tree=18
num_leaves=10
num_cat=0
split_feature=4 3 6 3 0 4 5 5 2
split_gain=2254.15 1060.43 1195.89 922.397 728.264 681.508 539.797 534.379 530.678
threshold=0.0067612813319271282 0.032070878350663523 0.63906373513296455 0.056157039845302979 0.81169547804151698 0.010402865854500721 12.771574404574212 34.697584974619964 0.14486581009758479
decision_type=2 2 2 2 2 2 2 2 2
left_child=1 8 -3 4 -2 6 -5 -4 -1
right_child=3 2 7 5 -6 -7 -8 -9 -10
leaf_value=0.017152724253353107 0.024534114654726949 -0.056272714113002942 0.013093251953743834 0.056452000562144215 -0.015269778012418123 0.019679789095869649 -0.012546863588299793 -0.018502370601129782 0.11496027806847511
leaf_weight=2572.4650319796056 37894.02160281688 7852.8177937157452 6301.8845727108419 1183.2276359498501 5231.1624736636877 10979.635412726551 27156.618552725762 35550.14781963639 707.25012719258666
leaf_count=34867 321590 255301 49257 5098 55013 109837 420282 842069 7576
internal_value=0 -0.0168298 -0.0204638 0.00960595 0.0197058 -0.00147148 -0.00966607 -0.0137448 0.0382443
internal_weight=0 52984.6 49704.9 82444.7 43125.2 39319.5 28339.8 41852 3279.72
internal_count=2100890 1189070 1146627 911820 376603 535217 425380 891326 42443
shrinkage=0.1


Tree=19
num_leaves=10
num_cat=0
split_feature=5 6 5 4 3 0 6 0 0
split_gain=1956.68 975.319 873.284 980.665 679.603 629.436 582.744 770.178 598.124
threshold=74.598247344444289 2.6713438816498472 21.960828091019994 0.0079683237512632125 0.041520300247023009 0.84096436353852078 111.30938070429148 0.86099250402753291 0.62204232786302505
decision_type=2 2 2 2 2 2 2 2 2
left_child=2 -2 -1 -4 -3 -5 8 -8 -6
right_child=1 4 3 5 6 -7 7 -9 -10
leaf_value=0.027600604252309369 -0.049869192222234737 0.050233394844488133 -0.0092586336495144011 0.021357297047163045 -0.012397404766091328 -0.023377928486380053 0.010488160013459208 0.23180038817942228 -0.050198720736594038
leaf_weight=19540.849049948156 7113.7168472614139 1793.0422886572778 30776.116519873962 26711.716711658984 34665.945703061298 3565.0003816448152 5868.2418784014881 161.57578501477838 4760.6190427262336
leaf_count=101565 248429 24665 499983 227947 737669 40067 96825 3175 120565
internal_value=0 -0.0153492 0.009201 0.00331193 -0.0101519 0.0160898 -0.0125339 0.0164185 -0.0169618
internal_weight=0 54363.1 80593.7 61052.8 47249.4 30276.7 45456.4 6029.82 39426.6
internal_count=2100890 1231328 869562 767997 982899 268014 958234 100000 858234
shrinkage=0.1


Tree=20
num_leaves=10
num_cat=0
split_feature=6 5 4 3 4 0 6 2 3
split_gain=1672.56 1430.05 960.758 1045.47 580.531 548.041 1429.05 597.782 545.475
threshold=0.55655143259441797 37.836609313163756 0.0093156375940847674 0.039901135185931282 0.012981540623684557 0.55251034975503621 67.148267636034078 0.091171355225016529 0.026754168240628286
decision_type=2 2 2 2 2 2 2 2 2
left_child=8 4 3 -3 -2 -5 7 -7 -1
right_child=1 2 -4 5 -6 6 -8 -9 -10
leaf_value=0.044759723373840606 0.023502708550577966 0.033573909305963108 0.012340031194205993 -0.010476307113490294 -0.017234424362263006 0.061951426216863503 0.16072143452845208 -0.051644222298968714 -0.048082543326418356
leaf_weight=682.39267470501363 32449.674635492265 4884.5014417171478 24653.800293143839 50131.157894266769 3920.8887435570359 491.01431795023382 350.54020704329014 8193.8483002372086 8711.9031270686537
leaf_count=8077 186675 65784 283884 1029360 21107 10686 7287 213857 274173
internal_value=0 0.00241219 -0.00443466 -0.0108914 0.0191111 -0.0145622 -0.037232 -0.0452219 -0.0413386
internal_weight=0 125075 88704.9 64051.1 36370.6 59166.6 9035.4 8684.86 9394.3
internal_count=2100890 1818640 1610858 1326974 207782 1261190 231830 224543 282250
shrinkage=0.1


Tree=21
num_leaves=10
num_cat=0
split_feature=4 3 1 5 4 0 2 4 5
split_gain=1471.37 765.008 740.144 700.474 905.362 628.697 539.628 538.573 562.437
threshold=0.0056641034912890279 0.055566771644090802 1.5518717765667367 37.836609313163756 0.0041577806601647673 0.85103316311724497 0.057042631056231759 0.010402865854500721 11.185980494274803
decision_type=2 2 2 2 2 2 2 2 2
left_child=2 -2 3 -1 5 6 -5 8 -3
right_child=1 7 -4 4 -6 -7 -8 -9 -10
leaf_value=0.0081017663005674631 0.014126980404852649 0.054422968003112637 0.036912034324855687 -0.041088952531616013 -0.050799362922182859 0.090926849703581225 -0.0023038233811988416 0.015182809325139004 -0.012045787965232412
leaf_weight=6296.6282368078828 51298.794786006212 1321.9536979645491 2286.9872216396034 5855.144983811304 11112.412688402459 556.22654408402741 9261.5230915080756 11639.455198436975 34398.304631633684
leaf_count=82691 486490 5562 49381 136181 371935 11645 249013 112577 595415
internal_value=0 0.00566608 -0.0181067 -0.0219102 -0.0289654 -0.0134846 -0.0173265 -0.00349855 -0.00958588
internal_weight=0 98658.5 35368.9 33081.9 26785.3 15672.9 15116.7 47359.7 35720.3
internal_count=2100890 1200044 900846 851465 768774 396839 385194 713554 600977
shrinkage=0.1


Tree=22
num_leaves=10
num_cat=0
split_feature=6 5 3 6 0 2 3 4 5
split_gain=1331.72 1075.17 537.766 429.654 526.839 598.595 418.418 404.786 404.406
threshold=0.38557780256445545 74.598247344444289 0.041822627440583938 111.30938070429148 0.51960070263594405 0.091490537197885732 0.023327090057284412 0.0047433708249839642 189.99860109262838
decision_type=2 2 2 2 2 2 2 2 2
left_child=6 -2 -3 4 -4 8 -1 -8 -6
right_child=1 2 3 -5 5 -7 7 -9 -10
leaf_value=0.060652392385221604 0.0093170504797761445 0.04021724541104546 -0.010605056688151138 0.01283425209557074 0.012644890353164344 -0.051788006116447773 -0.061756843017627773 -0.0094040499900985858 0.21909651529473667
leaf_weight=382.50471041537821 76473.698708532378 2077.3526376653463 34951.436549676582 6178.8858516402543 500.45412330329418 5787.5922308992594 5127.7189548574388 2074.3319016434252 117.07828076556325
leaf_count=3729 764881 28804 780943 99909 9434 173677 189888 47175 2450
internal_value=0 0.00187923 -0.0095855 -0.0117619 -0.0154367 -0.0418022 -0.0412653 -0.0466782 0.0517862
internal_weight=0 126086 49612.8 47535.4 41356.6 6405.12 7584.56 7202.05 617.532
internal_count=2100890 1860098 1095217 1066413 966504 185561 240792 237063 11884
shrinkage=0.1


Tree=23
num_leaves=10
num_cat=0
split_feature=6 5 6 3 0 2 2 5 1
split_gain=1126.27 919.968 689.727 874.344 774.254 523.56 515.357 730.255 418.09
threshold=0.38557780256445545 37.259984591633248 39.535632538191841 0.041212336341608535 0.58664441346627438 0.1056233505588841 0.057042631056231759 142.62445761394613 0.86618450457808172
decision_type=2 2 2 2 2 2 2 2 2
left_child=-1 5 3 -3 -5 -2 7 -6 -4
right_child=1 2 8 4 6 -7 -8 -9 -10
leaf_value=-0.038724853015469768 0.0056579648560631879 0.025605537505334799 0.019704364986255458 -0.010391251759725653 0.050548376876043292 0.030316182251824073 -0.051330746264379445 0.70245273409011677 -0.0019815602478417764
leaf_weight=7298.5005219765007 22578.419124986976 5763.1032303776592 14790.550848234445 40003.886648867279 141.03846150077879 13919.204832926393 6585.4657576512545 19.567278880625963 22285.638517443091
leaf_count=240792 133636 78660 180688 864640 2782 72814 190617 447 335814
internal_value=0 0.00167914 -0.00377286 -0.0111455 -0.015676 0.0150619 -0.0470144 0.129973 0.00666946
internal_weight=0 126087 89589.3 52513.1 46750 36497.6 6746.07 160.606 37076.2
internal_count=2100890 1860098 1653648 1137146 1058486 206450 193846 3229 516502
shrinkage=0.1


Tree=24
num_leaves=10
num_cat=0
split_feature=4 1 5 4 3 0 1 2 0
split_gain=956.768 576.491 686.467 655.826 522.654 575.998 528.134 509.711 815.227
threshold=0.0057611426659386301 1.4568648651401175 41.197673707270162 0.0041577806601647673 0.066326256581120471 0.76361527498811499 0.91751620839490722 0.057042631056231759 0.19197131013497712
decision_type=2 2 2 2 2 2 2 2 2
left_child=1 2 -1 7 5 6 -2 8 -4
right_child=4 -3 3 -5 -6 -7 -8 -9 -10
leaf_value=0.0083297000218341983 0.019739307014375776 0.023468226723439928 -0.048469553413333269 -0.046005540546445865 -0.0074288180535451208 -0.015566228011407855 0.00099798989239520408 0.00077443903454460408 0.13627136501338893
leaf_weight=7178.1147405914962 38051.104767046869 3576.5230979137123 4661.658890184015 10332.114149447531 26356.211490578949 8386.2796868234873 24860.2479838375 9354.4214089345187 251.76557577587664
leaf_count=97233 353535 77243 114594 379884 432692 98474 288400 254442 4393
internal_value=0 -0.0145951 -0.018879 -0.0268183 0.00460376 0.00905177 0.0123334 -0.0129239 -0.0390034
internal_weight=0 35354.6 31778.1 24600 97653.8 71297.6 62911.4 14267.8 4913.42
internal_count=2100890 927789 850546 753313 1173101 740409 641935 373429 118987
shrinkage=0.1


Tree=25
num_leaves=10
num_cat=0
split_feature=6 3 0 1 5 4 6 3 5
split_gain=893.221 695.325 428.22 468.586 445.071 433.197 387.474 355.512 320.705
threshold=0.3274946497554368 0.063103281376301279 0.77265840326407997 0.92196196384277918 51.05824708297677 0.011364339202309155 89.558826181629016 0.021011175263515449 9.5035677107665908
decision_type=2 2 2 2 2 2 2 2 2
left_child=7 2 3 -2 5 -4 -6 -1 -3
right_child=1 8 4 -5 6 -7 -8 -9 -10
leaf_value=0.08352286456178977 0.016424596722693828 0.045990595641936846 0.031343313354475759 -0.00055649603645162706 -0.050675128640262093 -0.027753942695303874 0.092645859107361478 -0.041375069523769251 -0.0091195303274747494
leaf_weight=236.58825463801622 42372.036508755758 1079.660351280123 2767.4365828838199 26359.289174305275 3167.9110640939325 2247.8645431101322 200.57889684289694 6205.8766880314797 48079.819776304066
leaf_count=2135 456750 5083 21335 330174 66251 15036 2456 221259 980411
internal_value=0 0.0013848 0.00730955 0.00991214 -0.0140268 0.00485585 -0.042141 -0.0367884 -0.00790918
internal_weight=0 126275 77115.1 68731.3 8383.79 5015.3 3368.49 6442.46 49159.5
internal_count=2100890 1877496 892002 786924 105078 36371 68707 223394 985494
shrinkage=0.1


Tree=26
num_leaves=10
num_cat=0
split_feature=6 5 4 3 3 5 1 2 6
split_gain=755.412 576.549 424.349 386.938 361.043 342.958 317.938 327.928 616.296
threshold=0.55655143259441797 80.888629752261593 0.0046807078294695782 0.026754168240628286 0.042919344304261767 2.991055637970462 1.4568648651401175 0.036220576322288853 62.697118806812504
decision_type=2 2 2 2 2 2 2 2 2
left_child=2 -2 3 -1 -3 -4 -6 -8 -9
right_child=1 4 5 -5 6 -7 7 8 -10
leaf_value=0.029268666046893807 0.006429485386856764 0.035607778174123236 0.25686530291636372 -0.05562786579702942 -0.013247035539081648 -0.0022650617970758308 -0.01389875556141747 0.0087443932728369558 0.1142602027611682
leaf_weight=604.34096159040928 81432.426872718148 1827.2236573956907 52.11198516190052 4808.0286993347108 35711.161274907179 2565.5732976878062 2496.8057233393192 2189.4402354247868 740.85394283384085
leaf_count=7100 844082 25610 314 210898 836576 63938 51596 47207 13569
internal_value=0 0.00148441 -0.0301614 -0.0461484 -0.00788798 0.00289362 -0.00981991 0.0127311 0.0354215
internal_weight=0 124398 8030.05 5412.37 42965.5 2617.69 41138.3 5427.1 2930.29
internal_count=2100890 1818640 282250 217998 974558 64252 948948 112372 60776
shrinkage=0.1


Tree=27
num_leaves=10
num_cat=0
split_feature=5 6 6 0 3 4 1 4 4
split_gain=691.66 812.39 556.542 807.072 564.612 491.654 480.061 478.777 377.112
threshold=21.960828091019994 1.0938941959475843 81.261025591111505 0.70994222152498587 0.042919344304261767 0.011364339202309155 0.86618450457808172 0.0047066194067230472 0.0043090619488137492
decision_type=2 2 2 2 2 2 2 2 2
left_child=5 7 3 4 -3 8 -4 -2 -1
right_child=1 2 6 -5 -6 -7 -8 -9 -10
leaf_value=-0.027420140808250188 -0.050276640904998782 0.017906866737506352 0.032462666743904037 -0.032309088938123849 -0.0050726672354055036 -0.0073874461317570365 0.00090856515638614618 -0.0022604009674049392 0.031824272329145163
leaf_weight=1171.9515374153852 5595.0903099905699 12955.38591616042 8285.6166977509856 9300.4051805511117 61206.952199470252 5951.4780821353197 11532.40676285699 3302.2480431143194 12910.867824345827
leaf_count=12972 243262 124601 78634 175298 1124365 28055 170640 82525 60538
internal_value=0 -0.00346142 -0.00096367 -0.00454071 -0.00105838 0.0167102 0.0141009 -0.0324554 0.026894
internal_weight=0 112178 103281 83462.7 74162.3 20034.3 19818 8897.34 14082.8
internal_count=2100890 1999325 1673538 1424264 1248966 101565 249274 325787 73510
shrinkage=0.1


Tree=28
num_leaves=10
num_cat=0
split_feature=4 3 0 6 5 6 6 6 3
split_gain=598.666 588.857 526.32 823.703 466.148 409.466 375.177 383.979 359.513
threshold=0.0067612813319271282 0.032070878350663523 0.3830343253910542 27.55663641330003 41.775463360973838 1.0000000180025095e-35 18.711695646696956 0.48137211718525924 0.099353363893154439
decision_type=2 2 2 2 2 2 2 2 2
left_child=1 6 5 4 -4 8 7 -1 -3
right_child=-2 2 3 -5 -6 -7 -8 -9 -10
leaf_value=0.0099941614721954213 0.0047515896568019363 0.25309598320618143 -0.0062007688295482111 0.040450465195188717 -0.049401247804922881 -0.0052567334878485224 -0.027599890062654175 0.087812068442499447 1.5520761863661781
leaf_weight=1228.6084545254707 83468.616402396932 7.588430427014826 3488.5663835369051 1540.116136258468 8794.1551878117025 31181.390635112301 821.25713867694139 1310.3685017954558 2.9624064713716507
leaf_count=21670 911820 350 35917 31311 358826 720067 7547 13226 156
internal_value=0 -0.00922978 -0.0122442 -0.0284873 -0.0371313 -0.00504598 0.0311521 0.0501561 0.617817
internal_weight=0 48375 45014.8 13822.8 12282.7 31191.9 3360.23 2538.98 10.5508
internal_count=2100890 1189070 1146627 426054 394743 720573 42443 34896 506
shrinkage=0.1


Tree=29
num_leaves=10
num_cat=0
split_feature=5 6 6 0 3 3 4 6 1
split_gain=528.832 643.453 426.552 674.599 434.964 434.787 409.831 408.916 390.1
threshold=21.960828091019994 1.0938941959475843 81.261025591111505 0.72702377589871225 0.06825546852616543 0.043945085688397161 0.0047066194067230472 54.370330875364921 0.44528850371242595
decision_type=2 2 2 2 2 2 2 2 2
left_child=7 6 3 5 -4 -3 -2 -1 -6
right_child=1 2 4 -5 8 -7 -8 -9 -10
leaf_value=0.029159857609009573 -0.046737930617398768 0.01446042922828205 0.026002444676536941 -0.030729903774078818 0.071512308376409081 -0.0047585207191623048 -0.0017099437894743681 0.00062753714794065133 -0.0090944624463695275
leaf_weight=9825.0656274519861 5256.6969290506095 14652.591630615294 10696.557400196791 8490.0573865324259 644.90517645701766 59856.754647655413 3284.2119523687288 10276.917777098715 8698.0029108189046
leaf_count=52514 243262 143323 92077 163229 7445 1117712 82525 49051 149752
internal_value=0 -0.00304712 -0.000860781 -0.00402226 0.0122334 -0.000979029 -0.0294234 0.014573 -0.00353049
internal_weight=0 111580 103039 82999.4 20039.5 74509.3 8540.91 20102 9342.91
internal_count=2100890 1999325 1673538 1424264 249274 1261035 325787 101565 157197
shrinkage=0.1


end of trees

feature_importances:
eval_data.small_cone_angle=62
eval_data.close_opp_dir_change=54
eval_data.angle_diff=50
pos_score_data.dopp.val=41
pos_score_data.posx.val=34
pos_score_data.view.val=17
pos_score_data.dnet.val=12

parameters:
[boosting: gbdt]
[objective: binary]
[metric: binary_logloss]
[tree_learner: serial]
[device_type: cpu]
[data: ]
[valid: ]
[num_iterations: 30]
[learning_rate: 0.1]
[num_leaves: 10]
[num_threads: -1]
[force_col_wise: 0]
[force_row_wise: 0]
[histogram_pool_size: -1]
[max_depth: -1]
[min_data_in_leaf: 20]
[min_sum_hessian_in_leaf: 0.001]
[bagging_fraction: 1]
[pos_bagging_fraction: 1]
[neg_bagging_fraction: 1]
[bagging_freq: 0]
[bagging_seed: 3]
[feature_fraction: 1]
[feature_fraction_bynode: 1]
[feature_fraction_seed: 2]
[extra_trees: 0]
[extra_seed: 6]
[early_stopping_round: 0]
[first_metric_only: 0]
[max_delta_step: 0]
[lambda_l1: 0]
[lambda_l2: 0]
[min_gain_to_split: 0]
[drop_rate: 0.1]
[max_drop: 50]
[skip_drop: 0.5]
[xgboost_dart_mode: 0]
[uniform_drop: 0]
[drop_seed: 4]
[top_rate: 0.2]
[other_rate: 0.1]
[min_data_per_group: 100]
[max_cat_threshold: 32]
[cat_l2: 10]
[cat_smooth: 10]
[max_cat_to_onehot: 4]
[top_k: 20]
[monotone_constraints: ]
[monotone_constraints_method: basic]
[monotone_penalty: 0]
[feature_contri: ]
[forcedsplits_filename: ]
[refit_decay_rate: 0.9]
[cegb_tradeoff: 1]
[cegb_penalty_split: 0]
[cegb_penalty_feature_lazy: ]
[cegb_penalty_feature_coupled: ]
[path_smooth: 0]
[interaction_constraints: ]
[verbosity: -1]
[saved_feature_importance_type: 0]
[max_bin: 255]
[max_bin_by_feature: ]
[min_data_in_bin: 3]
[bin_construct_sample_cnt: 200000]
[data_random_seed: 1]
[is_enable_sparse: 1]
[enable_bundle: 1]
[use_missing: 1]
[zero_as_missing: 0]
[feature_pre_filter: 1]
[pre_partition: 0]
[two_round: 0]
[header: 0]
[label_column: ]
[weight_column: ]
[group_column: ]
[ignore_column: ]
[categorical_feature: ]
[forcedbins_filename: ]
[objective_seed: 5]
[num_class: 1]
[is_unbalance: 0]
[scale_pos_weight: 1]
[sigmoid: 1]
[boost_from_average: 1]
[reg_sqrt: 0]
[alpha: 0.9]
[fair_c: 1]
[poisson_max_delta_step: 0.7]
[tweedie_variance_power: 1.5]
[lambdarank_truncation_level: 20]
[lambdarank_norm: 1]
[label_gain: ]
[eval_at: ]
[multi_error_top_k: 1]
[auc_mu_weights: ]
[num_machines: 1]
[local_listen_port: 12400]
[time_out: 120]
[machine_list_filename: ]
[machines: ]
[gpu_platform_id: -1]
[gpu_device_id: -1]
[gpu_use_dp: 0]

end of parameters

pandas_categorical:[]
