tree
version=v3
num_class=1
num_tree_per_iteration=1
label_index=0
max_feature_idx=6
objective=binary sigmoid:1
feature_names=pos_score_data.posx pos_score_data.dnet pos_score_data.view pos_score_data.dopp eval_data.close_opp_dir_change eval_data.small_cone_angle eval_data.angle_diff
feature_infos=[-0.95999908377416432:0.95999628799036141] [0.044035892884897954:1.9961068109983575] [0:1.8583672254649957] [0.00052395749818804217:0.10000000000000001] [0:0.018295859352258578] [0.006728638099446016:200] [0:180]
tree_sizes=3274 3404 3417 3422 3424 3426 3431 3439 3434 3434 3441 3422 3428 3424 3441 3432 3449 3422 3441 3430 3441 3429 3445 3426 3437 3442 3443 3430 3448 3442 3425 3422 3452 3430 3441 3430 3440 3429 3400 3422 3426 3449 3417 3422 3410 3426 3437 3438 3412 3426 3388 3394 3409 3403 3370 3387 3463 3394 3375 3424 3418 3393 3419 3441 3322 3366 3361 3426 3371 3360 3375 3357 3394 3406 3329 3400 3425 3386 3456 3405 3390 3412 3403 3327 3349 3449 3436 3294 3385 3420 3325 3403 3435 3388 3409 3304 3439 3331 3373 3393 3382 3310 3433 3361 3283 3349 3381 3404 3345 3279 3304 3353 3409 3385 3379 3351 3402 3401 3371 3299 3412 3370 3406 3288 3292 3402 3402 3402 3419 3324 3359 3317 3320 3329 3400 3305 3361 3428 3411 3393 3324 3402 3366 3422 3302 3429 3371 3407 3399 3281 3406 3372 3393 3382 3347 3421 3364 3281 3330 3358 3297 3335 3404 3287 3265 3362 3404 3289 3409 3414 3340 3286 3373 3407 3421 3372 3409 3295 3274 3283 3269 3302 3286 3392 3270 3374 3411 3405 3364 3414

Tree=0
num_leaves=30
num_cat=0
split_feature=5 4 4 5 5 4 0 1 4 4 0 3 3 1 4 5 3 4 5 3 5 1 4 4 2 4 3 0 3
split_gain=183828 46890.2 28267.9 17634.3 14183.8 10221.8 8608.34 7310.48 5802.93 5589.14 5335.46 7336.94 4788.96 4483.29 4135.1 4031.23 3491.2 3114.3 2544.6 2223.99 2174.69 2165.98 3225.44 2132.6 2089.85 1902.05 1537.66 1439.3 1350.87
threshold=41.795851399633257 0.0077688238243680029 0.0093884368569219796 64.822536493936255 19.116394284891189 0.0043732146167357018 0.81947987687294421 1.4556349534150985 0.014746236385446431 0.0066873405596226711 0.79724428129834168 0.062779070133906364 0.042290742109977152 1.3578122742784069 0.0047602258613836665 34.035324308148724 0.05097717814177747 0.010473080784005677 55.245342957367534 0.063362622832456306 25.787815971748589 1.1125183764162765 0.010656388871983837 0.010656388871983837 0.11639820348656792 0.015892663275006141 0.027599859484484044 0.67493791945730386 0.033330814727002604
decision_type=2 2 2 2 2 2 2 2 2 2 2 2 2 2 2 2 2 2 2 2 2 2 2 2 2 2 2 2 2
left_child=1 4 7 10 5 -1 8 9 13 28 11 21 24 15 -6 -3 27 19 -14 -17 -16 22 -4 -13 -11 -10 -22 -5 -2
right_child=2 6 3 16 14 -7 -8 -9 25 12 -12 23 18 -15 20 17 -18 -19 -20 -21 26 -23 -24 -25 -26 -27 -28 -29 -30
leaf_value=2.1368392591320107 2.0907611596126769 1.7697091395397524 1.9524579098042645 2.0346404360908248 2.1833977284038331 1.6234115495752466 2.0599774715182591 2.1363674503637617 1.9442839067280087 2.017330839636712 2.1631552267366683 2.1150093115723534 2.1312976252799918 1.909404347818324 1.8909786400504582 1.8717601780847926 2.1531474238667361 1.780191028514275 2.1885555841468105 2.0526711643964703 1.7845428187544654 1.9954217057774164 1.7793599839919576 1.9917030819341481 2.1476578406853997 2.1662502922043601 2.0922252241225747 2.1767378717612833 2.2111573883625617
leaf_weight=605.10790854692459 941.45778324455023 12153.940715678036 2076.4137775450945 3930.2667457982898 5371.0900199040771 1079.5761246979237 1929.4914568215609 25223.873941227794 1784.2731320858002 2686.7283404991031 1779.7291427850723 3092.6580513641238 9233.4809255227447 4835.5619475245476 631.42517991364002 1668.1174055859447 26288.776767142117 1916.7114869132638 48688.561357967556 1146.5999668836594 166.4236081391573 1720.8466147631407 2235.3587366268039 2566.6912898048759 2269.9119886010885 492.64417335391045 6761.5507459267974 870.74194975197315 92213.257541432977
leaf_count=6392 9945 128387 21934 41517 56737 11404 20382 266450 18848 28381 18800 32669 97537 51080 6670 17621 277699 20247 514317 12112 1758 18178 23613 27113 23978 5204 71425 9198 974086
internal_value=2.13357 1.93751 2.16877 2.09742 2.08075 1.80783 1.85677 2.18632 1.84043 2.19439 2.00185 1.9773 2.17135 1.82451 2.11631 1.8002 2.13883 1.87851 2.17943 1.94546 2.06864 1.90057 1.86272 2.05909 2.07701 1.99231 2.08483 2.06041 2.20994
internal_weight=0 40542.5 225819 44561.5 14615.2 1684.68 25927.3 181257 23997.8 156033 13471.7 11692 62878.7 21720.9 12930.5 16885.4 31089.8 4731.43 57922 2814.72 7559.4 6032.62 4311.77 5659.35 4956.64 2276.92 6927.97 4801.01 93154.7
internal_count=2813682 428267 2385415 470721 154386 17796 273881 1914694 253499 1648244 142307 123507 664213 229447 136590 178367 328414 49980 611854 29733 79853 63725 45547 59782 52359 24052 73183 50715 984031
shrinkage=1


Tree=1
num_leaves=30
num_cat=0
split_feature=5 4 4 5 5 1 4 4 0 3 0 3 3 4 4 1 6 3 5 5 0 2 0 1 1 4 3 3 3
split_gain=128781 26408 22790.8 11329 8432.63 6594.83 5225.77 5106.19 4302.13 3753.26 3354 4053.04 3093.2 2993.58 2763.87 2574.07 2350.32 2151.35 2060.1 1977.29 1579.94 1299.79 1295.83 1281.84 1261.91 1921.76 1003.45 967.151 963.694
threshold=42.535174733847263 0.007653374604534688 0.0094280056408403458 63.240971495667061 21.547336047189535 1.4373684317509021 0.0043044573080168779 0.0067158027514941611 0.84229998034397213 0.042623487902578784 0.7050241629824513 0.068067392256997886 0.055475482470665048 0.00562539819835831 0.015892663275006141 1.0787367961784449 50.027118069137281 0.025881264523349035 57.527417851123296 25.787815971748589 0.49592544389888649 0.09880346473554201 0.68224300033628982 1.9165756691805733 1.3119630227120618 0.011303545416608093 0.041187708539723492 0.063362622832456306 0.041941845322527767
decision_type=2 2 2 2 2 2 2 2 2 2 2 2 2 2 2 2 2 2 2 2 2 2 2 2 2 2 2 2 2
left_child=1 4 5 10 6 7 -1 21 14 20 11 24 22 17 15 16 19 -6 -11 -3 -9 26 28 -17 25 -4 -2 -21 -5
right_child=2 8 3 12 13 -7 -8 9 -10 18 -12 -13 -14 -15 -16 23 -18 -19 -20 27 -22 -23 -24 -25 -26 -27 -28 -29 -30
leaf_value=0.013660189567502638 -0.025678734038310704 -0.30220437045467224 -0.1442890666822253 -0.13551987219677239 -0.29036650705781314 0.0032676105979068375 -0.2974966247754488 -0.088377141462529799 -0.053836884559774471 0.0036577037812334464 0.010164299555483926 -0.048024695886069335 0.020302280489838405 -0.063913372186827508 0.030578606029289843 -0.18701555393216768 -0.25095837044026553 0.040995052939193158 0.052860661295467348 -0.17544485092051845 0.023724179880473234 0.086080776480297355 0.042086541405485178 -0.096705381271977378 -0.088445181315381052 -0.26023768817603649 0.064234545746694308 -0.064736489768127514 -0.047570863123335215
leaf_weight=768.22616698592901 1277.6194037795067 840.097869977355 3304.4381988048553 1683.0352938324213 201.13077268004417 25767.236007429659 1814.8336050137877 3230.4015480279922 1989.1444264575839 10521.966477707028 2035.3282879069448 3952.8592034429312 23776.028272882104 5507.2529350817204 488.10697949677706 10059.472861550748 14714.539189100266 7581.3082299157977 44491.868854314089 1929.9323459565639 2058.3229069113731 42494.678710199893 1215.9791940078139 1862.6832872629166 1391.3973075449467 2519.215897269547 43558.632549680769 1334.9179131537676 4796.6482034400105
leaf_count=8207 13970 6762 30532 16364 1936 273095 13730 31692 19879 111772 21155 39361 254515 55926 5279 86534 120438 81219 490711 17019 21884 476746 13170 16670 13278 21169 489327 12708 48634
internal_value=0 -0.145732 0.033539 -0.0301507 -0.039628 0.049948 -0.204956 0.0580954 -0.196431 0.0357148 -0.107898 -0.129414 0.0024663 -0.00749397 -0.205513 -0.209261 -0.232293 0.0324313 0.0434501 -0.165385 -0.0447483 0.0735494 -0.0526386 -0.172906 -0.174005 -0.194447 0.0616724 -0.130179 -0.0704148
internal_weight=0 49091.6 218076 44674.9 15872.8 173401 2583.06 147633 33218.9 60302.6 13203.2 11167.9 31471.7 13289.7 31229.8 30741.6 18819.5 7782.44 55013.8 4104.95 5288.72 87330.9 7695.66 11922.2 7215.05 5823.65 44836.3 3264.85 6479.68
internal_count=2813682 446307 2367375 458178 161018 1909197 21937 1636102 285289 656059 125495 104340 332683 139081 265410 260131 156927 83155 602483 36489 53576 980043 78168 103204 64979 51701 503297 29727 64998
shrinkage=0.1


Tree=2
num_leaves=30
num_cat=0
split_feature=5 4 4 5 5 1 4 4 3 0 0 3 4 5 4 3 2 2 4 3 3 4 1 5 1 6 3 4 5
split_gain=96324.5 20272 17131.2 6494.42 6391.82 6025.62 4518.71 3437.56 3089.76 2769.84 2536.98 2865.32 2498.61 1861.25 2193.44 1557.96 1554.16 1225.58 1149.99 1365.92 1149.32 1029.75 1349.54 1026.74 913.557 851.803 817.594 803.197 775.619
threshold=45.319686332563556 0.0075691619731844857 0.0096914249141566884 68.976143548390795 22.688484204138408 1.4373684317509021 0.0066311403329871376 1.0000000180025095e-35 0.047590206727909048 0.83075834915493652 0.80813222236451743 0.068855946503472334 0.0050369522312388249 29.944546980219133 0.014304845670690925 0.056024280960228851 0.1137480162639997 0.09880346473554201 0.0092419574422717352 0.052614013505170872 0.032442339323865574 0.010473080784005677 1.535645829249342 59.447173322392466 1.8953212759436726 105.4820445946347 0.036821135716063741 0.015892663275006141 29.944546980219133
decision_type=2 2 2 2 2 2 2 2 2 2 2 2 2 2 2 2 2 2 2 2 2 2 2 2 2 2 2 2 2
left_child=1 4 5 10 7 6 17 -1 16 13 11 21 -6 14 -3 25 26 -2 19 -15 -14 -4 -23 -10 -20 -5 -8 -16 -22
right_child=2 9 3 15 12 -7 8 -9 23 -11 -12 -13 20 18 27 -17 -18 -19 24 -21 28 22 -24 -25 -26 -27 -28 -29 -30
leaf_value=0.024181121342431541 0.059671454838269279 -0.18821191232394449 -0.079945158003091932 -0.012602050759248426 0.047660755731561533 0.0033351536412449868 -0.11704812745776097 -0.21508745216893044 0.0168160515665285 -0.044146042193066511 0.039406725705101425 -0.027546919158452227 -0.17317567578419354 -0.15641143152509229 -0.12509345807499861 0.019437031172396767 0.031501907222693935 0.084712751487801774 -0.15566574513781914 -0.048816476021559835 -0.1002578033019864 -0.17508033012009963 -0.041234517653902431 0.05200779348573923 -0.048048367776633072 -0.092442899122240019 -0.028344863748440436 0.026270757328661576 -0.01192901932348938
leaf_weight=805.48241122812033 40907.612810507417 18795.43744110316 2879.9474803358316 4004.4048026427627 6742.1221799999475 26129.146275661886 1360.5685324370861 2358.9554743468761 10287.215959705412 2392.3382505401969 1579.8048379644752 4208.1804335713387 545.78188665211201 1879.8042364194989 4597.4524801820517 18302.961683012545 4057.3108306974173 37425.775142379105 9693.7754045128822 3168.8930986970663 1145.0652707666159 4686.1751928329468 897.60299610346556 42712.208202853799 858.68004582822323 2005.4710929170251 4397.8876705616713 379.50953289866447 7542.0187471657991
leaf_count=8740 482828 132547 25974 39835 76007 277496 12291 15375 110391 23140 17304 41490 4988 15860 34412 199545 44292 450357 73270 28896 10945 36547 8139 489216 7234 19283 45445 4215 77620
internal_value=0 -0.109565 0.0335956 -0.0264874 -0.0243401 0.0474472 0.0556132 -0.154184 0.0356325 -0.14862 -0.0800869 -0.0949841 0.00138015 -0.154968 -0.172581 0.00493155 -0.0159026 0.0716356 -0.128129 -0.0888778 -0.0324154 -0.128514 -0.153564 0.0451771 -0.146909 -0.0392446 -0.0493031 -0.113551 -0.0235718
internal_weight=0 60905.3 205842 38564.5 19139.4 167278 141149 3164.44 62815.2 41765.9 14251.7 12671.9 15975 39373.6 23772.4 24312.8 9815.77 78333.4 15601.2 5048.7 9232.87 8463.73 5583.78 52999.4 10552.5 6009.88 5758.46 4976.96 8687.08
internal_count=2813682 513249 2300433 388117 193675 1912316 1634820 24115 701635 319574 129454 112150 169560 296434 171174 258663 102028 933185 125260 44756 93553 70660 44686 599607 80504 59118 57736 38627 88565
shrinkage=0.1


Tree=3
num_leaves=30
num_cat=0
split_feature=5 4 4 5 1 5 4 4 3 4 3 0 2 3 4 5 1 3 2 2 4 4 4 3 0 3 3 0 1
split_gain=73904.3 14735.8 13480.8 5867.95 5537.48 4631.57 3257.59 2462.2 2075.59 2072.53 1823.43 1810.45 1761.18 2286.31 1329.34 1364.96 1193.01 1144.08 1055.36 1046.91 971.068 861.086 854.252 1356.58 849.375 835.951 729.418 666.974 651.522
threshold=45.319686332563556 0.0091425507630718637 0.0075412629743583049 67.293350530023702 1.4011524490079945 23.768420933420746 0.0065281936065686389 0.0044389946269179541 0.041187708539723492 0.0053713968424693196 0.055475482470665048 0.86664782569294774 0.10702083925504437 0.060068984503106569 0.015345561559039671 35.479008926921786 1.0787367961784449 0.023557074295062031 0.10377043611251056 0.09880346473554201 0.010420855670241353 0.010587996591739677 0.010526707782039251 0.059372480706910917 0.6678462958585456 0.056384778147787105 0.038951248527400999 0.67493791945730386 1.8186610439459752
decision_type=2 2 2 2 2 2 2 2 2 2 2 2 2 2 2 2 2 2 2 2 2 2 2 2 2 2 2 2 2
left_child=2 4 5 12 6 7 19 -1 24 17 27 14 13 28 15 16 -4 -7 25 26 -15 -12 23 -17 -8 -10 -2 -5 -3
right_child=1 3 11 10 -6 9 8 -9 18 -11 21 -13 -14 20 -16 22 -18 -19 -20 -21 -22 -23 -24 -25 -26 -27 -28 -29 -30
leaf_value=0.00834487406569113 -0.04128441090503622 -0.13279316085054185 -0.1560583716162951 -0.043397517194635346 0.0047204819710829201 -0.24508003677434417 -0.059809221980586968 -0.17275300536070476 0.0038100450993711222 -0.032057252754709595 0.038441345705423902 -0.031064172475744719 -0.007261587743388781 -0.00055027941935539479 -0.028084784584149942 -0.11794458821013759 -0.11495327338819461 0.046275019025058726 0.06089193166886895 0.082386358466420215 -0.078624571411929967 6.6680269435459693e-05 -0.1318429802379377 -0.033402732700154224 0.043540664819696269 0.041074688961275092 0.060022162157257947 0.041323249439745309 -0.029494583371389407
leaf_weight=1046.5013521164656 724.86456647515297 5982.9277003109455 17992.214748337865 6975.511191919446 25907.413484968245 137.30344566702843 2950.0372041612864 2656.5283420905471 8243.2888676226139 8141.0855946838856 14371.776493474841 2154.3100694343448 4265.3218875229359 3278.5639290809631 1372.3686598464847 4191.1274232566357 11621.46463111043 7321.3610339015722 19300.478001318872 33694.180766694248 3098.7667350322008 9858.2783325016499 5312.3976845890284 3469.0226594731212 1088.663901604712 22318.552993930876 36432.977272711694 1072.0573487281799 679.97044162452221
leaf_count=11139 8050 45412 111592 66024 277815 1078 27095 15416 94735 80348 161431 20196 41414 32996 11738 32014 79000 84676 228048 434771 26899 108868 35925 30127 12175 264338 452459 11948 5955
internal_value=0 0.0312279 -0.0911991 -0.016059 0.0467902 -0.0210346 0.0555268 -0.121574 0.037 0.00283113 0.00913044 -0.12057 -0.0630413 -0.0812862 -0.124956 -0.128078 -0.139927 0.0409116 0.0425848 0.0696212 -0.0384868 0.0228282 -0.101029 -0.0796584 -0.0319504 0.0310235 0.0580459 -0.0321114 -0.122251
internal_weight=0 200244 65415.7 49583.2 150660 19302.8 124753 3703.03 53901 15599.8 32277.6 46112.9 17305.6 13040.2 43958.6 42586.2 29613.7 7458.66 49862.3 70852 6377.33 24230.1 12972.5 7660.15 4038.7 30561.8 37157.8 8047.57 6662.9
internal_count=2813682 2300433 513249 500947 1799486 192657 1521671 26555 626391 166102 348271 320592 152676 111262 300396 288658 190592 85754 587121 895280 59895 270299 98066 62141 39270 359073 460509 77972 51367
shrinkage=0.1


Tree=4
num_leaves=30
num_cat=0
split_feature=5 4 4 1 5 5 4 4 4 4 3 0 3 3 0 0 0 4 6 1 2 3 2 2 5 3 4 4 3
split_gain=57872.1 11641 11142.6 5010.11 4072.19 3875.8 2722.27 2067.22 2044.18 1743.12 1628.8 1402.07 1217.92 1210.97 1202.08 1104.06 1125.37 1081.99 1065.18 1034.25 951.032 923.023 878.657 851.447 779.25 794.072 1026.22 696.638 765.113
threshold=47.283295742441261 0.0091425507630718637 0.0078287012083418841 1.4011524490079945 73.078691941726348 25.787815971748589 0.0064232053536231537 1.0000000180025095e-35 0.0056550805999007322 0.011743340342066875 0.047590206727909048 0.81947987687294421 0.063932262567117384 0.047067256330261077 0.71320480175768075 0.80813222236451743 -0.26375592106969986 0.015892663275006141 108.30524021818478 1.9080939286884619 0.09880346473554201 0.027599859484484044 0.11181934819401426 0.10929407441341175 35.479008926921786 0.065686197152792461 0.010879627585102896 0.012954004294661188 0.088592067925856569
decision_type=2 2 2 2 2 2 2 2 2 2 2 2 2 2 2 2 2 2 2 2 2 2 2 2 2 2 2 2 2
left_child=2 3 5 6 9 7 20 -1 21 12 22 17 14 -6 -3 16 -11 19 -18 24 -2 -7 -8 -12 27 -26 -27 -4 -29
right_child=1 4 11 -5 13 8 10 -9 -10 15 23 -13 -14 -15 -16 -17 18 -19 -20 -21 -22 -23 -24 -25 25 26 -28 28 -30
leaf_value=0.027428701578892017 0.056118352900919148 -0.070094290323767697 -0.1355158933654807 0.0047419598481120992 -0.047077070970809834 -0.13790937275744319 -0.030767244732477651 -0.13275741083814885 -0.028253567341817554 -0.024241090371881175 0.034813500638683922 -0.031496121390198119 0.0058460872501670102 0.020020430108113958 0.031592653740895892 0.031563504868943867 -0.17928248882603048 0.036415359041724986 -0.077217025591617222 -0.046680919126096072 0.080660829890923491 0.044485660770053469 0.033300939087432084 0.064346071367279156 -0.10748239345120492 -0.020228567889839098 -0.11357264101111027 -0.10135448924296071 -0.22854555169442625
leaf_weight=1033.3010054081678 34014.879120640457 6744.6489849761128 13585.451054863632 25666.736140161753 3013.8048524558544 286.64496113359928 4897.3517123535275 3656.4350245371461 9347.809541143477 1288.1867395862937 29518.501829318702 2796.0768705680966 6351.2916581779718 25020.46873126179 1404.6330823078752 656.47730055451393 2178.3225435838103 539.90056828409433 1927.0571157932281 2771.3165320381522 29467.402321793139 8650.2568571791053 3802.7433609217405 14586.37748799473 9285.0398782491684 2931.8499638363719 1968.6216790005565 16281.539880782366 487.09596954286098
leaf_count=11737 442385 55380 78303 276273 26967 2256 48137 21504 91144 10900 361216 25439 64465 278843 15057 7322 15145 5624 14610 19921 407414 103858 44405 183457 63495 25594 12887 96878 3066
internal_value=0 0.0302697 -0.0741241 0.0447301 -0.0119802 -0.0163618 0.0535562 -0.0974632 0.00443936 -0.0457942 0.0367802 -0.100326 -0.026982 0.0128072 -0.0525672 -0.0908825 -0.105786 -0.104348 -0.131373 -0.105955 0.0675106 0.0386355 -0.00276354 0.0445805 -0.109643 -0.090294 -0.0577268 -0.118685 -0.105049
internal_weight=0 190539 73621.3 141954 48584.9 22974.4 116287 4689.74 18284.7 20550.6 52805 50646.9 14500.6 28034.3 8149.28 6050.04 5393.57 47850.8 4105.38 47310.9 63482.3 8936.9 8700.1 44104.9 44539.6 14185.5 4900.47 30354.1 16768.6
internal_count=2813682 2251976 561706 1763287 488689 230499 1487014 33241 197258 182879 637215 331207 134902 305810 70437 47977 40655 305768 29755 300144 849799 106114 92542 544673 280223 101976 38481 178247 99944
shrinkage=0.1


Tree=5
num_leaves=30
num_cat=0
split_feature=5 6 4 5 2 5 3 4 4 1 4 4 0 0 3 5 6 4 4 3 1 0 3 3 6 3 5 6 0
split_gain=45879 9681.07 9161.01 4039.51 3387.01 3321.53 2194.06 1846.22 1754.06 1656.46 1453.51 1439.91 1178.44 1097.45 996.891 970.121 951.574 927.85 907.844 821.265 821.014 782.208 742.867 725.167 709.669 735.084 678.071 845.29 662.097
threshold=48.808348975023144 35.633056264018457 0.0075412629743583049 74.119734982087309 0.096719362731663608 27.474965860066266 0.041941845322527767 0.010526707782039251 0.0044389946269179541 1.6183151864180725 0.010587996591739677 0.0056550805999007322 0.71320480175768075 0.92766535317073562 0.057620330705834874 30.754057734729759 0.63312267293267166 0.0060245186103516897 0.014220103327693504 0.070433340478195369 1.15908915306731 0.81947987687294421 0.099999745782883995 0.038475618777483976 51.464119671536075 0.055136654797726468 150.31322140672623 125.00364715998127 -0.91569622894153013
decision_type=2 2 2 2 2 2 2 2 2 2 2 2 2 2 2 2 2 2 2 2 2 2 2 2 2 2 2 2 2
left_child=2 4 5 7 6 8 -2 14 -1 10 -5 -7 19 15 21 18 -8 -6 -4 20 -9 -3 26 -13 25 -17 27 -11 -28
right_child=1 3 13 9 17 11 16 12 -10 22 -12 23 -14 -15 -16 24 -18 -19 -20 -21 -22 -23 -24 -25 -26 -27 28 -29 -30
leaf_value=0.015639510929383309 -0.056137713071943443 -0.053921800828571044 -0.10623077763384503 0.037787182007241724 0.084764857577170394 0.040122629657882068 0.078586486607419251 -0.11586065257692868 -0.11241976877335631 0.0033309500635064272 -0.0057590595243566661 -0.090230902323876136 0.023292342030881714 -0.0010673505353014571 0.013353578778279186 -0.078681461049439225 0.032824582971189092 0.056420494390255649 -0.065705806555491339 -0.025774156722435076 -0.035212975907989649 0.055274654087487898 0.011174419913561121 -0.0055779483394769631 -0.085004193484967752 -0.023930423688070076 -0.036064628483531834 -0.16139083664416073 -0.1387744069864793
leaf_weight=1468.616216301918 2640.5491479188204 5051.2640799060464 24625.226632647216 33402.614526972175 21635.357694491744 8967.357937939465 5041.9637749567628 4756.7246416434646 3936.7792375162244 3796.1427788361907 9947.8646953478456 1163.8164568468928 1382.0366146042943 1575.1893722638488 9048.2921017035842 4657.1018404886127 46004.338988482952 24772.766335755587 7128.1195976883173 2381.0098691433668 1718.3060362115502 753.91171873360872 6802.3338835388422 7754.2619423419237 13802.224065579474 5179.3365276753902 1663.0867935121059 339.38442889600992 1008.039677940309
leaf_count=16403 24767 47101 135390 416684 319518 111644 65984 30915 22859 40836 106510 10557 14767 14290 102766 34027 571009 322893 44787 21663 13711 8951 73145 78532 87071 44656 17857 3551 10838
internal_value=0 0.0289763 -0.0617719 0.00351293 0.0498494 -0.00893375 0.0327467 -0.0299175 -0.0776268 0.0182395 0.0277944 0.0118269 -0.06259 -0.0833746 -0.00739719 -0.0857151 0.0373446 0.0696346 -0.0971336 -0.0759925 -0.0944588 -0.0397406 -0.0121967 -0.0166252 -0.070377 -0.0498525 -0.0355531 -0.010187 -0.0748256
internal_weight=0 182146 80258 82051 100095 23290.8 53686.9 25091.5 5405.4 56959.5 43350.5 17885.4 10238.1 56967.2 14853.5 55392 51046.3 46408.1 31753.3 8856.04 6475.03 5805.18 13609 8918.08 23638.7 9836.44 6806.65 4135.53 2671.13
internal_count=2813682 2213466 600216 909295 1304171 239995 661760 239874 39262 669421 523194 200733 81056 360221 158818 345931 636993 642411 180177 66289 44626 56052 146227 89089 165754 78683 73082 44387 28695
shrinkage=0.1


Tree=6
num_leaves=30
num_cat=0
split_feature=5 6 4 4 5 2 1 3 4 3 3 4 0 4 0 1 0 5 1 3 4 3 6 0 4 6 4 1 4
split_gain=36744.7 8011.91 7886.81 3308.35 2883.18 2835.67 1569.83 1844.59 1530.24 1432.14 1364.06 1261.61 1070.84 1047.62 1014.02 1228.56 877.187 863.123 789.833 780.081 725.671 720.932 709.783 661.071 659.52 621.058 611.826 589.687 521.595
threshold=50.67471188640156 29.408463629288565 0.0075412629743583049 0.010656388871983837 29.24074753354201 0.096719362731663608 1.5962250980195394 0.056384778147787105 0.0044831098812127329 0.045091341883688796 0.080705208210561721 0.0052594003909606163 0.697437513805926 0.0072594246194509814 0.3121803162619472 1.0524287761427231 0.52256692279581951 78.80116107667547 1.5553648160075566 0.034894560820847631 0.0048081013951633547 0.099999745782883995 80.179562608141538 -0.26375592106969986 0.005994235966847776 113.21454077644721 0.0090519696482519677 1.9622727720298161 0.012115740324632373
decision_type=2 2 2 2 2 2 2 2 2 2 2 2 2 2 2 2 2 2 2 2 2 2 2 2 2 2 2 2 2
left_child=2 5 4 6 8 9 7 13 -1 -2 12 -6 17 -3 15 26 -15 23 20 -13 -11 -8 -16 -5 -7 28 -4 -23 -25
right_child=1 3 14 10 11 24 21 -9 -10 18 -12 19 -14 16 22 -17 -18 -19 -20 -21 -22 27 -24 25 -26 -27 -28 -29 -30
leaf_value=0.015886569872578606 -0.029127568949144561 0.04917124740965538 -0.060139667703154112 -0.01815829543011353 0.047835099035201917 0.083668568915289815 -0.031648495773635453 0.036020436438657856 -0.092848988195422644 0.069036960824826618 0.022369728422374502 -0.092267296430958559 0.028913640233623819 -0.035676865255375105 -0.025144860710907074 -0.060650054417800262 0.029293021187726601 -0.023673388381056624 0.0062845326447985607 0.0024129413683315884 0.03561131617613314 0.018226324236212385 -0.071055619624857333 -0.077882311916616709 0.057516540061851029 -0.04701241686156854 -0.09987931178117615 -0.10560308613098912 -0.15215534897474206
leaf_weight=1797.2586087062955 3415.9432599544525 2762.4733210727572 4745.2602851912379 1716.0435287356377 7265.057966709137 18948.888953350484 7861.6935091540217 42086.432275958359 4624.3610310256481 8888.0500176399946 4299.0032134354115 948.36767494678497 1932.0319997817278 8402.8709592670202 7164.0414397567511 22561.396881632507 2760.9055949449539 6555.4288908690214 6423.235188215971 10558.199972659349 24123.326947085559 7167.4110792130232 6354.1456951573491 1987.365644313395 19635.795243240893 2262.465607509017 21104.962884813547 406.37301535904408 1803.6250938847661
leaf_count=20416 34699 38207 35372 14306 97001 301027 82232 540001 27700 124841 45792 8130 21127 81520 55988 137008 32808 67759 70863 112854 316207 77827 38433 14348 270900 16379 114547 4413 10977
internal_value=0 0.0278498 -0.0517502 0.00762909 -0.00457731 0.0506948 0.0178004 0.0255816 -0.0624165 0.0329876 -0.0277241 0.015209 -0.040971 -0.00596561 -0.0709402 -0.077702 -0.0196092 -0.0503964 0.0383682 -0.00539057 0.0446109 -0.0104363 -0.0467249 -0.0729437 0.0703598 -0.0884744 -0.0925844 0.0115822 -0.113219
internal_weight=0 173439 87123.1 92004.1 25193.2 81435.2 71448.2 56012.7 6421.62 42850.6 20556 18771.6 16257 13926.2 61929.8 48411.6 11163.8 14324.9 39434.6 11506.6 33011.4 15435.5 13518.2 7769.5 38584.7 6053.46 25850.2 7573.78 3790.99
internal_count=2813682 2166233 647449 1047696 266101 1118537 857008 692536 48116 546610 190688 217985 144896 152535 381348 286927 114328 123769 511911 120984 441048 164472 94421 56010 571927 41704 149919 82240 25325
shrinkage=0.1


Tree=7
num_leaves=30
num_cat=0
split_feature=5 6 4 5 2 5 3 1 4 3 4 4 6 5 4 3 0 3 4 3 0 3 5 6 0 4 0 6 5
split_gain=29532.9 7000.49 5975.71 2710.14 2648.54 2515.51 1539.82 1364.42 1187.52 1177.98 1162.52 1100.74 841.196 821.318 800.952 798.86 775.515 833.332 1027.02 703.865 684.882 665.793 629.74 838.401 596.652 595.01 592.517 582.39 573.102
threshold=50.67471188640156 29.408463629288565 0.007355647796051871 74.46811527334971 0.094623563296289945 17.868426941817521 0.029107985448942622 1.4190980487345992 0.010473080784005677 0.039913677739271701 0.0057147151019396238 0.010587996591739677 0.63312267293267166 29.944546980219133 0.012401402641250841 0.056744274762468107 0.7050241629824513 0.066928669813229494 0.011134698822689743 0.034894560820847631 0.81947987687294421 0.099999745782883995 150.31322140672623 89.067519749050177 0.73906889532213149 0.005994235966847776 0.92766535317073562 46.511386002512346 41.795851399633257
decision_type=2 2 2 2 2 2 2 2 2 2 2 2 2 2 2 2 2 2 2 2 2 2 2 2 2 2 2 2 2
left_child=2 4 5 8 9 27 -7 11 15 -2 -8 -5 -11 14 -4 24 17 -15 -19 -6 -10 22 23 -9 -3 -21 -16 -1 -12
right_child=1 3 13 7 19 6 10 21 20 12 28 -13 -14 16 26 -17 -18 18 -20 25 -22 -23 -24 -25 -26 -27 -28 -29 -30
leaf_value=-0.10973293529441908 -0.055094685117766808 -0.042134108132078699 -0.093848627019919029 0.036770769255976665 -0.025623773993453704 -0.11828841067906244 0.036872165346817191 0.01564744722789398 -0.053937821209961448 0.074551393932970778 -0.034675366660197139 -0.0017724748853862604 0.028022427182658263 -0.066085001589238218 -0.063669688402460692 0.014342822296290848 -0.0006575854345975368 -0.0020167962462863424 -0.07229007532428168 0.081746084896015203 0.036574668306766145 0.016056432902225425 -0.050802436355560622 -0.078275741320827361 0.039475530109170702 0.056410600638559232 0.037489573435348485 0.030183032836893765 0.015178946394943313
leaf_weight=2410.6798333004117 1568.3391001746058 5818.3398411497474 10913.186854146421 33898.450617708266 807.71729060634971 906.83550471812487 11004.427625212818 5380.5094845890999 9443.5556607693434 4384.5521596968174 4900.1599091216922 9482.0197653472424 34139.335955739021 18805.932586371899 23346.884347811341 10420.675929181278 2999.709243118763 5452.2062061205506 3362.1288196966052 18052.842006582767 917.17876647412777 9569.2705897167325 4136.7648242264986 1154.2894463166595 1058.8947007954121 19052.911282844841 593.74006405472755 339.37599735707045 4355.2322786748409
leaf_count=11497 13580 54190 56346 457055 10471 6949 140946 57823 67368 63529 41598 100513 447762 118906 123349 125828 24954 44510 19460 307153 10963 106102 42863 11672 13319 276042 5000 3909 50025
internal_value=0 0.0257804 -0.0452714 0.00698167 0.0477782 -0.00249222 0.00919758 0.0183428 -0.0191516 0.0298595 0.0149039 0.0283461 0.0333181 -0.060898 -0.0713958 -0.0031153 -0.0489487 -0.0541933 -0.0288217 0.0667266 -0.0459252 -0.00309627 -0.0202706 -0.000942894 -0.0295686 0.0687369 -0.0611609 -0.0924663 -0.0112158
internal_weight=0 169286 89390.5 91279.9 78005.7 23916.7 21166.7 63621.3 27658.6 40092.2 20259.8 43380.5 38523.9 65473.8 34853.8 17297.9 30620 27620.3 8814.34 37913.5 10360.7 20240.8 10671.6 6534.8 6877.23 37105.8 23940.6 2750.06 9255.39
internal_count=2813682 2166233 647449 1047696 1118537 254924 239518 776028 271668 524871 232569 557568 511291 392525 184695 193337 207830 182876 63970 593666 78331 218460 112358 69495 67509 583195 128349 15406 91623
shrinkage=0.1


Tree=8
num_leaves=30
num_cat=0
split_feature=5 4 6 2 5 3 3 4 1 0 4 6 4 4 4 0 1 6 3 3 3 1 4 3 3 1 4 3 1
split_gain=24062.3 5836.12 5571.19 2503.02 2191.78 1958.39 1310.61 1261.13 1133.62 998.803 978.607 909.346 876.771 864.974 857.411 765.088 797.733 670.587 651.366 615.264 600.707 569.27 585.632 548.919 545.264 590.598 504.817 504.151 474.04
threshold=53.887812850107217 0.0078287012083418841 35.633056264018457 0.10870754817113397 29.24074753354201 0.059203683450893947 0.039458349384714798 0.0057461650146028269 1.4556349534150985 0.71320480175768075 0.0044389946269179541 1.0272895471273957 0.010800447446836078 0.008408170004763663 0.014606214510049448 0.29552330330479898 1.0524287761427231 80.179562608141538 0.042623487902578784 0.099999745782883995 0.041187708539723492 1.5755001093916097 0.00562539819835831 0.058857063940593944 0.027599859484484044 1.4556349534150985 0.0074316366070085712 0.080705208210561721 1.9583193878989267
decision_type=2 2 2 2 2 2 2 2 2 2 2 2 2 2 2 2 2 2 2 2 2 2 2 2 2 2 2 2 2
left_child=1 4 3 6 10 9 -2 24 12 13 -1 -8 -7 -4 15 16 -3 -17 -9 -10 -15 22 -13 -24 -6 -26 -5 -14 -21
right_child=2 14 5 26 7 8 11 18 19 -11 -12 21 27 20 -16 17 -18 -19 -20 28 -22 -23 23 -25 25 -27 -28 -29 -30
leaf_value=0.016182959955754486 -0.0496426498196424 -0.074809052965917652 0.021395648766997573 0.074831876454801924 -0.10029652473398978 0.034447511920706657 0.070538390236623769 -0.050127980673890196 -0.026287733400851505 0.036431391917042429 -0.071735453534354038 0.053322283593907775 -0.020424540372882379 -0.073370530226456218 -0.016556232874669636 -0.017898764385480319 -0.048875111761674091 -0.06075019283350365 0.0044714989187074061 0.019176353797759935 -0.026508211131486076 0.0037943651281065909 0.0071739441688770129 0.036550234667720415 0.048172324345425011 -0.079415671401291202 0.042919081025496832 0.029215965398281071 -0.070372479778491315
leaf_weight=1668.727098762989 1951.1024054549634 26488.041744731367 3061.3614010736346 21747.408009745181 271.16613481938839 28161.121585510671 5978.2063827253878 2768.7786177843809 7716.277181789279 2811.6604452542961 5246.5091943442822 11141.713566176593 5459.4778080657125 3481.5599661543965 5698.2948952242732 8124.877002261579 21478.982169963419 6633.5925499126315 10362.739958703518 8003.5380509123206 12762.532657921314 7460.0272017046809 9822.277193620801 18049.669839654118 9702.4668483026326 376.89764501899481 6420.1693886294961 3272.1422019153833 638.29089562594891
leaf_count=19720 16854 144534 40466 377312 1977 384457 92871 24780 79723 35241 29660 170444 52820 24424 34650 63657 122563 37139 111454 89827 115437 83617 127491 253490 139935 4842 92234 35364 6699
internal_value=0 -0.0374985 0.0254177 0.0433614 -0.00103793 0.00575929 0.0308334 0.013534 0.0161479 -0.0192531 -0.0505197 0.0338269 0.0258634 -0.027363 -0.0536961 -0.0570701 -0.0631962 -0.0371595 -0.00704079 -0.00576368 -0.0365521 0.0291045 0.0339442 0.0261978 0.0396368 0.0434014 0.0675581 -0.00182195 0.0125622
internal_weight=0 98821.1 157939 82570.6 30397.3 75368 54403 23482 53250.8 22117.1 6915.24 52451.9 36892.7 19305.5 68423.8 62725.5 47967 14758.5 13131.5 16358.1 16244.1 46473.7 39013.7 27871.9 10350.5 10079.4 28167.6 8731.62 8641.83
internal_count=2813682 734911 2078771 1214313 332368 864458 744767 282988 648890 215568 49380 727913 472641 180327 402543 367893 267097 100796 136234 176249 139861 635042 551425 380981 146754 144777 469546 88184 96526
shrinkage=0.1


Tree=9
num_leaves=30
num_cat=0
split_feature=5 4 6 2 5 3 4 3 1 4 4 0 0 4 1 6 3 4 3 2 1 4 3 4 3 1 3 4 5
split_gain=19571.2 5092.69 4551.48 2229.18 1925.85 1424.46 1268.1 1067.46 994.152 988.682 776.565 751.118 750.254 728.487 718.008 670.726 655.321 597.543 590.49 553.195 488.874 482.105 446.769 442.626 526.646 439.787 496.152 427.117 405.937
threshold=55.565854903041881 0.0080441987576334306 35.633056264018457 0.10377043611251056 31.607094747561266 0.059203683450893947 0.0057461650146028269 0.045091341883688796 1.4556349534150985 0.0045259090375394375 0.015892663275006141 0.78681180311818644 0.81947987687294421 0.011941695800058655 1.9165756691805733 0.5539149601461163 0.049413444206999439 0.010321552532761282 0.032442339323865574 0.0326575156983877 1.5755001093916097 0.0066595501370499046 0.099999745782883995 0.0090519696482519677 0.050788842740061929 1.4556349534150985 0.031480662911273619 0.005598343528093957 12.984137802407689
decision_type=2 2 2 2 2 2 2 2 2 2 2 2 2 2 2 2 2 2 2 2 2 2 2 2 2 2 2 2 2
left_child=1 4 3 7 9 11 25 -2 13 -1 12 17 14 -7 23 -9 -8 -4 -14 22 27 -5 -10 24 -3 26 -6 -17 -11
right_child=2 10 5 21 6 8 16 15 19 28 -12 -13 18 -15 -16 20 -18 -19 -20 -21 -22 -23 -24 -25 -26 -27 -28 -29 -30
leaf_value=0.01580276808793998 -0.020577020729707494 -0.067702772686045853 -0.0061003080962556203 0.074443254436284731 -0.06353459395416193 0.030184292877799879 -0.031582869369557003 0.072372687480295503 -0.015209226251154024 -0.10813206669763196 0.055401566823496 0.042755475132126325 0.039222056849506595 -0.013249672828427254 -0.0074746601507214017 0.051547168743426131 0.011443106863749219 -0.041642916966343944 -0.040123716963253252 -0.030658386138230066 0.0055258995965669694 0.047796492611633622 0.025949151240148488 -0.056756780209504643 -0.015466880988889856 -0.061008854494070744 0.050726799252228796 0.026865442494631405 -0.047506925189429908
leaf_weight=2273.6352062150836 4089.7545676790178 2866.8155157640576 10933.502966031432 16724.036255389452 396.53514702990651 30926.626042276621 5573.4031466171145 3907.6380775757134 4642.3731560707092 1420.1139007210732 728.5047926530242 2010.4757432192564 1675.0113347247243 4412.5167944133282 3606.3971508219838 9902.690754853189 9702.2356421612203 8336.8158544674516 2131.378573730588 5569.7541636526585 7288.5537799447775 11430.286540124565 6106.3936720043421 53825.199323728681 5907.0975191667676 400.43058595061302 9129.0343212261796 24012.313262745738 4969.0971025303006
leaf_count=27234 41367 18945 117349 321253 3821 420689 52875 65663 46849 5954 6330 26776 14763 44488 22454 157554 106773 63398 18471 59483 82171 174200 68928 281112 46989 4688 140668 339726 32711
internal_value=0 -0.0320449 0.0242859 0.0411841 -0.000154552 0.00636447 0.013827 0.0283426 0.0153341 -0.0408291 -0.0473113 -0.0154086 -0.04838 0.024761 -0.0508622 0.0327777 -0.00425516 -0.0214769 -0.00520741 -0.00508078 0.0290226 0.063625 0.00817292 -0.0533618 -0.0325346 0.0416546 0.0459703 0.0340721 -0.0609819
internal_weight=0 104605 150294 77355.3 33864.5 72938.5 25201.6 49201 51657.7 8662.85 70740.4 21280.8 70011.9 35339.1 66205.5 45111.2 15275.6 19270.3 3806.39 16318.5 41203.6 28154.3 10748.8 62599.1 8773.91 9926 9525.57 33915 6389.21
internal_count=2813682 783788 2029894 1181934 374724 847960 308825 686481 640437 65899 409064 207523 402734 465177 369500 645114 159648 180747 33234 175260 579451 495453 115777 347046 65934 149177 144489 497280 38665
shrinkage=0.1


Tree=10
num_leaves=30
num_cat=0
split_feature=5 6 5 2 4 3 5 3 0 1 4 4 0 4 4 4 3 3 6 6 6 0 4 3 6 3 3 0 3
split_gain=15938.7 5414.13 2696.15 2339.08 2111.07 1212.48 939.89 875.177 915.265 826.637 1026.26 681.461 678.796 655.507 605.257 583.671 538.854 518.915 487.366 468.158 446.296 432.495 384.338 375.468 372.108 367.982 344.257 340.615 365.95
threshold=44.525264962816458 28.006468283811731 69.629629546684626 0.10870754817113397 0.0046181855820100733 0.045660387361526146 29.944546980219133 0.070433340478195369 0.81947987687294421 1.6183151864180725 0.010587996591739677 0.0066873405596226711 -0.52055695862528817 0.0048081013951633547 0.013861228517856114 0.0060862163248002745 0.048015570225823943 0.080705208210561721 133.375659978936 135.00015093706321 1.0272895471273957 -0.92579046473855109 0.010276920440363848 0.034156125587467549 14.931142007057192 0.047590206727909048 0.030358637831940111 0.73013981452663479 0.062779070133906364
decision_type=2 2 2 2 2 2 2 2 2 2 2 2 2 2 2 2 2 2 2 2 2 2 2 2 2 2 2 2 2
left_child=4 3 7 5 -1 20 14 8 16 10 25 26 -7 -14 -6 -5 -3 -12 -11 -20 -2 -21 -18 -22 -17 -4 -8 28 -13
right_child=1 2 9 15 6 12 11 -9 -10 18 17 27 13 -15 -16 24 22 -19 19 21 23 -23 -24 -25 -26 -27 -28 -29 -30
leaf_value=0.025539812708130105 0.049855242218091914 -0.059137591944856627 -0.002876836181740625 0.076370827291605381 -0.058052866427072247 -8.5381646286405897e-06 -0.094308032200921058 0.0061661545057929068 0.034782247920344143 0.0015953987084221047 -0.018778517641523225 -0.047467856565270874 0.060673544586228562 0.028632376706487453 -0.031900833268095785 0.019363439094024479 -0.011869811324473803 0.029944530931547638 -0.21117310488528773 0.0029094162278453738 -0.089730489916408418 -0.087277055197531275 -0.044844989538548707 -0.01760635972329604 0.057341855745762886 0.030772542008927841 0.011095579819776262 0.0044795530464760321 -0.021761566313356781
leaf_weight=5162.8159655183554 781.4412680119276 7194.4019139707088 3564.0711241327226 13873.868328619748 29820.705338455737 6098.9729669094086 329.82408777624369 8737.552704334259 1948.8343251161277 13977.731905430555 8446.5900734439492 14531.803255662322 8320.1413996182382 27452.237248912454 12584.260913185775 3570.8642236888409 8445.0942728854716 2949.0746391713619 163.03369677811861 1249.1681194677949 901.55728659778833 925.84781680256128 6078.7899540662766 3619.9009249433875 9295.9127849526703 36870.81566650793 5120.435064997524 2087.5549085438251 8947.7221486419439
leaf_count=69122 9445 49042 39092 283291 145542 70335 2147 93775 24575 147257 83263 82965 146152 404727 66055 57059 89748 34329 1617 12962 6915 9160 36120 38724 151373 530388 56203 15813 56486
internal_value=0 0.0179689 0.00286529 0.0385154 -0.0362692 0.025122 -0.0406154 -0.020881 -0.0308664 0.014157 0.0203365 -0.0273863 0.0308274 0.0360847 -0.0502919 0.0621431 -0.0367573 -0.00616952 -0.00547318 -0.0477318 -0.0199271 -0.0354806 -0.0256712 -0.0319876 0.0468019 0.0278066 0.00471705 -0.0342299 -0.0376715
internal_weight=0 174466 100551 73914.9 78585.1 47174.3 73422.3 32404.7 23667.1 68146.3 51830.6 31017.3 41871.4 35772.4 42405 26740.6 21718.3 11395.7 16315.8 2338.05 5302.9 2175.02 14523.9 4521.46 12866.8 40434.9 5450.26 25567.1 23479.5
internal_count=2813682 2319349 1151328 1168021 494333 676298 425211 293260 199485 858068 687072 213614 621214 550879 211597 491723 174910 117592 170996 23739 55084 22122 125868 45639 208432 569480 58350 155264 139451
shrinkage=0.1


Tree=11
num_leaves=30
num_cat=0
split_feature=5 6 4 2 5 3 3 6 3 1 6 2 0 1 4 4 1 4 2 1 3 3 5 4 1 0 1 3 1
split_gain=13212.5 3467 3185.81 1980.61 1598.92 1094.34 1024.04 861.041 930.144 743.762 686.415 684.583 571.16 526.911 501.36 481.507 458.023 440.223 438.353 446.302 416.503 415.983 415.049 411.987 390.645 389.818 654.697 376.127 372.647
threshold=55.565854903041881 37.261799642309349 0.0067760517751413937 0.10929407441341175 17.868426941817521 0.029107985448942622 0.063932262567117384 0.63312267293267166 0.042623487902578784 1.4190980487345992 0.5539149601461163 0.1012156770854887 0.69000476337969319 1.1062859661195594 0.010321552532761282 0.008823799668896919 1.4763399167638285 0.011941695800058655 0.036646181136754559 1.9583193878989267 0.043284387558040829 0.035583671084629606 36.811571719972186 0.015345561559039671 1.0856032756857112 -0.93670544261112798 1.9389519352249069 0.050602477798824666 1.5755001093916097
decision_type=2 2 2 2 2 2 2 2 2 2 2 2 2 2 2 2 2 2 2 2 2 2 2 2 2 2 2 2 2
left_child=2 3 4 7 -1 -6 12 -2 -9 17 -7 13 14 15 -3 27 20 -8 19 25 -12 -5 -13 -17 -16 -11 -27 -4 -10
right_child=1 6 11 21 5 10 9 8 28 18 16 22 -14 -15 24 23 -18 -19 -20 -21 -22 -23 -24 -25 -26 26 -28 -29 -30
leaf_value=-0.06394508222656213 0.066876311428195001 -0.0032950670779036146 -0.055529400981741195 -0.020063205907009496 -0.090469855548153191 0.070146409602001067 0.028691960256932728 -0.033289965618945171 0.028698498144926084 0.04270691452161153 -0.012478923687104487 -0.037216878521966201 0.030402748297747525 -0.027321414929081939 -0.048508891773868107 -0.052647906869128236 -0.060779444243495288 -0.0079064178710476218 -0.033661830353966346 -0.058499980460998226 0.027371981457968389 0.062104094286714429 -0.0042203884341877242 0.027837173680767005 -0.0078814482506036759 0.0061090526592402564 -0.13779127288175186 -0.011599469506928388 0.0046055305325661848
leaf_weight=2731.7214752957225 4441.6906443350017 12730.973015587777 2825.1733628809452 633.3222902752459 893.81282549723983 2632.220224712044 24271.527710810304 2976.2385482639074 36504.406115457416 2949.4245356619358 3339.907521057874 5994.4805927947164 2932.5009110234678 24703.227998942137 6263.7043924331665 33336.919913306832 758.24086776375771 3801.3561471328139 3681.9261535406113 989.08459864556789 12212.546764370054 22707.32998149097 10470.93698053062 648.36253434419632 3804.031181961298 7631.6027634888887 329.83157555758953 6284.5439993292093 7789.6413958966732
leaf_count=14757 80303 142836 19168 9535 6252 40373 347225 25974 566309 32103 39404 35243 38491 139495 45907 164937 8531 38624 39736 9873 167793 447402 90565 4440 30686 83669 3488 52830 87733
internal_value=0 0.020798 -0.0255864 0.0356946 0.00778145 0.0176589 0.00468475 0.0247808 0.0208253 0.0140117 0.0227609 -0.0345233 -0.011139 -0.0389653 -0.0164823 -0.0456398 0.0151139 0.0237362 -0.00350837 0.00582132 0.018814 0.0598746 -0.0162333 -0.0511124 -0.0331581 0.0116521 0.000147455 -0.0252233 0.0244615
internal_weight=0 144439 106832 75052.6 22568.4 19836.7 69386 51712 47270.3 43654.8 18942.9 84263.6 25731.2 67798.2 22798.7 43095 16310.7 28072.9 15581.9 11899.9 15552.5 23340.7 16465.4 33985.3 10067.7 10910.9 7961.43 9109.72 44294
internal_count=2813682 2029894 783788 1217256 277110 262353 812638 760319 680016 554718 256101 506678 257920 380870 219429 241375 215728 385849 168869 129133 207197 456937 125808 169377 76593 119260 87157 71998 654042
shrinkage=0.1


Tree=12
num_leaves=30
num_cat=0
split_feature=5 6 4 2 5 3 2 4 1 4 6 4 3 3 3 0 0 4 3 3 0 4 4 6 3 5 5 2 4
split_gain=10810.6 2876.17 2753.39 1677.75 1317.95 926.542 732.13 666.71 623.418 715.79 559.482 547.562 535.986 524.365 475.977 474.905 479.498 487.087 503.341 474.806 474.613 475.254 442.133 437.743 437.397 427.135 416.668 369.871 340.991
threshold=56.869933653757165 29.408463629288565 0.0073290681629283464 0.090676992285550401 33.300740701804649 0.051173296301342049 0.092214430950075074 1.0000000180025095e-35 1.4972417037763461 0.010473080784005677 0.63312267293267166 0.015892663275006141 0.034894560820847631 0.034156125587467549 0.023557074295062031 0.81947987687294421 -0.91569622894153013 0.0090519696482519677 0.042623487902578784 0.032442339323865574 0.72121586529538051 0.0072161319720115144 0.0057461650146028269 0.29966909520962309 0.048214237240806472 80.893785515983566 25.787815971748589 0.027621760776519001 0.0057461650146028269
decision_type=2 2 2 2 2 2 2 2 2 2 2 2 2 2 2 2 2 2 2 2 2 2 2 2 2 2 2 2 2
left_child=2 3 4 10 7 20 -6 -1 9 -7 -2 15 -5 -8 -9 16 -4 18 -18 -17 21 -3 -14 -16 -12 -11 -20 -10 -15
right_child=1 5 11 12 6 8 13 14 27 25 24 -13 22 28 23 19 17 -19 26 -21 -22 -23 -24 -25 -26 -27 -28 -29 -30
leaf_value=0.029186445800231109 0.060753455192502276 0.025730894662346931 0.0013156561318605404 -0.042569012833897191 -0.005679839084761551 0.025658131692964842 -0.03295437664774914 -0.14811448807245428 0.0080367939274442347 -0.024041884405234526 -0.01709569094904265 0.054815144571196489 0.071398471094810359 0.059016195043884605 0.038818824199791331 0.039997969703594927 -0.05810080046683385 -0.039983100155178697 -0.06282640309981162 -0.027952797757918008 0.031887735750033994 -0.031412838204716818 0.045578092326854398 -0.04307650461588769 0.02059564134129541 0.01345376765479289 -0.0053196749298295778 -0.020707145401191632 0.023803336923194279
leaf_weight=1699.9823034964502 3072.6085021458566 1693.6699203513563 3657.9341583400965 561.5903847515583 7294.910932071507 34990.685903061181 1053.3017558120191 388.36510740220547 11463.070064336061 5223.1485492363572 3531.3947807960212 728.80418736487627 11206.824574783444 5345.575841806829 731.01924000307918 1763.7941905558109 2854.9037442244589 58285.89025195688 1416.4110140651464 2466.0755259692669 1784.4552453719079 10346.321103427559 16244.726065743715 6090.4759393446147 24027.292815133929 7262.3365821018815 11405.94319146499 7345.2692265361547 5663.8252554237843
leaf_count=22809 57539 22647 22122 7460 92191 524008 10340 1793 123922 44727 37920 6398 256070 97281 7303 15808 17762 290781 6237 20948 24861 82207 296202 39998 357231 81182 99068 75794 71073
internal_value=0 0.0196264 -0.022259 0.0364537 0.004679 0.0073079 0.0193282 -0.0271481 0.0122194 0.0183234 0.0202785 -0.03148 0.0541406 0.0344519 -0.040431 -0.0322484 -0.0340265 -0.0357744 -0.020127 0.000381685 -0.0162412 -0.0233744 0.056119 -0.0343003 0.0157658 -0.00223208 -0.0116721 -0.00318865 0.0409008
internal_weight=0 138753 110847 58644.4 28267.5 80109 19357.6 8909.84 66284.5 47476.2 30631.3 82579.8 28013.1 12062.7 7209.86 81851 77621.1 73963.1 15677.3 4229.87 13824.4 12040 27451.6 6821.5 27558.7 12485.5 12822.4 18808.3 11009.4
internal_count=2813682 1991770 821912 1012422 342788 979348 270885 71903 849633 649917 452690 479124 559732 178694 49094 472726 435970 413848 123067 36756 129715 104854 552272 47301 395151 125909 105305 199716 168354
shrinkage=0.1


Tree=13
num_leaves=30
num_cat=0
split_feature=5 4 6 0 5 2 4 6 3 4 1 0 4 6 3 1 0 2 3 4 5 5 5 6 4 3 2 1 3
split_gain=8823.21 2573.21 2291.63 1491.32 1232.28 738.513 711.852 687.525 674.619 617.741 670.014 603.156 516.011 493.315 479.21 469.499 424.995 489.341 412.016 715.387 458.647 383.954 371.774 367.434 378.168 372.437 369.118 344.636 392.121
threshold=59.447173322392466 0.0076239638878433562 36.021358992971322 0.40707376666818779 41.41785218222136 0.1027227011440819 0.0046181855820100733 1.0272895471273957 0.047330873460061838 0.012028510240259376 1.6404927112218215 -0.91569622894153013 0.014982912053782041 80.179562608141538 0.063744264668733105 1.9424116924350414 0.37846129431375336 0.047155681002694898 0.068265464089706476 0.010367936930972214 21.547336047189535 189.99912297621887 12.984137802407689 80.179562608141538 0.010127735014493993 0.033330814727002604 0.20577414269661945 1.8186610439459752 0.081008404686134391
decision_type=2 2 2 2 2 2 2 2 2 2 2 2 2 2 2 2 2 2 2 2 2 2 2 2 2 2 2 2 2
left_child=1 4 3 7 6 -6 -1 -2 -9 10 14 15 16 -13 21 -12 17 -3 -19 20 -20 -4 -8 24 -18 -26 -25 28 -11
right_child=2 12 9 -5 5 -7 22 8 -10 27 11 13 -14 -15 -16 -17 23 18 19 -21 -22 -23 -24 26 25 -27 -28 -29 -30
leaf_value=0.019679474714099931 0.05882408365754227 -0.021682626043570422 -0.003702668558135995 0.056257327688550629 0.0021405976710647261 0.043807859407968948 -0.076796013976928035 -0.01671059627231266 0.023144987975119314 -0.039828354700831736 0.036648388538322196 -0.01342493562126248 0.01015333779559455 -0.074531625180783198 0.023638755891270524 -0.012913073738118631 -0.01607179690921506 -0.045033152661205271 -0.073493990460338471 -0.049223348001120604 0.016312245799871686 0.040892899453102434 -0.021486220850816345 -0.020514520160490844 0.075182466299801673 0.0010415176540469204 -0.080343909623525056 0.034252296062382288 0.015792449965333639
leaf_weight=4274.4640809595585 4707.313038635999 23710.589198417962 14606.050860438496 18519.654900409281 8300.3817990906537 8725.0591484420002 1378.7151268571615 4810.5428762622178 36252.175278231502 5649.3638106063008 3362.8067089319229 3957.6867292448878 3375.4644835367799 1983.1316586956382 27345.485983252525 4428.4625221788883 5911.3414352983236 32604.680630084127 653.47234462201595 4824.721054084599 4382.5144686214626 2224.6708922460675 10251.70530321449 4788.4817708134651 1060.9731325358152 1874.7903410941362 1314.1888054013252 1037.5673319548368 1634.1280509531498
leaf_count=57922 93453 128891 153347 396964 110135 152804 5545 52438 570100 47224 36245 40705 20915 19426 397626 45432 51323 167388 2793 24020 36726 35436 83151 25518 9782 13210 7946 8916 18301
internal_value=0 -0.0189157 0.0188647 0.0323137 0.00479688 0.0234939 -0.0152174 0.0226256 0.0184759 0.00580958 0.00947056 -0.00982235 -0.0281565 -0.0338232 0.0154677 0.00847826 -0.0297505 -0.0331907 -0.0396162 -0.021705 0.00465894 0.00219194 -0.0280429 -0.0145224 -0.00150181 0.0278358 -0.0333986 -0.019668 -0.0273492
internal_weight=0 117432 130519 64289.7 32930.3 17025.4 15904.9 45770 41062.7 66229.4 57908.3 13732.1 84501.2 5940.82 44176.2 7791.27 81125.8 66176 42465.4 9860.71 5035.99 16830.7 11630.4 14949.8 8847.1 2935.76 6102.67 8321.06 7283.49
internal_count=2813682 898069 1915613 1112955 409557 262939 146618 715991 622538 802658 728217 141808 488512 60131 586409 81677 467597 359818 230927 63539 39519 188783 88696 107779 74315 22992 33464 74441 65525
shrinkage=0.1


Tree=14
num_leaves=30
num_cat=0
split_feature=5 4 1 3 6 3 4 2 4 0 4 2 4 3 4 5 4 1 6 0 5 6 5 2 1 4 0 2 4
split_gain=7220.26 3099.41 2163.96 1551.44 1295.95 1114.4 873.56 814.907 792.076 682.531 578.803 504.341 495.727 480.777 438.147 413.909 401.687 387.527 343.335 342.755 336.384 462.661 317.367 312.361 303.38 301.745 301.734 404.054 286.366
threshold=42.159774506155493 0.0080441987576334306 1.4011524490079945 0.060256377004745738 0.63312267293267166 0.036216004790764512 0.0046181855820100733 0.11241324351350507 0.0057461650146028269 0.71320480175768075 0.010526707782039251 0.0326575156983877 0.0042157195575599458 0.039458349384714798 1.0000000180025095e-35 73.774945782691319 0.014220103327693504 1.9389519352249069 77.551596361056355 0.73013981452663479 28.408812178612397 123.29697655048908 81.781833253753931 0.08381728704245385 1.7431741852156972 0.0060862163248002745 -0.10591770394275819 0.059085728432689479 0.0047169573028498597
decision_type=2 2 2 2 2 2 2 2 2 2 2 2 2 2 2 2 2 2 2 2 2 2 2 2 2 2 2 2 2
left_child=6 2 4 9 28 19 -1 8 26 13 -5 -4 -9 -3 24 -15 20 -18 -11 -6 -8 -22 -12 -10 -13 -14 27 -7 -2
right_child=1 3 11 10 5 7 16 12 23 18 22 14 25 15 -16 -17 17 -19 -20 -21 21 -23 -24 -25 -26 -27 -28 -29 -30
leaf_value=0.0184156700901623 0.088136303828627194 -0.047220894018039791 0.0083709315973176917 0.019487202386540173 -0.061074744594508505 0.059470591448407523 -0.037519393029742013 0.0078235611547864178 -0.0016368221582309492 0.03391497331538653 -0.018781853246372007 -0.014249050826439147 0.071155634597750123 -0.026695346019709954 0.016325738499386542 -0.0013726449038233713 -0.014586449234228216 0.070759314799068704 -0.046613316112634307 0.026399875590272348 -0.017001846376312309 -0.05636709432048255 0.010891590762505544 0.022634863485985021 -0.060051095362398756 0.043513863013639145 0.026883392607468876 0.0020397191887814464 0.043725718642324198
leaf_weight=4366.6403344720602 4712.5151617601514 6188.8424195945263 13821.80974425748 27031.435531999916 1761.3371123336256 7875.102381542325 33717.553983740509 2584.96141025424 11222.820281904191 3415.9279453791678 7909.7395538687706 2853.2644619271159 6742.3802935294807 15697.41406616196 2051.2464658021927 10962.755370534956 10664.469168782234 559.9685083553195 626.55834405124187 600.71159507706761 22131.582073695958 3451.2163103669882 6621.7754192650318 10050.615490406752 2932.4729983881116 9532.8322575725615 12788.938777938485 1450.7034813128412 2098.4858823493123
leaf_count=60534 115479 37694 158228 362778 16474 136572 153688 56839 161852 44448 60178 33986 169865 114356 24593 120339 55102 3325 6208 8531 148808 15767 75485 156691 29985 181561 237174 25529 41613
internal_value=0 0.0122277 0.0245685 -0.00241368 0.032965 0.0285915 -0.0249881 0.0311498 0.0236062 -0.0173399 0.0108349 -0.00311952 0.0485039 -0.0221114 -0.0233848 -0.0162826 -0.0276755 -0.0103287 0.0214336 -0.0388284 -0.0309589 -0.0223124 -0.00526015 0.00983031 -0.0374636 0.0549651 0.036858 0.0505368 0.0744533
internal_weight=0 171535 93080.2 78454.4 71421.4 64610.4 74891.4 62248.4 43388.2 36891.5 41563 21658.8 18860.2 32849 7836.98 26660.2 70524.8 11224.4 4042.49 2362.05 59300.4 25582.8 14531.5 21273.4 5785.74 16275.2 22114.7 9325.81 6811
internal_count=2813682 2376458 1554972 821486 1308180 1151088 437224 1126083 717818 323045 498441 246792 408265 272389 88564 234695 376690 58427 50656 25005 318263 164575 135663 318543 63971 351426 399275 162101 157092
shrinkage=0.1


Tree=15
num_leaves=30
num_cat=0
split_feature=5 6 4 5 0 3 3 6 6 1 4 1 5 3 1 2 0 1 3 4 6 5 5 0 4 2 2 3 6
split_gain=6083.9 1796.78 1732.63 998.929 890.381 938.216 792.941 784.929 599.679 549.958 527.999 493.722 647.755 571.022 488.408 402.83 376.082 362.824 384.101 484.279 337.304 404.528 328 324.752 296.704 296.632 272.225 268.673 266.863
threshold=59.447173322392466 11.539754208470542 0.0067158027514941611 16.697398754192054 0.46904339860193439 0.048015570225823943 0.030358637831940111 56.439428311441894 0.63312267293267166 1.4972417037763461 0.00562539819835831 1.5755001093916097 160.64868929486417 0.070433340478195369 0.95176957718090949 0.10377043611251056 -0.40201362821273501 1.0462350036312933 0.070639479782583656 0.011392496580255857 133.375659978936 189.99912297621887 26.652182931867376 0.94025314832106244 0.011941695800058655 0.043753392296301485 0.097133774147254284 0.043284387558040829 0.04508550771818421
decision_type=2 2 2 2 2 2 2 2 2 2 2 2 2 2 2 2 2 2 2 2 2 2 2 2 2 2 2 2 2
left_child=2 9 3 -1 5 14 -5 -6 -8 10 26 12 13 24 -3 17 -10 18 23 22 -13 -22 -20 -4 -7 -14 28 -18 -2
right_child=1 4 15 6 7 11 8 -9 16 -11 -12 20 25 -15 -16 -17 27 -19 19 -21 21 -23 -24 -25 -26 -27 -28 -29 -30
leaf_value=-0.050558594791198397 0.091859243290126569 -0.04629583614582513 -0.035943245313359511 -0.062913869005427447 0.044991133550784525 0.0017295984616421565 0.064610705020186079 -0.0044292565433967611 -0.047711257161718722 -0.0040398359529218988 0.028747835847790382 0.0015656526979055823 0.051944698516909464 0.021099972671377989 -0.0025248927428624147 -0.0080048445998544288 -0.0076758633764218726 -0.016468066845351514 -0.042052311396769626 -0.045447235641223882 -0.10745996718463467 -0.014866617802108729 0.016861585829013866 0.054315035511882749 -0.035983964661862683 0.021270880878152178 0.072993620773687401 0.024188959283384576 0.032694258224184973
leaf_weight=2517.5717110559344 918.04600600898266 4635.4881034083664 35753.567754007876 1196.6204348802567 11863.102551743388 19480.657085604966 2709.9064642339945 4407.9293151274323 934.59779780358076 2547.8518367297947 10642.29954270646 17653.262187458575 5560.5193228162825 19948.927098285407 5664.2292807735503 18079.669332388788 3342.9822285026312 32044.952255368233 1185.163974031806 2833.2778509035707 621.03041332215071 1964.0075848996639 4663.7124767266214 403.13148906826973 2336.2370771467686 7280.7154680155218 6588.888264156878 12692.796857312322 4495.4348050244153
leaf_count=13377 23009 41345 192406 8865 226326 273552 50444 56512 10245 31656 187271 190581 93174 303403 50665 146751 41258 176684 5010 13630 5366 19884 40786 3292 18582 124314 183325 195321 86648
internal_value=0 0.0161061 -0.0154305 0.00894632 0.0101687 0.00607263 0.0161221 0.0316028 0.0209277 0.040008 0.044964 0.00996668 0.0149112 0.00887205 -0.0222244 -0.0214357 0.0139522 -0.0245941 -0.0304015 -0.011514 -0.00337455 -0.0371113 0.0049238 -0.0349369 -0.00230892 0.0345533 0.0593427 0.0175461 0.0427278
internal_weight=0 126609 118358 23394.5 101416 85145.1 20876.9 16271 19680.3 25192.5 22644.7 74845.4 54607.1 41765.8 10299.7 94963.5 16970.4 76883.8 44838.9 8682.15 20238.3 2585.04 5848.88 36156.7 21816.9 12841.2 12002.4 16035.8 5413.48
internal_count=2813682 1915613 898069 319510 1403704 1120866 306133 282838 297268 511909 480253 1028856 813025 595537 92010 578559 246824 431808 255124 59426 215831 25250 45796 195698 292134 217488 292982 236579 109657
shrinkage=0.1


Tree=16
num_leaves=30
num_cat=0
split_feature=5 6 4 5 2 3 6 2 1 2 4 1 5 3 4 3 5 3 0 4 4 3 4 3 2 0 6 5 6
split_gain=4965.64 1553.62 1390.65 828.395 799.011 689.094 576.994 520.252 517.531 492.19 435.284 401.123 675.877 434.717 395.097 361.244 342.826 467.128 560.562 525.503 402.874 533.044 336.921 334.058 325.545 323.73 298.284 283.276 267.836
threshold=59.447173322392466 10.964173414617763 0.0067760517751413937 31.607094747561266 0.10377043611251056 0.04962025312926286 56.439428311441894 0.092214430950075074 0.95176957718090949 0.087639479319097949 0.0057461650146028269 1.4011524490079945 160.64868929486417 0.070639479782583656 0.015892663275006141 0.030358637831940111 35.479008926921786 0.056384778147787105 0.81947987687294421 0.010276920440363848 0.012478814542009305 0.085408053406624232 1.0000000180025095e-35 0.023557074295062031 0.036646181136754559 0.94025314832106244 0.04508550771818421 12.984137802407689 0.63312267293267166
decision_type=2 2 2 2 2 2 2 2 2 2 2 2 2 2 2 2 2 2 2 2 2 2 2 2 2 2 2 2 2
left_child=2 9 3 22 5 8 -6 -5 -3 26 -11 12 13 -7 16 -9 20 18 -18 -19 -4 25 -1 -24 -13 -22 -2 -25 -17
right_child=1 4 14 7 6 11 -8 15 -10 10 -12 24 -14 -15 -16 28 17 19 -20 -21 21 -23 23 27 -26 -27 -28 -29 -30
leaf_value=0.023386710054291673 0.074941389509767573 -0.043704536084110041 -0.037992020473663179 -0.002356889656192818 0.036798938486455816 -0.0031669001141979127 -0.00031682926063109095 -0.049115245911177143 -0.00028158384139233679 0.066417572716867365 0.025948936973490468 0.0054310929282167554 0.03782834419697001 0.019383011081275967 0.053827907215069831 0.074895462397133725 -0.028094789574845975 0.0081467228935712312 0.027897288589632252 -0.022812428538337284 -0.017603162191125205 -0.083349137383629618 -0.12182821929493429 -0.063584602150864436 -0.020257445888438721 0.056672919814032489 0.018524578427728696 -0.011291796125170103 0.030996891256483656
leaf_weight=1434.0302436389029 1026.8853736892343 4635.482120025903 17201.369513265789 6213.314715821296 15364.295663267374 17607.930264875293 5758.2074811123312 492.6619571223855 6729.0677096620202 7674.7201895155013 4066.0104786008596 18221.636252678931 9582.4588507115841 16616.889326758683 735.14254143089056 1684.6298375837505 21993.116717342287 14398.099839087576 1946.2390628643334 8854.476581312716 28261.179347343743 1227.3635410517454 376.30211895704269 1383.8948613703251 6764.6734642870724 599.23495905101299 10725.483221124858 4119.8546208553016 7942.8958940245211
leaf_count=19803 25623 40186 81253 86101 302339 234450 69253 3876 62900 216739 80359 202373 177368 256224 6534 38604 140754 136583 21020 48489 128085 5643 1653 5656 74198 4661 173601 29929 139425
internal_value=0 0.0147523 -0.0138086 0.00789565 0.00937809 0.00481864 0.0266808 0.0204203 -0.0179934 0.0379212 0.0524026 0.00858713 0.014354 0.00778157 -0.019199 0.0344044 -0.0197673 -0.0137373 -0.0235427 -0.00364238 -0.0257848 -0.0188058 -0.0200739 -0.0306731 -0.0015237 -0.016061 0.0234541 -0.0244406 0.0386783
internal_weight=0 124774 118864 23647.6 101281 80158.1 21122.5 16333.5 11364.5 23493.1 11740.7 68793.6 43807.3 34224.8 95216.2 10120.2 94481.1 47191.9 23939.4 23252.6 47289.1 30087.8 7314.08 5880.05 24986.3 28860.4 11752.4 5503.75 9627.53
internal_count=2813682 1915613 898069 325047 1419291 1047699 371592 268006 103086 496322 297098 944613 668042 490674 573022 181905 566488 346846 161774 185072 219642 138389 57041 37238 276571 132746 199224 35585 178029
shrinkage=0.1


Tree=17
num_leaves=30
num_cat=0
split_feature=5 6 4 0 2 5 6 3 6 4 4 1 3 0 1 3 4 3 1 0 1 0 1 0 5 4 6 4 1
split_gain=4066.37 1330.14 1253.98 989.028 771.936 549.96 476.023 444.605 377.993 374.789 322.892 410.748 432.506 364.806 318.027 301.723 300.378 275.336 273.996 343.137 621.968 297.365 327.492 269.782 265.495 297.53 324.967 262.727 271.651
threshold=61.004861228502413 37.261799642309349 0.0047602258613836665 0.43300579907344716 0.1012156770854887 36.811571719972186 0.5539149601461163 0.039458349384714798 0.5539149601461163 0.0073290681629283464 0.012028510240259376 1.4011524490079945 0.099045131393056804 -0.13234888211605109 1.9165756691805733 0.040781405978109461 0.015892663275006141 0.070230184397141973 1.9622727720298161 -0.93670544261112798 1.9389519352249069 -0.9217594319487179 1.7431741852156972 0.68224300033628982 189.99912297621887 0.0063960025132583217 18.227333373996533 0.015345561559039671 1.8186610439459752
decision_type=2 2 2 2 2 2 2 2 2 2 2 2 2 2 2 2 2 2 2 2 2 2 2 2 2 2 2 2 2
left_child=2 3 8 6 14 -6 -2 -8 -1 15 11 13 -13 -3 16 -7 -4 23 19 -14 21 -21 -23 -15 25 -5 -27 28 -12
right_child=1 10 4 24 5 9 7 -9 -10 -11 27 12 18 17 -16 -17 -18 -19 -20 20 -22 22 -24 -25 -26 26 -28 -29 -30
leaf_value=0.061495322143768294 0.055137181145225977 0.031624268594164347 -0.021483370405067419 0.065802521072610989 -0.020438901681802516 -0.01089703149499658 -0.03528399163139536 0.016643242666445617 0.012781370350317492 -0.0019326458209459791 -0.026412366043578828 -0.019637456611805614 0.050018560155590364 -0.0073952378018696894 0.0062264889152107809 0.03786583917488593 0.051619566192337762 0.018804232746331067 -0.063578747722345771 0.060739355465343453 -0.15526579725987855 0.021119292460462818 -0.031978378649778733 0.030072949384163317 -0.027692943133609517 -0.0033955420384152893 0.047575050889257307 0.061934785199955447 0.030810166440053299
leaf_weight=2092.0870125554502 3095.5578633770347 7964.9263240806758 80793.225625105202 6444.966421732679 9183.9476771131158 1630.9327825084329 1720.5541892107576 39570.844849003479 6675.1214569602162 11377.641408778727 6691.7548555210233 10057.346578620374 2100.1841270327568 12710.81261690706 4537.9284208603203 5716.4136164933443 566.01854868233204 11577.977910142392 466.57323186099529 949.69155655056238 238.28666108846664 2854.2197877839208 1958.7280723899603 2263.9972565323114 452.37485581450164 1607.3820153735578 5639.034848742187 419.81943303346634 947.022943764925
leaf_count=42775 77741 130202 482395 196376 55018 19918 13376 654104 107196 100404 59809 99990 24569 143058 27379 105410 5188 185128 4149 11240 2370 34738 21308 34467 12477 33486 117330 3770 8311
internal_value=0 0.013875 -0.0120359 0.0246528 -0.0148432 -0.000394651 0.017315 0.0144795 0.0244058 0.00943635 0.00356743 0.00639592 -0.00557253 0.0128539 -0.0195378 0.0270417 -0.0209748 0.00722337 0.0109379 0.0152295 0.0030542 0.00960078 -0.000489896 -0.00173053 0.0476809 0.0501713 0.0362689 -0.0150852 -0.0193182
internal_weight=0 119732 122573 58530.7 113806 27908.9 44387 41291.4 8767.21 18725 61201.3 53142.7 18625 34517.7 85897.2 7347.35 81359.2 26552.8 8567.68 8101.11 6000.93 5762.64 4812.95 14974.8 14143.8 13691.4 7246.42 8058.6 7638.78
internal_count=2813682 1867999 945683 1104890 795712 280750 745221 667480 149971 225732 763109 691219 198364 492855 514962 125328 487583 362653 98374 94225 69656 67286 56046 177525 359669 347192 150816 71890 68120
shrinkage=0.1


Tree=18
num_leaves=30
num_cat=0
split_feature=5 6 2 5 3 4 4 3 0 3 4 1 0 6 4 1 1 2 4 4 3 2 6 1 3 2 0 3 6
split_gain=3399.37 1829.39 1216.96 896.451 867.604 522.08 419.335 410.272 396.664 457.262 350.441 339.849 345.537 312.533 307.247 308.551 293.34 293.036 286.589 396.974 278.084 261.809 260.217 362.003 251.201 250.03 248.7 241.738 240.237
threshold=41.795851399633257 27.655927015446768 0.086909654816890086 77.990125047029025 0.038475618777483976 0.0057461650146028269 0.0045259090375394375 0.056195232883399997 0.84229998034397213 0.048015570225823943 0.0042157195575599458 1.3709797876559684 -0.11178256574103572 0.011814055962005911 0.014034180508393394 1.9459496894578787 0.92122676887795751 0.045392275541185599 0.014982912053782041 0.0114721077022305 0.08616443272045031 0.056246353737326622 90.376481369731579 1.1477191564414888 0.042964136274699527 0.025913114189958942 0.92766535317073562 0.076116870499722836 81.5376813255006
decision_type=2 2 2 2 2 2 2 2 2 2 2 2 2 2 2 2 2 2 2 2 2 2 2 2 2 2 2 2 2
left_child=6 2 7 8 -4 10 -1 16 9 -3 -6 12 21 -9 -8 20 -2 -15 19 27 26 -5 23 -21 -14 -13 -16 -11 -10
right_child=1 3 4 11 5 -7 14 13 28 18 -12 25 24 17 15 -17 -18 -19 -20 22 -22 -23 -24 -25 -26 -27 -28 -29 -30
leaf_value=0.016034280366764287 -0.034227106540333667 -0.029721890638082529 -0.02201747066487867 0.042998625817444895 0.022180897835408216 0.029881665164602351 -0.021867168278101159 0.0790819974606011 0.045137772438436981 -0.0068374425801342635 0.065764793280000663 0.0087453224254534015 -0.027032771647815104 -0.0017763670517825397 -0.0074822016919422162 0.069092288259051615 0.002989722729414575 0.023015339831470243 0.068820078099111059 -0.075585349925369111 -0.070250107237941561 0.0056196236385587925 -0.013566848531521999 0.0049480469938686603 0.011891232352971506 -0.012973111792426703 0.07535103747745156 0.015811456009850119 -0.037405219152297074
leaf_weight=3676.9990827850997 3236.9639215022326 10871.906871642917 2448.6989199854434 6343.9456591829658 2318.1353093013167 19453.447719877586 57298.040948007256 742.35129981860518 1935.928780734539 18869.914899338037 9036.1430540364236 11925.398991979659 1781.2138262614608 8003.6811880730093 12732.500380426645 533.95122423022985 6125.6549367085099 11792.092867907137 502.83224856108427 1916.7612142153084 690.16994575411081 2659.3160659708083 4954.9599015489221 787.47521000355482 23969.820435289294 9542.0678815469146 373.08675668388605 6281.1233143433928 431.11932440474629
leaf_count=54541 40131 69618 32796 110004 62207 375552 302641 21451 27554 190959 269918 134767 15902 111593 61425 3194 75696 202752 3500 10453 3457 41956 30587 5191 366976 101998 3009 79012 4842
internal_value=0 0.00871686 0.0221111 0.000485734 0.0352734 0.039827 -0.0169011 0.00747173 -0.00977799 -0.0119145 0.0568665 0.00898417 0.0150947 0.0153806 -0.0185919 -0.00549538 -0.00987735 0.0129917 -0.00610298 -0.00725121 -0.00838223 0.0319579 -0.0271838 -0.052134 0.00919884 -0.000908298 -0.00512412 -0.00118119 0.0301039
internal_weight=0 165931 63157.2 102774 33256.4 30807.7 75304.7 29900.7 46552 44185 11354.3 56221.8 34754.3 20538.1 71627.7 14329.7 9362.62 19795.8 33313.1 32810.2 13795.8 9003.26 7659.2 2704.24 25751 21467.5 13105.6 25151 2367.05
internal_count=2813682 2385415 1192096 1193319 740473 707677 428267 451623 421716 389320 332125 771603 534838 335796 373726 71085 115827 314345 319702 316202 67891 151960 46231 15644 382878 236765 64434 269971 32396
shrinkage=0.1


Tree=19
num_leaves=30
num_cat=0
split_feature=5 6 4 2 2 6 3 5 6 1 5 1 3 4 3 0 6 6 0 1 0 4 1 0 1 0 1 4 2
split_gain=2771.76 1032.6 897.73 730.494 560.293 439.704 423.531 410.623 339.805 338.981 542.012 326.261 314.688 302.067 673.691 399.747 342.072 318.882 297.317 275.711 264.117 260.863 260.146 383.18 491.637 320.591 261.344 259.89 259.87
threshold=61.640955999587952 1.6834337072050973 0.0047602258613836665 0.096298176652722209 0.1042695704006654 54.603528875680794 0.044494692661152753 35.479008926921786 0.63312267293267166 1.6644267054979502 160.64868929486417 0.93857725015484728 0.066044568046998542 1.0000000180025095e-35 0.099999745782883995 -0.91569622894153013 125.00364715998127 65.542304961302463 0.48007965851575141 1.3119630227120618 -0.78128845372672251 0.0066595501370499046 1.9622727720298161 -0.93670544261112798 1.9389519352249069 -0.9217594319487179 1.9229351815323323 0.0047169573028498597 0.041883613136310907
decision_type=2 2 2 2 2 2 2 2 2 2 2 2 2 2 2 2 2 2 2 2 2 2 2 2 2 2 2 2 2
left_child=2 19 8 6 -4 18 11 -6 -1 10 12 -3 -8 14 15 17 -15 -11 -5 27 -17 -9 23 -16 25 -25 -27 -2 -12
right_child=1 3 4 5 7 -7 9 21 -10 13 28 -13 -14 16 22 20 -18 -19 -20 -21 -22 -23 -24 24 -26 26 -28 -29 -30
leaf_value=0.056608358171160049 0.076039283031012705 -0.048555768118860761 -0.015770566578820724 0.017498683457583913 -0.017654303480999507 0.0020682780058499015 -0.0048467766843075244 0.029599812710942655 0.010239721191591097 -0.085182174378319431 0.042376427200262107 -0.0026152170019530891 0.012878435451819954 0.014825125491732869 0.042443664025929896 -0.12220352286765675 -0.072347673006198238 0.0023320071400511461 0.041487700837008423 -0.013197572135754647 -0.033610150081899569 0.0021671021570835087 -0.064033840948281767 0.050940720726560876 -0.1282223852561816 -0.0075729579900744156 -0.12799074526290918 0.034081605641308077 0.015418025299873059
leaf_weight=2086.7595001794398 3240.4438472557813 2443.6021549813449 89496.975742217153 9359.9301350824535 8267.7565367147326 7189.309978812933 18174.328509256244 4670.7537936344743 6513.8359453398734 583.97511061280966 6468.4484872706234 4207.8267626315355 22312.961610645056 7872.2263096645474 2101.9882548376918 959.23599892854691 477.45003040134907 1450.6615778207779 11531.81284917146 619.03783536143601 518.34601644426584 13443.081002335995 560.96638821810484 966.01455948501825 321.1030395179987 3403.7843271419406 190.30891664326191 2711.6377226430923 7995.8789909593761
leaf_count=46220 106951 18150 539715 192655 47448 87928 238540 93430 106817 5975 113432 34766 352484 85706 25655 8573 3843 13686 282623 10284 4590 131114 5043 11998 3046 37929 2072 61002 142007
internal_value=0 0.0118198 -0.00968167 0.00950082 -0.0119953 0.0233996 0.00468294 0.0008121 0.0214901 0.00684551 0.0108579 -0.0194929 0.00492177 -0.00451627 -0.0153583 -0.0515358 0.00984042 -0.022786 0.0307401 0.0503184 -0.0911244 0.00924078 0.00148428 0.0067474 -0.00862442 -0.00020285 -0.0139491 0.0569243 0.0274738
internal_weight=0 115661 124479 109090 115879 28081.1 81009.1 26381.6 8600.6 74357.7 54951.6 6651.43 40487.3 19406.1 11056.4 3512.22 8349.68 2034.64 20891.7 6571.12 1477.58 18113.8 7544.17 6983.2 4881.21 4560.11 3594.09 5952.08 14464.3
internal_count=2813682 1848938 964744 1670701 811707 563206 1107495 271992 153037 1054579 846463 52916 591024 208116 118567 32824 89549 19661 475278 178237 13163 224544 85743 80700 55045 51999 40001 167953 255439
shrinkage=0.1


Tree=20
num_leaves=30
num_cat=0
split_feature=5 6 3 6 2 0 4 5 1 1 1 4 3 4 6 4 3 1 3 5 6 4 0 1 6 0 3 0 4
split_gain=2333.73 1404.64 1049.86 918.758 700.574 593.198 403.81 347.262 345.336 331.774 328.845 304.768 301.734 270.464 259.442 283.943 291.328 239.867 228.217 298.514 293.012 224.812 224.031 223.149 223.376 213.79 208.145 203.296 203.21
threshold=41.795851399633257 1.6834337072050973 0.047801259021911922 37.261799642309349 0.090676992285550401 0.71320480175768075 0.0047602258613836665 80.455328248634103 0.98656187331452938 1.3853480031124514 1.3709797876559684 1.0000000180025095e-35 0.039458349384714798 0.015345561559039671 0.20174391642002834 0.013861228517856114 0.082191850298337601 1.9459496894578787 0.099045131393056804 142.81771862563164 89.067519749050177 0.011941695800058655 0.94025314832106244 1.6907123146689458 113.21454077644721 0.2718856363787322 0.078321118764233158 0.48007965851575141 0.0051197041801646298
decision_type=2 2 2 2 2 2 2 2 2 2 2 2 2 2 2 2 2 2 2 2 2 2 2 2 2 2 2 2 2
left_child=11 6 5 4 -4 8 9 13 12 -2 -9 -1 -3 21 -13 -16 17 22 19 20 -12 26 -17 24 -23 -14 -5 -6 -10
right_child=1 2 3 7 27 -7 -8 10 28 -11 18 14 25 -15 15 16 -18 -19 -20 -21 -22 23 -24 -25 -26 -27 -28 -29 -30
leaf_value=0.02038509728031122 0.073247523031726144 -0.044203374321729272 0.0090743688198373224 -0.0082065454439392543 0.023333288225408949 0.023784353263424401 0.023884682072297634 0.015255740851540781 0.031173049750595302 -0.034670228723650685 0.017210742953548342 0.036296203351988562 -0.032237362580795702 0.074416068014627065 -0.019214046474899209 -0.0049595037344439073 -0.049665690198536866 0.062950200896366576 0.0087448980957341247 -0.033291195080716089 -0.043001290599370003 -0.04739182170452641 0.077211404172704987 0.024161733663394743 -0.0083043466118320232 -0.00073001454970089382 0.015026112064302164 0.042054455503979488 -0.0095697306423493181
leaf_weight=2514.197553332895 4352.8007128275931 6372.3729282878339 33219.228069812059 17812.137408159673 13080.814582217485 3849.5368210542947 4378.2742205690593 22855.971673168242 1479.6234321445227 304.82604239881039 3540.0009060800076 972.08047648146749 4059.9922884423286 404.07959874719381 55179.443545173854 15051.823272004724 1320.4570575281978 569.32926821708679 8437.5090012215078 4263.2341351658106 1047.3055425696075 3420.9029769822955 339.27593979984522 846.93286875635386 2553.2884084656835 4586.4111846312881 4921.8528737947345 10421.881791463122 7090.8161464035511
leaf_count=39390 148045 45465 504678 167371 264760 60369 87184 364259 19319 5045 38232 12057 33843 3051 293222 70877 6424 3435 99644 43737 9683 19368 2862 5974 16641 65123 60566 272574 50484
internal_value=0 0.00736755 0.00512292 0.00896012 0.0184223 -0.012613 0.0456885 0.00130407 -0.0185527 0.0661847 0.00738422 -0.0138503 -0.0276928 -0.00684306 -0.0150224 -0.0157109 -0.00452498 -0.000790343 -0.00302246 -0.0142407 0.00346403 -0.00795404 -0.00314816 -0.0238762 -0.0306864 -0.0155246 -0.00317673 0.0316349 -0.00253579
internal_weight=0 163300 154264 126825 56721.9 27438.8 9035.9 70103.2 23589.2 4657.63 40144 75946.6 15018.8 29959.2 73432.4 72460.3 17280.9 15960.4 17288 8850.54 4587.31 29555.1 15391.1 6821.12 5974.19 8646.4 22734 23502.7 8570.44
internal_count=2813682 2385415 2145141 1870538 1042012 274603 240274 828526 214234 153090 555555 428267 144431 272971 388877 376820 83598 77174 191296 91652 47915 269920 73739 41983 36009 98966 227937 537334 69803
shrinkage=0.1


Tree=21
num_leaves=30
num_cat=0
split_feature=5 6 4 5 3 1 0 6 3 1 2 6 6 1 3 4 5 1 5 3 4 6 3 2 0 4 6 5 0
split_gain=1900.62 776.513 722.737 629.505 505.992 471.106 388.987 365.315 359.835 331.924 295.753 292.928 265.413 257.971 329.48 343.925 246.54 236.362 479.651 345.177 233.972 226.784 225.634 223.435 284.854 210.074 209.463 201.392 199.197
threshold=64.822536493936255 11.539754208470542 0.0057147151019396238 15.577971607978315 0.031480662911273619 1.4190980487345992 0.52256692279581951 59.464200888566914 0.042964136274699527 1.5755001093916097 0.10813546133063409 0.63312267293267166 0.63312267293267166 1.0462350036312933 0.073432188324341355 0.011649044569189981 21.547336047189535 1.4373684317509021 160.64868929486417 0.082191850298337601 0.010587996591739677 5.0144663048564704 0.041563955145059082 0.050795019211642069 0.06566384291722481 0.0055176078635886363 76.185640246253243 35.479008926921786 0.94025314832106244
decision_type=2 2 2 2 2 2 2 2 2 2 2 2 2 2 2 2 2 2 2 2 2 2 2 2 2 2 2 2 2
left_child=2 9 3 21 -5 12 8 25 -3 11 13 -2 -6 14 28 16 -16 18 19 20 -10 -1 -13 24 -20 -8 -22 -12 -4
right_child=1 6 10 4 5 -7 7 -9 17 -11 27 22 -14 -15 15 -17 -18 -19 23 -21 26 -23 -24 -25 -26 -27 -28 -29 -30
leaf_value=-0.079646930892648016 0.059465035331235178 -0.021029550555073356 -0.020945100959760803 -0.042681440484023038 0.063013232949133607 -0.048843689959168421 -0.013117014585938017 -0.0046325359544338784 0.0045706510294865428 -0.0082405455938380119 -0.014976985760169216 -0.026194052227363554 0.023614367434555941 -0.0061672207824899419 -0.042276743399455315 -0.032171165624569648 0.018749011865508203 -0.0021343208619229647 0.050727788168000755 0.022481260604891244 -0.046398629711103784 -0.010283828825526732 0.02992422821995043 0.01583720296380714 -0.088883891766376788 0.042433196535672665 -0.0061627508209251914 0.0060049379857062485 0.048177954923924793
leaf_weight=859.30778160691261 3437.869779933244 5321.503567410633 46847.445717634633 1192.5912989713252 2057.8226855974644 802.1668036468327 759.09660174325109 3014.3582325428724 22697.0466324687 2158.2457104884088 6390.0027021467686 758.81292188167572 10111.195769453421 36331.645222958177 744.31978623569012 2388.2088085636497 5986.044172110036 24216.355194117874 4355.7009963206947 8622.5957079082727 1753.4685029834509 1044.0762192681432 12838.008694928139 5362.5127567537129 151.21685349196196 6597.6418380793184 4935.9088663756847 16101.987427810207 420.64741355925798
leaf_count=3706 115324 40735 282136 9574 55636 9128 19832 41695 368724 27541 35041 9386 183904 205749 3017 11469 57642 264928 91564 149116 16248 6966 305204 106327 2899 147428 46466 192565 3732
internal_value=0 0.0104845 -0.00747213 0.0123966 0.0196528 0.0253839 0.00650087 0.0246876 0.00406448 0.0287053 -0.010243 0.0333862 0.0302769 -0.0127385 -0.0169725 0.000431376 0.0120001 0.00591673 0.00998886 0.00488857 -0.000273495 -0.0415987 0.0267924 0.029631 0.0460435 0.0367013 -0.0167097 4.3947e-05 -0.02033
internal_weight=0 106980 131277 16067.2 14163.8 12971.2 87787.4 10371.1 77416.3 19192.9 115210 17034.7 12169 92718.3 56386.7 9118.57 6730.36 72094.8 47878.5 38009 29386.4 1903.38 13596.8 9869.43 4506.92 7356.74 6689.38 22492 47268.1
internal_count=2813682 1753417 1060265 268914 258242 248668 1295962 208955 1087007 457455 791351 429914 239540 563745 357996 72128 60659 1046272 781344 580554 431438 10672 314590 200790 94463 167260 62714 227606 285868
shrinkage=0.1


Tree=22
num_leaves=30
num_cat=0
split_feature=5 6 3 6 2 0 4 4 1 4 3 1 0 1 3 4 4 1 6 6 4 1 6 4 0 1 1 2 5
split_gain=1590.53 1060.37 786.215 716.155 565.437 454.338 378.116 330.811 227.889 219.876 219.175 261.455 278.716 384.262 218.722 214.896 214.603 213.119 213.975 212.821 195.732 234.375 341.445 262.476 548.739 209.27 193.473 184.221 183.509
threshold=41.795851399633257 1.0272895471273957 0.051173296301342049 37.261799642309349 0.086909654816890086 0.67493791945730386 0.0051197041801646298 0.0047169573028498597 1.4011524490079945 1.0000000180025095e-35 0.08616443272045031 1.9583193878989267 -0.93670544261112798 1.9389519352249069 0.037395105950635013 0.014220103327693504 0.015345561559039671 1.9459496894578787 151.07333075513279 0.20174391642002834 0.012115740324632373 1.4190980487345992 73.0021924794966 0.010000018929266077 0.66007062767152724 0.99172169670592136 0.93857725015484728 0.010773015777159089 141.46341689533349
decision_type=2 2 2 2 2 2 2 2 2 2 2 2 2 2 2 2 2 2 2 2 2 2 2 2 2 2 2 2 2
left_child=9 7 5 4 -4 6 27 8 -2 -1 16 12 -12 -14 26 19 20 18 -17 -11 21 22 23 -5 -25 -22 -8 -3 -23
right_child=1 2 3 10 -6 -7 14 -9 -10 15 11 -13 13 -15 -16 17 -18 -19 -20 -21 25 28 -24 24 -26 -27 -28 -29 -30
leaf_value=0.018112963008347711 0.073080474468072462 0.052785649761397303 0.0079200823012717525 0.0025814782762913682 0.028895219044800965 0.019360825138338547 -0.044443303929517466 0.021578328125959952 -0.029342275772131655 0.032807505591493091 0.047241275284647048 -0.041670309821147736 0.010760485582361329 -0.097323216382409997 -0.011223409424528855 0.0067521962937746195 0.067485059064303507 0.068693931822604415 -0.023272284199940371 -0.015356840923396581 -0.032453850745223708 -0.0047408435138889711 0.01662348778638743 -0.040279283173744747 0.048806027672214078 0.0019948795946214382 -0.010503203014811537 0.0022441018642120995 -0.037052889510275612
leaf_weight=2453.9725019112229 3290.3225049059838 1124.0835750289261 28819.186085704714 12505.356350399554 23196.978717949241 5160.1473840866238 4381.7234985753894 3113.1223606057465 232.59111550822854 931.32299289107323 2100.0385720357299 920.73466026037931 16328.726660914719 335.69536878913641 21736.594255680218 7711.6457514539361 436.7789432965219 437.10034313797951 3429.0854670777917 61398.784733269364 4205.6935386881232 5400.7866268903017 12483.700605496764 3995.3515573553741 836.14184626191854 3036.7285022959113 2723.502290058881 2012.0305079836398 2605.5947005935013
leaf_count=39390 129230 17427 444934 177869 547374 86384 27442 68471 3970 12057 25870 8201 232393 2792 216658 37970 3728 2834 17414 318602 30167 50920 163611 37881 11130 23149 15750 36072 23992
internal_value=0 0.00618858 0.00450572 0.00852322 0.0172741 -0.00817347 -0.0126166 0.0453297 0.0663183 -0.0113354 0.0015409 0.0103568 0.0129096 0.0085832 -0.0162023 -0.0123132 -0.00227271 0.00019814 -0.00248925 -0.0146372 -0.00294875 -6.51726e-05 0.00401347 -0.0050666 -0.0248621 -0.0180096 -0.0314337 0.0203598 -0.0152565
internal_weight=0 160982 154346 117207 52016.2 37138.1 31977.9 6636.04 3522.91 76361.9 65191.3 19685.2 18764.5 16664.4 28841.8 73907.9 45506.1 11577.8 11140.7 62330.1 45069.4 37826.9 29820.6 17336.8 4831.49 7242.42 7105.23 3136.11 8006.38
internal_count=2813682 2385415 2183744 1784011 992308 399733 313349 201671 133200 428267 791703 269256 261055 235185 259850 388877 522447 58218 55384 330659 518719 465403 390491 226880 49011 53316 43192 53499 74912
shrinkage=0.1


Tree=23
num_leaves=30
num_cat=0
split_feature=5 2 6 6 5 4 6 4 1 0 3 6 1 4 6 3 0 4 3 6 6 6 5 6 4 0 6 0 1
split_gain=1345.64 566.32 531.799 388.165 327.156 320.184 292.015 284.13 272.134 271.926 269.105 254.372 236.953 221.99 220.235 217.878 207.658 188.856 185.507 184.549 214.447 328.976 263.11 184.042 179.701 264.204 302.077 244.278 174.996
threshold=67.948719980807184 0.1027227011440819 10.964173414617763 0.63312267293267166 36.168828140797238 0.0073290681629283464 133.375659978936 1.0000000180025095e-35 1.4190980487345992 0.46904339860193439 0.023557074295062031 56.439428311441894 1.4972417037763461 0.015892663275006141 0.35528666337677356 0.035583671084629606 -0.9075214020907878 0.0054652845155772891 0.037939133837854529 66.629184442752475 44.817924000911766 45.283966866580748 115.74981250851131 6.3500872324740678 0.010587996591739677 -0.67523675868287669 135.00015093706321 -0.92916646413538528 1.4373684317509021
decision_type=2 2 2 2 2 2 2 2 2 2 2 2 2 2 2 2 2 2 2 2 2 2 2 2 2 2 2 2 2
left_child=1 7 12 10 23 15 9 8 -1 19 -3 17 14 16 -2 -6 -9 -11 -16 20 -4 22 -22 -5 25 26 -8 -28 -26
right_child=2 3 6 4 5 -7 24 13 -10 11 -12 -13 -14 -15 18 -17 -18 -19 -20 -21 21 -23 -24 -25 28 -27 27 -29 -30
leaf_value=0.029749092679634395 0.059458886345438777 -0.11219998943275933 0.0066830150460137211 -0.045044852329631624 -0.019947707106128313 -0.00099781839971727461 -0.15424072282209511 0.0087059953078156577 -0.032809191227635474 -0.01226198566015241 0.052305975704708629 -0.0041963139907940468 -0.0046176472510809329 0.049422193787585951 -0.042977420935505058 0.028502518345019098 -0.01214016846851893 0.038224749791746365 0.027410385024000047 0.01381859912417654 -0.01765248931997691 -0.0056861892057703681 -0.16664136971411891 -0.0071419015272146504 -0.019002645063499236 0.015742249060506457 0.014013300121676975 -0.058801575215542003 -0.084439762881794167
leaf_weight=3207.5199296232313 2214.6962896473706 104.15881736576557 30278.736544262618 1521.7022934816778 1045.0935140345246 13509.147962629795 174.42763450741768 5037.4835287816823 887.84397325664759 832.38342306390405 2194.7195407599211 2484.2451501116157 2224.2605909965932 610.44976267591119 386.76081476546824 8295.255179407075 92967.501929923892 6743.6697246879339 11739.436628362164 19868.188599959016 242.05350478738546 11900.135495159775 232.27016768231988 8100.9806228354573 3371.3403969481587 3992.520590942353 1092.255965963006 796.84557048976421 465.04997232556343
leaf_count=58015 83904 552 486672 10647 11389 133939 1383 31020 10107 22354 59648 33520 28800 5716 3669 189919 596219 161105 296509 257485 3207 154145 2870 48985 32896 67119 11514 6890 3484
internal_value=0 -0.00588809 0.00940072 0.00514272 0.00233146 0.00884522 0.00611667 -0.00962239 0.0161869 0.00831343 0.0448525 0.0235722 0.0257512 -0.0106942 0.0304614 0.0230814 -0.0110687 0.0326778 0.0251654 0.00585813 0.00215009 -0.00894141 -0.0906104 -0.0131358 -0.0100011 0.000726174 -0.028327 -0.0167009 -0.026935
internal_weight=0 137482 99039.3 34771.1 32472.2 22849.5 82474.1 102711 4095.36 72581.7 2298.88 10060.3 16565.2 98615.4 14340.9 9340.35 98005 7576.05 12126.2 62521.4 42653.2 12374.5 474.324 9622.68 9892.44 6056.05 2063.53 1889.1 3836.39
internal_count=2813682 1156156 1657526 455079 394879 335247 1244644 701077 68122 1121358 60200 216979 412882 632955 384082 201308 627239 183459 300178 904379 646894 160222 6077 59632 123286 86906 19787 18404 36380
shrinkage=0.1


Tree=24
num_leaves=30
num_cat=0
split_feature=4 3 6 5 1 5 6 4 3 4 0 1 3 4 4 0 1 4 3 3 4 2 2 0 2 0 1 6 5
split_gain=1106.33 734.92 737.942 445.863 425.231 458.247 316.393 311.836 327.653 299.726 262.71 257.216 342.045 499.78 247.572 242.692 402.674 357.433 336.217 211.323 210.008 445.381 438.16 322.827 226.107 270.755 256.656 204.743 327.747
threshold=0.008744264866964167 0.032442339323865574 0.5539149601461163 77.990125047029025 1.6644267054979502 36.168828140797238 133.375659978936 0.0057800908857697014 0.053704020515725676 0.015345561559039671 0.86664782569294774 1.1274066346078035 0.071702923734972543 0.011649044569189981 0.0047602258613836665 -0.91569622894153013 1.9424116924350414 0.0045259090375394375 0.096651206946516202 0.037395105950635013 0.0042157195575599458 0.091831802957570138 0.041883613136310907 0.079229577944940274 0.1844584107178385 0.75751497436999393 1.3853480031124514 106.88307717071241 189.99912297621887
decision_type=2 2 2 2 2 2 2 2 2 2 2 2 2 2 2 2 2 2 2 2 2 2 2 2 2 2 2 2 2
left_child=1 -1 14 9 5 -4 -5 20 -9 10 11 12 -2 -14 -3 16 -6 18 -17 -12 22 -22 23 -7 26 -26 -24 28 -18
right_child=3 2 4 6 15 7 -8 8 -10 -11 19 -13 13 -15 -16 17 27 -19 -20 -21 21 -23 24 -25 25 -27 -28 -29 -30
leaf_value=-0.031890471162553606 -0.018647568210664506 0.062580255318129149 -0.0093362307228653518 0.0099140190041257063 0.029958052049968653 0.039361279478795141 -0.021532751462230514 -0.0037541820305177446 0.01364388544974441 0.027342605887320889 0.039084838901626742 -0.0032908128057961639 0.016832394275724361 -0.026774110260871887 0.019355044699318317 -0.070561139611010931 0.0027212665410172002 0.0064084406669240174 -0.017232812515350037 -0.0077009874454267773 0.0013879754484379648 0.048455864350177992 0.013505183264950475 -0.059500531834176654 -0.123806639189272 0.0061556426187041541 -0.023933717315509945 0.012615157954609661 -0.062912703505483281
leaf_weight=4571.5791193079203 49652.887812167406 3225.1475085560232 10836.450540374964 22048.344452660531 3627.6336168535054 7117.4514309298247 3742.5323085188866 16750.64537534304 30597.019268991426 2157.1841432265937 1886.9937837794423 26591.30514030531 7084.5003701262176 4178.5053883641958 2249.0445414707065 1787.4147914871573 1529.9664556868374 3366.9736225754023 3491.7511916682124 1976.7844012342393 2983.3636887744069 6164.3997561819851 11724.28365428187 346.37743595056236 293.5298546589911 353.18504422716796 2169.9773843288422 1801.9325827285647 1513.3986527398229
leaf_count=35144 270671 125540 80564 288977 41966 133848 37528 215985 542169 14889 19036 146832 66453 22083 46911 15365 16670 36805 38408 19526 55906 201919 254926 6702 7760 8680 27750 19031 15638
internal_value=0 0.00740969 0.00901483 -0.00629008 0.00717358 0.00994022 0.00535076 0.0126012 0.0074888 -0.0095001 -0.0103699 -0.0114966 -0.0150787 0.000654651 0.0448214 -0.00726428 0.0047634 -0.019051 -0.0352887 0.0151483 0.0203714 0.0331056 0.0150775 0.0347734 0.00496776 -0.0528314 0.00765805 -0.0140996 -0.0299171
internal_weight=0 116502 111930 119319 106456 89336.7 25790.9 78500.2 47347.7 93528.2 91371 87507.2 60915.9 11263 5474.19 17119.1 8472.93 8646.14 5279.17 3863.78 31152.6 9147.76 22004.8 7463.83 14541 646.715 13894.3 4845.3 3043.37
internal_count=2813682 1927687 1892543 885995 1720092 1536209 326505 1455645 758154 559490 544601 506039 359207 88536 172451 183883 93305 90578 53773 38562 697491 257825 439666 140550 299116 16440 282676 51339 32308
shrinkage=0.1


Tree=25
num_leaves=30
num_cat=0
split_feature=5 2 0 6 6 5 4 3 4 1 6 1 3 4 5 6 5 3 6 6 1 2 1 5 2 3 4 3 6
split_gain=934.238 443.505 428.969 327.079 273.508 223.176 281.748 217.802 215.69 209.144 198.808 197.027 261.845 223.129 240.631 183.862 172.468 168.755 167.53 161.102 154.724 344.478 288.68 302.235 298.872 225.732 172.427 381.876 256.461
threshold=67.948719980807184 0.096719362731663608 0.3208456595659725 0.48562027125238677 30.625930311505488 36.811571719972186 0.0057461650146028269 0.038951248527400999 1.0000000180025095e-35 1.4190980487345992 133.375659978936 1.0462350036312933 0.06905331000717245 0.010367936930972214 21.547336047189535 0.068175815861437186 117.712269923921 0.023557074295062031 13.492851485817882 4.4729845187707591 0.92122676887795751 0.079881076085358188 1.3709797876559684 189.99912297621887 0.059085728432689479 0.053704020515725676 1.0000000180025095e-35 0.099999745782883995 62.668287589635135
decision_type=2 2 2 2 2 2 2 2 2 2 2 2 2 2 2 2 2 2 2 2 2 2 2 2 2 2 2 2 2
left_child=2 10 8 17 7 19 18 16 9 -1 15 12 -10 14 -14 -2 -3 -4 -7 -5 21 -17 23 -22 -25 -23 27 28 -24
right_child=1 4 3 5 -6 6 -8 -9 11 -11 -12 -13 13 -15 -16 20 -18 -19 -20 -21 22 25 26 24 -26 -27 -28 -29 -30
leaf_value=0.02766785531355322 0.054683554619542309 -0.017173055921957718 -0.083315799771262508 -0.043603696122557795 0.0088016668607209768 0.04214179645255773 0.0028604410561145228 0.033254381666644107 -0.016897440298683824 -0.026890728708328229 -0.010174312280486951 -0.0039029726386673722 -0.040851041725382481 -0.017860830380761705 0.016227298184051119 -0.02258947766286409 -0.21545189582087165 0.050107235722499789 -0.014531777548364525 -0.0052926365584161266 0.010275153712568508 -0.017413897418682128 -0.053023391420128733 0.052173285861055935 -0.0012399028403456899 0.014748995635811635 0.010064643934419863 0.0062758603168725129 -0.0076111603100620902
leaf_weight=2953.0751140024513 768.72539269179106 337.25150554068387 99.807394456118345 1211.6278405077755 10973.541633673012 3109.0461302753538 21301.096094777808 11387.829028595239 42945.513749070466 921.98454600572586 8509.4722313918173 38548.219964906573 827.77434723079205 4551.6700552031398 6856.1421901453286 5755.0274728331715 50.428433371707797 1888.4692314397544 626.74001540243626 11665.250618234277 17291.737587055191 2858.5780562087893 2302.4809267744422 3841.3115119244903 1440.4011941123754 9221.5385359376669 11553.377971235663 8556.0109546836466 2704.0820391103625
leaf_count=55429 29922 5584 504 8987 171029 92433 253638 366129 268465 10107 104453 225499 3358 23253 76956 90371 855 55056 14082 68389 272301 34205 25163 87655 30756 173188 132276 105808 27831
internal_value=0 0.00793345 -0.00486146 0.00387406 0.0201601 0.00180073 0.00730297 0.0307451 -0.00843266 0.0146868 0.00421507 -0.0093885 -0.0132206 -0.000315096 0.0100784 0.0060621 -0.0429647 0.0434097 0.0326339 -0.00889745 0.00549168 -0.00245435 0.00846338 0.0166702 0.0376067 0.00713813 0.00108737 -0.00655998 -0.0284959
internal_weight=0 97551.8 137506 39902 22749.1 37913.8 25036.9 11775.5 97604.4 3875.06 74802.7 93729.3 55181.1 12235.6 7683.92 66293.3 387.68 1988.28 3735.79 12876.9 65524.5 17835.1 47689.4 22573.5 5281.71 12080.1 25116 13562.6 5006.56
internal_count=2813682 1657526 1156156 493089 543597 437529 360153 372568 663067 65536 1113929 597531 372032 103567 80314 1009476 6439 55560 106515 77376 979554 297764 681790 390712 118411 207393 291078 158802 52994
shrinkage=0.1


Tree=26
num_leaves=30
num_cat=0
split_feature=4 3 6 2 5 4 5 6 6 4 6 5 0 4 2 1 1 2 5 6 3 1 4 4 2 3 6 6 2
split_gain=775.748 557.955 584.49 372.409 299.382 251.767 249.739 241.691 237.082 243.466 377.712 206.724 215.33 343.124 238.687 270.41 256.54 212.837 251.562 267.581 404.477 212.74 200.014 202.026 199.743 196.257 192.974 184.726 179.181
threshold=0.008744264866964167 0.032442339323865574 0.20174391642002834 0.097133774147254284 77.990125047029025 0.014606214510049448 36.168828140797238 148.54508098126317 29.816326655699019 0.0066595501370499046 19.782949648380939 16.697398754192054 -0.67523675868287669 1.0000000180025095e-35 0.041041149292122055 1.0927748233372931 1.1877968397624028 0.02428143145191761 189.99912297621887 62.668287589635135 0.099045131393056804 1.3853480031124514 0.0042157195575599458 0.0049566374393195485 0.023399274731431035 0.053151666089291671 23.037731910042584 151.07333075513279 0.16952588372113561
decision_type=2 2 2 2 2 2 2 2 2 2 2 2 2 2 2 2 2 2 2 2 2 2 2 2 2 2 2 2 2
left_child=1 26 -3 11 5 -2 -5 -6 9 22 -11 -4 17 14 15 -14 -17 24 -19 20 -20 -16 28 -24 -13 -15 -1 -7 -8
right_child=4 2 3 6 7 27 8 -9 -10 10 -12 12 13 25 21 16 -18 18 19 -21 -22 -23 23 -25 -26 -27 -28 -29 -30
leaf_value=-0.04243731791998509 -0.0092878202517652827 0.050835022435714833 -0.032609686484173922 -0.0056241188968556011 0.0075131477821726292 0.023117475150472421 0.016437177257855439 -0.025688266386932987 0.0010324077148204586 -0.014298194466529066 0.026509747000783276 -0.00039559616013499095 -0.027001799764775854 -0.010162016323355229 0.015225360298203039 0.065417370031358807 0.023792451930181053 0.00065830871357560911 -0.15066276707952381 -0.015467823461507295 -0.036901552023942193 -0.017995498479888232 0.063838190258286645 0.030506373108728575 0.068002111445237101 0.0056159509894483243 0.00043079976672688418 -0.011096504337374261 -0.069577222396776134
leaf_weight=3045.5708520226181 87063.598175175488 3056.008714094758 1635.4000373780727 4859.9838698580861 23142.962112640962 4336.6748620159924 1088.6861373595893 2421.9918688125908 5867.1620615981519 3535.2471411451697 6328.2103304546326 9624.8129849135876 720.7804843429476 11480.075593948364 9211.1000066976994 2203.8271094970405 4512.0144305657595 3098.4638554602861 443.25131465494633 2153.1918930783868 1059.8445050753653 2437.8188719246536 2294.1741606052965 8768.2219154499471 446.77959970012307 25164.479983618483 1602.6983099766076 2480.7528646476567 311.47555155307055
leaf_count=21824 521108 109734 8335 37289 302933 24331 36349 23572 103563 62368 123671 106419 14167 116745 194623 52798 78500 32905 3562 19791 11324 29969 95396 260711 6063 378196 13320 14051 10065
internal_value=0 0.00628172 0.00771193 0.00648312 -0.00522618 -0.00783871 0.0153117 0.00436769 0.0189207 0.0236217 0.0118834 0.00254988 0.00334236 0.00633576 0.0172083 0.0312048 0.0374518 -0.00657198 -0.0203052 -0.0380705 -0.0704489 0.00827309 0.0329119 0.0374189 0.00263855 0.000673 -0.0276566 0.0106676 -0.00269731
internal_weight=0 114949 110301 107245 119446 93881 33053.2 25565 28193.2 22326 9863.46 74191.8 72556.4 55730.1 19085.5 7436.62 6715.84 16826.3 6754.75 3656.29 1503.1 11648.9 12462.6 11062.4 10071.6 36644.6 4648.27 6817.43 1400.16
internal_count=2813682 1927687 1892543 1782809 885995 559490 729412 326505 692123 588560 186039 1053397 1045062 864998 370057 145465 131298 180064 67582 34677 14886 224592 402521 356107 112482 494941 35144 38382 46414
shrinkage=0.1


Tree=27
num_leaves=30
num_cat=0
split_feature=5 6 3 6 0 2 1 0 4 3 4 4 4 4 1 3 6 1 5 0 1 1 4 5 5 6 4 1 4
split_gain=656.18 681.534 582.628 456.331 433.28 343.587 343.582 324.865 277.048 268.157 229.057 220.98 220.818 213.568 281.451 204.87 202.786 269.646 346.652 273.52 265.908 254.044 192.899 181.87 176.028 175.127 250.866 168.203 144.249
threshold=28.408812178612397 0.5539149601461163 0.053704020515725676 38.627222320568102 0.7477081727699384 0.082652783771952162 0.95176957718090949 0.2718856363787322 0.011941695800058655 0.041187708539723492 0.015345561559039671 0.0047602258613836665 0.011217931263593663 1.0000000180025095e-35 1.3709797876559684 0.088156383883515849 64.582445635745714 1.3709797876559684 189.99912297621887 -0.91569622894153013 1.7431741852156972 1.9583193878989267 0.014220103327693504 16.697398754192054 107.29872269639077 87.402378649581593 0.010055703615764369 1.4011524490079945 0.0080128192459235029
decision_type=2 2 2 2 2 2 2 2 2 2 2 2 2 2 2 2 2 2 2 2 2 2 2 2 2 2 2 2 2
left_child=8 11 4 5 6 -4 7 -3 23 -9 12 27 16 14 -8 -10 28 -18 24 21 -21 -20 -15 -1 -19 26 -6 -2 -5
right_child=1 2 3 10 25 -7 13 9 15 -11 -12 -13 -14 22 -16 -17 17 18 19 20 -22 -23 -24 -25 -26 -27 -28 -29 -30
leaf_value=-0.032813028601339021 0.063940749071337732 -0.026427524072664021 0.005076445702417054 -0.018094386971907336 0.0095275933618735025 0.02099572857972291 0.053376989785203936 -0.022691934903173342 -0.0030033530312495761 0.0028770863182354827 0.058746297854550301 0.015896772277530904 -0.0091301482557895816 -0.0056775424178597614 -0.014458867787731554 -0.052875428591768719 0.0175950076950411 -0.014948567494339563 0.038502538232673154 0.0089961217763348689 -0.043743182208777008 -0.027374200041596054 0.033823957660084801 -0.011683122312623643 -0.065677611868600674 -0.027202585667094221 0.056109107082498923 -0.038610478184337022 0.0008688667714302485
leaf_weight=7050.2745116427541 2652.5977978743613 14666.802729493007 28068.039103522897 5266.2592717632651 3143.1067112870514 26225.803039588034 1624.3440566770732 6409.0141851808876 28330.610196582973 11393.033186813816 669.46798381954432 2279.3725183494389 19229.210741922259 16848.355837630108 981.00664216279984 848.35327800363302 16043.285300821066 2327.6734897941351 3353.6774947196245 2746.4178139902651 1466.4815545082092 709.17823855578899 1334.1310483068228 9647.7225028723478 968.67856764420867 686.99795065447688 1828.8760142698884 170.19983050785959 16833.231292601675
leaf_count=32796 122938 112355 421172 79118 58216 602454 33682 56335 127492 172088 6018 50848 137993 124645 9923 3770 242873 20430 40186 35894 13161 6014 7277 54101 9898 7139 21863 3336 199667
internal_value=0 0.0030077 0.00200167 0.00589433 -0.00618511 0.012766 -0.00898056 -0.0154074 -0.010332 -0.00632816 0.00053489 0.0390564 -3.036e-05 0.00105767 0.0278344 -0.00445334 0.00348935 0.0092027 -0.00243218 0.00849112 -0.00936207 0.0270036 -0.00277914 -0.0206046 -0.029856 0.0201228 0.026662 0.0577575 -0.00365003
internal_weight=0 187925 182823 123907 58915.7 54293.8 53256.7 32468.9 45877 17802 69613.6 5102.17 68944.1 20787.8 2605.35 29179 49714.9 27615.4 11572.1 8275.76 4212.9 4062.86 18182.5 16698 3296.35 5658.98 4971.98 2822.8 22099.5
internal_count=2813682 2595523 2418401 1814878 603523 1023626 516305 340778 218159 228423 791252 177122 785234 175527 43605 131262 647241 368456 125583 95255 49055 46200 131922 86897 30328 87218 80079 126274 278785
shrinkage=0.1


Tree=28
num_leaves=30
num_cat=0
split_feature=5 0 2 4 3 3 5 1 1 5 3 2 6 6 1 3 4 5 2 1 6 4 3 2 4 0 3 2 2
split_gain=578.941 325.562 283.801 279.814 382.473 255.919 247.456 235.214 267.457 271.087 241.793 231.047 196.746 193.17 192.359 313.013 192.913 174.53 189.58 174.368 162.466 308.212 152.601 142.69 141.802 136.844 136.373 128.192 125.373
threshold=73.774945782691319 0.3336402753787116 0.084591273626876393 0.0057461650146028269 0.020534742523614296 0.038951248527400999 48.061530911897002 0.92122676887795751 1.3709797876559684 177.91064439510225 0.075628281342527845 0.059085728432689479 5.0144663048564704 13.492851485817882 0.92122676887795751 0.073225025127584401 0.008799493300443488 11.594247527475803 0.081910177636224726 1.1972508254867746 16.335281164552999 0.0073290681629283464 0.023557074295062031 0.062092492716387442 0.012549742408925113 0.68224300033628982 0.034156125587467549 0.083032315002504034 0.39063913673791811
decision_type=2 2 2 2 2 2 2 2 2 2 2 2 2 2 2 2 2 2 2 2 2 2 2 2 2 2 2 2 2
left_child=1 14 7 4 -3 -4 -6 10 9 -9 -2 19 -7 -8 15 16 17 -1 -19 -11 -5 -22 25 -12 -17 -23 -20 -18 -24
right_child=2 3 5 20 6 12 13 8 -10 11 23 -13 -14 -15 -16 24 27 18 26 -21 21 22 28 -25 -26 -27 -28 -29 -30
leaf_value=-0.059751679336137932 -0.0236748719295314 -0.093393912570681484 -0.033289838658698029 -0.015945498212832764 0.0097122930558829895 0.041424724428750101 0.05549584160627255 0.0072489622614144936 -0.00081199700543667288 0.05997238627624555 -0.022616519646695508 0.00059534999593812202 0.014235316856818191 -0.013335656655571876 -0.0028068985553005793 0.012697942631243912 -0.011632784678972066 -0.025236726791365099 -0.033345443058052981 0.01833047305122646 0.02829539221285822 -0.021833411098750612 -0.0024803820770098938 0.023525819781699639 -0.027941434812975605 0.044240351888428162 0.0057105213869121279 -0.027427187326304055 -0.056062547453792147
leaf_weight=589.69858238846064 5938.6178006529808 283.8838694319129 1034.1491093542427 5360.399535285309 4587.6716986875981 3018.9118389226496 2832.9441181877628 16578.887656334788 27945.088851036504 2687.0985642261803 942.13244589231908 1674.4541688114405 22471.437749611214 476.26980521902442 62026.548516223207 6420.6968492008746 8401.695471573621 3292.7677611336112 983.3187509868294 1606.8749803565443 4123.4678650759161 417.65748430788517 21400.914035832509 2321.7680409308523 991.13119783252478 1256.2975658848882 9845.9822004716843 13231.435512606055 445.77623327821493
