tree
version=v3
num_class=1
num_tree_per_iteration=1
label_index=0
max_feature_idx=6
objective=binary sigmoid:1
feature_names=pass_error_diff pos_score_data.posx.val pos_score_data.dnet.val pos_score_data.dopp.val eval_data.small_cone_angle eval_data.forward_cone_angle eval_data.pass_distance
feature_infos=[0.00020030850429364477:122.94671697388249] [-1.0033411460742354:1.0445988687872887] [0.0035458457463674793:2.0058349194995042] [0.00040500009113340733:0.10000000000000001] [2.8990629260761125e-05:200] [0.0023121065099189764:200] [0.0010010207287494697:0.87967841142807501]
tree_sizes=1166 1188 1187 1188 1191 1198 1193 1191 1193 1198 1203 1203 1201 1199 1199 1194 1198 1204 1196 1189 1188 1201 1203 1206 1205 1188 1198 1202 1198 1191 1186 1193 1185 1200 1205 1201 1200 1199 1187 1202

Tree=0
num_leaves=10
num_cat=0
split_feature=4 4 6 4 6 5 1 2 4
split_gain=1884.08 541.356 480.992 357.081 322.165 232.607 155.466 121.239 114.309
threshold=59.228967530124471 9.3721613274109519 0.67876881324134231 10.395741377571541 0.27096442412453375 176.34075592774261 0.74715719121493762 0.32937957229696418 1.2774168089633096
decision_type=2 2 2 2 2 2 2 2 2
left_child=1 6 -2 4 -3 -6 8 -5 -1
right_child=2 3 -4 7 5 -7 -8 -9 -10
leaf_value=0.76546003437657018 0.85862200439421543 0.80190711122769009 0.93919482454765291 0.72989535779679682 0.93148857717714784 0.82855824143251833 0.7032233174581124 0.81344404337327914 0.79391021306054421
leaf_weight=1758.8216481208801 2238.9255264401436 544.10355386137962 1107.3432233333588 176.90275764465332 667.21256428956985 327.22757694125175 220.06532952189445 9550.8353012502193 7166.9005431830883
leaf_count=8272 10530 2559 5208 832 3138 1539 1035 44919 33707
internal_value=0.815734 0.804332 0.885285 0.819005 0.86377 0.897619 0.786257 0.811925 0.788304
internal_weight=0 20412.1 3346.27 11266.3 1538.54 994.44 9145.79 9727.74 8925.72
internal_count=111739 96001 15738 52987 7236 4677 43014 45751 41979
shrinkage=1


Tree=1
num_leaves=10
num_cat=0
split_feature=4 4 4 0 6 6 4 1 2
split_gain=1570.03 539.25 254.888 277.83 249.357 183.097 177.23 117.731 90.6133
threshold=189.97649741193064 9.3721613274109519 10.395741377571541 26.905192349663661 0.67876881324134231 0.27096442412453375 41.816211582489039 0.74715719121493762 0.32937957229696418
decision_type=2 2 2 2 2 2 2 2 2
left_child=1 7 3 -3 -2 -5 8 -1 -4
right_child=4 2 6 5 -6 -7 -8 -9 -10
leaf_value=-0.024413987051462423 0.047985980486277016 -0.0031427352423152866 -0.078749371453851177 -0.014741300620264172 0.11723866954266171 0.10568715625072229 0.026363543143758092 -0.096985471259750711 -0.0044756888451133988
leaf_weight=9019.2751315832138 1027.666723549366 680.43655908107758 167.44122312963009 155.39957924187183 1052.3628544807434 672.98001305758953 2112.7504611760378 229.22362290322781 8635.2564612776041
leaf_count=41979 4916 3200 763 727 5208 3309 10025 1035 40577
internal_value=0 -0.00793008 0.0056793 0.0442043 0.0830234 0.0830954 0.000354083 -0.0262127 -0.00588849
internal_weight=0 21672.8 12424.3 1508.82 2080.03 828.38 10915.4 9248.5 8802.7
internal_count=111739 101615 58601 7236 10124 4036 51365 43014 41340
shrinkage=0.1


Tree=2
num_leaves=10
num_cat=0
split_feature=4 4 4 6 5 0 2 1 4
split_gain=1320.51 435.517 400.725 228.958 163.591 155.227 172.444 95.0366 93.1466
threshold=189.97649741193064 10.067304515283768 10.395741377571541 0.67876881324134231 169.10400421776231 64.971131230385382 1.1604783638137508 0.74715719121493762 1.2774168089633096
decision_type=2 2 2 2 2 2 2 2 2
left_child=1 7 4 -2 -3 6 -4 8 -1
right_child=3 2 5 -5 -6 -7 -8 -9 -10
leaf_value=-0.041533366515538017 0.044103435744300139 0.094900097352704924 -0.0082426295337884852 0.11169963903690126 0.0057166217389670627 0.052223242069543818 0.026142721256036394 -0.084278248316914814 -0.016342288369211398
leaf_weight=1808.1884880065918 1007.4179694056511 669.60085272789001 8609.1903904527426 996.97754144668579 296.86590342223644 547.37540183961391 1755.9534664005041 244.02392041683197 7797.7843531221151
leaf_count=8272 4916 3426 40476 5208 1398 2591 8298 1071 36083
internal_value=0 -0.00710244 0.0057893 0.0777255 0.0675059 0.000323367 -0.00241743 -0.0226497 -0.0210842
internal_weight=0 21729 11879 2004.4 966.467 10912.5 10365.1 9850 9605.97
internal_count=111739 101615 56189 10124 4824 51365 48774 45426 44355
shrinkage=0.1


Tree=3
num_leaves=10
num_cat=0
split_feature=4 6 4 4 6 5 0 3 2
split_gain=1120.66 352.516 267.942 212.002 218.083 163.393 96.5443 99.946 83.9387
threshold=57.176586534268758 0.67876881324134231 9.3721613274109519 10.395741377571541 0.27096442412453375 176.34075592774261 7.7556060757840841 0.085890501519758466 0.55808792139231778
decision_type=2 2 2 2 2 2 2 2 2
left_child=2 -2 8 4 -4 -6 -5 -8 -1
right_child=1 -3 3 6 5 -7 7 -9 -10
leaf_value=-0.042790855676731965 0.033732112924054307 0.10668620629608927 -0.012145815659391981 -0.018791766911994412 0.099635976176848245 0.011035513260677943 -0.010056076512494761 0.014233343577997852 -0.01680848283371851
leaf_weight=1474.307461425662 2229.3340022265911 942.29525434970856 547.29299479722977 2841.4434390813112 579.78281588852406 324.71710750460625 3117.2891279459 3710.5279016792774 7938.1729389429092
leaf_count=6668 10931 5208 2559 13314 3138 1539 14588 17448 36346
internal_value=0 0.0554069 -0.0084614 0.00204775 0.0376798 0.0678282 -0.00330224 0.00314383 -0.0208782
internal_weight=0 3171.63 20533.5 11121.1 1451.79 904.5 9669.26 6827.82 9412.48
internal_count=111739 16139 95600 52586 7236 4677 45350 32036 43014
shrinkage=0.1


Tree=4
num_leaves=10
num_cat=0
split_feature=4 4 4 0 5 0 2 5 4
split_gain=944.232 281.886 288.981 196.198 126.726 120.721 136.336 78.2925 69.318
threshold=189.97649741193064 10.067304515283768 10.395741377571541 0.62867009332656754 169.10400421776231 64.971131230385382 1.1604783638137508 162.29807534358281 1.2774168089633096
decision_type=2 2 2 2 2 2 2 2 2
left_child=1 8 4 -2 7 6 -4 -3 -1
right_child=3 2 5 -5 -6 -7 -8 -9 -10
leaf_value=-0.035352810993928722 0.097089500916517524 -0.012215872988011999 -0.0073078229187340041 0.031671906135037037 0.0052961285302534676 0.046672624134119073 0.023415125287005151 0.098180727811435858 -0.014076054534943741
leaf_weight=1887.6689136326313 1046.9533880352974 72.955447301268578 8637.8674063533545 815.62887632846832 296.32272413372993 531.98530812561512 1734.4124435335398 537.77627557516098 8108.7617186456919
leaf_count=8442 5996 353 40476 4128 1398 2591 8298 3073 36984
internal_value=0 -0.00573556 0.00472378 0.068443 0.0589572 0.000212452 -0.00217045 0.0849932 -0.0180938
internal_weight=0 21807.8 11811.3 1862.58 907.054 10904.3 10372.3 610.732 9996.43
internal_count=111739 101615 56189 10124 4824 51365 48774 3426 45426
shrinkage=0.1


Tree=5
num_leaves=10
num_cat=0
split_feature=4 6 4 0 3 1 3 3 0
split_gain=797.696 284.219 178.696 144.452 137.111 199.704 80.8702 349.685 69.4975
threshold=59.228967530124471 0.67876881324134231 3.2539851093173131 7.5085541746794506 0.08497219475489888 0.33645002052187928 0.068580326530595578 0.068760513084144784 52.69040733707353
decision_type=2 2 2 2 2 2 2 2 2
left_child=2 -2 4 -4 -1 -6 -5 -8 -9
right_child=1 -3 3 6 5 -7 7 8 -10
leaf_value=-0.014208756352736135 0.029188863095197616 0.098032854442445749 -0.01642290311426009 -0.0072620160320050675 -0.018370368816209823 -0.10311980766780796 0.088321907821421283 0.0010171301110005807 0.035959416354221917
leaf_weight=2995.4378762096167 2090.5795628428459 840.89082276821136 4971.8961874842644 4138.0495048761368 642.36198097467422 490.24313336610794 531.70673196017742 6304.5311019122601 625.69277264177799
leaf_count=13424 10530 5208 22911 19022 2891 2177 3143 29417 3016
internal_value=0 0.0489367 -0.00679934 -0.0021621 -0.0254153 -0.0550538 0.00395025 0.0101681 0.00417188
internal_weight=0 2931.47 20699.9 16571.9 4128.04 1132.61 11600 7461.93 6930.22
internal_count=111739 15738 96001 77509 18492 5068 54598 35576 32433
shrinkage=0.1


Tree=6
num_leaves=10
num_cat=0
split_feature=4 4 4 0 5 3 0 1 2
split_gain=674.053 188.689 211.841 166.933 98.5741 94.517 88.6293 66.4784 66.0487
threshold=189.97649741193064 10.067304515283768 10.395741377571541 0.62867009332656754 169.10400421776231 0.077847093723463281 44.107577479820044 0.74715719121493762 1.2097152600244974
decision_type=2 2 2 2 2 2 2 2 2
left_child=1 7 4 -2 -3 -4 8 -1 -7
right_child=3 2 5 -5 -6 6 -8 -9 -10
leaf_value=-0.013351466593859947 0.088639816732604029 0.0767089472580193 -0.011469565601387139 0.026337012059948518 0.0053386899700103097 -0.0023905023584660898 0.0355205100248547 -0.065133306104641228 0.024907754961923587
leaf_weight=9849.2897033989429 940.74123033881187 557.66283369064331 4230.1511584669352 792.22254171967506 296.36687995493412 4596.8436930477619 973.69684606790543 254.33000014722347 1098.0435400605202
leaf_count=44355 5996 3426 19714 4128 1398 21558 4779 1071 5314
internal_value=0 -0.00463382 0.00398112 0.0601582 0.0519419 0.000222892 0.00763989 -0.0146549 0.00287293
internal_weight=0 21856.4 11752.8 1732.96 854.03 10898.7 6668.58 10103.6 5694.89
internal_count=111739 101615 56189 10124 4824 51365 31651 45426 26872
shrinkage=0.1


Tree=7
num_leaves=10
num_cat=0
split_feature=4 6 2 4 3 2 0 2 0
split_gain=568.533 243.054 130.223 117.645 112.617 148.824 90.9549 74.0265 66.8909
threshold=55.347609151141803 0.67876881324134231 0.32937957229696418 3.2539851093173131 0.08497219475489888 0.68285033226740754 7.1295989181402319 0.80369116826745735 5.8406685881406899
decision_type=2 2 2 2 2 2 2 2 2
left_child=2 7 -1 4 -4 8 -5 -2 -6
right_child=1 -3 3 6 5 -7 -8 -9 -10
leaf_value=-0.053745801744226218 -0.019813794862873636 0.090367174998292985 -0.0092098758655217404 -0.012509251167722847 -0.016723357465975065 -0.014835060591522517 0.0041678070634324849 0.032014120660221621 -0.10693051811006041
leaf_weight=550.35447405278683 322.76240928471088 748.80488330125809 2881.8080964535475 4579.6329413056374 104.32227532565594 647.18299415707588 11438.4201169312 1885.534609913826 387.68605202436447
leaf_count=2368 1595 5208 12828 20973 450 2882 54032 9737 1666
internal_value=0 0.0411335 -0.00575714 -0.00443917 -0.019732 -0.0463496 -0.000600238 0.024439 -0.0878036
internal_weight=0 2957.1 20589.4 20039.1 4021 1139.19 16018.1 2208.3 492.008
internal_count=111739 16540 95199 92831 17826 4998 75005 11332 2116
shrinkage=0.1


Tree=8
num_leaves=10
num_cat=0
split_feature=2 6 0 2 6 6 3 6 0
split_gain=497.109 241.42 118.097 145.475 71.7739 257.982 102.469 69.256 66.6176
threshold=1.1913664981838328 0.67876881324134231 11.607265532884252 0.55808792139231778 0.27677578543934195 0.27096442412453375 0.098254566439067784 0.3239026760819545 27.63660253044829
decision_type=2 2 2 2 2 2 2 2 2
left_child=2 -2 3 7 5 6 -4 -1 -7
right_child=1 -3 4 -5 -6 8 -8 -9 -10
leaf_value=-0.030695760169235278 0.020928750572981852 0.085310878003971205 -0.0081404181355716806 -0.009745881878040992 -0.013559270166642309 -0.0186429848028602 0.017015039887889938 -0.081475501462692557 0.076958025365739535
leaf_weight=859.5369623452425 3229.8982265889645 710.55798423290253 5007.3309134244919 7581.8559672087431 2669.4036863297224 83.31918665766716 2393.2465647161007 390.64902095496655 582.2818519026041
leaf_count=3834 15990 5232 22984 34583 12066 378 11449 1675 3548
internal_value=0 0.0325384 -0.0063923 -0.0149574 0.000654105 0.00535785 -5.48357e-06 -0.046563 0.0649908
internal_weight=0 3940.46 19567.6 8832.04 10735.6 8066.18 7400.58 1250.19 665.601
internal_count=111739 21222 90517 40092 50425 38359 34433 5509 3926
shrinkage=0.1


Tree=9
num_leaves=10
num_cat=0
split_feature=4 6 0 1 2 1 0 6 6
split_gain=413.165 199.42 93.4133 134.978 86.457 171.127 110.621 69.3396 157.937
threshold=51.996727615527313 0.67876881324134231 11.904480034318292 0.42636312087532141 1.0098012894801081 0.066562377121299518 34.777826492277264 0.27608097974140983 0.27096442412453375
decision_type=2 2 2 2 2 2 2 2 2
left_child=2 -2 3 -1 5 6 -4 8 -7
right_child=1 -3 4 -5 -6 7 -8 -9 -10
leaf_value=-0.007189292229270651 0.021031896377321949 0.083097033126805442 -0.012653824139273706 -0.040705920812467926 0.022520782904336775 0.0034974618776064991 -0.075923990656202658 -0.013361497007114729 0.063125758444400396
leaf_weight=8488.0928353220224 2337.7386448085308 664.94614326953888 678.76777824759483 1399.6923059374094 1662.6762204319239 5340.6724856197834 466.08806101977825 1942.2296915948391 484.49888491630554
leaf_count=38618 12134 5208 3175 6097 8045 24660 2158 8708 2936
internal_value=0 0.0347763 -0.00494649 -0.0119338 0.00158682 -0.00231863 -0.0384121 0.00300127 0.00845695
internal_weight=0 3002.68 20462.7 9887.79 10574.9 8912.26 1144.86 7767.4 5825.17
internal_count=111739 17342 94397 44715 49682 41637 5333 36304 27596
shrinkage=0.1


Tree=10
num_leaves=10
num_cat=0
split_feature=2 6 0 2 4 3 1 1 2
split_gain=356.209 189.483 82.8218 78.5895 64.512 98.4279 73.0998 50.9359 69.6966
threshold=1.1913664981838328 0.67876881324134231 52.69040733707353 0.32937957229696418 3.2539851093173131 0.083988740830907002 0.33645002052187928 0.080542335608042789 1.0176397221797022
decision_type=2 2 2 2 2 2 2 2 2
left_child=2 -2 3 -1 5 -5 -7 8 -6
right_child=1 -3 -4 4 7 6 -8 -9 -10
leaf_value=-0.043675002295106791 0.018160163629591136 0.078097085993580867 0.023636591460024399 -0.007100344430280907 -0.022317643530670381 -0.017813102191976262 -0.070265069244891676 0.0016191721241590245 0.0019542901608330695
leaf_weight=559.50753544270992 3185.5383091270924 632.1119726151228 941.42582570016384 2684.2060248404741 2545.2156008034945 552.50890378654003 511.84770078957081 9602.7929125875235 2210.5320831686258
leaf_count=2359 15990 5232 4652 11850 11766 2439 2131 44874 10446
internal_value=0 0.0280843 -0.00530317 -0.00676271 -0.00562212 -0.0173042 -0.0430372 -0.00257231 -0.0110357
internal_weight=0 3817.65 19608 18666.6 18107.1 3748.56 1064.36 14358.5 4755.75
internal_count=111739 21222 90517 85865 83506 16420 4570 67086 22212
shrinkage=0.1


Tree=11
num_leaves=10
num_cat=0
split_feature=4 6 0 2 2 1 0 6 6
split_gain=300.426 171.098 65.1285 93.9221 59.3197 122.703 83.2395 52.1959 49.6863
threshold=41.816211582489039 0.67876881324134231 11.607265532884252 0.55808792139231778 1.0098012894801081 0.066562377121299518 34.844662981691975 0.32684164879111566 0.094618578016958124
decision_type=2 2 2 2 2 2 2 2 2
left_child=2 8 3 -1 5 6 -4 -7 -2
right_child=1 -3 4 -5 -6 7 -8 -9 -10
leaf_value=-0.036645450041395043 -0.0055926539881733317 0.076212123039626531 -0.010499344391326267 -0.0067932765865453236 0.018598443504041506 0.006003493147371637 -0.064823668171627005 -0.016129671799201196 0.024752987988466004
leaf_weight=1206.9016878157854 718.2726563513279 592.15311750769615 696.7469639480114 8315.7908444106579 1597.6094631403685 6337.8607518523932 473.90872775018215 1280.8138194531202 2168.6488269120455
leaf_count=5154 3589 5208 3218 37678 7808 29958 2122 5652 11352
internal_value=0 0.0272465 -0.00460338 -0.0105767 0.000872958 -0.00234895 -0.0324911 0.00228258 0.0172029
internal_weight=0 3479.07 19909.6 9522.69 10386.9 8789.33 1170.66 7618.67 2886.92
internal_count=111739 20149 91590 42832 48758 40950 5340 35610 14941
shrinkage=0.1


Tree=12
num_leaves=10
num_cat=0
split_feature=2 6 0 2 4 3 1 0 1
split_gain=252.533 147.816 63.7765 55.9163 49.7562 76.7414 51.9174 44.3226 45.403
threshold=1.1913664981838328 0.67876881324134231 69.804818893672646 0.32937957229696418 3.2539851093173131 0.076696326220150171 0.33645002052187928 5.8406685881406899 0.50614962421357645
decision_type=2 2 2 2 2 2 2 2 2
left_child=2 -2 3 -1 5 -5 -7 -8 -9
right_child=1 -3 -4 4 -6 6 7 8 -10
leaf_value=-0.035784998023405866 0.015604962084227889 0.071180587751537114 0.031208450870998612 -0.0046466174780372986 -0.0017111764267091934 -0.016384032530537971 -0.0040210536319303727 -0.083447320707351627 0.019599445471360947
leaf_weight=583.32561196386814 3144.0784578621387 564.50640048086643 490.77340386807919 2566.6850694417953 14758.951347365975 682.94889102876186 121.71539850533009 391.91384690999985 47.993975967168808
leaf_count=2435 15990 5232 2552 11291 68926 2999 504 1609 201
internal_value=0 0.0240645 -0.00438712 -0.00529919 -0.00434158 -0.0145277 -0.0349055 -0.0574281 -0.0722049
internal_weight=0 3708.58 19644.3 19153.5 18570.2 3811.26 1244.57 561.623 439.908
internal_count=111739 21222 90517 87965 85530 16604 5313 2314 1810
shrinkage=0.1


Tree=13
num_leaves=10
num_cat=0
split_feature=4 6 0 2 2 1 0 4 2
split_gain=215.785 133.494 52.746 64.6121 44.1711 100.543 71.5606 40.9836 40.7524
threshold=41.816211582489039 0.67876881324134231 11.607265532884252 0.55808792139231778 1.0098012894801081 0.075093200635164989 33.233696983571079 1.2774168089633096 0.86206795661689084
decision_type=2 2 2 2 2 2 2 2 2
left_child=2 8 3 -1 5 6 -4 -7 -2
right_child=1 -3 4 -5 -6 7 -8 -9 -10
leaf_value=-0.030696849063137095 -0.0058044398949766533 0.069580495991882457 -0.0054414518625479314 -0.0060525009437257605 0.016480122622383044 -0.019891790469287053 -0.052062463939264773 0.0052422157099873187 0.021817136032898071
leaf_weight=1219.5115808695555 711.9136705249548 529.83128647506237 709.70973509550095 8334.3809837251902 1582.3072767555714 717.64462451636791 614.14239060878754 6759.1804485172033 2139.0500930696726
leaf_count=5154 3472 5208 3271 37678 7808 3061 2720 31898 11469
internal_value=0 0.0234861 -0.00383612 -0.00919824 0.00109784 -0.0016678 -0.0270692 0.00282979 0.0149198
internal_weight=0 3380.8 19936.9 9553.89 10383 8800.68 1323.85 7476.83 2850.96
internal_count=111739 20149 91590 42832 48758 40950 5991 34959 14941
shrinkage=0.1


Tree=14
num_leaves=10
num_cat=0
split_feature=6 4 4 6 5 3 3 4 0
split_gain=183.786 79.1762 71.2923 103.842 71.689 59.145 44.0925 41.9134 38.5499
threshold=0.67876881324134231 9.3721613274109519 10.395741377571541 0.27096442412453375 176.34075592774261 0.077847093723463281 0.045562883972782318 14.998104102396001 44.107577479820044
decision_type=2 2 2 2 2 2 2 2 2
left_child=1 6 3 -3 -5 -4 -1 -2 -7
right_child=7 2 5 4 -6 8 -8 -9 -10
leaf_value=0.0011700224320678899 -0.00066174110275403844 -0.0070456184272561125 -0.0079776129886898178 0.076419181516350368 0.014403145834684397 0.0039731486615498376 -0.013090058202795161 0.066404452674053926 0.025762049016071292
leaf_weight=3294.1530073434114 114.39382202923298 556.16312505304813 4355.3285921066999 434.33129772543907 326.53804169595242 6425.4204791337252 6344.345802873373 502.60781592130661 929.44884519279003
leaf_count=14530 496 2559 20188 3138 1533 31271 28004 5211 4809
internal_value=0 -0.00134517 0.00373866 0.0257973 0.0498041 0.00125775 -0.00821639 0.0539702 0.00672665
internal_weight=0 22665.7 13027.2 1317.03 760.869 11710.2 9638.5 617.002 7354.87
internal_count=111739 106032 63498 7230 4671 56268 42534 5707 36080
shrinkage=0.1


Tree=15
num_leaves=10
num_cat=0
split_feature=2 0 0 1 6 0 1 0 0
split_gain=161.289 99.6052 44.0058 44.7045 36.4094 45.0092 35.2259 40.258 31.595
threshold=1.1913664981838328 0.62867009332656754 11.607265532884252 0.42636312087532141 0.3239026760819545 6.8644626042914618 -0.43672463137656442 20.540616464631984 69.804818893672646
decision_type=2 2 2 2 2 2 2 2 2
left_child=2 -2 3 -1 -5 -6 -3 -8 -4
right_child=1 6 8 4 5 -7 7 -9 -10
leaf_value=-0.0054846591412210863 0.052113897907246326 -0.024326570692823669 -0.00027537606293541076 -0.01387322144932002 -0.024774112077653759 -0.090095107645260727 0.0098158840322678954 0.047313270430736798 0.026077198833149313
leaf_weight=7517.7198090851307 747.07441167533398 255.76142413914204 10207.274281039834 1001.4005115181208 299.15760181844234 162.94075688719749 2253.330302208662 327.99570851027966 476.18302617967129
leaf_count=33876 6646 1300 47873 4312 1236 668 11505 1771 2552
internal_value=0 0.0196275 -0.00343813 -0.00859753 -0.0245878 -0.047807 0.011073 0.0145805 0.000899211
internal_weight=0 3584.16 19664.7 8981.22 1463.5 462.098 2837.09 2581.33 10683.5
internal_count=111739 21222 90517 40092 6216 1904 14576 13276 50425
shrinkage=0.1


Tree=16
num_leaves=10
num_cat=0
split_feature=4 0 1 3 4 6 5 5 0
split_gain=139.78 91.4812 36.9752 33.4962 31.4683 58.2529 149.857 95.0676 52.6656
threshold=41.816211582489039 0.62867009332656754 0.74715719121493762 0.099302691672966167 5.8466096474736711 0.26879463855649627 171.61467134319514 163.54033298968551 1.3129041878630148
decision_type=2 2 2 2 2 2 2 2 2
left_child=2 -2 4 -3 -1 -6 7 -7 -8
right_child=1 3 -4 -5 5 6 8 -9 -10
leaf_value=-0.0079135847283104323 0.053092366061162459 0.0016657911546705047 -0.032992038139899538 0.024658929136884541 -0.0037455952472614158 -0.011282125567269891 0.036044537273174582 0.079205812982364385 -0.0030708813793565472
leaf_weight=6785.6872795075178 642.73675882816315 1560.2522896826267 403.53679779171944 1066.7580329477787 9131.9510835111141 155.51386165618896 396.25860011577606 458.17075900733471 2620.9155153483152
leaf_count=29763 6280 8230 1660 5639 42206 725 1817 3342 12077
internal_value=0 0.0192763 -0.00302964 0.0110027 -0.00241113 0.000514393 0.0112287 0.0562753 0.00206632
internal_weight=0 3269.75 19952 2627.01 19548.5 12762.8 3630.86 613.685 3017.17
internal_count=111739 20149 91590 13869 89930 60167 17961 4067 13894
shrinkage=0.1


Tree=17
num_leaves=10
num_cat=0
split_feature=6 2 0 4 3 2 1 0 2
split_gain=119.251 55.8092 34.9084 52.9652 87.2714 33.9731 32.5933 48.8852 58.6269
threshold=0.67876881324134231 1.1539525612504711 7.6355274725764373 1.2774168089633096 0.087717355565097133 0.56232846872701303 0.075093200635164989 34.777826492277264 1.0146497118946785
decision_type=2 2 2 2 2 2 2 2 2
left_child=1 2 -1 4 -4 -6 7 -5 -9
right_child=-2 -3 3 6 5 -7 -8 8 -10
leaf_value=-0.0095283259046862571 0.045970421245561423 0.010613599248225471 -0.0021912510594854235 8.0852586386215698e-05 -0.094976403547059607 -0.033042754725604084 0.0046276221992739832 -0.045497359476483881 0.017998055273683002
leaf_weight=5903.767782241106 553.43678022921085 3491.7755769491196 778.45028892159462 2227.7958875820041 166.20485791563988 189.61071820557117 9112.6117814481258 567.97513553500175 195.4582930803299
leaf_count=26146 5707 18011 3348 10543 668 791 43105 2487 933
internal_value=0 -0.00101278 -0.00313361 -0.00028178 -0.0209445 -0.0619726 0.00165454 -0.00740277 -0.0292409
internal_weight=0 22633.7 19141.9 13238.1 1134.27 355.816 12103.8 2991.23 763.433
internal_count=111739 106032 88021 61875 4807 1459 57068 13963 3420
shrinkage=0.1


Tree=18
num_leaves=10
num_cat=0
split_feature=4 6 6 3 2 4 6 5 5
split_gain=102.54 72.1934 30.544 33.2825 30.2318 24.3751 46.9726 123.883 87.7696
threshold=41.816211582489039 0.67876881324134231 0.11125000395859654 0.086204456521271469 0.32937957229696418 5.8466096474736711 0.26879463855649627 170.70191003079555 163.54033298968551
decision_type=2 2 2 2 2 2 2 2 2
left_child=4 2 -2 -4 -1 -6 -7 8 -8
right_child=1 -3 3 -5 5 6 7 -9 -10
leaf_value=-0.025411985730307163 -0.003835578865275119 0.055247588163220007 0.0045740440357796069 0.03142502819089503 -0.0067668858164662551 -0.0031594992249602862 -0.012338408955404749 0.0021889988794365767 0.075722961883969875
leaf_weight=562.89777281880379 938.20695453882217 421.87642773985863 901.72856557369232 945.85192738473415 6728.5640588849783 9059.3917108625174 153.65316514670849 3019.3096528053284 429.69193091243505
leaf_count=2310 4742 5208 5051 5148 29455 41851 715 13935 3324
internal_value=0 0.0166966 0.0108585 0.0183202 -0.00256636 -0.00190317 0.000681393 0.0103399 0.0525276
internal_weight=0 3207.66 2785.79 1847.58 19953.5 19390.6 12662 3602.65 583.345
internal_count=111739 20149 14941 10199 91590 89280 59825 17974 4039
shrinkage=0.1


Tree=19
num_leaves=10
num_cat=0
split_feature=4 0 0 6 6 3 6 0 0
split_gain=86.5174 57.2099 33.2986 39.4678 43.6927 69.2524 67.4223 65.7887 55.9036
threshold=74.070410156194257 0.62867009332656754 10.088451804784187 0.31872153435439599 0.27096442412453375 0.098254566439067784 0.2775475749390437 27.63660253044829 34.844662981691975
decision_type=2 2 2 2 2 2 2 2 2
left_child=2 -2 -1 4 5 -4 7 -6 -9
right_child=1 -3 3 -5 6 -7 -8 8 -10
leaf_value=-0.006263101431763252 0.048015332343892235 0.0094489476941896737 -0.0047119422583902686 -0.010172512558045597 -0.019327372072941648 0.014789251457032915 0.0022353982224431685 0.069378960090870856 -0.060069268307980365
leaf_weight=9136.155836686492 546.4646285623312 1298.876219406724 5637.4781674295664 2266.6880483776331 129.23764760792255 2689.8991621732712 905.02027834951878 482.2677493467927 35.84100553393364
leaf_count=40809 6106 7226 25702 10055 598 13234 4177 3660 172
internal_value=0 0.0208697 -0.00170228 0.00172822 0.00445858 0.00158731 0.019861 0.0445024 0.0604242
internal_weight=0 1845.34 21282.6 12146.4 9879.74 8327.38 1552.37 647.346 518.109
internal_count=111739 13332 98407 57598 47543 38936 8607 4430 3832
shrinkage=0.1


Tree=20
num_leaves=10
num_cat=0
split_feature=2 6 0 3 1 6 0 6 0
split_gain=75.9438 49.5471 28.8504 37.2973 27.9458 28.5342 55.1924 64.6639 42.4216
threshold=1.1913664981838328 0.67876881324134231 42.021903092435601 0.086204456521271469 -0.43672463137656442 0.3964148397713258 1.6045306262177326 0.35472644595768793 9.474995565714158
decision_type=2 2 2 2 2 2 2 2 2
left_child=2 4 -1 -4 -2 6 7 -6 -8
right_child=1 -3 3 -5 5 -7 8 -9 -10
leaf_value=-0.0035335237431914413 -0.021404662212697705 0.047269416132313259 -0.0081758404550717669 0.020934248676976113 0.016037106194480229 -0.0027030023922581846 -0.0071977459524234042 0.10250487895699756 0.025925849575323734
leaf_weight=17816.936572186649 266.79060307145119 392.30958420038223 721.3668609559536 1128.9865229725838 190.83157320320606 855.48055158555508 694.14901141822338 158.17438746988773 872.796222217381
leaf_count=81436 1359 5232 3293 5788 1030 4728 3390 829 4654
internal_value=0 0.013825 -0.00229924 0.00958558 0.00950647 0.0124821 0.0192623 0.0552255 0.0112523
internal_weight=0 3430.53 19667.3 1850.35 3038.22 2771.43 1915.95 349.006 1566.95
internal_count=111739 21222 90517 9081 15990 14631 9903 1859 8044
shrinkage=0.1


Tree=21
num_leaves=10
num_cat=0
split_feature=4 0 2 1 5 4 5 5 0
split_gain=63.2779 45.1913 26.6892 23.7593 24.0886 41.8957 34.1679 156.454 37.3809
threshold=51.996727615527313 0.62867009332656754 0.80369116826745735 0.74715719121493762 39.819292148606159 3.3198259359129598 162.29807534358281 170.70191003079555 33.233696983571079
decision_type=2 2 2 2 2 2 2 2 2
left_child=3 -2 -3 4 -1 -6 8 -8 -7
right_child=1 2 -4 -5 5 6 7 -9 -10
leaf_value=0.0083142321962990425 0.040925942496474833 -0.016781924187837634 0.013405499271360222 -0.02551835128655678 -0.013476608867558151 -0.0052060457259271511 0.057510705877475289 -0.0005525529333170907 -0.037104151620903407
leaf_weight=2319.2799037992954 529.73523569107056 354.91848105192184 1675.4075825065374 412.41494637727737 2918.0199771523476 1833.15900349617 482.58742781728506 12094.944690987468 459.46560034155846
leaf_count=10206 6204 1757 9381 1690 12529 8230 3774 55911 2057
internal_value=0 0.014915 0.00812848 -0.00175863 -0.00127131 -0.0025211 -0.000371263 0.00167528 -0.0115988
internal_weight=0 2560.06 2030.33 20519.9 20107.5 17788.2 14870.2 12577.5 2292.62
internal_count=111739 17342 11138 94397 92707 82501 69972 59685 10287
shrinkage=0.1


Tree=22
num_leaves=10
num_cat=0
split_feature=2 6 1 6 2 6 1 0 2
split_gain=53.8428 37.724 26.1676 43.3452 29.8802 42.8777 32.9725 36.4143 27.9625
threshold=1.1539525612504711 0.67876881324134231 0.072243063449859632 0.3239026760819545 1.03104292653985 0.2749304992684502 0.011464640703052283 34.777826492277264 0.68285033226740754
decision_type=2 2 2 2 2 2 2 2 2
left_child=2 -2 4 -4 5 6 -1 -8 -5
right_child=1 -3 3 8 -6 -7 7 -9 -10
leaf_value=-0.037680246428447021 0.0077043429423374115 0.041407279263212055 0.0030268448831595636 -0.021194435169989215 0.0017594706042159136 0.0032535310609451543 -0.0017211528588037936 -0.036116172172347853 -0.0016683715501967828
leaf_weight=817.19249710440636 3431.7659223303199 367.69410049915314 11138.462866850197 1351.2168740034103 1912.8883813917637 997.84633725881577 982.11301723122597 448.31816102564335 1604.0480891317129
leaf_count=3653 18011 5246 52160 5717 8954 4560 4438 1945 7055
internal_value=0 0.010966 -0.00206013 0.000170287 -0.00815409 -0.0139972 -0.0216557 -0.0125011 -0.0105961
internal_weight=0 3799.46 19252.1 14093.7 5158.36 3245.47 2247.62 1430.43 2955.26
internal_count=111739 23257 88482 64932 23550 14596 10036 6383 12772
shrinkage=0.1


Tree=23
num_leaves=10
num_cat=0
split_feature=4 6 3 1 5 4 3 3 0
split_gain=46.2476 35.5786 22.1787 19.3448 19.4934 30.5784 26.4175 85.9013 27.6679
threshold=40.726766083598427 0.67876881324134231 0.098628299439064135 0.74715719121493762 40.237046782691387 3.3198259359129598 0.068291471788355304 0.068760513084144784 30.730678939352114
decision_type=2 2 2 2 2 2 2 2 2
left_child=3 2 -2 4 -1 -6 -7 8 -8
right_child=1 -3 -4 -5 5 6 7 -9 -10
leaf_value=0.0073215397578324046 0.00032073222703865112 0.041512051812087496 0.018422709086173578 -0.023318464158308422 -0.011743834218872318 -0.0065892198978426426 -0.01496790151078195 0.00053042400640820658 0.058469929363231324
leaf_weight=2331.7373546361923 1686.2194607406855 347.23542438447475 1130.6832001209259 405.73320883512497 2920.4231748133898 4754.8093991279602 60.249253913760185 9050.2910230010748 345.46704126894474
leaf_count=10288 9111 5208 6231 1658 12496 21329 274 42031 3113
internal_value=0 0.0113097 0.00758673 -0.00170713 -0.00125661 -0.00242419 -0.000508934 0.00254845 0.0475643
internal_weight=0 3164.14 2816.9 19868.7 19463 17131.2 14210.8 9456.01 405.716
internal_count=111739 20550 15342 91189 89531 79243 66747 45418 3387
shrinkage=0.1


Tree=24
num_leaves=10
num_cat=0
split_feature=0 6 0 6 6 5 3 5 3
split_gain=42.4035 28.2797 25.8367 36.9973 52.2312 64.1296 48.1258 36.6847 35.3312
threshold=0.62939489875381061 0.25703282408236888 7.7556060757840841 0.28713384935181058 0.2722205172513919 171.61467134319514 0.098254566439067784 163.54033298968551 0.056707088555704492
decision_type=2 2 2 2 2 2 2 2 2
left_child=1 -1 -2 4 6 7 8 -6 -4
right_child=2 -3 3 -5 5 -7 -8 -9 -10
leaf_value=-0.0069916741405273404 -0.0060655449179820454 0.024925196833282912 0.0053061500608863194 -0.0077372585675276736 -0.00045150462578518981 -0.0014463420836355629 0.012124469600423548 0.065524796768787794 -0.0089659572565063319
leaf_weight=374.70871883630753 6928.5058061778545 1071.2957276254892 3137.2707495242357 3431.7399749457836 107.477713778615 429.72602874040604 3256.8387854844332 390.41355338692665 3879.3408780992031
leaf_count=1749 31680 8813 14133 15239 507 2005 16278 3473 17862
internal_value=0 0.0166545 -0.00103488 0.00134709 0.00413032 0.0268556 0.00207839 0.0512828 -0.00258461
internal_weight=0 1446 21561.3 14632.8 11201.1 927.617 10273.5 497.891 7016.61
internal_count=111739 10562 101177 69497 54258 5985 48273 3980 31995
shrinkage=0.1


Tree=25
num_leaves=10
num_cat=0
split_feature=2 1 0 0 1 1 6 4 6
split_gain=37.2721 26.0693 24.542 32.6321 31.3766 42.7409 33.8921 28.4725 26.6203
threshold=1.1539525612504711 -0.43672463137656442 20.838742302386965 1.6045306262177326 -0.20150046588852999 -0.24431894512847063 0.67876881324134231 30.922075992975511 0.32995251975029355
decision_type=2 2 2 2 2 2 2 2 2
left_child=-1 -2 3 4 5 7 -6 -3 -7
right_child=1 2 -4 -5 6 8 -8 -9 -10
leaf_value=-0.0017035621238220328 -0.020887082305429645 -0.021134727261482137 0.036114774658614214 -0.00029857862384949303 -0.0025675670902848835 -0.010899786642330114 0.036872464868732045 0.055718526346805276 0.095705532609834859
leaf_weight=19239.723012417555 267.48494048416615 110.64227384328842 363.07201720774174 1767.3625001609325 641.32646101713181 27.595162272453308 329.99502377212048 85.425062268972397 154.9508004784584
leaf_count=88482 1360 528 2150 8709 3762 136 5217 554 841
internal_value=0 0.00919697 0.0115091 0.00864326 0.0203501 0.0447692 0.0108317 0.0123497 0.0795902
internal_weight=0 3747.85 3480.37 3117.3 1349.93 378.613 971.321 196.067 182.546
internal_count=111739 23257 21897 19747 11038 2059 8979 1082 977
shrinkage=0.1


Tree=26
num_leaves=10
num_cat=0
split_feature=4 6 1 1 2 1 5 5 4
split_gain=31.3701 28.5209 23.5591 17.0515 15.9731 15.708 15.3268 13.575 25.1949
threshold=40.726766083598427 0.12323664497135726 0.64813111975789084 -0.85493298483081148 0.32937957229696418 0.7757253088941799 106.63296441538604 32.69953368534626 3.3198259359129598
decision_type=2 2 2 2 2 2 2 2 2
left_child=4 3 -3 -2 6 7 -1 -6 -9
right_child=1 2 -4 -5 5 -7 -8 8 -10
leaf_value=-0.0016295349718550784 -0.1082821543614335 0.017648271779310106 -0.088223620673268291 -0.0019780881868336811 0.0073049556538377766 -0.13696752663605091 -0.034580668886599747 -0.0099646396793240805 3.8380567408470003e-05
leaf_weight=284.61699277162552 15.299376308917997 1982.6076753512025 21.243473902344704 1097.5460853725672 1846.2642264813185 8.4816079884767515 280.05758127570152 3052.1476309150457 14387.04588380456
leaf_count=1162 82 14786 99 5583 8154 36 1142 13036 67659
internal_value=0 0.00939704 0.0165259 -0.00343955 -0.00139408 -0.000908897 -0.0179721 -0.000849059 -0.00171231
internal_weight=0 3116.7 2003.85 1112.85 19858.6 19293.9 564.675 19285.5 17439.2
internal_count=111739 20550 14885 5665 91189 88885 2304 88849 80695
shrinkage=0.1


Tree=27
num_leaves=10
num_cat=0
split_feature=0 0 1 6 6 5 3 4 1
split_gain=28.3332 21.3037 29.1699 28.7182 43.974 55.8034 35.282 32.0593 42.0396
threshold=0.62939489875381061 7.6355274725764373 0.94310091211926206 0.28713384935181058 0.2722205172513919 171.61467134319514 0.097040816631179819 0.85043706850619583 0.33248128343373545
decision_type=2 2 2 2 2 2 2 2 2
left_child=-1 -2 3 4 6 -6 -3 8 -5
right_child=1 2 -4 7 5 -7 -8 -9 -10
leaf_value=0.013778485368143809 -0.005446993331508848 -0.0020089840920078312 -0.14651291274641759 0.0027498250968566204 0.048456097594898336 -0.0010899724003514799 0.010486714991286214 -0.0023453263395482159 -0.053079315174740273
leaf_weight=1413.7000472769141 6838.4056296050549 6976.4923801273108 13.337228149175642 239.42374667525291 479.15383598953485 432.52171601355076 3342.0590708702803 2916.7541040480137 308.88068690896034
leaf_count=10562 31240 31758 55 1023 3980 2016 16782 13066 1257
internal_value=0 -0.00083549 0.00130851 0.00144267 0.00389823 0.0249502 0.00203823 -0.00651578 -0.0287008
internal_weight=0 21547 14708.6 14695.3 11230.2 911.676 10318.6 3465.06 548.304
internal_count=111739 101177 69937 69882 54536 5996 48540 15346 2280
shrinkage=0.1


Tree=28
num_leaves=10
num_cat=0
split_feature=2 1 0 2 6 0 2 0 6
split_gain=25.9683 26.7599 28.1462 40.7841 27.8508 24.3378 22.2296 20.601 36.5199
threshold=1.1091836543923965 0.063692387863993657 36.907234451337011 1.0146497118946785 0.11125000395859654 7.6355274725764373 1.03104292653985 34.388309319673048 0.084842743677975382
decision_type=2 2 2 2 2 2 2 2 2
left_child=1 2 4 -4 5 6 -1 -3 -9
right_child=-2 7 3 -5 -6 -7 -8 8 -10
leaf_value=-0.060616613026489609 0.0070587822415454655 -0.0013504891965889847 -0.046646854800542113 0.019164058367981851 -0.0022969916397208821 0.0012524737062649006 0.0068096643813604571 -0.021771453000949525 0.012579156197705832
leaf_weight=228.12135708332062 4306.7114228978753 11565.723626330495 385.09990261495113 124.64490367472172 3303.0003889501095 172.59003210067749 62.235614433884621 354.496383279562 2438.3451245650649
leaf_count=1008 26106 52198 1643 594 15030 817 292 1655 12396
internal_value=0 -0.00155707 -0.00850153 -0.0305545 -0.00551652 -0.028487 -0.0461643 0.000510848 0.00821902
internal_weight=0 18634.3 4275.69 509.745 3765.95 462.947 290.357 14358.6 2792.84
internal_count=111739 85633 19384 2237 17147 2117 1300 66249 14051
shrinkage=0.1


Tree=29
num_leaves=10
num_cat=0
split_feature=0 1 2 4 0 6 1 6 6
split_gain=24.4315 31.6656 46.0445 37.6736 27.8347 25.7923 23.3089 23.1791 35.6632
threshold=1.4085384173432607 -0.20150046588852999 1.2444094116286493 59.228967530124471 7.6355274725764373 0.67876881324134231 0.94310091211926206 0.28713384935181058 0.27096442412453375
decision_type=2 2 2 2 2 2 2 2 2
left_child=1 2 -1 -4 -2 -3 7 8 -6
right_child=4 5 3 -5 6 -7 -8 -9 -10
leaf_value=0.082478635949799511 -0.0071686821757822707 0.0004271955823403598 -0.023517089056952375 0.058534696781579222 0.0017448126951834916 0.030680820564897404 -0.13031402551021795 -0.0058799798128738321 0.021859777487025823
leaf_weight=135.8711062297225 5550.8950841426849 2004.1914981454611 140.12742255628109 93.160119153559208 10233.55617557466 327.89954964071512 13.475527733564375 3466.8258497267962 964.4878196939826
leaf_count=750 24640 9789 675 649 48209 5299 55 15346 6327
internal_value=0 0.00898865 0.0362017 0.00924914 -0.00113669 0.00468095 0.00114442 0.00126522 0.00347732
internal_weight=0 2701.25 369.159 233.288 20229.2 2332.09 14678.3 14664.9 11198
internal_count=111739 17162 2074 1324 94577 15088 69937 69882 54536
shrinkage=0.1


Tree=30
num_leaves=10
num_cat=0
split_feature=0 1 1 4 3 4 6 6 5
split_gain=19.9723 26.5771 40.1001 24.8296 26.5056 24.8283 22.6141 34.6222 36.1283
threshold=1.4085384173432607 -0.20150046588852999 -0.24431894512847063 9.1374859365904388 0.099999598583557017 59.228967530124471 0.28713384935181058 0.26879463855649627 173.9543297814042
decision_type=2 2 2 2 2 2 2 2 2
left_child=1 2 5 -4 -5 -1 7 -2 -9
right_child=6 -3 3 4 -6 -7 -8 8 -10
leaf_value=-0.023035177298414374 -0.00050355801586204061 0.0042340893236220379 -0.017256123234766909 0.10275381177319715 -0.05512934373781482 0.049336495448579792 -0.0065253704651916412 0.036009385696080268 0.0024132994962510375
leaf_weight=127.2126836180687 13460.99057546258 2323.4323766976595 26.505192637443542 120.34539252519608 11.663826808333395 75.559319101274014 5453.8340454697609 551.17390692979097 763.45883086323738
leaf_count=603 62643 15088 129 735 63 544 24002 4392 3540
internal_value=0 0.00815752 0.0333891 0.0710696 0.0888039 0.00393282 -0.00102211 0.0010092 0.0164988
internal_weight=0 2684.72 361.286 158.514 132.009 202.772 20229.5 14775.6 1314.63
internal_count=111739 17162 2074 927 798 1147 94577 70575 7932
shrinkage=0.1


Tree=31
num_leaves=10
num_cat=0
split_feature=6 6 0 2 1 1 6 2 1
split_gain=19.2684 21.147 36.2574 15.1064 14.8336 14.1121 19.0682 14.3479 25.5161
threshold=0.67876881324134231 0.6790964167554191 0.6197047763070086 0.32937957229696418 0.7757253088941799 -0.85493298483081148 0.15808759315688573 1.2097152600244974 -0.24431894512847063
decision_type=2 2 2 2 2 2 2 2 2
left_child=3 2 -2 -1 5 6 -5 -7 -9
right_child=1 -3 -4 4 -6 7 -8 8 -10
leaf_value=-0.016029152587529953 -0.40291520994908708 0.0020109429420860896 0.052381778380880623 -0.09419657961808342 -0.12671522694901058 -0.00057181207496190668 0.015048598226979777 0.0012461263875806507 0.025467270114293734
leaf_weight=597.5446440577507 1.7668713517487038 237.50773535296321 173.61164357513189 36.527661710977554 9.2218012511730176 19657.223303318024 28.399426847696304 1556.4906310290098 603.60254407674074
leaf_count=2447 31 2633 3043 180 39 91797 160 8129 3280
internal_value=0 0.0214582 0.0477948 -0.000341884 8.63123e-05 0.00013975 -0.0464122 0.000278286 0.00801433
internal_weight=0 412.886 175.379 22489 21891.5 21882.2 64.9271 21817.3 2160.09
internal_count=111739 5707 3074 106032 103585 103546 340 103206 11409
shrinkage=0.1


Tree=32
num_leaves=10
num_cat=0
split_feature=4 2 0 1 2 6 0 6 4
split_gain=16.7883 19.0977 16.1181 16.045 15.0642 15.1671 16.2648 16.1188 14.3528
threshold=40.726766083598427 0.81913937797243597 74.649176504968054 -0.43672463137656442 1.2281091515691742 0.67876881324134231 0.62286527281781023 0.67892475896923676 70.811428559564391
decision_type=2 2 2 2 2 2 2 2 2
left_child=-1 -2 3 8 5 -5 7 -7 -3
right_child=1 2 -4 4 -6 6 -8 -9 -10
leaf_value=-0.0010149679393278673 -0.0087874909017174197 -0.098838392868267691 0.041840370146747158 0.0022357238880708649 0.027147449075102803 -0.27320768089862651 0.049789745913409122 0.0066582593744173484 -0.0089613981113121893
leaf_weight=19834.384870141745 616.10166391730309 23.75970433652401 157.65182389318943 1462.8335117697716 436.2707127854228 2.0894679725170127 152.32387877628207 136.36771372333169 70.458298355340958
leaf_count=91189 3003 123 1006 8055 2754 26 2764 2418 401
internal_value=0 0.00694534 0.010915 0.00878053 0.010519 0.00638212 0.0272414 0.00243478 -0.0316264
internal_weight=0 3057.86 2441.76 2284.1 2189.89 1753.61 290.781 138.457 94.218
internal_count=111739 20550 17547 16541 16017 13263 5208 2444 524
shrinkage=0.1


Tree=33
num_leaves=10
num_cat=0
split_feature=4 1 6 0 5 4 2 3 2
split_gain=13.7203 17.4839 13.5922 16.254 13.421 14.161 20.3284 22.4956 23.4111
threshold=40.726766083598427 0.53462757586501553 0.11125000395859654 29.86526634859171 40.237046782691387 5.8466096474736711 0.77686508970637769 0.099654479349170946 0.4638630963620895
decision_type=2 2 2 2 2 2 2 2 2
left_child=4 2 -2 -4 -1 -6 7 -7 -9
right_child=1 -3 3 -5 5 6 -8 8 -10
leaf_value=0.0059989532235666413 -0.0023964139534992475 -0.031167912696982963 0.0082592816136162796 0.031876998342584166 -0.0063177171993741557 0.00087079950105823354 -0.0030074518026426706 -0.019694789566058791 0.022050984067865424
leaf_weight=2460.6906082183123 899.2132695093751 119.64932316541672 1670.1438283212483 352.98315425217152 5105.490225404501 3001.444833137095 8034.0802265256643 153.30406498908997 1085.8205725550652
leaf_count=10824 4576 560 13295 2119 22017 14212 38400 671 5065
internal_value=0 0.00629921 0.00783322 0.01238 -0.000913158 -0.00189178 -5.08635e-05 0.00555062 0.0168862
internal_weight=0 3041.99 2922.34 2023.13 19840.8 17380.1 12274.6 4240.57 1239.12
internal_count=111739 20550 19990 15414 91189 80365 58348 19948 5736
shrinkage=0.1


Tree=34
num_leaves=10
num_cat=0
split_feature=0 6 1 5 4 2 1 2 0
split_gain=13.2936 16.5424 13.7036 15.2744 18.2675 14.8364 13.0121 34.5379 38.7706
threshold=0.62939489875381061 0.26879463855649627 0.74715719121493762 24.83582517652302 5.8466096474736711 0.36865066943975472 0.080542335608042789 1.0176397221797022 36.907234451337011
decision_type=2 2 2 2 2 2 2 2 2
left_child=1 -1 3 -2 -5 -4 7 8 -6
right_child=2 -3 5 4 6 -7 -8 -9 -10
leaf_value=-0.0077717785046622209 0.010017320286702717 0.016562108548361203 -0.016343754432097599 -0.0059398150764936909 -0.0063121056752113817 -0.15412762099080701 0.0035131753051225929 0.0029700980436687652 -0.040605638473746965
leaf_weight=391.30122861266136 1362.586108699441 976.61061272397637 380.68096147477627 5317.8397403657436 1777.6545569896698 7.9788415282964698 8257.7119606882334 3996.7924630269408 404.72624553740025
leaf_count=1860 6025 8702 1559 22977 8132 33 39819 20890 1742
internal_value=0 0.00960122 -0.000565531 -0.000223077 -0.00092941 -0.0191723 0.000916177 -0.00255439 -0.0126719
internal_weight=0 1367.91 21506 21117.3 19754.7 388.66 14436.9 6179.17 2182.38
internal_count=111739 10562 101177 99585 93560 1592 70583 30764 9874
shrinkage=0.1


Tree=35
num_leaves=10
num_cat=0
split_feature=0 6 0 0 6 1 1 2 1
split_gain=11.4922 29.2083 18.489 47.8214 27.2427 22.9686 19.2414 17.6184 27.1973
threshold=42.021903092435601 0.084842743677975382 34.844662981691975 34.518543897194299 0.17529420346995211 0.4322110926453025 0.65990245502442135 0.92089117573945967 1.0000000180025095e-35
decision_type=2 2 2 2 2 2 2 2 2
left_child=2 -2 3 6 -4 -5 -1 -6 -9
right_child=1 -3 4 5 7 -7 -8 8 -10
leaf_value=0.00021796831973382809 -0.021104079146203901 0.012779311859913947 0.0070463172516000046 0.0087508892725058525 -0.0059200143040358706 0.066584071385684548 -0.016065468076430486 0.0044144531680958441 -0.046799198741989553
leaf_weight=18447.037174005061 301.92336392402649 1616.6142063289881 514.21478146314621 122.1085846349597 409.78257201611996 156.92440744489431 755.39646235108376 140.27913510799408 397.60115478932858
leaf_count=90573 1416 8242 2368 579 1866 1181 3149 672 1693
internal_value=0 0.00744703 -0.00063927 0.000174643 -0.0114857 0.0412755 -0.000422599 -0.0215415 -0.0334427
internal_weight=0 1918.54 20943.3 19481.5 1461.88 279.033 19202.4 947.663 537.88
internal_count=111739 9658 102081 95482 6599 1760 93722 4231 2365
shrinkage=0.1


Tree=36
num_leaves=10
num_cat=0
split_feature=1 6 3 2 0 1 2 1 0
split_gain=11.4211 12.8131 13.3593 12.448 21.6452 15.2237 16.329 18.8188 15.6182
threshold=-0.85493298483081148 0.15808759315688573 0.063522223496081429 1.1091836543923965 21.792208663261118 0.063692387863993657 0.87182851122239557 0.12536304592620584 36.907234451337011
decision_type=2 2 2 2 2 2 2 2 2
left_child=1 2 -1 5 -5 8 -7 -8 -2
right_child=3 -3 -4 4 -6 6 7 -9 -10
leaf_value=-0.032080668760116997 -0.0039371308034452232 0.010360021619619247 -0.15351690146795449 0.002630501705852978 0.026146881082812226 -0.0010860889773554694 0.0028459387854619603 0.021803486088369715 -0.02246305204930861
leaf_weight=23.400956273078918 3780.9450893625617 27.579488679766655 14.781350433826445 3721.4634825661778 437.40325870364904 11417.741274751723 2226.9782860204577 684.60559621453285 517.32762837409973
leaf_count=109 17147 160 71 23093 2673 52224 10536 3489 2237
internal_value=0 -0.041577 -0.0790917 0.00015725 0.00510381 -0.000947137 0.000618588 0.00730346 -0.00616686
internal_weight=0 65.7618 38.1823 22786.5 4158.87 18627.6 14329.3 2911.58 4298.27
internal_count=111739 340 180 111399 25766 85633 66249 14025 19384
shrinkage=0.1


Tree=37
num_leaves=10
num_cat=0
split_feature=6 6 0 2 6 0 6 0 0
split_gain=10.8496 16.0161 16.6129 12.8791 9.90626 9.40873 23.3409 13.1279 40.3417
threshold=0.67876881324134231 0.6790964167554191 0.6197047763070086 1.2158300097965336 0.67745747429663217 42.021903092435601 0.066282866516864672 34.844662981691975 34.518543897194299
decision_type=2 2 2 2 2 2 2 2 2
left_child=4 2 -2 -3 5 7 -7 8 -1
right_child=1 3 -4 -5 -6 6 -8 -9 -10
leaf_value=-0.00062041204231354967 -0.19466887635693059 0.0030133953057466783 0.045466026889048633 -0.17449051015630637 -0.039887473113611356 -0.025161386603720661 0.010424917656477566 -0.0098863913111974094 0.038122743918023783
leaf_weight=18742.840420030057 2.9352074339985839 228.86039380729198 155.83471114560962 4.1619385331869116 62.885561868548393 206.68768399953842 1702.4524432271719 1465.8454047292471 272.66971683502197
leaf_count=87576 31 2612 3043 21 439 958 8700 6599 1760
internal_value=0 0.0165323 0.0410266 -0.000156946 -0.000253247 -0.000141931 0.00657227 -0.000767785 -6.48611e-05
internal_weight=0 391.792 158.77 233.022 22453.4 22390.5 1909.14 20481.4 19015.5
internal_count=111739 5707 3074 2633 106032 105593 9658 95935 89336
shrinkage=0.1


Tree=38
num_leaves=10
num_cat=0
split_feature=0 1 2 4 3 0 4 3 2
split_gain=10.4297 21.4649 34.4967 24.5529 21.7569 19.007 17.7216 42.5051 30.5686
threshold=1.4085384173432607 -0.20150046588852999 1.2444094116286493 59.228967530124471 0.095794068709778496 7.6355274725764373 1.2774168089633096 0.087717355565097133 0.56232846872701303
decision_type=2 2 2 2 2 2 2 2 2
left_child=1 2 4 -4 -1 -2 7 -7 -9
right_child=5 -3 3 -5 -6 6 -8 8 -10
leaf_value=0.088861330828065313 -0.0057116934759959253 0.0024269972939743945 -0.019428313657476066 0.04875507675536888 -0.03258036848804885 0.0024651451472877178 0.0021999127163973248 -0.070307946047329054 -0.013663822067180836
leaf_weight=105.22039713710546 5567.8870074898005 2287.9558414779603 142.04848392307758 84.070995651185513 17.157963737845421 823.87170816957951 13419.500125862658 164.94284826517105 225.55332733690739
leaf_count=661 24640 15088 675 649 89 3523 64816 668 930
internal_value=0 0.00594852 0.029068 0.0059222 0.0718347 -0.00073895 0.00115308 -0.0104151 -0.0375899
internal_weight=0 2636.45 348.498 226.119 122.378 20201.8 14633.9 1214.37 390.496
internal_count=111739 17162 2074 1324 750 94577 69937 5121 1598
shrinkage=0.1


Tree=39
num_leaves=10
num_cat=0
split_feature=0 6 0 2 3 4 2 1 6
split_gain=9.18869 12.9064 10.456 17.2562 14.6904 27.6777 21.5781 38.6185 17.6109
threshold=0.62939489875381061 0.26879463855649627 7.6355274725764373 0.078379674080608183 0.029399465727829158 1.2774168089633096 0.55808792139231778 0.49705550525803127 0.086853338759795326
decision_type=2 2 2 2 2 2 2 2 2
left_child=1 -1 -2 -4 -5 6 7 -6 -7
right_child=2 -3 3 4 5 8 -8 -9 -10
leaf_value=-0.0072756613233893128 -0.0036953939066377336 0.014268321105680982 -0.12118687809190841 0.011611028097505333 -0.072781052818532019 -0.011505132970843386 -0.0076069265886528617 0.012824234081475963 0.0024828635679794279
leaf_weight=391.43621860444546 6852.6236424595118 960.1133031770587 11.541931614279745 1226.2267149686813 151.71436437964439 976.36364778876305 658.51395839452744 80.744678363204002 11516.497795641422
leaf_count=1860 31240 8702 47 5459 622 4590 2768 339 56112
internal_value=0 0.00802875 -0.000472154 0.00103846 0.00113502 0.000175211 -0.0168532 -0.043046 0.00138965
internal_weight=0 1351.55 21474.2 14621.6 14610.1 13383.8 890.973 232.459 12492.9
internal_count=111739 10562 101177 69937 69890 64431 3729 961 60702
shrinkage=0.1


end of trees

feature_importances:
pass_error_diff=74
eval_data.pass_distance=71
eval_data.small_cone_angle=60
pos_score_data.dnet.val=54
pos_score_data.posx.val=50
pos_score_data.dopp.val=28
eval_data.forward_cone_angle=23

parameters:
[boosting: gbdt]
[objective: binary]
[metric: binary_logloss]
[tree_learner: serial]
[device_type: cpu]
[data: ]
[valid: ]
[num_iterations: 40]
[learning_rate: 0.1]
[num_leaves: 10]
[num_threads: -1]
[force_col_wise: 0]
[force_row_wise: 0]
[histogram_pool_size: -1]
[max_depth: -1]
[min_data_in_leaf: 20]
[min_sum_hessian_in_leaf: 0.001]
[bagging_fraction: 1]
[pos_bagging_fraction: 1]
[neg_bagging_fraction: 1]
[bagging_freq: 0]
[bagging_seed: 3]
[feature_fraction: 1]
[feature_fraction_bynode: 1]
[feature_fraction_seed: 2]
[extra_trees: 0]
[extra_seed: 6]
[early_stopping_round: 0]
[first_metric_only: 0]
[max_delta_step: 0]
[lambda_l1: 0]
[lambda_l2: 0]
[min_gain_to_split: 0]
[drop_rate: 0.1]
[max_drop: 50]
[skip_drop: 0.5]
[xgboost_dart_mode: 0]
[uniform_drop: 0]
[drop_seed: 4]
[top_rate: 0.2]
[other_rate: 0.1]
[min_data_per_group: 100]
[max_cat_threshold: 32]
[cat_l2: 10]
[cat_smooth: 10]
[max_cat_to_onehot: 4]
[top_k: 20]
[monotone_constraints: ]
[monotone_constraints_method: basic]
[monotone_penalty: 0]
[feature_contri: ]
[forcedsplits_filename: ]
[refit_decay_rate: 0.9]
[cegb_tradeoff: 1]
[cegb_penalty_split: 0]
[cegb_penalty_feature_lazy: ]
[cegb_penalty_feature_coupled: ]
[path_smooth: 0]
[interaction_constraints: ]
[verbosity: -1]
[saved_feature_importance_type: 0]
[max_bin: 255]
[max_bin_by_feature: ]
[min_data_in_bin: 3]
[bin_construct_sample_cnt: 200000]
[data_random_seed: 1]
[is_enable_sparse: 1]
[enable_bundle: 1]
[use_missing: 1]
[zero_as_missing: 0]
[feature_pre_filter: 1]
[pre_partition: 0]
[two_round: 0]
[header: 0]
[label_column: ]
[weight_column: ]
[group_column: ]
[ignore_column: ]
[categorical_feature: ]
[forcedbins_filename: ]
[objective_seed: 5]
[num_class: 1]
[is_unbalance: 0]
[scale_pos_weight: 1]
[sigmoid: 1]
[boost_from_average: 1]
[reg_sqrt: 0]
[alpha: 0.9]
[fair_c: 1]
[poisson_max_delta_step: 0.7]
[tweedie_variance_power: 1.5]
[lambdarank_truncation_level: 20]
[lambdarank_norm: 1]
[label_gain: ]
[eval_at: ]
[multi_error_top_k: 1]
[auc_mu_weights: ]
[num_machines: 1]
[local_listen_port: 12400]
[time_out: 120]
[machine_list_filename: ]
[machines: ]
[gpu_platform_id: -1]
[gpu_device_id: -1]
[gpu_use_dp: 0]

end of parameters

pandas_categorical:[]
