tree
version=v3
num_class=1
num_tree_per_iteration=1
label_index=0
max_feature_idx=10
objective=binary sigmoid:1
feature_names=eval_data.pass_error_diff pos_score_data.posx pos_score_data.dnet pos_score_data.dopp eval_data.small_cone_angle eval_data.forward_cone_angle eval_data.pass_distance eval_data.opp_dist_to_line eval_data.opp_dist_to_active eval_data.timestep eval_data.kick_countdown
feature_infos=[5.9324609420485785e-05:118.86590368603693] [-1.0225145595893264:1.0514125392958522] [0.02020467118642652:2.0235605161228589] [1.6781435515607424e-05:0.10000000000000001] [7.9323172656131646e-05:200] [0.00020908023790866537:200] [0.00040164000141267676:0.90652359492847567] [2.4636430905580677e-07:0.5961265090367488] [0.00012840095445369748:0.10000000000000001] [0:7] [0:9]
tree_sizes=3219 3328 3338 3333 3347 3361 3356 3383 3349 3353

Tree=0
num_leaves=30
num_cat=0
split_feature=7 4 10 10 0 6 6 0 6 1 1 6 9 8 1 8 0 0 8 1 2 1 4 5 2 8 4 2 1
split_gain=1521.12 819.587 365 304.828 331.028 437.497 349.544 289.072 220.871 307.029 85.7474 85.9617 119.135 82.5777 82.1997 79.0388 74.5056 72.74 71.6883 69.1703 62.5919 62.0244 60.9354 59.4093 52.8489 50.3127 48.9724 45.286 41.9505
threshold=0.073068690657956528 6.6317832445788278 inf 7.5000000000000009 31.682080650185807 0.27162540988574141 0.27915736127731999 0.62802219418603322 0.24432497166905581 0.43391798038035639 -0.96269121885299669 0.39859140635190832 2.5000000000000004 0.051783983303832319 0.51496868065558388 0.047672282987567774 2.0494311170743242 73.395306657080411 0.093254685726985823 0.069133267477154745 0.91091487546395045 -0.96269121885299669 26.808790610195761 170.39043996149715 0.92220451625020983 0.039462606070545636 22.850812767357841 0.20678500583225209 0.041159297544509178
decision_type=2 2 8 10 2 2 2 2 2 2 2 2 10 2 2 2 2 2 2 2 2 2 2 2 2 2 2 2 2
left_child=1 2 8 4 14 17 23 -2 -1 19 -9 16 -13 -5 21 -4 -12 24 -11 -10 -17 -3 28 -7 -6 -21 -23 -16 -15
right_child=7 3 15 13 5 6 -8 10 9 18 11 12 -14 22 27 20 -18 -19 -20 25 -22 26 -24 -25 -26 -27 -28 -29 -30
leaf_value=0.98803937537336672 1.1292731237990092 0.89381946574604809 1.0075119049796191 1.0002061189840394 1.034902554639858 1.1321649405913723 0.99238441316595993 0.84593055313558008 0.97580956219356618 0.90782788160106731 1.1129206059804277 1.0484808662800498 0.88404864807472938 0.90705097894384923 0.90591802267073063 0.95161524949098208 1.0564151465728489 1.0848459337133827 0.76287709171198292 0.95371058579413104 0.99905416117783563 1.0219235831319016 1.0174184752294857 1.0483909038564572 1.0000629813781063 0.89543423560445201 1.0351200092655193 0.99863322685919975 0.97239411664648578
leaf_weight=1332.0092725455761 1240.2567223533988 35.92136050760746 6238.4516964405775 975.73210944235325 1734.0116767659783 1026.9430041313171 240.52406340092421 17.917918212711811 513.50556130707264 47.589813202619553 451.69328537583351 429.93561498075724 49.093394860625267 245.96132199466228 56.742576695978642 484.47487819194794 482.73832134902477 232.35705117881298 120.54642286896706 308.04508680105209 653.02132205665112 10722.219687901437 108.56310595571995 92.256489157676697 581.38441346585751 285.40713332593441 3811.9109694510698 736.17558678984642 163.60352283716202
leaf_count=7216 8907 240 45604 5284 11074 6824 1644 138 2785 257 3105 3667 290 1331 365 3911 3097 1410 649 1673 4877 73887 586 611 3530 1547 25727 4579 887
internal_value=1.02156 1.01527 0.991724 1.02659 1.02996 1.05595 1.10175 1.09394 0.959561 0.929812 1.06332 1.06607 1.03163 0.983073 1.02335 1.00309 1.08373 1.03151 0.803904 0.948937 0.978849 1.02506 0.950809 1.12526 1.02615 0.925684 1.02538 0.991998 0.933153
internal_weight=0 30747.4 9983.05 20764.3 19270.4 3907.48 1359.72 2671.64 2607.1 1275.09 1431.38 1413.46 479.029 1493.86 15363 7375.95 934.432 2547.75 168.136 1106.96 1137.5 14570.1 518.128 1119.2 2315.4 593.452 14534.1 792.918 409.565
internal_count=225702 206498 68519 137979 129891 25093 9079 19204 14127 6911 10297 10159 3957 8088 104798 54392 6202 16014 906 6005 8788 99854 2804 7435 14604 3220 99614 4944 2218
shrinkage=1


Tree=1
num_leaves=30
num_cat=0
split_feature=7 4 10 0 10 0 6 6 6 1 4 1 8 8 0 1 1 8 5 2 4 1 0 8 2 10 6 6 6
split_gain=1279.21 645.427 279.224 275.041 236.922 277.891 380.73 308.894 162.944 208.025 69.0244 64.8768 61.8204 61.6956 61.0126 59.4382 53.7502 57.6175 53.5898 52.3179 49.9335 47.4948 46.9534 44.6165 43.7855 41.1305 40.9349 39.805 39.37
threshold=0.069567513271562548 6.6317832445788278 inf 0.62802219418603322 7.5000000000000009 31.682080650185807 0.27162540988574141 0.27915736127731999 0.24432497166905581 0.43391798038035639 11.698151318660623 0.51496868065558388 0.044687872834585078 0.051783983303832319 73.395306657080411 -0.96269121885299669 0.16718875218182805 0.05470972175363735 170.39043996149715 0.91091487546395045 26.808790610195761 -0.96269121885299669 1.9713416644765325 0.093254685726985823 0.92220451625020983 1.5000000000000002 0.36613763171579944 0.67043096534716484 0.3806991496468829
decision_type=2 2 8 2 10 2 2 2 2 2 2 2 2 2 2 2 2 2 2 2 2 2 2 2 2 8 2 2 2
left_child=1 2 8 27 5 11 14 18 -1 16 22 21 -4 -6 24 -12 -10 -18 -8 -14 -15 -3 -5 -11 -7 -23 -27 -2 -17
right_child=3 4 12 10 13 6 7 -9 9 23 15 -13 19 20 -16 28 17 -19 -20 -21 -22 25 -24 -25 -26 26 -28 -29 -30
leaf_value=-0.029675864959792859 0.06446921636598428 -0.10927566718365717 -0.012369871448748163 0.09904083899279649 -0.019016252661621526 0.012016129436582042 0.10541694949294794 -0.026505371131697122 -0.046602920533317278 -0.096987909264692335 -0.13959000142429417 -0.026351093826298591 -0.060090943141926846 -0.076680800290529844 0.058585686605537951 0.045033156113425787 -0.065261027129780685 -0.1437659402589497 0.025054657096519148 -0.018813441191152042 0.0014337417502299917 -0.044560071295375876 -0.034850504028828194 -0.20758244305265561 -0.019686811275973465 0.0054727039083381735 -0.013337047339694512 0.11076460773448907 0.0082905853080853954
leaf_weight=1352.8875844925642 230.01244486123323 37.643812477588654 6190.0979386866093 234.2977097555995 985.49741692841053 1720.8454551920295 972.58368088304996 242.52780187875032 724.63202451169491 50.077554568648338 20.868145279586315 800.07013650238514 543.11951448768377 421.38830755650997 224.65300779044628 743.0099216029048 278.84373340010643 140.6430706679821 90.721083268523216 706.47500633448362 101.5546600818634 178.11731931567192 29.488020285964012 134.31923389434814 583.31238511949778 12961.077872484922 1270.3876420781016 964.48769804090261 480.03724484145641
leaf_count=7216 1761 237 44907 1614 5284 11059 6824 1636 3825 257 148 4921 4251 2193 1406 5041 1460 720 609 5234 547 968 208 649 3507 88973 8974 7282 3991
internal_value=0 -0.00575998 -0.0264372 0.066007 0.00440379 0.00741974 0.0314833 0.0753324 -0.054104 -0.0789803 0.0376097 0.00136783 -0.0164655 -0.0337483 0.00884044 0.0277566 -0.0630942 -0.0915817 0.0985604 -0.0367542 -0.0615111 0.00290287 0.0840734 -0.177548 0.00399033 0.00319593 0.00379363 0.10185 0.030612
internal_weight=0 30711.5 10121.1 2702.2 20590.4 19081.9 3834.64 1305.83 2681.4 1328.52 1507.7 15247.3 7439.69 1508.44 2528.81 1243.92 1144.12 419.487 1063.3 1249.59 522.943 14447.2 263.786 184.397 2304.16 14409.6 14231.5 1194.5 1223.05
internal_count=225702 205657 68519 20045 137138 129114 25041 9069 14127 6911 11002 104073 54392 8024 15972 9180 6005 2180 7433 9485 2740 99152 1822 906 14566 98915 97947 9043 9032
shrinkage=0.1


Tree=2
num_leaves=30
num_cat=0
split_feature=7 4 10 0 4 6 6 6 2 10 8 10 0 8 4 5 2 2 5 6 7 8 1 6 2 6 9 5 6
split_gain=1076.51 530.118 266.463 238.322 224.424 341.698 337.185 141.227 119.38 118.465 84.6514 77.2518 65.1506 61.7852 57.7916 52.63 47.5416 46.2075 44.6502 43.1667 41.9433 39.9933 53.1892 39.4487 38.9358 36.5834 87.3321 36.515 69.7335
threshold=0.073068690657956528 9.0259753959239664 inf 0.62802219418603322 10.430867279043968 0.27162540988574141 0.28049778609553405 0.194954721437295 0.56381366447055681 7.5000000000000009 0.093254685726985823 1.5000000000000002 73.395306657080411 0.06929749365670583 11.583493353472877 189.99963719127354 1.9629692115271742 0.20678500583225209 163.99743382728701 0.19272271073274386 0.062642503872179997 0.039831117185098512 0.15444325489923361 0.067141633430397238 0.88708123229570945 0.37812368878880126 2.5000000000000004 189.99963719127354 0.18212333817865703
decision_type=2 2 8 2 2 2 2 2 2 10 2 8 2 2 2 2 2 2 2 2 2 2 2 2 2 2 10 2 2
left_child=1 2 7 -2 5 -3 15 -1 10 11 -9 -6 19 17 -5 -7 25 -4 21 23 -8 -10 -23 -13 -15 -16 -27 28 -11
right_child=3 4 13 14 9 6 20 8 18 27 -12 12 -14 24 16 -17 -18 -19 -20 -21 -22 22 -24 -25 -26 26 -28 -29 -30
leaf_value=-0.017254499274835116 0.097699750283761683 -0.0079761973775557393 -0.13215593510639839 0.082577476861053767 -0.05238031009315211 0.10227017545825208 -0.0090059022595963632 -0.058233322588932802 -0.044421066679066937 -0.030434640087569582 -0.17088675477512172 -0.012182344043184898 0.061406354582420809 -0.063874775061030439 0.044652789576906465 -0.0017714378469936036 -0.12078228601278401 -0.0085445921851206308 -0.034112142734862731 -0.0021611718609753873 0.074921052818299458 -0.055028314864693763 -0.11909053282685036 0.012061282249458032 -0.021291406201299216 0.023115872128896653 -0.11505705367012585 -0.016005794404411685 -0.1302146672439157
leaf_weight=1305.1502940654755 1114.1840262338519 1186.3490233644843 30.341478608548641 219.14135091006756 235.42299927771091 975.59475369006395 499.30174070596695 119.77392747998238 509.99166958034039 313.72716066241264 150.53949843347073 747.95130684971809 204.57803861796856 323.16059707850218 658.09578119218349 51.170671939849854 21.48831769824028 9132.6363305896521 924.70126906037331 5502.6718081384897 67.610277079045773 288.9880149513483 234.99352163076401 6538.8565774932504 639.86398048698902 426.63215195387602 51.23693373799324 823.85994903743267 90.172971546649933
leaf_count=6905 8907 7915 221 1585 1258 7187 3481 617 2667 1643 686 5070 1326 2428 4578 356 147 66219 4828 37947 489 1491 1179 43193 4585 3699 288 4347 460
internal_value=0 -0.00502335 -0.0197374 0.0633171 0.0066372 0.0326579 0.0629063 -0.0433785 -0.0586751 0.0016336 -0.120971 0.00439124 0.00541981 -0.0114863 0.0354886 0.0970851 0.0265732 -0.00895391 -0.0500777 0.00452426 0.00100328 -0.064356 -0.0837587 0.00957281 -0.035581 0.0293606 0.00830103 -0.0280809 -0.0527111
internal_weight=0 30897.4 13660.1 2490.78 17237.3 2780.03 1593.68 3534.14 2228.99 14457.2 270.313 13229.5 12994.1 10126 1376.59 1026.77 1157.45 9162.98 1958.67 12789.5 566.912 1033.97 523.982 7286.81 963.025 1135.96 477.869 1227.76 403.9
internal_count=225702 206498 91826 19204 114672 19428 11513 18373 11468 95244 1303 88794 87536 73453 10297 7543 8712 66440 10165 86210 3970 5337 2670 48263 7013 8565 3987 6450 2103
shrinkage=0.1


Tree=3
num_leaves=30
num_cat=0
split_feature=7 4 6 8 10 0 6 6 1 10 6 2 10 4 0 9 8 5 1 2 1 6 1 1 10 0 2 1 4
split_gain=904.815 433.626 218.959 170.912 167.791 190.816 283.86 256.334 158.277 80.3792 73.2343 56.4463 54.0262 52.1995 46.7376 53.5579 46.2167 44.7494 41.225 40.4902 39.5411 39.0746 38.8864 42.0913 34.8804 34.8373 34.8001 69.8263 30.8219
threshold=0.073068690657956528 6.0438500678755256 0.67881516271369657 0.05470972175363735 7.5000000000000009 31.682080650185807 0.27162540988574141 0.27915736127731999 0.15444325489923361 4.5000000000000009 0.19272271073274386 0.34422134270515509 inf 11.698151318660623 45.895044788729088 inf 0.061588776040381578 170.39043996149715 -0.96269121885299669 0.92220451625020983 0.82977090551983579 0.28536422432623709 0.13763053043046969 -0.48504814811050884 6.5000000000000009 2.0494311170743242 1.0313408351561533 0.041159297544509178 13.389279689748024
decision_type=2 2 2 2 10 2 2 2 2 10 2 2 8 2 2 8 2 2 2 2 2 2 2 2 8 2 2 2 2
left_child=1 3 13 12 5 11 14 17 -5 -10 -11 -3 21 25 19 -16 -6 -8 -15 -7 -14 -1 23 -13 -25 -2 27 -18 -24
right_child=2 4 -4 8 16 6 7 -9 9 10 -12 22 20 18 15 -17 26 -19 -20 -21 -22 -23 28 24 -26 -27 -28 -29 -30
leaf_value=-0.022849533591050266 0.089024322739945164 -0.039749493908098503 0.10246182651333764 -0.024423029381862527 -0.017699581128740843 0.0062672047221426219 0.096411356799713577 -0.022418326215890568 -0.057711021548554342 -0.0099808949360485968 -0.14406693265125009 -0.03450757439043934 -0.010720300867917955 -0.10834997024588373 0.036606915991177776 -0.017135367436800483 -0.11787067152821876 0.022965830865660286 0.032373561111103503 -0.029838415497211487 -0.15892882173685788 -0.05828705939905296 -0.011215139420616339 -0.0086767421183801246 0.0095609850432609375 -0.046850619300984775 0.00043251531002300452 -0.025263985271314356 0.0028830337683299688
leaf_weight=1303.8849061280489 245.98934675753117 330.47619542479515 786.68227849155664 1068.3759841918945 1201.9413843005896 1136.1742838919163 873.64975054562092 260.07362957298756 474.58658680319786 48.244315326213837 261.62758640944958 249.00252065062523 5976.6467472985387 21.148345567286015 782.35390584170818 243.04064188152552 162.34935893118382 91.661330752074718 1330.5074188113213 427.4533509761095 18.055610686540604 408.67100964486599 3087.9753603413701 1207.5879889428616 7968.7690709158778 20.437498979270458 84.9762332290411 163.33602738380432 3115.026907980442
leaf_count=6746 1885 1976 6631 6816 6289 7403 6852 1724 3180 250 1187 1770 43117 138 4450 2033 798 622 10402 2580 130 2058 20976 6542 56918 148 433 837 20811
internal_value=0 -0.00449276 0.0591859 -0.0221974 0.00342175 0.00595131 0.0260448 0.0656973 -0.0494676 -0.0835765 -0.123191 0.00114866 -0.0156417 0.038146 0.0072773 0.0238688 -0.027595 0.0894373 0.0301718 -0.00360309 -0.0111667 -0.0313061 0.00201349 0.00606013 0.00716094 0.0786014 -0.0565575 -0.0714271 -0.00413531
internal_weight=0 30945.9 2404.76 9560.09 21385.8 19773.2 3814.41 1225.38 1852.83 784.458 309.872 15958.8 7707.26 1618.08 2589.02 1025.39 1612.6 965.311 1351.66 1563.63 5994.7 1712.56 15628.4 9425.36 9176.36 266.427 410.662 325.685 6203
internal_count=225702 206498 19204 63484 143014 134657 25664 9198 11433 4617 1437 108993 52051 12573 16466 6483 8357 7474 10540 9983 43247 8804 107017 65230 63460 2033 2068 1635 41787
shrinkage=0.1


Tree=4
num_leaves=30
num_cat=0
split_feature=7 4 4 0 0 10 6 6 8 9 1 2 0 1 0 9 2 6 2 2 0 1 4 1 8 10 10 1 1
split_gain=760.001 347.864 357.843 224.843 220.802 164.809 114.6 104.221 94.4459 83.3223 68.0206 59.1667 53.1348 52.2365 91.8387 57.0011 49.1194 49.4173 48.6111 37.3502 36.9381 33.6568 31.6556 34.6441 40.0478 30.6056 32.3944 29.4899 29.4101
threshold=0.066095218338114506 9.9790762222780121 10.430867279043968 0.62802219418603322 23.590305243476745 inf 0.26875243978641394 0.17466844238004245 0.065314793123004297 3.5000000000000004 0.4206243259552867 0.29496919994953325 65.157244653691635 -0.20305988963693378 1.8264177296344883 5.5000000000000009 0.36249283413191818 0.36184661817850933 0.65997001888900786 1.9629692115271742 0.62279488678651351 -0.96269121885299669 3.2379933780359527 0.16718875218182805 0.034195083955465187 7.5000000000000009 1.5000000000000002 -0.021914956420660017 0.080936492392793311
decision_type=2 2 2 2 2 8 2 2 2 10 2 2 2 2 2 10 2 2 2 2 2 2 2 2 2 10 8 2 2
left_child=1 5 4 20 -3 7 -6 -1 11 22 -11 -4 19 14 -5 -15 -7 -18 -19 25 -2 -16 23 -9 -25 26 -13 -10 -29
right_child=3 2 8 13 6 16 -8 9 27 10 -12 12 -14 15 21 -17 17 18 -20 -21 -22 -23 -24 24 -26 -27 -28 28 -30
leaf_value=-0.0072273851589846581 0.07058466662598864 -0.007600319045096119 -0.052253965018372442 0.078942679463754079 -0.0067744469787930795 -0.053713943405218324 0.091178510301199306 -0.02804106050094959 -0.005366156295628222 -0.053612882190528843 -0.12165070873755712 -0.035135852281757834 0.04669628607632563 0.017737746158792183 -0.10049449993093003 -0.07939045182136048 -0.0038428341616538347 -0.069465237635885108 -0.015782623435122697 -0.070365341875393603 0.10848048185153825 0.018669294342964448 -0.021759748538183341 -0.034366767619470155 -0.097430157438912632 -0.013538420126730445 0.0060002117650925189 -0.060709503982647531 -0.019688404328991237
leaf_weight=1142.3637427538633 543.78456244617701 422.61486048996449 186.35781387239695 408.71476197987795 137.74547892808914 239.08035728335381 898.7311626970768 453.25739318132401 409.90440167486668 572.81585055589676 197.63843478262424 194.68313011527061 291.65003161132336 674.26806601881981 25.388186141848564 66.369001224637032 7973.970958083868 179.99115514755249 2684.6416076496243 68.043227396905422 488.07356384396553 356.85987389832735 1172.4116879999638 187.231440782547 217.88255567848682 929.6944981366396 11478.599296912551 332.26369857043028 368.73931420594454
leaf_count=5967 4791 2901 1052 3239 871 1680 7336 2277 2707 2865 878 1016 1896 5413 163 379 57463 1369 19164 394 4360 2544 6033 943 1033 4821 77924 1894 2329
internal_value=0 -0.00424664 0.00615235 0.0524277 0.0533207 -0.0151287 0.0781608 -0.0326842 0.00132603 -0.0430657 -0.0710661 0.00369154 0.00449585 0.0281189 0.0459895 0.00903402 -0.00887897 -0.00788999 -0.0191556 0.00352451 0.0885096 0.0107547 -0.0324427 -0.0470341 -0.0682842 0.00392344 0.00531416 -0.0266728 -0.0391317
internal_weight=0 30740.3 15719 2563.46 1459.09 15021.3 1036.48 3943.6 14259.9 2801.24 770.454 13149 12962.7 1531.6 790.963 740.637 11077.7 10838.6 2864.63 12671 1031.86 382.248 2030.78 858.371 405.114 12603 11673.3 1110.91 701.003
internal_count=225702 204813 105141 20889 11108 99672 8207 19996 94033 14029 3743 87103 86051 11738 5946 5792 79676 77996 20533 84155 9151 2707 10286 4253 1976 83761 78940 6930 4223
shrinkage=0.1


Tree=5
num_leaves=30
num_cat=0
split_feature=7 4 6 8 10 0 6 6 1 10 6 2 4 6 6 8 8 1 3 1 2 9 6 1 5 0 9 0 0
split_gain=639.244 289.041 190.085 112.739 110.922 133.157 209.821 202.286 97.2882 44.6456 58.8871 44.5524 42.6098 39.3003 50.7279 38.2975 35.0918 34.7536 34.3567 30.1764 30.1503 29.2426 31.5532 29.2155 33.8155 28.8272 28.428 28.2831 29.1819
threshold=0.073068690657956528 6.3481371480291964 0.67881516271369657 0.046437460841968398 7.5000000000000009 31.682080650185807 0.27162540988574141 0.27915736127731999 0.14235958882025446 4.5000000000000009 0.25178077031446139 0.20678500583225209 11.698151318660623 0.19834357142270728 0.058351432605501942 0.013473922773018685 0.052476204396422803 0.13763053043046969 0.098042710544392911 -0.96269121885299669 0.32208393476295277 5.5000000000000009 0.12301659436216199 0.057367934817448264 61.530802038854482 2.0494311170743242 5.5000000000000009 0.62802219418603322 0.62279488678651351
decision_type=2 2 2 2 10 2 2 2 2 10 2 2 2 2 2 2 2 2 2 2 2 8 2 2 2 2 8 2 2
left_child=1 3 12 20 5 11 13 15 -5 -10 -11 -3 25 14 -7 -8 -6 19 -17 -13 -1 22 -19 24 -16 -2 -25 28 -14
right_child=2 4 -4 8 16 6 7 -9 9 10 -12 17 27 -15 23 18 -18 21 -20 -21 -22 -23 -24 26 -26 -27 -28 -29 -30
leaf_value=-0.057697449033058783 0.080940810907176752 -0.082068267288041646 0.094894687789701337 -0.01825640151925172 -0.011179250313709548 -0.037438464670937158 -0.057278269877408174 -0.019715852062943712 -0.043632161118060835 -0.029265938457600945 -0.11303286446433447 -0.079986625396950395 0.030350656492402546 -0.016142128135818938 -0.079284237819873565 0.088074819565036544 -0.042003792642715171 0.017661359220701379 -0.03035367029397823 0.0058301656730306373 -0.010940861932256865 -0.010866492114657881 -0.0040421239475565028 0.033062603959645276 0.0064207939799408326 -0.042113446948477601 0.0026547200679663471 0.018350363764293907 0.10691780354334049
leaf_weight=140.44070189446211 223.12085002660751 64.006493836641312 699.33462194353342 1250.7767768278718 1047.5456014126539 178.94418590515852 19.475093625485897 256.4097066372633 648.26531960815191 122.78033724427223 265.16670580208302 41.158886075019836 137.96381026506424 591.16908256709576 57.547012105584145 823.637346804142 570.44753986597061 973.15955828130245 25.247135408222675 9190.6312549635768 7663.8230173736811 3213.5896690934896 2149.3021435588598 1043.7084170728922 230.16395483165979 20.813332937657833 435.83589129149914 1088.6626781374216 77.873787373304367
leaf_count=868 1885 373 6631 7926 5425 1209 165 1681 4239 610 1147 241 1265 3831 310 7111 2802 5397 178 63906 51226 24848 12132 6024 1352 148 3497 8559 716
internal_value=0 -0.00360446 0.0516232 -0.017504 0.00310289 0.00521195 0.0223756 0.0583271 -0.0370294 -0.0596896 -0.0865217 0.00119096 0.03208 0.00643891 0.013298 0.0813717 -0.0220469 0.00153328 0.0845526 0.00544756 -0.0117823 -0.00416993 0.00272207 0.0184354 -0.0107216 0.0704414 0.0241052 0.0249067 0.0579759
internal_weight=0 31003.2 2247.77 10091.3 20912 19294 3662.14 1124.77 2286.99 1036.21 387.947 15631.8 1548.43 2537.37 1946.2 868.36 1617.99 15567.8 848.884 9231.79 7804.26 6336.05 3122.46 1767.26 287.711 243.934 1479.54 1304.5 215.838
internal_count=225702 206498 19204 66016 140482 132255 25358 9135 13922 5996 1757 106897 12573 16223 12392 7454 8227 106524 7289 64147 52094 42377 17529 11183 1662 2033 9521 10540 1981
shrinkage=0.1


Tree=6
num_leaves=30
num_cat=0
split_feature=7 8 6 4 4 0 1 6 10 4 10 6 2 0 0 4 1 4 6 2 5 4 3 8 10 6 1 10 0
split_gain=537.905 247.897 187.722 180.789 271.665 161.001 86.2502 71.466 57.1861 46.2159 43.6842 45.3395 41.6195 38.7185 36.6985 35.5567 32.2913 31.5786 30.827 26.0533 25.1076 39.989 24.7321 23.6542 23.462 22.8495 22.6705 22.4031 21.5799
threshold=0.066095218338114506 0.056401296431587852 0.67881516271369657 9.9790762222780121 10.430867279043968 23.590305243476745 -0.0081476026959717267 0.26875243978641394 7.5000000000000009 11.583493353472877 inf 0.27475685962767954 0.29496919994953325 65.157244653691635 1.9713416644765325 22.482988716929459 -0.96269121885299669 27.755759564820199 0.39511876481827662 0.36249283413191818 2.8848541038198765 3.2379933780359527 0.067376001810063757 0.015299240307505898 4.5000000000000009 0.2084563778985635 0.52783655232749893 1.5000000000000002 0.62802219418603322
decision_type=2 2 2 2 2 2 2 2 10 2 8 2 2 2 2 2 2 2 2 2 2 2 2 2 10 2 2 8 2
left_child=1 3 9 10 5 -5 -3 -7 20 14 11 -1 -6 18 -2 22 -11 -18 27 -12 -8 24 -10 -9 -22 -21 -20 -14 -19
right_child=2 6 -4 4 12 7 8 23 15 16 19 -13 13 -15 -16 -17 17 28 26 25 21 -23 -24 -25 -26 -27 -28 -29 -30
leaf_value=-0.012235338491988362 0.078099215571520358 -0.0049572426759014153 0.091188910746392737 -0.0028128415223890968 -0.043818688481661122 -0.00034261992125092625 0.0085756614406409023 -0.02012928099964343 -0.044931410079375407 -0.08932453900752739 -0.03948282697831676 -0.041723099290551069 -0.029796481582738378 0.041906053213112984 -0.024978607588229715 0.0095651046338344412 -0.013215973486717623 0.059317744461249211 -0.024540638537938159 0.002413002745759498 -0.042309817176040862 -0.020553681770368766 -0.086740351520107326 0.088010143989271372 -0.093777228552833325 -0.0079662197138186518 -0.21487613455332652 0.0048060278463410277 0.023401107451231529
leaf_weight=2145.7231323122978 259.03480337560177 1367.431630179286 657.34363824874163 380.23820322006941 182.46606007963419 111.34542760252953 173.911122366786 20.769029006361961 242.01397123932838 25.96985948830843 218.04606039077044 688.81269456446171 190.16424211859703 267.73563631623983 39.853691771626472 63.255109950900078 204.21989766508341 199.86534870415926 283.85498204827309 3173.2276442423463 666.06289146840572 1344.4689399749041 340.63443160057068 775.59506399929523 102.15769465267658 6396.6076625660062 6.3988728672265998 11642.931263543665 1026.2185591459274
leaf_count=11007 2255 8805 6632 2604 1002 724 1067 179 1150 163 1479 3393 979 1799 283 319 1499 1899 1997 22557 4289 8697 1525 7076 468 45822 47 77828 8158
internal_value=0 -0.00342686 0.0456077 0.000189019 0.00807329 0.0518146 -0.0256976 0.0746979 -0.0353688 0.0285366 -0.00846921 -0.0194011 0.00359273 0.00429089 0.0643549 -0.0616435 0.0211852 0.0231917 0.00346019 -0.00530338 -0.0279469 -0.0309534 -0.0693742 0.0851899 -0.0491539 -0.00452461 -0.0287367 0.00424995 0.0292559
internal_weight=0 30783.9 2412.51 26483.9 13861.5 1287.95 4299.94 907.71 2932.5 1755.16 12622.4 2834.54 12573.6 12391.1 298.888 645.904 1456.27 1430.3 12123.3 9787.88 2286.6 2112.69 582.648 796.364 768.221 9569.84 290.254 11833.1 1226.08
internal_count=225702 204813 20889 178493 94235 10583 26320 7979 17515 14257 84258 14400 83652 82650 2538 2994 11719 11556 80851 69858 14521 13454 2675 7255 4757 68379 2044 78807 10057
shrinkage=0.1


Tree=7
num_leaves=30
num_cat=0
split_feature=7 8 6 4 4 0 6 1 10 6 10 4 2 0 0 2 4 6 1 4 1 6 0 10 4 3 6 8 1
split_gain=449.878 202.027 171.636 148.628 222.789 147.918 75.5719 70.6072 42.9806 47.2964 41.8517 40.5973 33.9734 33.764 32.3333 27.0279 27.1741 29.3464 25.9879 26.1858 25.7239 31.6108 33.6136 25.2339 24.2249 23.1274 22.9203 21.6731 21.2732
threshold=0.066095218338114506 0.064038588611147848 0.67881516271369657 9.9790762222780121 10.430867279043968 23.590305243476745 0.26875243978641394 -0.0081476026959717267 8.5000000000000018 0.20497655440499538 7.5000000000000009 11.583493353472877 0.25640638098807916 65.157244653691635 1.8264177296344883 1.9629692115271742 21.463373130470064 0.094968447149306953 -0.96269121885299669 27.755759564820199 0.22038736773654821 0.31827486007367095 23.94131752576121 1.5000000000000002 49.890601483132208 0.063749042140011689 0.071166915457100119 0.016706310311618896 -0.21390116054564712
decision_type=2 2 2 2 2 2 2 2 8 2 10 2 2 2 2 2 2 2 2 2 2 2 2 8 2 2 2 2 2
left_child=1 3 11 8 5 -5 -7 -3 9 -1 -9 14 -6 15 -2 16 23 -18 -13 -20 -10 -22 -23 -14 -19 -12 -15 -8 -21
right_child=2 7 -4 4 12 6 27 10 20 -11 25 18 13 26 -16 -17 17 24 19 28 21 22 -24 -25 -26 -27 -28 -29 -30
leaf_value=-0.0058664778680662995 0.074520168452041249 -0.0051077334063266127 0.087613874885548546 -0.0041180560693674694 -0.050269879994230195 -0.0046283151542933255 -0.0090001705701477711 -0.028446917204076345 -0.00093443988537283409 -0.031636125893813448 -0.033225564972902848 -0.078902407111663575 -0.050755017661551209 -0.055738780288578718 -0.020132108922005818 -0.059399571995635593 -0.0055495587709850957 0.0090574062915092356 -0.011808902798242971 0.041512637773477426 -0.0068308553033906098 -0.02081073437302005 -0.080055610801573834 -0.00012616457227587792 0.029397661912163048 -0.076465546608976045 0.046972429313645002 0.084694068247283164 0.014810396803148702
leaf_weight=1423.0408623963594 244.41359965503216 1117.3700589761138 617.81556333601475 391.34076009690762 118.76036479324102 117.72911812365055 25.554503969848156 1821.960315130651 6315.8229279890656 1425.8201896548271 196.93400193750858 26.433091036975384 99.780772402882576 23.779885150492191 42.34235879778862 69.687254004180431 1131.478598549962 3269.6707295104861 205.61967910081148 541.49166251718998 3117.2398452684283 645.32307585328817 112.45481391251087 7346.3121493831277 713.26073686778545 332.61210535466671 251.5775563120842 728.50812435895205 664.48328456282616
leaf_count=7321 2237 7119 6632 2677 649 759 220 11323 44916 7021 931 163 506 160 301 387 7335 21710 1499 4408 21907 4608 824 49508 4686 1471 1729 7046 5649
internal_value=0 -0.00307142 0.0423874 -0.000185693 0.00685978 0.0469578 0.0698853 -0.0258046 -0.00790533 -0.0187639 -0.0356392 0.0261874 0.00297097 0.0034609 0.0605438 0.00270567 0.00305024 0.00866253 0.0193364 0.021176 -0.00486981 -0.011284 -0.0296027 -0.000804612 0.0126999 -0.0603849 0.0381023 0.0815189 0.0267999
internal_weight=0 30796 2342.6 27327.1 14287.4 1263.13 871.792 3468.88 13039.7 2848.86 2351.51 1724.78 13024.3 12905.5 286.756 12630.2 12560.5 5114.41 1438.03 1411.59 10190.8 3875.02 757.778 7446.09 3982.93 529.546 275.357 754.063 1205.97
internal_count=225702 204813 20889 183969 97372 10702 8025 20844 86597 14342 13725 14257 86670 86021 2538 84132 83745 33731 11719 11556 72255 27339 5432 50014 26396 2402 1889 7266 10057
shrinkage=0.1


Tree=8
num_leaves=30
num_cat=0
split_feature=7 4 6 10 0 6 6 8 1 9 4 6 10 5 1 1 1 0 9 0 2 0 5 1 6 2 8 3 6
split_gain=375.982 166.379 146.363 70.7723 79.5125 122.826 165.649 64.1168 63.7741 36.4171 40.2271 33.7977 36.8471 31.5538 31.3471 30.791 46.8273 36.6161 81.2255 29.7147 29.6107 28.9455 28.1239 26.4686 24.9315 24.6794 24.5868 25.0809 24.1591
threshold=0.073068690657956528 6.0438500678755256 0.67881516271369657 7.5000000000000009 30.83072839111961 0.27162540988574141 0.27915736127731999 0.042741356984133998 0.15444325489923361 3.5000000000000004 19.076354855353575 0.19167688622785603 4.5000000000000009 170.39043996149715 0.21150801770389083 -0.39580563481897107 -0.20305988963693378 0.62802219418603322 5.5000000000000009 0.62370546464922694 0.88918167060226194 2.0494311170743242 5.2411733096112565 -0.48504814811050884 0.27238616335253374 1.9629692115271742 0.02526269648662759 0.078415125104296643 0.65715169669922135
decision_type=2 2 2 10 2 2 2 2 2 8 2 2 10 2 2 2 2 2 10 2 2 2 2 2 2 2 2 2 2
left_child=1 7 15 4 14 9 13 -1 22 10 20 -10 -13 -7 23 -2 21 19 -19 -18 -6 -17 -9 -3 -15 -11 -22 -28 -20
right_child=2 3 -4 -5 5 6 -8 8 11 25 -12 12 -14 24 -16 16 17 18 28 -21 26 -23 -24 -25 -26 -27 27 -29 -30
leaf_value=-0.0086301071119066815 -0.026180277917956036 -0.028211366764775259 0.08413666941322849 -0.01736591709114977 0.019044267629206739 0.078213540370487306 -0.016505746908088377 0.017439155181969326 -0.0061924484173150694 -0.0038613940085764735 0.037708097194390972 -0.038204022780004759 -0.080099666671634095 0.058914819858501825 -0.0057310053268775389 0.061450591697738179 -0.039935792587192737 0.013237199421262658 -0.04143357235348618 0.1018074670141951 0.028673270265128226 0.01622894821385179 -0.019584328307144808 0.0046938691892455409 -0.047545313948950021 -0.13934848436892386 -0.0018001862742265048 -0.072043159215740282 -0.17735604682800307
leaf_weight=7352.8800818994641 109.51884773373604 250.17412609606981 580.78938955441117 1668.8526140600443 398.06307342648506 672.4487096183002 304.45375269651413 250.19307137280703 185.79339700192213 1415.3064048737288 573.16292145848274 596.40762346237898 323.95119631290436 53.936916448175907 4828.3515198901296 467.1287741586566 18.873866684734821 547.07203653454781 23.66578896343708 68.35218334197998 67.51350137591362 203.0769467651844 1140.2418246716261 10695.182006560266 37.147892042994499 13.573270387947558 91.399042576551437 114.52612374722958 29.225546136498451
leaf_count=48539 836 1745 6631 8357 2215 6949 1973 1549 1065 10194 3256 3780 1397 374 31894 4376 189 4659 140 707 361 1511 7154 74270 267 102 471 586 155
internal_value=0 -0.00259325 0.0416478 0.00239945 0.00408969 0.0171958 0.0458628 -0.0133315 -0.0271778 0.00574432 0.0182492 -0.0450969 -0.0529506 0.0707318 0.000980919 0.0248254 0.0289407 0.010598 0.00179647 0.0711372 0.00164005 0.0477481 -0.0129224 0.00394177 0.0154963 -0.00514842 -0.0236965 -0.0408661 -0.116539
internal_weight=0 31033.6 2047.7 21184.1 19515.2 3741.53 1067.99 9849.47 2496.59 2673.54 1244.66 1106.15 920.359 763.534 15773.7 1466.91 1357.4 687.189 599.963 87.2261 671.502 670.206 1390.43 10945.4 91.0848 1428.88 273.439 205.925 52.8913
internal_count=225702 206498 19204 143014 134657 26748 9563 63484 14945 17185 6889 6242 5177 7590 107909 12573 11737 5850 4954 896 3633 5887 8703 76015 641 10296 1418 1057 295
shrinkage=0.1


Tree=9
num_leaves=30
num_cat=0
split_feature=7 8 6 6 6 0 5 1 1 5 1 6 3 5 10 6 8 4 0 0 8 10 0 4 5 2 6 10 0
split_gain=317.059 144.345 141.028 101.837 168.217 177.092 76.2831 69.0297 59.3415 52.8102 43.3746 42.4729 43.827 40.4532 38.585 58.1271 37.4408 32.7445 28.099 27.0112 23.4013 22.6417 22.4205 21.7915 20.6418 20.1398 19.1078 19.2925 20.154
threshold=0.066095218338114506 0.052476204396422803 0.67881516271369657 0.28536422432623709 0.27162540988574141 18.529432993297505 189.99963719127354 0.34358332606032499 0.4271923266071827 162.03325874336778 0.82977090551983579 0.20497655440499538 0.099006161549521896 189.99963719127354 2.5000000000000004 0.15199265824302835 0.096570388012086256 11.583493353472877 23.264286708783043 1.8264177296344883 0.013473922773018685 inf 44.831028079590624 52.334511917950501 2.8848541038198765 0.32208393476295277 0.063058504976608573 1.5000000000000002 18.794470481677354
decision_type=2 2 2 2 2 2 2 2 2 2 2 2 2 2 10 2 2 2 2 2 2 8 2 2 2 2 2 8 2
left_child=1 3 17 4 10 -6 9 21 13 -7 11 12 26 14 24 -16 -10 19 25 -2 -11 23 -17 -5 -3 -9 -1 -28 -29
right_child=2 8 -4 7 5 6 -8 18 16 20 -12 -13 -14 -15 15 22 -18 -19 -20 -21 -22 -23 -24 -25 -26 -27 27 28 -30
leaf_value=-0.011368119845914647 0.068130220520130486 0.022273922644078726 0.080755621441502196 -0.026494377887448073 -0.0049949280558379897 -0.0050651482295756773 0.0062997978971145929 -0.10291435520452852 -0.026220857143944572 -0.024570445853085335 -0.074883619991207864 -0.0060801873523442448 0.016763143450752506 -0.0055309150542631287 0.011913906187456497 -0.053224499918689119 -0.078460142504295366 0.016135867556502662 -0.087061210514723278 -0.018745746703301952 0.083993456683940954 -0.0049965741493177753 0.029502768149296546 0.10704532124074476 -0.017010382550666881 -0.02592555129001535 -0.034804546622809789 0.00040556235359833149 0.010405887134853263
leaf_weight=1006.1515170782804 224.95186922699213 160.06765917688608 546.55625292286277 697.13580302894115 716.40898213535547 78.488865852355957 215.1534306704998 37.214431785047054 317.82026990503073 20.401505179703236 74.842528082430363 5336.7438959032297 2386.7458815202117 2426.6372553631663 187.09954379498959 793.00677970051765 241.41391544789076 1404.5873497650027 121.78884064406157 42.559644155204296 741.12628125399351 4726.6600577011704 34.172005146741867 12.437909275293348 813.67580201476812 390.73246394842863 132.07676711678505 6136.3387772366405 3000.7714715301991
leaf_count=6526 2237 1057 6632 3441 4915 500 1463 235 1872 167 423 35655 15372 15637 970 3736 1220 11719 755 301 7720 33707 170 67 5522 2627 669 41203 19184
internal_value=0 -0.00248326 0.0366573 0.000520496 0.0039689 0.0333758 0.0594277 -0.010912 -0.0180828 0.0730354 0.00108644 0.00140234 0.00455603 -0.0141953 -0.0247712 -0.0384215 -0.0487719 0.022243 -0.0446814 0.0543087 0.081085 -0.00749708 -0.0498069 -0.0241536 -0.0105527 -0.0326205 0.00172057 0.00314132 0.00368983
internal_weight=0 30805.1 2218.66 25831.2 19845.2 1771.58 1055.17 5985.97 4973.89 840.017 18073.7 17998.8 12662.1 4414.66 1988.02 1014.28 559.234 1672.1 549.736 267.512 761.528 5436.23 827.179 709.574 973.743 427.947 10275.3 9269.19 9137.11
internal_count=225702 204813 20889 174629 133797 14765 9850 40832 30184 8387 119032 118609 82954 27092 11455 4876 3092 14257 3617 2538 7887 37215 3906 3508 6579 2862 67582 61056 60387
shrinkage=0.1


end of trees

feature_importances:
eval_data.pass_distance=55
pos_score_data.posx=43
eval_data.pass_error_diff=39
eval_data.small_cone_angle=33
eval_data.kick_countdown=29
eval_data.opp_dist_to_active=27
pos_score_data.dnet=25
eval_data.forward_cone_angle=14
eval_data.opp_dist_to_line=11
eval_data.timestep=9
pos_score_data.dopp=5

parameters:
[boosting: gbdt]
[objective: binary]
[metric: binary_logloss]
[tree_learner: serial]
[device_type: cpu]
[data: ]
[valid: ]
[num_iterations: 10]
[learning_rate: 0.1]
[num_leaves: 30]
[num_threads: -1]
[force_col_wise: 0]
[force_row_wise: 0]
[histogram_pool_size: -1]
[max_depth: -1]
[min_data_in_leaf: 20]
[min_sum_hessian_in_leaf: 0.001]
[bagging_fraction: 1]
[pos_bagging_fraction: 1]
[neg_bagging_fraction: 1]
[bagging_freq: 0]
[bagging_seed: 3]
[feature_fraction: 1]
[feature_fraction_bynode: 1]
[feature_fraction_seed: 2]
[extra_trees: 0]
[extra_seed: 6]
[early_stopping_round: 0]
[first_metric_only: 0]
[max_delta_step: 0]
[lambda_l1: 0]
[lambda_l2: 0]
[min_gain_to_split: 0]
[drop_rate: 0.1]
[max_drop: 50]
[skip_drop: 0.5]
[xgboost_dart_mode: 0]
[uniform_drop: 0]
[drop_seed: 4]
[top_rate: 0.2]
[other_rate: 0.1]
[min_data_per_group: 100]
[max_cat_threshold: 32]
[cat_l2: 10]
[cat_smooth: 10]
[max_cat_to_onehot: 4]
[top_k: 20]
[monotone_constraints: ]
[monotone_constraints_method: basic]
[monotone_penalty: 0]
[feature_contri: ]
[forcedsplits_filename: ]
[refit_decay_rate: 0.9]
[cegb_tradeoff: 1]
[cegb_penalty_split: 0]
[cegb_penalty_feature_lazy: ]
[cegb_penalty_feature_coupled: ]
[path_smooth: 0]
[interaction_constraints: ]
[verbosity: -1]
[saved_feature_importance_type: 0]
[max_bin: 255]
[max_bin_by_feature: ]
[min_data_in_bin: 3]
[bin_construct_sample_cnt: 200000]
[data_random_seed: 1]
[is_enable_sparse: 1]
[enable_bundle: 1]
[use_missing: 1]
[zero_as_missing: 0]
[feature_pre_filter: 1]
[pre_partition: 0]
[two_round: 0]
[header: 0]
[label_column: ]
[weight_column: ]
[group_column: ]
[ignore_column: ]
[categorical_feature: ]
[forcedbins_filename: ]
[objective_seed: 5]
[num_class: 1]
[is_unbalance: 0]
[scale_pos_weight: 1]
[sigmoid: 1]
[boost_from_average: 1]
[reg_sqrt: 0]
[alpha: 0.9]
[fair_c: 1]
[poisson_max_delta_step: 0.7]
[tweedie_variance_power: 1.5]
[lambdarank_truncation_level: 20]
[lambdarank_norm: 1]
[label_gain: ]
[eval_at: ]
[multi_error_top_k: 1]
[auc_mu_weights: ]
[num_machines: 1]
[local_listen_port: 12400]
[time_out: 120]
[machine_list_filename: ]
[machines: ]
[gpu_platform_id: -1]
[gpu_device_id: -1]
[gpu_use_dp: 0]

end of parameters

pandas_categorical:[]
