tree
version=v3
num_class=1
num_tree_per_iteration=1
label_index=0
max_feature_idx=5
objective=binary sigmoid:1
feature_names=pass_error_diff pos_score_data.posx.val pos_score_data.dnet.val pos_score_data.dopp.val eval_data.small_cone_angle eval_data.pass_distance
feature_infos=[3.3917792450210982e-06:127.03536234110541] [-1.0471334615722299:1.0288761621341109] [0.0035386031262075878:2.0508055595644401] [0.00026339790065201939:0.10000000000000001] [8.105625227017299e-06:40] [0.00019031275767629604:0.90549679915475645]
tree_sizes=3189 3310 3320 3322 3319 3326 3331 3334 3326 3337

Tree=0
num_leaves=30
num_cat=0
split_feature=4 5 1 2 1 2 0 1 0 5 0 4 4 5 0 2 1 0 5 4 5 3 3 5 2 5 2 5 1
split_gain=682.453 557.249 420.111 207.032 183.459 136.622 140.292 134.831 115.569 114.191 148.112 101.988 83.0244 68.9297 63.8384 58.5464 50.8317 46.9437 46.6749 45.6959 104.165 136.962 53.4187 44.2629 92.1624 68.1643 55.8443 37.2994 33.4091
threshold=25.025546235003137 0.58584210345625432 0.85511631122790288 0.62224769203162034 0.85511631122790288 1.991991121186109 41.630276033180046 -0.99605116865131993 36.583679611324293 0.35903510337801109 1.8467852639693312 1.1210307147648282 11.091174022568284 0.28279387375961657 19.168116533169634 1.1536179916174225 -0.42016658000648016 0.62936483622669581 0.059397256498714822 34.768040987119072 0.3191319139170245 0.06102135114528074 0.05649793712404784 0.52367079806330386 0.29643017956735834 0.3290012943816355 0.25752121082230617 0.069177693915844704 -0.5785577087663113
decision_type=2 2 2 2 2 2 2 2 2 2 2 2 2 2 2 2 2 2 2 2 2 2 2 2 2 2 2 2 2
left_child=2 4 3 11 7 6 12 -2 9 16 15 13 -5 -1 23 -11 27 -3 -10 20 -18 22 -22 24 -13 -26 -25 -9 -14
right_child=1 17 -4 5 -6 -7 -8 8 18 10 -12 14 28 -15 -16 -17 19 -19 -20 -21 21 -23 -24 26 25 -27 -28 -29 -30
leaf_value=1.1357063901414968 1.0312333012144999 1.0797336530293289 1.0111474478854428 1.1553132790844329 0.96019643406479127 1.0131189007000887 1.1988932515573696 0.99548914640918462 1.1525319887432595 1.1737549717450702 1.1659929505637801 1.0103466697704084 1.1340678907686574 0.98027409881204386 1.161035880305205 1.2878732046821415 1.1872852773258444 0.95362387517377545 1.2278401551928955 1.2020286487428089 1.2311981335905779 1.1739291188914471 0.89356320962961022 1.2608629582023012 1.1367772318913791 1.0452842000287199 1.0698982971487283 1.1623255127828109 1.1775848574488874
leaf_weight=45.448956191539764 44.907897189259529 44.366838186979294 188.1081797927618 5300.5746923387051 31.02071613073349 57.532607242465019 1257.6014743000269 13.887181058526037 85.848028361797333 51.761311218142509 193.33841681480408 85.487322360277176 186.4850027859211 76.650025323033333 511.48111015558243 341.9492894411087 1145.6022608280182 88.192617371678352 1991.2774813920259 2473.3610524237156 5.410590022802352 64.025315269827843 34.988482147455215 42.924014180898666 487.67451405525208 97.751326411962509 23.806596100330353 382.34836161136627 3268.7177857756615
leaf_count=252 249 246 1043 29390 172 319 6973 77 476 287 1072 474 1034 425 2836 1896 6352 489 11041 13714 30 355 194 238 2704 542 132 2120 18124
internal_value=1.17422 1.19891 1.15938 1.16181 1.20283 1.16678 1.16766 1.20394 1.20508 1.19641 1.23767 1.12536 1.16318 1.03813 1.13389 1.27287 1.19053 0.995832 1.22473 1.19415 1.17857 1.08296 0.938782 1.11506 1.10734 1.1215 1.19274 1.15648 1.17524
internal_weight=0 6992.29 11630.2 11442.1 6859.73 10070.9 10013.4 6828.71 6783.8 4706.67 587.049 1371.22 8755.78 122.099 1249.12 393.711 4119.62 132.559 2077.13 3723.39 1250.03 104.424 40.3991 737.644 670.913 585.426 66.7306 396.236 3455.2
internal_count=103256 38770 64486 63443 38035 55840 55521 37863 37614 26097 3255 7603 48548 677 6926 2183 22842 735 11517 20645 6931 579 224 4090 3720 3246 370 2197 19158
shrinkage=1


Tree=1
num_leaves=30
num_cat=0
split_feature=4 5 2 1 1 0 3 1 1 4 1 2 4 0 0 0 5 0 5 1 5 1 2 5 3 5 4 3 4
split_gain=559.046 426.369 326.708 151.69 140.257 117.592 113.886 94.3481 112.497 85.4752 83.4791 81.6977 69.1102 65.5234 55.0088 54.0347 45.5402 40.1373 36.7352 55.3218 59.0438 44.5357 36.6974 36.2857 34.737 111.167 82.1766 72.7991 38.9476
threshold=26.581968611476416 0.6551723382790654 0.60020081507809608 0.85511631122790288 0.78318293998017918 39.934011429986228 0.088644659707690046 -0.30754475318826729 -0.19146936084143815 1.0371450243163312 -0.98904776573181141 1.991991121186109 11.091174022568284 20.596762309449488 62.716750187058075 19.168116533169634 0.28279387375961657 39.547731712529789 0.52367079806330386 0.73993018688634049 0.3290012943816355 0.78318293998017918 1.9894639628516477 0.33135199654382125 0.06346611301114774 0.32644577582601192 29.068462830302455 0.05649793712404784 34.768040987119072
decision_type=2 2 2 2 2 2 2 2 2 2 2 2 2 2 2 2 2 2 2 2 2 2 2 2 2 2 2 2 2
left_child=2 4 3 9 6 11 10 14 23 16 -2 12 -4 24 -8 18 -1 -10 19 20 -11 -20 -7 -9 25 -12 -27 -28 -29
right_child=1 -3 5 -5 -6 22 7 8 17 15 13 -13 -14 -15 -16 -17 -18 -19 21 -21 -22 -23 -24 -25 -26 26 27 28 -30
leaf_value=-0.040323488859705145 -0.19339253388075661 -0.15044122469806778 -0.017400388030772335 -0.13599468488187713 -0.12850293497325824 0.022071756659134748 -0.0044444520839646345 0.060028245781970004 0.02881249244773253 -0.031318735589408279 0.0030216833407306302 -0.14789704792725999 0.00046026476409131967 0.032191958471455791 0.063207883537890586 -0.0094297869385211973 -0.17557333821806703 0.057424654325700798 -0.093553717927873981 -0.12473341367941769 -0.1175142140397933 0.080329015110473176 -0.081038852919493268 0.10684383287414397 0.013726746016571116 0.041398449353533068 0.003227304315290374 -0.23198302006544369 -0.026041300209098634
leaf_weight=38.273515701293945 19.530590146780014 138.11752483248711 5376.7751879543066 207.41098640859127 57.397787913680077 1438.450437232852 625.88807742297649 322.52156379818916 1637.1135031729937 433.31825657188892 523.27036942541599 43.298007979989052 3628.4328848570585 1136.3555723279715 148.75510394573212 464.78779321908951 71.22458028793335 699.88452041149139 22.820127233862877 111.08334851264954 97.318528309464455 41.547525838017464 35.365257292985916 340.18800011277199 837.80513902008533 30.055565983057022 23.587009266018867 59.027282908558846 10.87503246963024
leaf_count=208 103 702 29509 1060 303 8069 3486 1824 9199 2357 2933 222 20131 6419 843 2561 359 3994 120 576 505 241 188 1981 4703 166 132 301 61
internal_value=0 0.0234122 -0.0127981 -0.0566605 0.0271222 -0.0065963 0.0285147 0.0396593 0.0476938 -0.043809 0.0125846 -0.0108627 -0.0102039 0.0141195 0.00854686 -0.0359076 -0.128299 0.0373813 -0.0533369 -0.0605608 -0.0471269 0.0186827 0.0195975 0.08406 0.000286501 -0.0171223 -0.102442 -0.148684 -0.199944
internal_weight=0 6610.37 12010.1 1487.78 6472.26 10522.3 6414.86 3774.35 2999.71 1280.37 2640.51 9048.51 9005.21 2620.98 774.643 1170.88 109.498 2337 706.088 641.72 530.637 64.3677 1473.82 662.71 1484.62 646.815 123.545 93.4893 69.9023
internal_count=103256 37150 66106 7987 36448 58119 36145 21327 16998 6927 14818 49862 49640 14715 4329 6360 567 13193 3799 3438 2862 361 8257 3805 8296 3593 660 494 362
shrinkage=0.1


Tree=2
num_leaves=30
num_cat=0
split_feature=4 5 1 1 1 0 3 1 5 0 2 1 0 0 4 0 0 3 5 4 2 2 4 1 1 5 0 2 0
split_gain=457.125 330.636 256.007 109.659 107.27 98.382 97.2932 79.4652 88.5171 67.0087 65.5389 60.5322 56.4397 56.1274 50.0827 49.0929 47.246 39.7636 82.9975 68.7887 44.1499 37.7306 37.5897 35.2876 33.5503 33.116 56.2796 31.2666 29.1311
threshold=26.581968611476416 0.58584210345625432 0.42453713575378066 0.78318293998017918 0.89269727375358354 35.877657814722433 0.088644659707690046 -0.36735777981812129 0.35472414836177241 19.168116533169634 1.9844917884229067 -0.99126761278603215 46.613928672200522 11.863162750333375 5.486241127934961 36.583679611324293 2.2438098232232218 0.06346611301114774 0.32644577582601192 28.809692644921885 1.0913703161676827 1.991991121186109 2.3837803492487812 -0.5089005201589315 -0.98904776573181141 0.26999124602784003 5.8642862131177163 0.84163394568991634 0.62936483622669581
decision_type=2 2 2 2 2 2 2 2 2 2 2 2 2 2 2 2 2 2 2 2 2 2 2 2 2 2 2 2 2
left_child=2 3 5 6 9 11 10 12 15 22 13 -1 21 17 -13 -9 -10 18 -2 -20 -21 -8 25 -16 -7 -4 -27 -25 -3
right_child=1 28 4 -5 -6 24 7 8 16 -11 -12 14 -14 -15 23 -17 -18 -19 19 20 -22 -23 -24 27 -26 26 -28 -29 -30
leaf_value=-0.1310806777741132 -0.0017871891852336793 -0.060823585205500963 -0.034819364587014082 -0.10860219121008521 -0.13147943583328831 -0.071449390738652224 -0.0072775520225933817 0.027240717578598361 0.10644650843737401 -0.01210948309010812 -0.13450297902920924 -0.020705037943347427 0.043925578854987608 0.026326237254285248 -0.037765443089512789 0.055756657393686494 0.012297795432889266 0.013086447296793764 0.043741531271300038 -0.16865063773004962 0.02115462353862916 -0.11367983135423701 -0.047464781452626961 -0.014546110810541316 0.01673378696280781 -0.070574886737157491 -0.20453402204521992 0.0020534707044747341 -0.15381046184325084
leaf_weight=41.43865430355072 382.59429043531418 49.923394471406937 56.55491304397583 60.914311945438385 147.88216096162796 44.178448021411896 390.62745063006878 1719.5673813223839 300.62715511023998 484.33485871553421 30.394491836428642 2884.1563685536385 244.09405770897865 1442.7806880325079 303.82949768006802 930.38383927941322 64.787996038794518 646.24293929338455 26.707555845379829 77.3489640802145 14.562210455536841 36.435119479894638 637.85771135985851 1598.0004294961691 1843.3007357567549 74.980419918894768 53.91204047203064 3913.9147097021341 103.61831225454807
leaf_count=200 2148 246 296 303 712 226 2165 9824 1864 2642 153 15670 1411 8255 1653 5470 368 3658 151 371 81 195 3338 8783 10388 371 259 21568 487
internal_value=0 0.0214306 -0.0114208 0.0249269 -0.050753 -0.00603466 0.0262165 0.0366882 0.0436149 -0.0416235 0.0114856 -0.0105053 0.00556833 0.0131986 -0.00993096 0.0372525 0.089754 -0.00330767 -0.0244456 -0.0975281 -0.138578 -0.0163553 -0.0589861 -0.00458786 0.0146698 -0.0986144 -0.126606 -0.00275904 -0.123576
internal_weight=0 6521.61 12084.3 6368.07 1455.52 10628.8 6307.15 3686.52 3015.37 1307.64 2620.63 8741.34 671.157 2590.24 8699.9 2649.95 365.415 1147.46 501.213 118.619 91.9112 427.063 823.305 5815.74 1887.48 185.447 128.892 5511.92 153.542
internal_count=103256 37150 66106 36417 7618 58488 36114 21297 17526 6906 14817 47874 3771 14664 47674 15294 2232 6409 2751 603 452 2360 4264 32004 10614 926 630 30351 733
shrinkage=0.1


Tree=3
num_leaves=30
num_cat=0
split_feature=4 5 1 5 1 2 0 3 1 5 0 2 1 0 0 0 4 1 1 1 4 4 5 1 1 5 5 5 2
split_gain=379.439 276.808 225.323 116.095 88.2134 82.3712 83.905 75.9903 63.7558 96.9998 50.2065 48.6389 42.1473 42.0794 40.6827 40.0892 38.6042 38.1603 37.8888 37.6051 29.2307 28.6633 27.886 39.195 34.5967 29.7393 26.2134 26.0938 25.3649
threshold=32.552532215369517 0.6551723382790654 0.42453713575378066 0.23365559742355252 0.85511631122790288 1.991991121186109 12.936794061492387 0.087324390982419745 -0.30754475318826729 0.34771837010517276 27.079783038458761 1.9844917884229067 0.083345891027420307 34.626677667514507 19.817181128244346 62.716750187058075 5.486241127934961 0.32474775332957512 0.85511631122790288 0.16914759378414604 1.6883899817781016 1.0371450243163312 0.52367079806330386 0.73993018688634049 0.78318293998017918 0.34320319462906473 0.47399862270900411 0.42490666933171112 1.5231231580630324
decision_type=2 2 2 2 2 2 2 2 2 2 2 2 2 2 2 2 2 2 2 2 2 2 2 2 2 2 2 2 2
left_child=2 7 3 5 10 6 28 11 15 13 21 14 -8 18 26 27 17 -5 -10 -11 -19 -4 23 25 -24 -23 -2 -9 -1
right_child=1 -3 4 16 -6 -7 12 8 9 19 -12 -13 -14 -15 -16 -17 -18 20 -20 -21 -22 22 24 -25 -26 -27 -28 -29 -30
leaf_value=-0.0055480169372084187 -0.0022556811984205715 -0.10897602440889631 -0.099190805423561776 -0.019712445255894686 -0.10065409608185012 -0.12901119023209015 0.028787824263839884 0.0025932496881772857 0.026547562798342052 0.098850325023545682 -0.0021925370285269022 -0.12416151900099348 0.0064702293273306705 0.05410019205977995 0.029758729107303972 0.058399695240403351 -0.0074180485519053062 -0.11113828301409404 -0.16772154688170915 -0.12026348356594041 -0.03399261129783699 -0.026167816214310486 -0.071266742005367215 -0.092485693941469535 0.078766273877429599 -0.081746408091345549 0.10068708844755968 -0.094864539263915554 -0.05849451037431036
leaf_weight=2068.0365005433559 1025.88321582973 153.99836844205856 91.509093537926674 2077.9827230125666 235.22303636372089 44.541346237063408 1650.9170159697533 509.94810305535793 1279.7411970943213 333.53109680116177 358.03391905128956 26.0843535810709 1736.0362935215235 810.43715409934521 838.55197212100029 134.34019912779331 3933.5082439929247 82.131930604577065 10.118687987327574 8.0209883451461774 122.17828902602196 576.77743178606033 24.625737473368645 145.84088070690632 40.890212744474411 115.56570228934288 25.347277507185936 29.037191390991211 94.621056735515594
leaf_count=11391 5773 702 429 11215 1088 209 9297 2840 7427 2164 1965 124 9733 4907 4879 807 21614 426 46 46 656 3059 121 714 241 567 148 159 509
internal_value=0 0.0230879 -0.00877108 -0.00401509 -0.044131 0.00643605 0.00752315 0.0271303 0.0367684 0.0442807 -0.034306 0.0114589 0.0173486 0.0362433 0.0133308 0.00952474 -0.013421 -0.023767 0.0250236 0.0937047 -0.0650049 -0.0458591 -0.0404587 -0.0453698 0.0223728 -0.035445 0.000226476 -0.00265717 -0.00786454
internal_weight=0 5185.04 13398.4 11810 1588.47 5594.15 5549.61 5031.04 3115.17 2441.85 1353.24 1915.87 3386.95 2100.3 1889.78 673.325 6215.8 2282.29 1289.86 341.552 204.31 995.209 903.7 838.184 65.516 692.343 1051.23 538.985 2162.66
internal_count=103256 30022 73234 65050 8184 31139 30930 29320 18396 14590 7096 10924 19030 12380 10800 3806 33911 12297 7473 2210 1082 5131 4702 4340 362 3626 5921 2999 11900
shrinkage=0.1


Tree=4
num_leaves=30
num_cat=0
split_feature=4 5 1 5 3 1 2 0 1 2 1 0 0 2 2 0 5 2 5 1 2 4 5 0 5 5 1 2 0
split_gain=311.301 217.588 173.084 88.269 70.6797 66.598 65.4988 67.8581 57.5635 90.7076 38.9386 38.937 37.0908 36.7734 37.561 36.6463 36.0719 33.1273 29.4262 27.86 24.4579 23.9676 52.239 22.7008 22.6545 50.0297 41.7162 33.5557 31.5908
threshold=31.497781815397335 0.58584210345625432 0.42453713575378066 0.27582343779106816 0.08788080880507794 0.85511631122790288 1.991991121186109 12.936794061492387 -0.30754475318826729 1.1736264489672181 0.095253195613622679 19.168116533169634 36.92923390407055 1.9800515107277163 0.55166167073014083 10.274704847623157 0.33135199654382125 0.74186764531710969 0.532703341238009 0.85511631122790288 1.991991121186109 34.996012979169087 0.31389737621143393 79.220688293323875 0.52367079806330386 0.3290012943816355 0.73993018688634049 0.25752121082230617 5.9990353667348844
decision_type=2 2 2 2 2 2 2 2 2 2 2 2 2 2 2 2 2 2 2 2 2 2 2 2 2 2 2 2 2
left_child=2 4 3 6 13 11 7 -1 12 19 -9 24 20 14 -2 18 -11 -5 21 -10 -6 22 -16 -19 25 26 -4 -26 -27
right_child=1 -3 5 17 8 -7 -8 10 9 16 -12 -13 -14 -15 15 -17 -18 23 -20 -21 -22 -23 -24 -25 27 28 -28 -29 -30
leaf_value=-0.0076261415166613529 -0.037053914876629124 -0.092341798507861048 -0.021149240203782199 -0.038534651423008992 -0.0060467652697456095 -0.087176616014475919 -0.10358692450817125 0.021876758900969635 0.030065850029531677 0.050912683690659967 0.0024438402512381697 -0.0085762432658756712 0.033728203428508685 -0.09302890227543284 -0.0021847477847848139 0.026887575316363266 0.09787690892339769 -0.012594348479978279 0.12501860164900125 -0.1244433151115874 -0.10444937771908343 0.0040392679789656291 -0.13480545576468839 0.055967704732158799 0.07107757303850494 -0.059219674627969447 -0.087726343625443515 -0.069722843844351221 -0.14388874278314989
leaf_weight=2971.572300195694 148.09034653007984 165.53190103173256 474.54421110451221 522.7216591835022 348.37085999548435 242.85004317760468 57.154316246509552 2069.6359439790249 1777.0146925896406 356.46886305510998 2054.8535652756691 512.5434568375349 305.77392512559891 34.284648224711418 99.773275703191757 1104.5197986215353 302.18143855035305 3897.0717341303825 17.897491827607155 11.747174993157385 27.23294785618782 596.67058216035366 42.290315434336662 48.897720545530319 39.840004324913025 106.15546998381615 117.3970832824707 29.429331660270691 75.342531219124794
leaf_count=16232 825 730 2461 2775 1925 1085 258 11733 10673 2175 11471 2783 1815 163 561 6480 2094 21108 112 51 137 3381 196 278 244 489 547 139 335
internal_value=0 0.0205172 -0.0080953 -0.00385227 0.024129 -0.038952 0.00303592 0.0038947 0.0335763 0.0407332 0.0121951 -0.0303105 0.00786968 0.00966455 0.0114169 0.0152736 0.0724593 -0.0148785 -0.00168023 0.0290512 -0.0131814 -0.00474979 -0.0416641 -0.0117447 -0.0435295 -0.0484363 -0.0343532 0.011258 -0.0943671
internal_weight=0 5337.85 13220 11621.9 5172.32 1598.1 7153.22 7096.06 3128.79 2447.41 4124.49 1355.25 681.378 2043.53 2009.24 1861.15 658.65 4468.69 756.632 1788.76 375.604 738.734 142.064 3945.97 842.709 773.439 591.941 69.2693 181.498
internal_count=103256 31318 71938 63855 30588 8083 39694 39436 18870 14993 23204 6998 3877 11718 11555 10730 4269 24161 4250 10724 2062 4138 757 21386 4215 3832 3008 383 824
shrinkage=0.1


Tree=5
num_leaves=30
num_cat=0
split_feature=4 5 4 1 0 2 1 5 0 1 5 5 0 1 0 2 1 5 0 1 1 4 5 5 2 5 1 5 2
split_gain=260.556 147.982 126.2 98.6494 71.6809 66.3263 59.7697 104.975 52.234 49.9697 42.6042 38.4016 38.2545 36.5923 33.9309 28.5628 25.3215 24.655 24.2205 23.9238 23.2496 25.1348 20.5846 29.23 27.723 24.4888 20.4211 20.033 22.0325
threshold=11.588591608845322 0.6551723382790654 34.768040987119072 0.42453713575378066 34.296852536652658 0.42887503924103726 -0.36735777981812129 0.35025295357616421 27.73549870706233 -0.99605116865131993 0.069177693915844704 0.20502000190647532 46.613928672200522 0.85511631122790288 2.3995330649780482 0.91082540958519143 -0.5785577087663113 0.48542744417525407 0.62936483622669581 0.85511631122790288 0.32474775332957512 1.2070853586180592 0.52367079806330386 0.3290012943816355 0.29643017956735834 0.54386561588558646 -0.99605116865131993 0.059397256498714822 1.4366290614347275
decision_type=2 2 2 2 2 2 2 2 2 2 2 2 2 2 2 2 2 2 2 2 2 2 2 2 2 2 2 2 2
left_child=3 2 4 11 5 -2 10 8 13 -7 -4 -1 26 -8 -9 -10 -11 -14 -3 22 -13 -22 23 24 -5 -24 -12 28 -6
right_child=1 18 6 19 27 9 7 14 15 16 12 20 17 -15 -16 -17 -18 -19 -20 -21 21 -23 25 -25 -26 -27 -28 -29 -30
leaf_value=0.0032427993883185138 -0.056279531223783701 -0.030059009124089708 -0.1073480067327976 -0.088258096415747334 -0.022509042062980215 -0.19898810978795914 0.015072111125196772 0.097948598563396327 0.020957360282485817 -0.030591650442540114 -0.10621060314980012 -0.012406672666267477 0.04517609668871065 -0.1157618037265587 0.019671552316426352 0.050556938604476964 0.0013050783405145752 -0.10790975175073725 -0.11127720227566569 -0.078444912846346915 -0.091162981803038945 -0.025787878619839163 0.053412124696742336 -0.07460602029607015 -0.019955417695455793 -0.080850815594873282 -0.0089238981311370296 0.022187248338301019 -0.25684360710229925
leaf_weight=1640.2644082009792 227.97410820424557 55.134129971265793 36.839221268892288 68.874536648392677 38.875106960535049 12.718166172504423 1958.0909247398376 273.68630596995354 533.77517096698284 263.81950786709785 22.782846122980118 4443.7253739088774 206.50203268229961 21.613051638007164 69.423529237508774 837.55503626167774 4396.4214777648449 11.08523392677307 109.92375092208385 171.29891200363636 72.093570619821548 319.17349736392498 48.390285506844521 199.13255932927132 433.09435483813286 18.88712677359581 407.33509130775928 1623.5019263327122 4.4740439653396598
leaf_count=9045 1082 246 190 327 223 56 11510 2007 3271 1404 105 23861 1269 94 413 5237 24385 61 464 744 351 1682 289 901 2250 88 2248 9431 22
internal_value=0 0.00983223 0.0112493 -0.0143728 0.00248224 -0.00361034 0.0243994 0.0294288 0.0240348 -0.00104083 -0.00274148 -0.00997889 0.00320818 0.0136438 0.0821103 0.0390356 -0.000500618 0.037377 -0.084148 -0.0446512 -0.0144643 -0.0378337 -0.0371174 -0.0421876 -0.0293271 0.0157198 -0.0140771 0.0203959 -0.0466946
internal_weight=0 11111.5 10946.5 7414.93 6567.78 4900.93 4378.69 3694.14 3351.03 4672.96 684.544 6475.26 647.705 1979.7 343.11 1371.33 4660.24 217.587 165.058 939.678 4834.99 391.267 768.379 701.101 501.969 67.2774 430.118 1666.85 43.3492
internal_count=103256 63718 63008 39538 36603 26927 26405 22532 20112 25845 3873 34939 3683 11604 2420 8508 25789 1330 710 4599 25894 2033 3855 3478 2577 377 2353 9676 245
shrinkage=0.1


Tree=6
num_leaves=30
num_cat=0
split_feature=4 5 1 1 0 0 5 1 0 1 5 1 2 5 1 5 4 2 0 3 5 3 4 1 2 1 4 0 5
split_gain=213.044 132.183 104.092 61.8101 55.188 57.1164 91.8464 47.793 44.917 47.4616 38.0421 46.2348 42.0722 37.7718 34.0046 32.0908 32.035 27.2921 24.9583 41.782 72.8979 37.8996 24.9171 24.0801 20.4874 19.8082 18.4433 18.2805 27.6848
threshold=25.025546235003137 0.6551723382790654 0.30748920957557863 0.68509310157969605 36.583679611324293 1.6536479874754566 0.35025295357616421 0.89269727375358354 47.559390075041456 -0.29277013195678586 0.3290012943816355 0.78318293998017918 0.29643017956735834 0.059397256498714822 -0.98904776573181141 0.32408746770740432 13.152317931496428 1.1536179916174225 7.7671675526056347 0.063958677193934402 0.32644577582601192 0.05762992665183652 28.54038095544448 -0.96282483171671618 0.92162583060865944 -0.99605116865131993 0.61073495371913122 33.328024347399257 0.063034502464272474
decision_type=2 2 2 2 2 2 2 2 2 2 2 2 2 2 2 2 2 2 2 2 2 2 2 2 2 2 2 2 2
left_child=2 3 8 4 5 6 23 10 9 25 12 26 -4 -6 -7 24 -11 22 19 20 -16 -22 -8 -2 -15 -1 -12 -14 -29
right_child=1 -3 7 -5 13 14 17 -9 -10 16 11 -13 27 15 18 -17 -18 -19 -20 -21 21 -23 -24 -25 -26 -27 -28 28 -30
leaf_value=-0.11281485656848381 -0.15391780477146719 -0.073244084899166062 -0.058248204727352829 -0.059932356106236866 -0.032634340629588636 -0.070712889742806859 0.0788159101386154 -0.077421037322867259 0.02122378353461803 -0.006791012213584486 -0.10732862168719581 0.031679744488646654 -0.016318754054005093 0.023327591559536974 -0.0062115463502866019 -0.028918149295875398 0.0070506962080983315 0.094567671301391598 0.014551280426115268 0.0066692493056813842 0.056634454104589685 -0.14784371518111855 -0.06154501942914984 0.012798132686664174 0.046618248305420648 -0.026348131001109137 -0.048322593821008036 -0.13349525235925921 0.011370442906861546
leaf_weight=27.575187772512436 8.8276285678148252 166.4863004386425 201.72665709257126 102.68450275063515 84.182738423347473 55.530619740486145 27.422208622097969 165.62367717921734 716.05074380338192 5570.6579580307007 60.408208653330803 69.284439757466316 1219.6328731179237 570.62872837483883 213.0816605836153 73.135508134961128 2389.1311739087105 244.54036259651184 2249.5329159498215 1029.6054678484797 10.501035258173941 66.257277637720108 23.474098533391953 466.55106258392334 1116.9580352753401 675.65794718265533 430.31109368801117 13.594170391559599 445.90578682720661
leaf_count=119 44 702 927 503 480 260 155 702 4157 29991 265 385 6375 3561 1195 440 13347 1903 13186 6064 57 291 130 2691 7108 3591 2073 75 2479
internal_value=0 0.0147133 -0.00775968 0.017022 0.0182883 0.0121956 0.0369148 -0.0254376 -0.0028469 -0.00483649 -0.0219103 -0.0447896 -0.0150983 0.0328038 0.00693859 0.0359325 -0.00263642 0.0807016 0.00814679 -0.00277228 -0.0363117 -0.11987 0.0140795 0.00970227 0.0387429 -0.0297387 -0.0555863 -0.00991434 0.00708463
internal_weight=0 6509.4 11985.6 6342.91 6240.23 4395.32 770.815 2606.49 9379.07 8663.02 2440.86 560.004 1880.86 1844.91 3624.51 1760.72 7959.79 295.437 3568.98 1319.45 289.84 76.7583 50.8963 475.379 1687.59 703.233 490.719 1679.13 459.5
internal_count=103256 38770 64486 38068 37565 25976 4923 13281 51205 47048 12579 2723 9856 11589 21053 11109 43338 2188 20793 7607 1543 348 285 2735 10669 3710 2338 8929 2554
shrinkage=0.1


Tree=7
num_leaves=30
num_cat=0
split_feature=4 5 1 0 3 5 1 5 2 0 1 0 0 4 0 1 1 2 0 2 1 1 2 5 2 0 5 0 4
split_gain=176.812 115.66 95.7408 61.9948 47.3067 45.4815 37.9086 61.2295 35.1026 34.9222 32.5604 30.8054 29.2524 29.0845 25.9728 24.1967 23.7141 21.5581 22.2423 21.2979 20.6611 20.2 19.4316 19.2678 19.0388 18.1 17.5264 16.7507 15.8977
threshold=32.552532215369517 0.6551723382790654 0.42453713575378066 47.559390075041456 0.088644659707690046 0.28279387375961657 -0.36735777981812129 0.35472414836177241 1.991991121186109 27.079783038458761 0.16914759378414604 12.936794061492387 62.716750187058075 1.2876162585590409 15.715574100555409 0.92696985951624822 0.85511631122790288 1.9800515107277163 19.817181128244346 1.9894639628516477 0.32474775332957512 -0.90864454465918232 0.98851158377593362 0.47399862270900411 0.45591497795439989 0.62936483622669581 0.36291616553172057 2.3995330649780482 1.6166526285337286
decision_type=2 2 2 2 2 2 2 2 2 2 2 2 2 2 2 2 2 2 2 2 2 2 2 2 2 2 2 2 2
left_child=2 4 3 5 15 8 12 14 11 16 27 -1 26 -13 24 17 -4 18 23 22 21 -7 -5 -2 -8 -3 -6 -9 -22
right_child=1 25 9 19 6 20 7 10 -10 -11 -12 13 -14 -15 -16 -17 -18 -19 -20 -21 28 -23 -24 -25 -26 -27 -28 -29 -30
leaf_value=-0.0062509356580652091 -0.0021212429543986558 -0.018969894787081422 -0.029811621006751096 0.010683474119715514 8.4524088471767367e-05 -0.044748501858441092 -0.059959186824257493 0.096089395011174625 -0.089401356778540428 -0.0020197913932276735 -0.13832829834717406 -0.037803807448024578 0.048278262515596436 0.0091619235441453874 0.037597916654397212 -0.18655637929929147 -0.065311658883163884 -0.06829361235512689 0.021816805901501556 -0.055119403761806962 -0.081410082718670229 -0.0095951468762369291 0.039207268447657241 0.091010696311570993 0.017517759532109267 -0.088242704475446548 -0.06132130861255447 0.02245561804690737 -0.025686073830099201
leaf_weight=3186.638866469264 1047.5140025913715 56.859718501567841 1047.1445313096046 507.01513335108757 401.88818423449993 171.02855013310909 32.954648867249489 212.26164078712463 43.356517001986504 390.58767169713974 6.6816378831863394 137.21591383218765 121.18195214867592 3375.4642392545938 1116.8138725310564 6.4244467020034781 229.39057785272598 36.485331818461418 810.15791121125221 35.164473757147789 68.243818163871765 3695.0341066867113 451.52898681163788 22.69569231569767 844.63081640005112 112.04337286949158 52.559591636061668 36.156955286860466 204.96808381378651
leaf_count=17293 5989 246 5131 3007 2250 878 172 1808 184 2089 37 741 797 18984 7254 28 964 164 4998 171 311 19727 2708 158 5154 456 282 229 1046
internal_value=0 0.0163947 -0.00574414 -0.00259385 0.0192872 -0.00477721 0.0275227 0.0333824 0.000288143 -0.028185 0.0795129 0.000868594 0.00462346 0.0073273 0.0274819 0.00718999 -0.0361909 0.00783934 0.00931657 0.0213158 -0.0130284 -0.0111503 0.0241198 -0.000146215 0.0146084 -0.0649226 -0.00701743 0.0853721 -0.039605
internal_weight=0 4917.31 13542.8 11875.7 4748.41 10882 2825.13 2249.5 6742.68 1667.12 255.1 6699.32 575.63 3512.68 1994.4 1923.28 1276.54 1916.85 1880.37 993.709 4139.27 3866.06 958.544 1070.21 877.585 168.903 454.448 248.419 273.212
internal_count=103256 30022 73234 65050 29320 59164 17983 14654 37202 8184 2074 37018 3329 19725 12580 11337 6095 11309 11145 5886 21962 20605 5715 6147 5326 702 2532 2037 1357
shrinkage=0.1


Tree=8
num_leaves=30
num_cat=0
split_feature=4 0 5 1 1 1 4 5 5 0 1 5 1 5 1 5 1 5 2 3 5 4 2 0 5 0 0 2 1
split_gain=151.281 86.3094 70.5579 63.9574 58.9311 52.1287 51.397 95.0075 42.7122 29.4431 28.7568 28.2714 25.7114 24.7475 22.3021 21.3855 20.873 20.7775 16.9895 28.4216 36.6708 72.907 24.658 22.4403 16.0222 15.3957 14.6878 14.4397 14.0475
threshold=11.588591608845322 34.296852536652658 0.58584210345625432 0.64065286843106162 -0.5785577087663113 0.42453713575378066 34.768040987119072 0.35025295357616421 0.059397256498714822 2.3995330649780482 0.092456131053040749 0.25095150919662518 -0.99605116865131993 0.20502000190647532 -0.99605116865131993 0.087576159142216406 0.89269727375358354 0.13265186305649793 0.84163394568991634 0.067341877920326906 0.32644577582601192 29.869120802169267 1.0838410477619189 1.3728336135116408 0.12629738503220136 81.801541818862802 0.62936483622669581 0.94713254027653015 -0.94268274647765782
decision_type=2 2 2 2 2 2 2 2 2 2 2 2 2 2 2 2 2 2 2 2 2 2 2 2 2 2 2 2 2
left_child=5 2 3 4 12 13 18 -8 -3 27 11 14 -2 -1 24 -14 -5 28 -6 20 -20 23 -23 -22 -10 -16 -4 -9 -17
right_child=1 8 26 16 6 -7 7 9 10 -11 -12 -13 15 -15 25 17 -18 -19 19 -21 21 22 -24 -25 -26 -27 -28 -29 -30
leaf_value=0.0030900859220441578 -0.10930145431700573 -0.03636883579055971 -0.018254399540089093 -0.030207412000623508 -0.0078379885006518921 -0.032378954973839226 0.012008191327142582 -0.071814388784722266 -0.16841734057145274 0.014837842154711118 0.012401233443761749 0.0022585062310444127 -0.10817721841032757 -0.011107375436322514 0.037012760810743194 0.055613339649380367 -0.09919349079903883 -0.026394558415090197 0.0023118938390193186 0.011516846575361069 0.055999030526811946 -0.15031431087878333 0.046754144474572601 -0.030171893052709786 0.010083904005889592 0.082590132898582552 -0.079670924005825997 0.09293124725119134 -0.030116997509963751
leaf_weight=1637.4142031818628 35.492765635251999 120.3868014216423 57.333823993802071 211.20038175582886 1397.0794613659382 971.52930788695812 2195.1710628569126 5.4484704732894889 8.7026121318340319 69.503103166818619 1183.5373985916376 260.39984583854675 26.667665362358093 4907.2546181976795 1371.2460066229105 59.000357627868652 55.354652911424637 370.53980599343777 618.5212018340826 2179.9947410300374 41.89581561088562 62.150371685624123 7.0717014223337165 108.44926089048386 11.910746440291403 78.348838180303574 121.36851195991039 226.05656439065933 28.271549567580223
leaf_count=9045 149 674 247 983 7606 4599 13192 31 45 421 7216 1543 136 25894 8843 319 229 1942 3466 12303 238 262 40 584 64 533 501 1998 153
internal_value=0 0.00767302 0.0021526 0.00359466 0.00532098 -0.010764 0.00776356 0.0192325 0.0220021 0.0719174 0.0244134 0.0326284 -0.0271452 -0.0075553 0.0380075 -0.0211264 -0.0445335 -0.0160557 0.00127943 0.0054999 -0.0101511 -0.0452593 -0.130182 -0.00615913 -0.0652763 0.0394762 -0.0599664 0.089054 0.0278412
internal_weight=0 10911.1 7876.57 7697.87 7431.31 7516.2 6911.34 2496.18 3034.53 301.008 2914.15 1730.61 519.972 6544.67 1470.21 484.479 266.555 457.812 4415.16 3018.08 838.088 219.567 69.2221 150.345 20.6134 1449.59 178.702 231.505 87.2719
internal_count=103256 63718 44800 44052 42840 39538 40141 15642 18918 2450 18244 11028 2699 34939 9485 2550 1212 2414 24499 16893 4590 1124 302 822 109 9376 748 2029 472
shrinkage=0.1


Tree=9
num_leaves=30
num_cat=0
split_feature=4 5 2 3 0 1 2 1 4 1 5 1 2 0 5 5 0 0 3 4 5 5 0 5 0 0 5 0 4
split_gain=122.864 75.589 69.9685 39.8875 38.9443 35.9013 53.1243 35.0614 34.0098 33.0906 33.0916 26.0148 24.5808 23.5068 22.7746 20.682 18.9334 17.2849 17.154 29.9143 24.4976 16.5548 17.0812 18.1445 15.7549 15.4839 15.3385 15.2868 15.1317
threshold=31.497781815397335 0.6551723382790654 0.83093104202198698 0.092791658512994327 15.497326055793389 -0.30754475318826729 1.1736264489672181 0.89269727375358354 1.1210307147648282 -0.98904776573181141 0.23365559742355252 0.43265193584375089 1.2389028240160347 62.716750187058075 0.33135199654382125 0.17624825615457732 12.287861874635203 4.0800055888617619 0.067341877920326906 29.869120802169267 0.3290012943816355 0.03714068079475312 28.776633790466814 0.47399862270900411 79.220688293323875 27.411478412670178 0.4638597053697166 2.3193278928852439 7.4393774445300105
decision_type=2 2 2 2 2 2 2 2 2 2 2 2 2 2 2 2 2 2 2 2 2 2 2 2 2 2 2 2 2
left_child=2 3 7 11 12 13 -7 8 15 -6 -11 21 18 26 25 -1 -10 -9 19 -4 -21 -2 23 -23 -12 -8 -5 -16 -18
right_child=1 -3 4 5 9 6 14 17 16 10 24 -13 -14 -15 27 -17 28 -19 -20 20 -22 22 -24 -25 -26 -27 -28 -29 -30
leaf_value=0.02139487893680737 -0.036968920081995579 -0.051845336576839984 -0.0083652811349384532 -0.0019985135959879529 -0.051347931402817494 0.021498541528508733 0.019725353075920882 -0.025241110440978966 -0.017556127409934893 0.018749507662853774 -0.0021821868530199164 -0.029370326166550553 -0.022085528792032419 0.044244958329571676 0.09890264213402751 -0.05063705405997182 -0.015083327986505477 -0.087484589732210682 0.0026682205043304964 0.0061301347797235858 -0.14884421885418694 0.0029802108140307582 0.024810757799647254 0.086135055511363898 0.053684480613830278 0.065142528928546911 -0.090071331543892963 0.012995087016930661 0.0016297337541277526
leaf_weight=45.42339551448822 74.777094587683678 171.15294867753983 1432.0767736583948 507.35159046947956 90.647480472922325 1518.496544778347 148.27182565629482 85.126913189888 1952.843951612711 1931.5326755046844 1625.8958757072687 191.33425259590149 740.49310356378555 116.22906590998173 157.45902068912983 325.48106344044209 836.67753182351589 93.748262614011765 2568.7662827223539 16.089406460523605 27.866122364997864 1310.9074700474739 612.27982258796692 26.776337511837482 52.096512317657471 152.03629957139492 20.576217800378799 23.851057320833206 1536.6426786631346
leaf_count=237 422 702 7667 2866 417 9765 944 348 9954 11385 8833 1067 3888 806 1526 1534 4397 384 13902 90 116 7746 3925 203 314 1083 101 162 8472
internal_value=0 0.013471 -0.0048632 0.0157711 0.000622304 0.0240643 0.0306769 -0.0144095 -0.0127547 0.0083265 0.00982513 0.00587539 -0.00533488 0.00353217 0.0596153 -0.0418156 -0.0102631 -0.0578628 -0.00226829 -0.0108594 -0.0921177 0.00920605 0.0109768 0.00464472 -0.000447698 0.0427186 -0.00543119 0.0876016 -0.0042622
internal_weight=0 5031.5 13361.4 4860.35 8485.46 2644.27 2000.11 4875.94 4697.07 3700.17 3609.53 2216.07 4785.29 644.157 481.618 370.904 4326.16 178.875 4044.8 1476.03 43.9555 2024.74 1949.96 1337.68 1677.99 300.308 527.928 181.31 2373.32
internal_count=103256 31318 71938 30616 46612 17253 13480 25326 24594 20949 20532 13363 25663 3773 3715 1771 22823 732 21775 7873 206 12296 11874 7949 9147 2027 2967 1688 12869
shrinkage=0.1


end of trees

feature_importances:
eval_data.pass_distance=70
pos_score_data.posx.val=69
pass_error_diff=60
pos_score_data.dnet.val=40
eval_data.small_cone_angle=36
pos_score_data.dopp.val=15

parameters:
[boosting: gbdt]
[objective: binary]
[metric: binary_logloss]
[tree_learner: serial]
[device_type: cpu]
[data: ]
[valid: ]
[num_iterations: 10]
[learning_rate: 0.1]
[num_leaves: 30]
[num_threads: -1]
[force_col_wise: 0]
[force_row_wise: 0]
[histogram_pool_size: -1]
[max_depth: -1]
[min_data_in_leaf: 20]
[min_sum_hessian_in_leaf: 0.001]
[bagging_fraction: 1]
[pos_bagging_fraction: 1]
[neg_bagging_fraction: 1]
[bagging_freq: 0]
[bagging_seed: 3]
[feature_fraction: 1]
[feature_fraction_bynode: 1]
[feature_fraction_seed: 2]
[extra_trees: 0]
[extra_seed: 6]
[early_stopping_round: 0]
[first_metric_only: 0]
[max_delta_step: 0]
[lambda_l1: 0]
[lambda_l2: 0]
[min_gain_to_split: 0]
[drop_rate: 0.1]
[max_drop: 50]
[skip_drop: 0.5]
[xgboost_dart_mode: 0]
[uniform_drop: 0]
[drop_seed: 4]
[top_rate: 0.2]
[other_rate: 0.1]
[min_data_per_group: 100]
[max_cat_threshold: 32]
[cat_l2: 10]
[cat_smooth: 10]
[max_cat_to_onehot: 4]
[top_k: 20]
[monotone_constraints: ]
[monotone_constraints_method: basic]
[monotone_penalty: 0]
[feature_contri: ]
[forcedsplits_filename: ]
[refit_decay_rate: 0.9]
[cegb_tradeoff: 1]
[cegb_penalty_split: 0]
[cegb_penalty_feature_lazy: ]
[cegb_penalty_feature_coupled: ]
[path_smooth: 0]
[interaction_constraints: ]
[verbosity: -1]
[saved_feature_importance_type: 0]
[max_bin: 255]
[max_bin_by_feature: ]
[min_data_in_bin: 3]
[bin_construct_sample_cnt: 200000]
[data_random_seed: 1]
[is_enable_sparse: 1]
[enable_bundle: 1]
[use_missing: 1]
[zero_as_missing: 0]
[feature_pre_filter: 1]
[pre_partition: 0]
[two_round: 0]
[header: 0]
[label_column: ]
[weight_column: ]
[group_column: ]
[ignore_column: ]
[categorical_feature: ]
[forcedbins_filename: ]
[objective_seed: 5]
[num_class: 1]
[is_unbalance: 0]
[scale_pos_weight: 1]
[sigmoid: 1]
[boost_from_average: 1]
[reg_sqrt: 0]
[alpha: 0.9]
[fair_c: 1]
[poisson_max_delta_step: 0.7]
[tweedie_variance_power: 1.5]
[lambdarank_truncation_level: 20]
[lambdarank_norm: 1]
[label_gain: ]
[eval_at: ]
[multi_error_top_k: 1]
[auc_mu_weights: ]
[num_machines: 1]
[local_listen_port: 12400]
[time_out: 120]
[machine_list_filename: ]
[machines: ]
[gpu_platform_id: -1]
[gpu_device_id: -1]
[gpu_use_dp: 0]

end of parameters

pandas_categorical:[]
