tree
version=v3
num_class=1
num_tree_per_iteration=1
label_index=0
max_feature_idx=9
objective=binary sigmoid:1
feature_names=eval_data.pass_error_diff pos_score_data.posx pos_score_data.dnet pos_score_data.dopp pos_score_data.kopp eval_data.small_cone_angle eval_data.forward_cone_angle eval_data.pass_distance eval_data.opp_dist_to_line eval_data.opp_dist_to_active
feature_infos=[0.00014996345282902723:126.36789403851127] [-1.0084612418711185:1.0487865952029825] [0.018240712491006898:2.0373403451818395] [0.00026097363408771729:0.10000000000000001] [8.4167654303167332:240.10221665228917] [4.9919273948262344e-05:200] [0.0030463892845773444:200] [0.00062500257180567837:0.97765151642761738] [10.447223025396397:539.04328825198297] [4.9662805648656884e-05:0.10000000000000001]
tree_sizes=3319 3338 3346 3338 3342 3350 3360 3357 3346 3364 3356 3358 3372 3353 3351 3364 3378 3371 3371 3355 3355 3335 3372 3350 3361 3369 3357 3352 3367 3377 3336 3362 3349 3353 3341 3334 3361 3360 3319 3327 3344 3353 3330 3268 3378 3320 3311 3262 3355 3307 3336 3251 3273 3364 3329 3303 3313 3304 3349 3254 3240 3235 3303 3272 3335 3352 3261 3307 3311 3286 3239 3307 3320 3337 3319 3239 3309 3290 3300 3229 3293 3311 3236 3262 3292 3277 3255 3241 3245 3218 3319 3325 3336 3242 3299 3311 3259 3301 3320 3312 3244 3310 3322 3302 3248 3326 3286 3307 3253 3287 3275 3306 3303 3260 3311 3263 3288 3336 3309 3267 3297 3306 3316 3312 3231 3267 3290 3290 3323 3255 3269 3294 3316 3283 3263 3312 3260 3290 3293 3308 3300 3302 3269 3275 3257 3288 3264 3309 3259 3240 3286 3290 3292 3270 3289 3290 3272 3293 3240 3304

Tree=0
num_leaves=30
num_cat=0
split_feature=8 8 8 0 7 4 7 5 8 6 3 3 1 1 5 2 1 0 6 3 5 1 7 6 3 8 7 7 9
split_gain=4378.13 1551.74 895.511 619.415 626.35 1380.57 308.16 273.864 261.771 157.25 192.03 124.097 136.069 119.994 115.292 113.132 115.355 129.806 99.9173 97.3109 91.8395 96.6743 89.699 88.9809 87.949 81.9121 81.7787 80.8831 80.6011
threshold=75.6258293779306 156.76465595266143 47.063067252870376 31.542821826717439 0.27053789978795489 53.057104586751358 0.67880959805791619 7.7138147443099436 227.89626394653422 177.87138292506776 0.069473401136296339 0.026387466002814452 0.038149341796524829 0.2036704098293558 32.617987281625936 1.5709313642849312 0.14502670869231227 58.838639940665637 168.0368361076543 0.027818080111695911 4.0029499890944615 -0.62166359767317758 0.057806800355114686 173.84934561585237 0.099196186394663918 83.703314348384126 0.16904386174617417 0.13979982578116809 0.075212372758189455
decision_type=2 2 2 2 2 2 2 2 2 2 2 2 2 2 2 2 2 2 2 2 2 2 2 2 2 2 2 2 2
left_child=2 3 6 9 15 -6 14 -7 18 10 -2 25 -13 19 -1 16 17 -5 -3 -4 -21 -22 -18 -24 -25 -11 -26 -19 -20
right_child=1 8 13 4 5 7 -8 -9 -10 11 -12 12 -14 -15 -16 -17 22 27 28 20 21 -23 23 24 26 -27 -28 -29 -30
leaf_value=-0.60455051679987859 -0.77659490105630158 -0.78819774301605428 -0.59098370900396813 -0.76900312985789876 -0.75369999687975564 -0.72888907894846489 -0.56077346621577162 -0.53245741339802222 -0.82263402429753363 -0.56064718765392185 -0.73399226733336087 -0.77180579687757134 -0.79489868668048524 -0.74888862846640114 -0.67206382042694812 -0.67718700542762955 -0.80934157576383925 -0.74483515718368709 -0.80661174125823754 -0.54391815689945067 -0.67091764704115975 -0.72461821117192304 -0.72183828207973921 -0.78843153076030226 -0.71736969394587902 -0.74999658661967727 -0.77179943898645553 -0.85950184781340466 -0.76285880370198311
leaf_weight=317.70601272583008 3567.2859907150269 5889.8637101054192 67.339861392974854 1201.541693508625 1114.3452063202858 83.311495184898376 409.00332480669022 479.36484664678574 6291.0970509052277 39.281585812568665 1504.1394039988518 4082.9107627272606 6802.8368309140205 1137.6551583409309 1240.8232793211937 157.98967480659485 247.34449088573456 77.268174290657043 9425.422266125679 31.727434694766998 406.41333013772964 1914.2218932509422 955.06053417921066 665.62862992286682 598.72043430805206 54.605720937252045 512.17144578695297 301.73437893390656 440.73075950145721
leaf_count=1472 16528 27289 312 5567 5163 386 1895 2221 29148 182 6969 18917 31519 5271 5749 732 1146 358 43670 147 1883 8869 4425 3084 2774 253 2373 1398 2042
internal_value=-0.776121 -0.786547 -0.692162 -0.768038 -0.741719 -0.689227 -0.638028 -0.561542 -0.80539 -0.778523 -0.763959 -0.78525 -0.786237 -0.722104 -0.658301 -0.760379 -0.763262 -0.785098 -0.798504 -0.70951 -0.712903 -0.715214 -0.751676 -0.746454 -0.759687 -0.670775 -0.742464 -0.836124 -0.804657
internal_weight=0 44492.7 5524.89 22445.5 6394.48 1677.02 1967.53 562.676 22047.1 16051.1 5071.43 10979.6 10885.7 3557.36 1558.53 4717.46 4559.47 1580.54 15756 2419.7 2352.36 2320.64 2978.93 2731.58 1776.52 93.8873 1110.89 379.003 9866.15
internal_count=231742 206144 25598 103995 29627 7770 9116 2607 102149 74368 23497 50871 50436 16482 7221 21857 21125 7323 73001 11211 10899 10752 13802 12656 8231 435 5147 1756 45712
shrinkage=1


Tree=1
num_leaves=30
num_cat=0
split_feature=8 8 8 0 7 4 3 8 7 6 4 3 2 1 2 5 6 4 2 9 4 7 5 1 9 5 5 1 9
split_gain=3455.34 1229.79 709.516 493.985 482.137 1004.59 214.046 211.567 193.696 144.449 170.637 107.589 119.246 101.911 95.6089 91.9664 88.9881 77.0024 76.0988 75.3039 73.8353 147.699 73.0048 69.9145 69.6767 67.6914 64.9644 64.3873 63.9114
threshold=77.503014496470712 158.80619887929097 44.46833480382876 31.542821826717439 0.27053789978795489 53.057104586751358 0.068092320459334763 206.08374008098448 0.67880959805791619 173.84934561585237 58.839676152140008 0.027818080111695911 1.107690457621431 0.038149341796524829 1.5709313642849312 36.085039507434452 76.80152203520619 52.724923219157844 1.2505413968671564 0.043734914184707381 40.466544886553628 0.16061764876550985 9.8052668622534629 -0.3830566294770687 0.0085687236174417734 4.7522797772270886 17.106802727884745 -0.62166359767317758 0.0083289543069955882
decision_type=2 2 2 2 2 2 2 2 2 2 2 2 2 2 2 2 2 2 2 2 2 2 2 2 2 2 2 2 2
left_child=2 3 8 9 14 23 -7 24 15 10 22 -4 -13 -11 16 18 17 -5 -1 -15 21 -18 -2 -6 -3 -14 -26 -27 -9
right_child=1 7 11 4 5 6 -8 28 -10 13 -12 12 25 19 -16 -17 20 -19 -20 -21 -22 -23 -24 -25 26 27 -28 -29 -30
leaf_value=0.17484737949413409 0.0076437631673062102 -0.040840445022026634 0.15719333125374929 0.076156688066894268 0.038938101705096179 0.047786592606238402 0.20542725725607869 -0.058622997016580553 0.18025643034145955 0.0030506393056344001 -0.0053398600460096276 0.028946559181851336 0.18904286771394244 -0.024181188817218913 0.089567894288017633 0.090335347928833826 0.073556323171108051 0.018014816088862774 0.05246612651481089 -0.0021345192687022515 -0.0074096014213979574 -0.001655102285046106 0.044886250294306047 -0.012120625845330045 -0.018834960664662195 0.091764345184243604 0.0037344775255638385 0.049993960376282572 -0.035024799927884973
leaf_weight=260.74026358127594 827.26250216364861 1229.9367259442806 88.289985314011574 327.99963706731796 682.40439745783806 103.9021043330431 503.65511165559292 1340.7067610621452 438.14250525832176 4126.9014801979065 2867.4205117821693 2103.8425435125828 41.679780513048172 4619.8117233961821 158.54173724353313 1094.445842191577 390.74285350739956 745.53978276252747 63.107448235154152 2331.0027262866497 2336.1575505137444 786.97320947051048 1447.026433467865 441.80815610289574 9198.6532607376575 489.51641570031643 1480.6513166427612 1499.3321692794561 7971.4632643312216
leaf_count=1144 3816 5755 385 1498 3137 465 2166 6309 1894 19095 13271 9629 181 21556 710 4891 1783 3427 278 10864 10817 3641 6639 2031 42963 2190 6927 6813 37467
internal_value=0 -0.00982506 0.0706158 0.00635545 0.0296996 0.0748634 0.178468 -0.0271308 0.12214 -0.00296774 0.0108842 0.0479637 0.0456311 -0.0093971 0.0132196 0.104187 0.010581 0.035779 0.150999 -0.0167877 0.0028826 0.0232986 0.0313395 0.0188724 -0.0183016 0.0629181 -0.0157058 0.0602749 -0.0384223
internal_weight=0 43918.6 6079.1 22697.1 6477.72 1731.77 607.557 21221.4 1856.44 16219.4 5141.71 4222.66 4134.37 11077.7 4745.95 1418.29 4587.41 1073.54 323.848 6950.81 3513.87 1177.72 2274.29 1124.21 11909.2 2030.53 10679.3 1988.85 9312.17
internal_count=231742 204337 27405 104916 29675 7799 2631 99421 8207 75241 23726 19198 18813 51515 21876 6313 21166 4925 1422 32420 16241 5424 10455 5168 55645 9184 49890 9003 43776
shrinkage=0.1


Tree=2
num_leaves=30
num_cat=0
split_feature=8 8 0 7 4 7 8 8 3 7 8 6 6 4 2 1 2 7 1 0 2 5 4 5 5 7 7 9 7
split_gain=2748.68 1224.01 392.277 367.953 722.197 286.21 216.064 176.775 173.048 134.115 122.149 113.886 107.644 125.449 86.6133 88.1433 112.834 83.6002 79.6847 78.608 74.3795 70.0513 87.0328 67.8704 65.5767 63.8568 56.9727 52.5609 57.0127
threshold=65.119418407625218 152.07025672333157 31.915862295310799 0.27053789978795489 53.057104586751358 0.67880959805791619 238.35640083995011 82.873444094330694 0.027338578561859051 0.30037533627838575 52.258287735202742 168.0368361076543 173.84934561585237 63.12514907450889 1.5709313642849312 0.14255762726068499 1.0066592691956997 0.082154533424152631 0.038149341796524829 57.338286820473627 1.3723413814782501 7.9202347182494472 63.852240163892112 27.852235725086206 9.3451974079387004 0.1782581284759901 0.13652678705649554 0.048421613645997327 0.18482485586662478
decision_type=2 2 2 2 2 2 2 2 2 2 2 2 2 2 2 2 2 2 2 2 2 2 2 2 2 2 2 2 2
left_child=5 2 7 14 23 10 11 8 -2 -6 -1 21 13 24 15 16 19 -17 -13 -4 27 -3 -23 -5 -9 -19 -21 28 -14
right_child=1 6 3 4 9 -7 -8 12 -10 -11 -12 18 20 -15 -16 17 -18 25 -20 26 -22 22 -24 -25 -26 -27 -28 -29 -30
leaf_value=0.085397205623697112 0.15201887538647227 -0.015137527973900528 -0.0057925773392130814 0.00590612071024207 0.17718955103576578 0.1537526904744615 -0.041836059030883589 0.00077576774294007785 0.020298163942353599 0.04081046921493596 0.047481075402005031 -0.011801521939031926 -0.006158905831913513 -0.0090946454925344353 0.080801588060549767 -0.018742555320876025 0.033179868150762425 0.04019594601048404 -0.03003503623123743 0.029096790624662024 0.021781154223246921 0.024609011721838547 -0.014949286404039024 0.057653430607146929 0.035805395687940063 0.0067954950489807781 -0.081126167476766889 0.0011828673837618814 -0.024951493824593871
leaf_weight=2085.2455737441778 104.20409053564072 4536.5824302583933 743.89299310743809 774.28611393272877 516.40301214158535 460.88848441839218 4941.6750501990318 784.01368217170238 2326.8092378377914 83.810671046376228 1433.9243972450495 3466.7571238577366 2967.4181702584028 1992.7576714903116 196.1899381428957 415.68882225453854 501.21781601011753 1790.0058037489653 7765.972633600235 55.88055507838726 713.61935871839523 1213.277936860919 1026.9079377800226 376.80030496418476 1678.6500321924686 841.49498134851456 291.62123902142048 2307.5385894179344 3540.4463257789612
leaf_count=9072 443 21319 3423 3537 2132 1912 23669 3611 10584 363 6414 16348 13880 9243 854 1921 2303 8132 36685 255 3297 5662 4809 1699 7616 3873 1390 10737 16559
internal_value=0 -0.0069747 0.00932742 0.0299422 0.0692163 0.0796524 -0.0233135 0.00105498 0.0259443 0.158146 0.0699479 -0.018231 -0.00327171 0.00955903 0.0157196 0.0129677 -0.00609746 0.022932 -0.0244076 -0.0241354 -0.00927089 -0.00799299 0.00647537 0.0228453 0.0246534 0.0295152 -0.0634016 -0.0117846 -0.0163826
internal_weight=0 45953.9 23002.7 6587.29 1751.3 3980.06 22951.2 16415.5 2431.01 600.214 3519.17 18009.5 13984.4 4455.42 4835.99 4639.8 1592.61 3047.19 11232.7 1091.39 9529.02 6776.77 2240.19 1151.09 2462.66 2631.5 347.502 8815.4 6507.86
internal_count=231742 214344 105852 29882 7731 17398 108492 75970 11027 2495 15486 84823 64943 20470 22151 21297 7371 13926 53033 5068 44473 31790 10471 5236 11227 12005 1645 41176 30439
shrinkage=0.1


Tree=3
num_leaves=30
num_cat=0
split_feature=8 8 8 0 6 6 7 2 2 9 1 8 3 1 7 7 0 5 4 5 6 9 7 0 2 5 4 9 4
split_gain=2208.27 817.476 474.871 353.552 336.675 730.9 180.766 135.074 126.798 119.52 94.1231 90.976 85.0734 96.3367 82.1877 78.4162 71.3163 62.2147 58.0868 56.1105 68.5205 63.6974 53.0469 67.1349 63.2921 50.2684 55.3881 48.5703 55.5787
threshold=80.303379130389189 169.52528686023879 47.063067252870376 19.590742616941565 173.84934561585237 163.54032047768575 0.27213551317365026 1.2505413968671564 1.4345270562271348 0.0085687236174417734 0.038149341796524829 244.03851865496247 0.027818080111695911 -0.62166359767317758 0.44980184163961273 0.049051219487411986 21.942486362574897 3.836301485509765 49.531104578855256 13.090943972263789 40.930586887233609 0.047956090339753073 0.40447390317251219 6.3981328909062674 0.59137157064334522 8.2287774378493612 50.546520851168246 0.055219754630252471 45.300501626150812
decision_type=2 2 2 2 2 2 2 2 2 2 2 2 2 2 2 2 2 2 2 2 2 2 2 2 2 2 2 2 2
left_child=2 3 7 10 5 15 -7 16 27 -3 -2 19 -4 -14 -10 -5 -1 -15 -19 20 -11 -22 -23 24 -24 -17 -27 -6 -29
right_child=1 9 12 4 8 6 -8 -9 14 11 -12 -13 13 17 -16 25 -18 18 -20 -21 21 22 23 -25 -26 26 -28 28 -30
leaf_value=0.11857364481540118 0.0039163572296569424 -0.046374940943349596 0.1183576434781267 -0.025422041018638659 -0.0063250897035319834 0.0052163318679478883 0.16654847286677871 0.063458414585054856 0.056799994319027658 -0.0053329352125648854 -0.013248224313080198 -0.036018351196125904 0.073756965386315529 0.15978547925853562 0.00017720064187619057 0.0092426042011445296 -0.0055715338993109712 0.034009419379039826 0.0078405106224613604 -0.001801398118273789 -0.028805280880164687 -0.01739786105880875 0.15082811247219907 -0.014398762568009758 0.025630085652622009 0.055410810106472079 0.022055273927465997 -0.0071623312574059144 0.041637609554746477
leaf_weight=1150.1807176321745 4849.8353838324547 2278.6081442087889 118.31226766109467 315.14691588282585 5011.3786416351795 80.787836566567421 494.88897553086281 975.28741000592709 660.74499280750751 2264.8715211600065 9361.0182254761457 3498.9772008806467 503.69610081613064 35.205931901931763 418.8383202701807 1057.9744238108397 48.212797090411186 2870.8900671601295 1203.9182091504335 1875.420048803091 6666.81901293993 782.52383053302765 66.153648972511292 170.69889655709267 103.63687220215797 859.86837875843048 1182.3833123147488 443.96313259005547 492.03867480158806
leaf_count=4764 22468 11045 488 1470 23338 369 2013 4147 2960 10730 43849 17023 2167 145 1896 4865 205 12811 5426 8871 31799 3713 312 810 492 3855 5384 2065 2262
internal_value=0 -0.00852666 0.0524 0.00303329 0.0164775 0.0396725 0.143908 0.091091 0.00330365 -0.0249966 -0.00739035 -0.0218394 0.0346271 0.03248 0.0348324 0.0221032 0.113579 0.0274213 0.0262777 -0.0176808 -0.0206427 -0.0250939 -0.00306144 0.029887 0.0744096 0.0269342 0.0360993 -0.00241954 0.0184909
internal_weight=0 42936.6 6905.7 25228.9 11018 3991.05 575.677 2173.68 7026.96 17707.7 14210.9 15429.1 4732.02 4613.71 1079.58 3415.37 1198.39 4110.01 4074.81 11930.1 10054.7 7789.83 1123.01 340.489 169.791 3100.23 2042.25 5947.38 936.002
internal_count=231742 201589 30153 116794 50477 17956 2382 9116 32521 84795 66317 73750 21037 20549 4856 15574 4969 18382 18237 56727 47856 37126 5327 1614 804 14104 9239 27665 4327
shrinkage=0.1


Tree=4
num_leaves=30
num_cat=0
split_feature=8 8 8 6 6 7 2 4 7 7 8 3 2 7 9 7 4 9 4 6 7 9 3 7 4 1 0 6 3
split_gain=1777.61 651.666 402.959 296.726 626.249 259.388 174.108 137.348 126.005 124.518 103.375 81.4515 84.6278 69.6416 63.5154 105.382 138.798 61.0074 53.9134 47.638 47.2145 69.6247 46.9363 62.152 46.304 99.0868 51.4828 44.5806 47.5082
threshold=82.020758970086135 169.52528686023879 52.258287735202742 173.84934561585237 163.54032047768575 0.27213551317365026 1.4345270562271348 62.421511261600692 0.20320151464961536 0.67880959805791619 238.35640083995011 0.027818080111695911 1.3569826598471535 0.51559047899883259 0.053532698769080414 0.18154615291496842 40.290240114742296 0.0059853064445603479 48.366846026960182 24.655939883574977 0.15751475035715015 0.047956090339753073 0.079849339648427525 0.3558790416311523 22.975269107723438 -0.34941821408458046 43.699632233114791 80.155547161324378 0.074822329445673338
decision_type=2 2 2 2 2 2 2 2 2 2 2 2 2 2 2 2 2 2 2 2 2 2 2 2 2 2 2 2 2
left_child=2 3 9 4 7 -6 14 8 18 22 17 -4 19 -8 15 16 -5 -3 -2 -13 -19 -22 23 -1 25 26 -24 -20 -29
right_child=1 10 11 6 5 -7 13 -9 -10 -11 -12 12 -14 -15 -16 -17 -18 20 27 -21 21 -23 24 -25 -26 -27 -28 28 -30
leaf_value=0.044248941809397695 0.054909520449327426 -0.048242417287665047 0.10643138472387333 0.043026478917250643 -0.0034001120658220616 0.14477924145670604 0.036715031390878665 -0.0055465834306021727 -0.0015172404313939889 0.1229798824569126 -0.035291780848604869 -0.054503927464633478 0.054542598142976323 -0.016156490265402054 0.0052429425043635774 -0.02058347966881028 -0.0072873012114577449 -0.0052341797749957814 0.035910841566424524 0.020953031778921875 -0.023613167619537863 0.00053989142023755691 0.033527817311924613 0.13159441870904645 0.051291941622727322 0.20044126381975841 0.11218239833439357 -0.021473042333006561 0.031912789090961305
leaf_weight=128.13790160417557 862.96840982139111 635.78151747584343 128.04451611638069 612.6415551751852 153.38152067363262 514.06550754606724 1264.2333799749613 3327.8403738588095 1537.333620429039 473.06315395236015 4781.1308468431234 85.600833714008331 827.778031244874 310.27175268530846 2690.8173433244228 6403.1807295382023 5219.6561404466629 2860.1695149540901 1259.9545423835516 3703.8755992203951 7838.8333194851875 1407.8394421190023 192.07770060002804 223.66213424503803 1408.5446223169565 67.306057199835777 146.83252531290054 349.91806177794933 318.3443171530962
leaf_count=543 3837 3118 521 2789 701 2078 5673 15496 7014 1898 23669 385 3572 1408 12496 30210 24531 13643 5706 16530 37686 6679 805 914 5913 282 615 1595 1435
internal_value=0 -0.00798831 0.0451797 0.00243406 0.0178272 0.110727 -0.00533101 0.00972865 0.0214725 0.0764994 -0.0227529 0.0277578 0.025576 0.0262962 -0.00866721 -0.0117263 -0.0020022 -0.0180482 0.0341348 0.0192485 -0.0164626 -0.0199358 0.0663506 0.0997801 0.0598701 0.0896145 0.0676048 0.0248372 0.0039587
internal_weight=0 42348.4 7384.92 24824.6 8323.81 667.447 16500.8 7656.36 4328.52 2639.62 17523.8 4745.3 4617.25 1574.51 14926.3 12235.5 5832.3 12742.6 2791.19 3789.48 12106.8 9246.67 2166.56 351.8 1814.76 406.216 338.91 1928.22 668.262
internal_count=231742 199764 31978 114969 37862 2779 77107 35083 19587 10970 84795 21008 20487 7081 70026 57530 27320 61126 12573 16915 58008 44365 9072 1457 7615 1702 1420 8736 3030
shrinkage=0.1


Tree=5
num_leaves=30
num_cat=0
split_feature=8 8 0 7 4 8 7 8 3 6 4 1 7 6 0 9 3 1 2 7 0 7 6 5 7 6 0 6 1
split_gain=1434.98 717.81 207.394 185.306 384.396 155.5 137.898 102.675 88.785 77.3614 66.5467 65.1299 59.0939 58.0653 57.3399 57.2037 56.8627 55.2793 116.071 62.0401 59.2006 51.176 49.7567 59.7542 49.6062 49.1349 48.5336 46.7786 44.4675
threshold=61.93913404862996 147.28910672459324 31.915862295310799 0.27053789978795489 53.057104586751358 196.98749718115405 0.67880959805791619 98.987151869500238 0.027818080111695911 168.0368361076543 27.518256206281627 0.038149341796524829 0.3390095659566234 173.84934561585237 18.353067237441483 0.005589102606751507 0.076290045791131231 0.14255762726068499 1.0066592691956997 0.095941114982457457 57.338286820473627 0.17006080600618809 19.815692395203246 7.3108434273203509 0.13652678705649554 163.54032047768575 68.767615818656438 189.98883309968633 0.020180105902254584
decision_type=2 2 2 2 2 2 2 2 2 2 2 2 2 2 2 2 2 2 2 2 2 2 2 2 2 2 2 2 2
left_child=6 2 7 10 -5 9 -1 8 27 14 -4 -11 -6 16 -3 -7 -9 18 20 -19 -12 26 -17 -24 -22 -16 -21 -2 -10
right_child=1 5 3 4 12 15 -8 13 28 11 17 -13 -14 -15 25 22 -18 19 -20 21 24 -23 23 -25 -26 -27 -28 -29 -30
leaf_value=0.052196936718421162 0.002558235884096698 -0.0091648547201605268 0.10109237678812384 0.017498428783938914 0.12543010342648195 -0.055752393277365198 0.10980319453122617 -1.7703819506353704e-05 0.021780301177005683 -0.0027563173772785329 -0.0074521493911970859 -0.021646492834678687 -0.0096016028293540168 -0.0095264490856466558 0.010197603974100659 -0.0057308292794073208 0.032665913491330766 -0.011287066057106219 0.030543854609016464 0.029686334133802894 0.027683415126874795 0.0084029259748860559 -0.031741704692079292 -0.012509482349615093 -0.075847467078654543 0.10203435779486135 0.077493007024771368 0.11559406765133161 0.0032299487278753037
leaf_weight=3253.0696084350348 51.832640036940575 2754.1715953350067 83.982873857021332 1142.248182579875 546.29899923503399 612.26220400631428 476.40118636190891 2579.7125655263662 2095.2819688022137 2683.9864521771669 721.0039350092411 5704.2585582584143 34.453367590904236 6789.9142720550299 2011.7209597826004 1264.8615722805262 670.71164816617966 535.06311519443989 636.95642656087875 1201.6559382528067 55.59782287478447 959.49687896668911 6504.0064563155174 2149.3918194025755 276.15444035828114 59.99557925760746 257.93976359069347 124.67071801424026 3371.5977888405323
leaf_count=13659 236 12989 354 5089 2214 3103 1906 11896 9397 12740 3303 27502 148 32003 9401 6210 2973 2454 2824 5334 250 4381 32153 10505 1362 260 1138 507 15451
internal_value=0 -0.00494605 0.00800914 0.0231023 0.0511776 -0.0170228 0.0595555 0.00180121 0.0125935 -0.00979863 0.0128706 -0.0156022 0.117419 -0.0042648 0.000289017 -0.026088 0.00672643 0.0112751 -0.00315107 0.0195266 -0.0235377 0.0263421 -0.0242567 -0.0269647 -0.0584969 0.0128571 0.0381347 0.0823995 0.0103397
internal_weight=0 45879.2 22134.6 6450.85 1723 23744.7 3729.47 15683.7 5643.38 13214.1 4727.85 8388.25 580.752 10040.3 4825.89 10530.5 3250.42 4643.87 1689.71 2954.16 1052.76 2419.09 9918.26 8653.4 331.752 2071.72 1459.6 176.503 5466.88
internal_count=231742 216177 101314 28851 7451 114863 15565 72463 25591 62892 21400 40242 2362 46872 22650 51971 14869 21046 7739 13307 4915 10853 48868 42658 1612 9661 6472 743 24848
shrinkage=0.1


Tree=6
num_leaves=30
num_cat=0
split_feature=8 8 8 0 6 6 7 1 1 1 0 1 7 0 7 9 9 3 1 0 7 7 7 4 6 5 5 6 1
split_gain=1168.61 439.001 275.692 229.78 197.93 415.862 113.077 92.4405 92.6265 76.9999 73.9668 73.6643 71.1879 71.1548 64.4291 61.2914 60.9135 58.3225 59.3526 50.8457 71.9598 50.372 49.7834 70.4364 49.4771 64.188 46.5309 49.2466 45.1192
threshold=82.873444094330694 186.17630859038576 41.907420987473238 19.590742616941565 173.84934561585237 163.54032047768575 0.27213551317365026 0.024335858616977932 0.14502670869231227 0.038149341796524829 62.278957420391542 -0.43002900041639797 0.073418120860500188 48.73656596717877 0.16172506849359131 0.050904181371655526 0.0083289543069955882 0.027338578561859051 -0.096063088886439787 55.865572111114638 0.13652678705649554 0.049051219487411986 0.14935751611829753 63.36465422512476 19.815692395203246 7.3108434273203509 8.3301909488552628 42.756344676832576 -0.12194412693381308
decision_type=2 2 2 2 2 2 2 2 2 2 2 2 2 2 2 2 2 2 2 2 2 2 2 2 2 2 2 2 2
left_child=2 3 11 9 5 21 -7 -6 19 -2 15 13 -4 -1 -12 -10 -3 -14 28 -9 -21 -5 23 -11 -18 -26 27 -23 -19
right_child=1 16 12 4 7 6 -8 8 10 22 14 -13 17 -15 -16 -17 24 18 -20 20 -22 26 -24 -25 25 -27 -28 -29 -30
leaf_value=0.0037624976631644084 0.0020458201507163793 -0.040112457758255685 -0.01772427433236835 -0.021084169810319135 0.01831963930208139 0.0013665157722965904 0.12443222027183594 -0.016712864372814162 -0.0095787069809513056 0.011545282605766012 0.066881163857062484 0.080778445603763571 0.099622279714845996 0.095830753968381241 -0.006393518245376777 0.02417450790132817 -0.0017479557713953626 0.034369267696412846 0.016781869771408518 0.054343865476296507 -0.076201792316386963 0.020068040427059005 -0.017464823214948681 -0.015109742672729902 -0.026978119211031815 -0.0090109098602605825 0.028090322122274077 -0.017297248302185746 0.090318549588380245
leaf_weight=274.598797544837 5580.1433612853289 1632.443152859807 361.46977970004082 344.74653381109238 2149.0736825764179 87.930921584367752 494.79145064949989 1006.6191710531712 3020.7620743215084 1754.1937405467033 298.7801057100296 1400.8729069679976 111.64986023306847 120.90195280313492 200.54023720324039 654.55765107274055 1385.7733957618475 2388.3186924904585 2881.570498213172 48.370024651288986 332.34152112901211 881.30282853543758 7003.4496109783649 2279.7979116588831 7076.6602145880461 2765.3305405825377 2202.2688827961683 588.10895797610283 153.39340549707413
leaf_count=1130 26007 8352 1598 1623 9736 401 2022 4773 14266 8219 1331 5676 449 493 927 3012 6776 10158 12743 221 1674 4061 33432 10808 35221 13471 9806 2712 644
internal_value=0 -0.00669078 0.0357209 0.000143195 0.0104982 0.026917 0.105862 0.000705427 -0.00610048 -0.00752772 0.00133885 0.0700186 0.0252719 0.0319072 0.0374521 -0.00356741 -0.0220632 0.0280798 0.026607 -0.0284863 -0.0596158 0.0154633 -0.0123678 -0.00351872 -0.0194389 -0.0219298 0.0188948 0.00511317 0.0377458
internal_weight=0 41788 7692.78 28927.8 12310.2 4599.15 582.722 7711.04 5561.97 16617.6 4174.64 1796.37 5896.4 395.501 499.32 3675.32 12860.2 5534.93 5423.28 1387.33 380.712 4016.43 11037.4 4033.99 11227.8 9841.99 3671.68 1469.41 2541.71
internal_count=231742 198851 32891 135031 56565 20625 2423 35940 26204 78466 19536 7299 25592 1623 2258 17278 63820 23994 23545 6668 1895 18202 52459 19027 55468 48692 16579 6773 10802
shrinkage=0.1


Tree=7
num_leaves=30
num_cat=0
split_feature=8 8 0 7 6 6 5 9 6 1 1 0 1 7 8 3 1 2 6 3 4 5 3 0 9 6 0 0 7
split_gain=952.389 454.379 137.17 120.659 116.524 260.108 108.461 90.0629 81.2479 78.9195 79.6463 74.1544 72.0168 64.1398 63.5764 63.4743 60.7259 52.5957 51.5922 59.2269 48.6442 47.2763 47.45 47.1032 98.8043 47.0601 45.2508 44.9437 44.001
threshold=68.072866740843821 147.28910672459324 25.121298517930956 0.67880959805791619 175.83826754064373 161.63760648165592 9.5734482880908178 0.042222827452207137 42.756344676832576 0.020180105902254584 0.14255762726068499 35.584957221078064 0.09982989935204388 0.27213551317365026 101.14593845926997 0.031767728464890309 0.2036704098293558 0.75848444156072625 168.0368361076543 0.064460791865171702 50.546520851168246 0.73892432309277478 0.091785018695768758 5.4731463991018892 0.099999736242336976 11.756406025450589 57.338286820473627 58.838639940665637 0.17616187702743633
decision_type=2 2 2 2 2 2 2 2 2 2 2 2 2 2 2 2 2 2 2 2 2 2 2 2 2 2 2 2 2
left_child=3 2 14 16 5 20 7 8 11 -6 26 -3 -9 -7 15 17 -1 -2 19 -8 -4 25 -23 24 -24 -14 -11 -12 -29
right_child=1 6 4 -5 9 13 18 12 -10 10 27 -13 21 -15 -16 -17 -18 -19 -20 -21 -22 22 23 -25 -26 -27 -28 28 -30
leaf_value=0.043145344805614466 -0.028870825623569379 -0.014937037683870122 0.036280041303859305 0.090876505613594602 0.026002367486634967 0.01882789654665136 -0.0054960586292445279 0.016687011529315711 -0.027035005412103581 -0.010733587577892469 0.0013241284401651358 0.028344446439746613 0.028061901341468517 0.11185990380613814 -0.005427116706439211 0.0058714683705729754 0.01099377835324928 0.072038303576172344 -0.0093009562083089352 0.02869427874256579 0.0061855707914572787 -0.016905687120768165 -0.0010291160559565346 -0.0039690877168870008 0.14448741155953243 -0.053917260813393257 -0.058669967529326128 0.048765082897918116 -0.018762926724481412
leaf_weight=3438.8614473193884 64.609093397855759 2673.0505816191435 889.06232544779778 474.69644176959991 1601.6211058646441 89.186063215136528 1155.232076048851 1106.2581275999546 9719.9948701113462 591.00260110199451 2149.2749473005533 464.66376683115959 83.351488724350929 438.33147631585598 8470.3117631226778 4553.8141157180071 708.47396832704544 257.56230665743351 5023.3028838485479 902.44301435351372 1356.7453652769327 1319.4639180153608 115.46131506562233 340.89855939149857 78.306041046977043 437.93047969043255 295.3257899582386 423.77986304461956 124.94124694168568
leaf_count=14223 300 13167 3866 1919 7024 402 5471 5308 48607 2756 9843 2245 400 1824 39773 20753 3069 1100 24394 4155 6089 6362 564 1658 362 2170 1519 1842 577
internal_value=0 -0.00456181 0.00600587 0.0431192 0.0163961 0.0329418 -0.0141753 -0.0186552 -0.0225185 0.00754788 -0.000698324 -0.00852749 -0.00438782 0.0961312 -0.000190522 0.00890622 0.037653 0.0518017 -0.00383786 0.00949894 0.0180993 -0.0142026 -0.00672234 0.0184084 0.0577776 -0.040809 -0.0267061 0.00784557 0.0333893
internal_weight=0 44725.9 21305.6 4622.03 7959.27 2773.33 23420.4 16339.4 12857.7 5185.95 3584.32 3137.71 3481.67 527.518 13346.3 4875.99 4147.34 322.171 7080.98 2057.68 2245.81 2375.41 1854.13 534.666 193.767 521.282 886.328 2698 548.721
internal_count=231742 212531 97668 19211 35742 12181 114863 80843 64019 23561 16537 15412 16824 2226 61926 22153 17292 1400 34020 9626 9955 11516 8946 2584 926 2570 4275 12262 2419
shrinkage=0.1


Tree=8
num_leaves=30
num_cat=0
split_feature=8 8 5 0 7 4 7 4 9 6 4 0 2 6 6 2 1 4 8 3 2 1 9 7 7 0 1 2 3
split_gain=772.711 399.72 117.247 116.092 104.953 204.791 90.5905 101.294 85.4493 73.3468 71.911 63.8075 63.4533 60.9747 70.2483 55.1495 54.4395 50.4122 47.6954 48.2154 45.3437 45.2057 48.4405 43.0719 42.9465 42.6108 41.6904 62.8754 41.5359
threshold=61.93913404862996 139.49459686079655 9.9270721597112033 31.915862295310799 0.26891722366954524 48.039553427096116 0.3558790416311523 33.378506494145647 0.031638612252708247 57.287916875065612 22.975269107723438 3.4170278981867761 1.3445328126389526 169.73712984357286 163.54032047768575 1.7434932564121903 -0.33744057713076464 30.353809155572417 101.14593845926997 0.029205274450793101 1.2986773707242862 0.065483030369505299 0.070838890944678198 0.19393094734436919 0.67880959805791619 35.584957221078064 0.15717936048284176 0.98885652708967642 0.062227352073347696
decision_type=2 2 2 2 2 2 2 2 2 2 2 2 2 2 2 2 2 2 2 2 2 2 2 2 2 2 2 2 2
left_child=6 3 8 18 17 16 10 24 9 25 12 -9 -1 14 -4 -14 -6 -5 19 -2 -11 22 -10 -15 -8 -3 27 -19 -7
right_child=1 2 13 4 5 28 7 11 21 20 -12 -13 15 23 -16 -17 -18 26 -20 -21 -22 -23 -24 -25 -26 -27 -28 -29 -30
leaf_value=0.16211486902887159 0.052876771902802933 -0.014054643157964031 0.0070526924841196369 0.066064041405435134 0.031176978110630707 0.023073742237246911 0.012964697389861441 0.095850192542948562 -0.003216771783194915 -0.028821414036082918 0.024660445086173349 -0.0042488452218495502 0.012829947119482718 0.0010014573856194898 0.07937628782247276 0.09913195164630402 -0.017763248749851922 -0.019405571191479509 -0.0031915883938697823 0.006777123752383327 0.00041611111026506134 -0.011937451029686996 0.036477484130860514 -0.016465788592659698 0.073764701154257858 0.017038888863201245 0.016626227856073681 0.020323554021312848 0.1029619351098951
leaf_weight=65.368477508425713 235.98543292284012 2944.5668111592531 2236.6082703322172 158.46002884209156 679.35704381763935 76.007680401206017 386.22795690596104 722.98001980781555 1065.413124397397 7575.9649953991175 2082.3113678097725 69.832284703850746 157.90934334695339 2837.3302071392536 142.87935563921928 139.42271949350834 341.56937594711781 1007.5147439092398 7948.3031141906977 5878.102719694376 570.37521463632584 4298.8685978055 432.12980103492737 2809.6399639546871 166.15713819861412 518.31745052337646 2559.7727385312319 658.83742836117744 452.74402438104153
leaf_count=262 1008 14645 10393 669 2921 324 1568 2927 5137 38416 8630 290 645 13691 617 564 1547 4796 37300 26539 2800 20996 2031 13678 679 2488 11373 2883 1925
internal_value=0 -0.00371259 -0.0120302 0.00686593 0.0185951 0.0409647 0.0432852 0.0641281 -0.016641 -0.021592 0.0318179 0.0870333 0.0729098 -0.00203155 0.0113955 0.053298 0.0148031 0.0106889 0.00191625 0.00855643 -0.0267743 -0.00672515 0.00823737 -0.00768934 0.0312533 -0.00940063 0.00861259 -0.00369759 0.0914781
internal_weight=0 45428.7 25432.1 19996.7 5934.26 1549.68 3790.21 1345.2 17405.6 11609.2 2445.01 792.812 362.701 8026.46 2379.49 297.332 1020.93 4384.58 14062.4 6114.09 8146.34 5796.41 1497.54 5646.97 552.385 3462.88 4226.12 1666.35 528.752
internal_count=231742 216177 124892 91285 26438 6717 15565 5464 86513 58349 10101 3217 1471 38379 11010 1209 4468 19721 64847 27547 41216 28164 7168 27369 2247 17133 19052 7679 2249
shrinkage=0.1


Tree=9
num_leaves=30
num_cat=0
split_feature=8 8 8 6 6 7 3 2 6 3 7 9 7 4 6 1 7 7 4 9 4 7 4 2 0 3 7 5 7
split_gain=632.419 259.647 154.54 143.828 272.995 120.912 108.424 106.715 88.0417 98.0521 80.7727 58.4441 83.2502 85.6031 57.5019 63.4663 55.2644 53.9861 91.7717 52.7797 52.3731 52.3414 47.0319 50.9312 45.0459 53.0335 44.7355 43.2718 43.2485
threshold=82.873444094330694 186.17630859038576 52.258287735202742 169.73712984357286 163.54032047768575 0.27213551317365026 0.075408854279465143 1.3445328126389526 67.009824115303061 0.048635522011831613 0.20808718292489284 0.058322794849316968 0.20093405763431685 40.131258190429911 37.983476292936238 0.44937620379030713 0.53728542385221456 0.3558790416311523 33.378506494145647 0.005589102606751507 48.712091979715417 0.073418120860500188 24.399442658790729 1.3068456780947297 19.093766039132667 0.079252473400171539 0.67880959805791619 6.735511034201509 0.24338777175802925
decision_type=2 2 2 2 2 2 2 2 2 2 2 2 2 2 2 2 2 2 2 2 2 2 2 2 2 2 2 2 2
left_child=2 3 17 4 6 -6 8 11 9 14 -8 12 13 -5 15 -2 -9 22 26 -3 -14 -4 23 -1 -22 -26 -19 -11 -27
right_child=1 19 21 7 5 -7 10 16 -10 27 -12 -13 20 -15 -16 -17 -18 18 -20 -21 24 -23 -24 -25 25 28 -28 -29 -30
leaf_value=0.13047176184840126 0.014233495256736116 -0.04435186667252751 -0.022487337891248793 0.027764591855104877 -0.017717184621924481 0.098281072816771176 0.037515775419926983 0.023003892870115672 -0.019130058510664627 -0.00053226745403465471 -0.0065717404917491982 0.0072990748050252505 -0.023817011449497747 -0.0063808278105629036 -0.022467758414073117 -0.022643497987058891 -0.023338502425666943 0.0035974612655589955 0.084055311934777888 -0.01548252694823073 -0.013506561467914008 0.018499450636065572 0.02164461589571956 0.044077615805762894 -0.0044129182615836168 0.0018571623540380986 0.068889754492546126 0.035670157018076978 0.095683785735357643
leaf_weight=83.794991865754128 1915.9529164880514 668.97937227785587 333.48391409218311 821.15459622442722 110.87412540614605 474.10842880606651 1551.1792704463005 1801.6056734323502 1807.0744431912899 447.59511171281338 567.62610191106796 2301.1659289747477 4688.7060191482306 6934.9727216809988 1062.2805928438902 616.98049078881741 300.20840018987656 296.45971420407295 712.08517494797707 11865.795509874821 1572.1931285560131 4741.7381437718868 1073.4831952005625 367.50141660869122 343.08636420965195 79.798544064164162 162.43279694020748 1258.4401244074106 127.81301449239254
leaf_count=337 8947 3607 1479 3749 504 2062 6851 8050 8400 2103 2575 10698 22750 33141 4967 2893 1362 1195 2903 60213 7681 20442 4376 1487 1636 388 672 5689 585
internal_value=0 -0.00501079 0.026084 0.000220584 0.0100497 0.0762955 0.00584987 -0.00486329 -6.83532e-05 0.00642935 0.0257048 -0.00751072 -0.00985013 -0.00276579 -0.00293917 0.00525087 0.0163847 0.0454335 0.0615819 -0.0170233 -0.0179168 0.0158063 0.0330321 0.060119 -0.00488537 0.0197274 0.0267088 0.0261721 0.0596201
internal_weight=0 41317.6 7770.98 28782.8 9812.11 584.983 9227.13 18970.7 7108.32 5301.25 2118.81 16868.9 14567.7 7756.13 3595.21 2532.93 2101.81 2695.76 1170.98 12534.8 6811.6 5075.22 1524.78 451.296 2122.89 550.698 458.893 1706.04 207.612
internal_count=231742 198851 32891 135031 44991 2566 42425 90040 32999 24599 9426 80628 69930 36890 16807 11840 9412 10970 4770 63820 33040 21921 6200 1824 10290 2609 1867 7792 973
shrinkage=0.1


Tree=10
num_leaves=30
num_cat=0
split_feature=8 8 2 5 9 6 4 6 3 6 6 4 1 7 4 7 0 7 6 2 5 2 7 4 2 2 2 7 3
split_gain=528.112 264.087 105.321 103.994 75.8989 70.0259 174.194 93.7698 73.9251 64.1974 63.518 62.5792 62.4821 56.9508 73.0541 53.5482 51.8096 51.5169 46.6722 45.668 44.3497 47.0846 42.2742 41.4004 49.7928 41.4149 41.1994 36.8087 35.3801
threshold=128.33653712548849 56.546284919158687 1.6180535890822643 9.5734482880908178 0.047956090339753073 173.84934561585237 54.905703070910057 163.54032047768575 0.033004676432652265 41.682335620598842 169.73712984357286 63.12514907450889 0.09982989935204388 0.3558790416311523 33.378506494145647 0.50584668021420098 36.044395181903496 0.19048274666959655 163.54032047768575 1.2909356396804312 0.73892432309277478 0.61481460238051222 0.46064940704316976 22.975269107723438 1.3445328126389526 1.7434932564121903 0.27313705179118136 0.19393094734436919 0.083700283843900311
decision_type=2 2 2 2 2 2 2 2 2 2 2 2 2 2 2 2 2 2 2 2 2 2 2 2 2 2 2 2 2
left_child=1 13 5 4 9 6 7 17 -7 16 11 18 -6 23 -15 -4 -2 -3 -5 -11 21 -14 -21 24 -1 -26 -8 -12 -22
right_child=3 2 15 10 12 8 26 -9 -10 19 27 -13 20 14 -16 -17 -18 -19 -20 22 28 -23 -24 -25 25 -27 -28 -29 -30
leaf_value=0.13867590958005113 -0.010126168862202266 0.037576895212871116 0.04686015039731084 0.017663339375938336 0.018097552058646108 0.045473496849412036 -0.056189304010350952 0.079140701773929345 -0.00070657794234814625 -0.022422063232845273 0.0010061740235859137 -0.0053353929362844957 -0.074017974809799644 0.025840408805755416 0.075534219246027143 -0.0074437045513471318 0.023933401916400941 0.0054233466119652622 0.07051802873691658 0.013395500455169502 -0.013298812524051443 -0.0093277249883178589 -0.043008565846389457 0.021084440102999369 0.0073442690771154968 0.085450143972304063 -8.522188024622582e-05 -0.013183296535048581 0.015577030596354456
leaf_weight=64.473561331629753 2910.1437463760376 1327.8222052156925 938.78602720797062 1594.0149087160826 1199.9157438576221 358.11538955569267 138.06573203206062 385.08592022955418 10820.906222268939 10084.049460351467 3634.7967068552971 1351.6104891598225 201.86810456216335 494.48429031670094 736.36280547082424 225.13317853212357 527.57990492880344 797.63595873117447 186.62741051614285 659.68978081643581 1209.6993086636066 254.18413887917995 166.39461545646191 1563.5127277970314 157.12305001914501 119.53390936553478 2517.9255286306143 3678.1722618192434 653.56067222356796
leaf_count=261 14499 5718 3951 7169 5646 1559 639 1727 49814 51722 17482 6414 1038 2022 3032 978 2498 3543 823 3181 5834 1266 809 6392 637 479 11491 17998 3120
internal_value=0 0.0120781 0.00729203 -0.00895368 -0.0135876 0.00522245 0.0148504 0.0337366 0.000772782 -0.0168155 -0.00102711 0.0108883 -0.000427457 0.0388051 0.0555701 0.0363563 -0.00489912 0.0255104 0.023203 -0.0205703 -0.0100115 -0.0379624 0.00203427 0.027971 0.0595346 0.0410911 -0.00300167 -0.00613064 -0.00317027
internal_weight=0 20645 17509.5 28312.3 17867.1 16345.6 5166.54 2510.54 11179 14347.9 10445.2 3132.25 3519.23 3135.49 1230.85 1163.92 3437.72 2125.46 1780.64 10910.1 2319.31 456.052 826.084 1904.64 341.131 276.657 2655.99 7312.97 1863.26
internal_count=231742 92243 79420 139499 89613 74491 23118 10988 51373 72709 49886 14406 16904 12823 5054 4929 16997 9261 7992 55712 11258 2304 3990 7769 1377 1116 12130 35480 8954
shrinkage=0.1


Tree=11
num_leaves=30
num_cat=0
split_feature=8 8 9 2 5 6 4 6 3 6 6 4 7 4 6 0 7 7 3 1 1 0 9 2 0 4 1 6 1
split_gain=428.837 214.745 100.323 84.3935 79.3386 56.6466 141.207 71.5331 60.5749 55.8411 48.8511 59.0697 47.459 60.9493 44.1243 42.8963 42.6941 41.4514 35.7998 34.8043 53.8652 56.7175 50.1376 34.4696 33.9291 33.9281 42.1364 33.0577 32.8249
threshold=128.33653712548849 56.546284919158687 0.0085687236174417734 1.6180535890822643 7.7138147443099436 177.87138292506776 54.905703070910057 163.54032047768575 0.027818080111695911 15.928647921859708 168.0368361076543 70.666944737477863 0.3558790416311523 33.378506494145647 163.54032047768575 13.608319982778964 0.50584668021420098 0.18367228991031417 0.094379497897515721 0.020180105902254584 0.15717936048284176 66.504269868713934 0.066963725559389717 0.30489284908575459 1.6313383104228152 22.975269107723438 -0.33744057713076464 27.752561982969954 0.024335858616977932
decision_type=2 2 2 2 2 2 2 2 2 2 2 2 2 2 2 2 2 2 2 2 2 2 2 2 2 2 2 2 2
left_child=1 12 -2 5 9 6 7 17 -7 15 11 14 25 -14 -6 -4 -5 27 -15 -10 22 -22 -21 -8 -24 26 -1 -3 -11
right_child=2 3 4 16 10 8 23 -9 19 28 -12 -13 13 18 -16 -17 -18 -19 -20 20 21 -23 24 -25 -26 -27 -28 -29 -30
leaf_value=0.037420270628650797 -0.026426663357623243 -0.02579234069683577 -0.010643062024555467 0.041772286083890373 0.013847177685720075 0.061138777721496874 -0.045145011816784382 0.068409920410181124 0.0079519877605890906 -0.0038994971229422068 -0.0044820812401264567 -0.010998669711529671 0.023267042934714842 0.07301191192038603 0.065261441043882096 0.021950455238561418 -0.0067135076596082643 0.0060197730703088594 -0.046905540675501178 -0.024870200286379984 -0.0010526244487822545 0.044095590754410684 0.07724243998747142 0.00027105396783494283 0.00075240356018807411 0.018922523965620098 0.1295654341388201 0.038683389035434418 -0.016319379781303846
leaf_weight=279.76554299890995 2701.4345023483038 85.256462544202805 780.61764313280582 947.32953889667988 2484.3644258230925 163.21904617547989 179.12925456464291 409.67463091015816 3525.2232020646334 2738.3056129813194 7894.3274082690477 1019.996852427721 494.26800440251827 702.59780612587929 178.94385293126106 836.47938585281372 224.68283300101757 872.18951636552811 25.809713840484619 1767.6366824954748 4879.0025915205479 295.07887116074562 66.954634070396423 2491.8272431045771 433.17983762919903 1567.6949048042297 60.327670022845268 1181.9901190549135 9547.5514356642962
leaf_count=1128 14131 368 3857 3951 11346 688 841 1867 15786 13546 38443 4870 2022 2927 798 4038 978 3858 105 8534 22635 1267 296 11372 1944 6392 249 5035 48470
internal_value=0 0.010866 -0.00810258 0.006556 -0.00615988 0.00469793 0.0132928 0.0301284 0.000666977 -0.0112519 -4.50918e-05 0.00946459 0.0349908 0.0503711 0.0173016 0.00621666 0.0324772 0.022798 0.0687629 -0.000233003 -0.00411025 0.00152219 -0.0169611 -0.0027748 0.0109924 0.0251338 0.0537655 0.0343457 -0.0135512
internal_weight=0 20652.8 28182 17522.4 25480.6 16350.4 5220.07 2549.11 11130.3 13903 11577.6 3683.31 3130.46 1222.68 2663.31 1617.1 1172.01 2139.44 728.408 10967.1 7441.85 5174.08 2267.77 2670.96 500.134 1907.79 340.093 1267.25 12285.9
internal_count=231742 92243 139499 79420 125368 74491 23341 11128 51150 69911 55457 17014 12823 5054 12144 7895 4929 9261 3032 50462 34676 23902 10774 12213 2240 7769 1377 5403 62016
shrinkage=0.1


Tree=12
num_leaves=30
num_cat=0
split_feature=8 8 8 2 6 1 3 6 7 6 4 6 3 3 7 6 7 7 0 7 4 9 9 7 0 9 3 5 4
split_gain=348.144 174.879 86.1308 68.0021 60.7327 60.1046 57.4575 49.978 49.8096 63.3756 91.8014 67.9462 49.3659 44.0987 41.9785 38.9201 43.4296 38.0216 37.488 36.9224 101.917 36.3621 36.1915 54.8665 46.2668 70.2719 66.9877 39.1148 37.2151
threshold=128.33653712548849 56.546284919158687 238.35640083995011 1.4079415152403914 168.0368361076543 0.038149341796524829 0.065809707548879298 55.436713710939927 0.057806800355114686 173.84934561585237 54.905703070910057 163.54032047768575 0.027338578561859051 0.048054496340861015 0.67880959805791619 163.54032047768575 0.20201868386906222 0.19048274666959655 43.699632233114791 0.1595954734336433 41.737768399016339 0.0650630677738889 0.036644413011880379 0.23015583318531238 5.7664379805480195 0.099999736242336976 0.088627582756089854 6.3598719725316935 41.89520939472029
decision_type=2 2 2 2 2 2 2 2 2 2 2 2 2 2 2 2 2 2 2 2 2 2 2 2 2 2 2 2 2
left_child=1 14 4 8 6 -6 7 13 -3 10 11 17 -11 -2 -1 16 -8 -10 -12 20 -14 -21 23 28 25 -24 -27 -26 -7
right_child=2 3 -4 -5 5 22 15 -9 9 12 18 -13 19 -15 -16 -17 -18 -19 -20 21 -22 -23 24 -25 27 26 -28 -29 -30
leaf_value=0.026897816444104983 -0.0029435520514227019 -0.02243573626314669 -0.020174208233035944 0.024962562081726227 0.00012185860212343561 0.012742528827415681 0.021014801819946069 -0.019042849627444344 0.032042821567815467 0.060316470351338518 -0.0031541820268485136 0.068014007695903184 0.043822175020751565 0.022183381266568457 0.060280029928648095 0.05712273210747007 -0.0070036479061008202 0.0039435943165031283 0.051900823778342965 -0.0092881678502814667 0.00039573965213357526 0.0070782717012306921 0.0048843019720094822 -0.025836852741168259 -0.023464660748135954 -0.046644611977836981 0.13123371988781452 0.01110775237247395 -0.01295724523828181
leaf_weight=2684.580643042922 3873.171216160059 688.97767773270607 4400.1280103772879 1690.1157271116972 4959.0281739830971 668.63876216113567 1499.4944591522217 1562.5253945440054 1251.7785365432501 137.44716569781303 2077.2677413225174 366.3954800516367 652.02781055867672 852.1396536231041 438.18749648332596 195.2507326900959 876.64637517929077 782.6163529753685 131.50962893664837 4677.7832868397236 3157.4118503630161 1912.5211375057697 533.88901634514332 3488.3533110767603 960.02610717713833 27.573372483253479 91.185204967856407 496.49533221125603 3581.8640306740999
leaf_count=10920 18712 3201 23669 7149 23950 3258 6866 7611 5292 580 9492 1700 2835 4034 1903 888 4205 3465 578 22021 14613 8494 2659 17998 4774 134 408 2402 17931
internal_value=0 0.00978021 -0.00732672 0.00589555 -0.00493807 -0.00885648 0.00161105 -0.00353897 0.00386057 0.0050567 0.0148366 0.0283727 0.000778426 0.00158772 0.031582 0.0142044 0.0106778 0.0212333 0.000123769 -8.45234e-06 0.00782866 -0.00453859 -0.0133776 -0.0165424 -0.00176545 0.0203603 0.0899339 -0.0116797 -0.00891446
internal_weight=0 20648.6 28066.4 17525.9 23666.3 14807.1 8859.23 6287.84 15835.7 15146.8 4609.57 2400.79 10537.2 4725.31 3122.77 2571.39 2376.14 2034.39 2208.78 10399.7 3809.44 6590.3 9848.03 7738.86 2109.17 652.648 118.759 1456.52 4250.5
internal_count=231742 92243 139499 79420 115830 73514 42316 30357 72271 69070 20527 10457 48543 22746 12823 11959 11071 8757 10070 47963 17448 30515 49564 39187 10377 3201 542 7176 21189
shrinkage=0.1


Tree=13
num_leaves=30
num_cat=0
split_feature=8 8 1 0 6 6 0 0 7 4 7 3 9 7 9 4 1 7 0 3 6 7 9 8 3 7 7 4 5
split_gain=284.015 116.272 88.1844 84.93 67.8005 154.446 45.9071 44.3364 40.4627 39.5952 136.579 62.3778 38.528 37.4948 54.979 49.5791 35.8896 51.2281 41.805 35.111 38.5346 34.7529 67.0487 33.4792 32.8336 29.6233 46.235 37.9438 33.414
threshold=92.457493895198539 186.96823585716615 -0.089218326173722731 19.093766039132667 168.0368361076543 163.54032047768575 71.115131973391584 34.757697822502735 0.67880959805791619 50.210605072877222 0.23297226567383569 0.080163538082419272 0.005589102606751507 0.23153278981629613 0.048421613645997327 37.950366577235933 -0.13448514861986038 0.5512542889587303 58.838639940665637 0.027338578561859051 10.015458807898442 0.15851797210104426 0.018192152988699258 266.44086350419587 0.099999646748114887 0.078027775547973896 0.1595954734336433 47.698211596329337 50.253814775385131
decision_type=2 2 2 2 2 2 2 2 2 2 2 2 2 2 2 2 2 2 2 2 2 2 2 2 2 2 2 2 2
left_child=2 3 8 13 5 -5 9 -7 16 24 -11 -12 -3 15 -15 -2 18 -18 -1 -4 -21 -8 -23 -14 -6 -22 27 28 -27
right_child=1 12 19 4 6 7 21 -9 -10 10 11 -13 23 14 -16 -17 17 -19 -20 20 25 22 -24 -25 -26 26 -28 -29 -30
leaf_value=0.015736098712072405 0.050068870746121735 -0.036287106951481123 0.057368966321766163 0.009697553554279011 -0.020748018145341406 0.079212923536562424 0.056235397714662211 -0.063304067223384941 0.052841640846367235 -0.0063444185000015047 0.02490694573343229 0.096125081377414018 -0.0084574670216194334 -0.0177981730226437 0.0032404389038630517 -0.0022710795332948242 0.017894897109752277 0.091215808059837242 0.05228471097222534 -0.080565082909308056 -0.018735756410993724 0.040543786520613773 -0.035232811546174213 -0.02319964018105301 -0.0019939689443597931 0.051209267681294482 -0.0013629632555053775 0.0059884174364572473 0.01329362925430206
leaf_weight=3873.358537837863 184.70654658973217 627.31782078742981 127.54248784482479 3797.951783657074 1336.6011562645435 423.55283151566982 230.87227456271648 23.0147924721241 448.08631172776222 1431.4246892482042 301.49712797999382 207.71231707930565 9564.1195045560598 4111.5517057478428 1779.8056223541498 8971.8535367101431 213.9140994399786 171.83987374603748 340.46729795634747 53.016420468688011 470.30763806402683 280.77856129407883 199.89862221479416 1836.2226828187704 3095.6194066852331 503.3369532674551 2514.2955604493618 1047.4974913746119 431.84758724272251
leaf_count=16087 854 3571 541 17078 6444 2027 1028 100 1977 6847 1413 924 49368 20343 8394 42776 918 715 1378 237 2141 1224 928 9961 14617 2151 11168 4670 1862
internal_value=0 -0.00401128 0.0147643 -0.000295711 0.00624407 0.0162385 0.000256029 0.071868 0.0241563 -0.00243379 0.00947844 0.0539576 -0.0121596 -0.00521923 -0.0114423 -0.00121528 0.0213618 0.0505568 0.0186891 0.00555503 0.00423868 0.0243469 0.00903067 -0.0108319 -0.00764953 0.0051438 0.0076412 0.0190596 0.0337007
internal_weight=0 38404.5 10195.5 26376.8 11328.9 4244.52 7084.4 446.568 5047.67 6372.85 1940.63 509.209 12027.7 15047.9 5891.36 9156.56 4599.58 385.754 4213.83 5147.84 5020.3 711.549 480.677 11400.3 4432.22 4967.29 4496.98 1982.68 935.185
internal_count=231742 187897 43845 124997 52630 19205 33425 2127 21075 30245 9184 2337 62900 72367 28737 43630 19098 1633 17465 22770 22229 3180 2152 59329 21061 21992 19851 8683 4013
shrinkage=0.1


Tree=14
num_leaves=30
num_cat=0
split_feature=8 8 9 1 0 6 2 6 5 7 7 9 7 3 6 2 2 6 4 3 9 3 4 4 0 7 6 7 4
split_gain=234.982 112.669 75.272 59.2785 65.3939 47.3281 47.2875 37.6513 37.4306 36.316 36.2452 42.9116 36.0434 41.0099 34.8494 34.5098 34.4167 31.9751 54.2395 45.843 40.0237 31.8631 61.9107 38.108 35.9572 35.1371 29.963 29.2662 78.028
threshold=123.83639468145958 56.546284919158687 0.0083289543069955882 0.038149341796524829 24.832646085642448 163.54626212332855 1.6180535890822643 163.54032047768575 17.106802727884745 0.057806800355114686 0.18932049323876202 0.050376709895004639 0.35877466998025281 0.098068572495560016 147.05173805887924 1.9228946999741743 1.2505413968671564 177.87138292506776 54.905703070910057 0.033004676432652265 0.059000429286153712 0.092543150194689158 53.666781131626415 53.54158719227231 39.259005675281607 0.23444213541919237 163.54032047768575 0.1595954734336433 41.280003299578794
decision_type=2 2 2 2 2 2 2 2 2 2 2 2 2 2 2 2 2 2 2 2 2 2 2 2 2 2 2 2 2
left_child=1 14 -2 10 8 7 9 -6 -5 -3 -4 -12 13 -8 -1 -14 -16 18 20 -19 26 23 -23 -7 -24 -25 -11 28 -21
right_child=2 6 3 4 5 21 12 -9 -10 17 11 -13 15 -15 16 -17 -18 19 -20 27 -22 22 24 25 -26 -27 -28 -29 -30
leaf_value=-0.018899017302587542 -0.022375308998136854 -0.019224514691130786 0.013665247416904516 -0.012991154928782805 0.0084779519191690283 -0.035365746456922274 0.0071623773044034167 0.065108796990174661 0.0015734974275874937 0.025515841872331382 -0.0054530106686324319 0.021482619600318831 0.051848656587738184 0.063376140819138782 0.038974151695474135 -0.009039783335070441 0.017347463353119479 0.0383778631376906 0.00012400589968403046 0.039869496696047099 0.0042300971666285655 -0.0019370823071300067 0.0417349529464527 -0.015010689977599301 0.19157977237876753 0.038464339112794434 0.062227063838865726 -0.0037997550510547994 0.00097561815068152946
leaf_weight=164.19291271269321 2482.7409102320671 659.83509215712547 2400.2490518242121 11656.215962797403 2795.0340114235878 671.27648970484734 203.81802420318127 122.54909628629684 2079.28043577075 1219.1459412127733 3981.3754423111677 694.64610381424427 123.69741317629814 357.25852046906948 1510.4100802689791 376.10754083096981 1434.9210892319679 329.6606087833643 2032.2138267755508 619.14623926579952 777.9462294280529 1626.8690401017666 46.24388562142849 480.55242946743965 24.497505977749825 165.08718241751194 271.91038975119591 6090.7489732950926 3090.4391225874424
leaf_count=673 13349 3088 11418 59463 13157 3413 843 610 10041 5183 19626 3222 516 1461 6357 1584 5793 1421 9250 2634 3351 8047 217 2398 111 790 1313 28186 14227
internal_value=0 0.00850742 -0.00571918 -0.00417293 -0.00699692 0.00177734 0.00515165 0.0108567 -0.0107864 0.00371704 0.00367599 -0.00145159 0.025559 0.0429558 0.0259384 0.00602958 0.028438 0.00476599 0.0119898 0.00169876 0.0226172 -0.00700999 0.00204513 -0.0186828 0.0936257 -0.00133736 0.0322105 0.000464962 0.00746718
internal_weight=0 19261.5 29226.6 26743.9 19667.6 5932.11 16151.9 2917.58 13735.5 15091 7076.27 4676.02 1060.88 561.077 3109.52 499.805 2945.33 14431.2 4301.22 10130 2269 3014.53 1697.61 1316.92 70.7414 645.64 1491.06 9800.33 3709.59
internal_count=231742 85880 145862 132513 98247 28743 73057 13767 69504 68653 34266 22848 4404 2304 12823 2100 12150 65565 19097 46468 9847 14976 8375 6601 328 3188 6496 45047 16861
shrinkage=0.1


Tree=15
num_leaves=30
num_cat=0
split_feature=8 5 0 9 6 6 6 6 7 3 4 6 7 2 1 0 7 7 3 0 2 6 6 3 7 1 5 3 0
split_gain=192.661 106.88 67.002 65.7099 48.0839 86.57 42.7275 40.9907 40.1503 47.6463 38.622 42.8928 37.1311 36.951 58.7136 44.5786 41.351 36.4847 36.0801 37.7679 35.4348 34.9465 46.6033 41.3804 31.9033 31.7447 41.7644 41.7716 40.3155
threshold=68.072866740843821 7.9202347182494472 19.590742616941565 0.047956090339753073 168.0368361076543 163.54032047768575 41.682335620598842 32.286973308831854 0.23153278981629613 0.033414022708907289 63.12514907450889 97.702339959851471 0.27213551317365026 0.95694450027856648 0.14502670869231227 57.338286820473627 0.14089555451751737 0.061503830196253016 0.033004676432652265 37.39697692249684 1.3445328126389526 77.531569921172533 15.928647921859708 0.084949979901440945 0.67880959805791619 0.15717936048284176 0.73892432309277478 0.09290397190555956 5.4731463991018892
decision_type=2 2 2 2 2 2 2 2 2 2 2 2 2 2 2 2 2 2 2 2 2 2 2 2 2 2 2 2 2
left_child=7 3 8 6 5 17 18 -1 10 -10 11 -3 -7 14 15 -6 -17 -4 -2 -20 -13 22 -19 -23 -9 -5 -27 -28 -29
right_child=1 2 4 25 13 12 -8 24 9 -11 -12 20 -14 -15 -16 16 -18 21 19 -21 -22 23 -24 -25 -26 26 27 28 -30
leaf_value=-0.064282635168778454 -0.0097676822132553576 0.022534410658547215 -0.016133435983252242 0.010994088046760378 -0.0091235168128653132 -0.029165170544536413 -0.015379003980137028 0.017734128229425116 0.032689751268681996 -0.012737666145126262 -0.0067161225028739002 -0.00084002788542893213 0.068197486024344972 0.013039140307618541 0.0035129761575152432 0.02098101808198926 -0.071750987511176631 -0.034005422009045272 0.0048894266312910486 0.056984931827263191 0.027297571966550166 -0.021214851670238403 0.028190232338137888 0.018850801304192137 0.046599272938471159 -0.035666365723415104 -0.0092581181788628768 0.059780274470082329 0.0037004970742718747
leaf_weight=57.886527806520462 2096.1814078837633 1222.4046339094639 420.31165423989296 2122.0722059011459 687.49883534014225 43.457508325576782 9408.4978981167078 4148.1671813875437 243.85635094344616 4340.0695180594921 4120.8667959868908 4835.132364526391 397.01032669842243 2521.8155000209808 4157.1744732409716 59.111989751458168 257.82200159132481 129.70310738682747 956.67022678256035 162.85196650028229 493.21942688524723 469.09756560623646 1693.2694931775331 572.24115583300591 421.8404395878315 392.12009571492672 1390.1165664941072 194.92734019458294 374.43354247510433
leaf_count=246 10586 5427 1973 9900 3354 186 49673 17046 1078 21258 19833 22972 2006 11309 19485 277 1412 578 4829 762 2199 2085 7438 2429 1919 2067 6714 899 1802
internal_value=0 -0.0021159 0.00184148 -0.00828742 0.00763817 0.016962 -0.0119778 0.0193394 -0.00249344 -0.010321 0.000868843 0.0056403 0.0585915 0.00311778 -0.00172952 -0.0234273 -0.0544554 0.0113795 -0.00202667 0.0124675 0.00176453 0.0154168 0.0237651 0.000802207 0.0203986 0.00212651 -0.00587556 8.6011e-05 0.0229001
internal_weight=0 43761.9 26664.1 17097.9 11408.5 3725.09 12624.2 4627.89 15255.5 4583.93 10671.6 6550.76 440.468 7683.42 5161.61 1004.43 316.934 3284.62 3215.7 1119.52 5328.35 2864.31 1822.97 1041.34 4570.01 4473.67 2351.6 1959.48 569.361
internal_count=231742 212531 125299 87232 52532 16695 65850 19211 72767 22336 50431 30598 2192 35837 24528 5043 1689 14503 16177 5591 25171 12530 8016 4514 18965 21382 11482 9415 2701
shrinkage=0.1


Tree=16
num_leaves=30
num_cat=0
split_feature=5 1 6 6 9 4 7 9 5 7 3 9 0 7 9 7 0 7 0 1 2 7 4 3 4 0 1 2 1
split_gain=160.035 70.8751 77.6909 96.1947 63.9997 54.8022 76.8548 45.7449 45.2422 41.8596 39.2519 38.3458 36.0025 33.8882 32.2781 31.3444 31.341 29.4395 32.2621 29.2489 28.5811 28.0846 38.9883 31.7789 27.2415 54.4901 32.5302 27.9717 25.8224
threshold=27.093888248498079 0.020180105902254584 163.54626212332855 163.54032047768575 0.099999736242336976 63.852240163892112 0.12674119552829 0.042222827452207137 0.73892432309277478 0.095941114982457457 0.078998798270498424 0.079277659921684035 9.9255400921048551 0.37645870699395995 0.015910458284239058 0.19974301709202055 38.786122212527253 0.22603433922499439 40.259435062688986 0.50113645635545268 0.56346030479524323 0.20927734714712343 48.534443755918389 0.095500048279276453 45.977840906445877 5.4731463991018892 0.46024084746139132 0.57549722951242488 -0.43002900041639797
decision_type=2 2 2 2 2 2 2 2 2 2 2 2 2 2 2 2 2 2 2 2 2 2 2 2 2 2 2 2 2
left_child=1 11 3 5 9 6 19 21 12 -2 17 15 -9 -10 -5 -1 -11 -7 -19 -3 -14 23 -23 -4 -15 27 -27 -26 -6
right_child=4 2 7 14 28 10 -8 8 13 16 -12 -13 20 24 -16 -17 -18 18 -20 -21 -22 22 -24 -25 25 26 -28 -29 -30
leaf_value=0.0095503545704024063 -0.0054049085801473294 0.038115383827637468 -0.013810882755635558 -0.14483421383618519 0.00095056601079783183 -0.014547952155904249 -0.00010747865432859535 0.0088723794431556768 -0.0043716068723784317 0.005977908347179331 0.090889170686335202 0.020189466921774431 -0.099376874048781788 0.0038216502588733509 0.069092935163615546 -0.0032574770398381839 0.020223762988354155 -0.0017477071099661916 0.059539945683084454 0.0020223371099061479 -0.023528822194849239 -0.023833318265091521 -0.0073359673273149899 0.0044146088280342475 0.12049904483026641 0.024204812160624797 -0.074495205723391675 0.037391362340818184 0.030270638050573236
leaf_weight=3069.0667411088943 2261.8221940696239 844.26225849986076 2999.2030274271965 7.2722620964050284 359.49654266238213 3565.5022120028734 5085.676541030407 102.26971854269505 3092.2491519004107 5314.4629017859697 39.276660576462746 1281.2050801962614 106.78285063803196 597.38398852944374 233.97754497826099 5062.879895940423 2176.8922011554241 1540.8664193898439 90.961178138852119 305.86587508022785 92.905235856771469 4312.9476829469204 2144.9953479617834 1404.8336010426283 86.75959649682045 167.94872669875622 41.679899349808693 75.951258197426796 1826.5344350188971
leaf_count=14501 10359 3781 15270 31 1446 17539 24213 547 14654 23900 188 5514 611 2849 1264 24702 9505 7852 420 1377 493 22934 11347 6986 376 794 202 364 7723
internal_value=0 -0.00336004 -0.0059701 0.000152486 0.00998403 -0.00116163 0.00517196 -0.0106804 -0.00203276 0.00651781 -0.00870375 0.00410971 -0.0393774 0.000743353 0.0626443 0.00157631 0.0101176 -0.00945638 0.00166858 0.0285168 -0.0640884 -0.0141546 -0.0183537 -0.00799717 0.0170539 0.0382838 0.00458055 0.0817055 0.0254489
internal_weight=0 36352.7 26939.6 11713.7 11939.2 11472.4 6235.8 15225.9 4363.93 9753.18 5236.61 9413.15 301.958 4061.97 241.25 8131.95 7491.36 5197.33 1631.83 1150.13 199.688 10862 6457.94 4404.04 969.723 372.339 209.629 162.711 2186.03
internal_count=231742 178809 134092 56665 52933 55370 29371 77427 20890 43764 25999 44717 1651 19239 1295 39203 33405 25811 8272 5158 1104 56537 34281 22256 4585 1736 996 740 9169
shrinkage=0.1


Tree=17
num_leaves=30
num_cat=0
split_feature=1 9 8 0 1 8 7 6 5 2 5 9 7 9 0 1 8 4 7 7 7 6 3 0 7 9 0 7 5
split_gain=132.762 73.7517 62.1422 59.1339 63.4154 53.623 45.1908 44.6002 41.1118 37.2132 36.7967 39.3605 28.9147 31.6105 33.4753 30.6588 29.7469 28.5762 92.7496 35.2867 27.3902 25.2127 25.1559 24.9006 32.4379 29.4577 24.5572 34.4373 30.626
threshold=0.020180105902254584 0.0083289543069955882 101.14593845926997 19.093766039132667 0.15471436540363359 49.698552525510678 0.078027775547973896 53.574922822257697 16.887386292090728 0.80387410576177354 6.6373520051435273 0.028180525730566165 0.44980184163961273 0.035186423125857104 6.2945602859492515 0.12820034535368907 185.44576258879133 53.315930348465564 0.22881885515777353 0.17717227372156374 0.057806800355114686 86.319762616206575 0.05040510379837463 7.9380417167631734 0.56680968300015466 0.0650630677738889 57.338286820473627 0.1462148251986442 9.2284507859114076
decision_type=2 2 2 2 2 2 2 2 2 2 2 2 2 2 2 2 2 2 2 2 2 2 2 2 2 2 2 2 2
left_child=2 -2 20 5 7 9 -6 -5 12 -3 -8 21 -7 -14 16 -16 -15 19 -19 -13 -1 -12 -20 25 -25 -4 28 -28 -9
right_child=1 3 23 4 6 8 10 26 -10 -11 11 17 13 14 15 -17 -18 18 22 -21 -22 -23 -24 24 -26 -27 27 -29 -30
leaf_value=-0.030963894793006604 -0.023394155359653581 -0.0057335408644779732 -0.0059652101265735063 0.012736517977502774 -0.015709966806637093 -0.011807589763009938 -0.0014854947944460553 -0.026862488361006426 0.00028834565020440563 0.10399630286552571 0.019728273500753655 0.025493900674740319 -0.013942189671327508 0.015398089048160646 0.033668118622934264 -0.025426836748882371 0.072463645236605798 0.015249342451543069 0.0079133751244519317 0.0019072353118013419 0.01635321935343052 -0.0012780860750512507 0.093322395880059666 0.008842631714623744 -0.027265623227136326 0.028555559595196831 0.0075085099249063703 -0.052503972539784872 -0.0020929895771826051
leaf_weight=124.85856246948242 1783.8466504514217 52.882658258080482 3644.9464226663113 719.45208179950714 842.79916074872017 10637.717236563563 2649.5104993730783 771.52148965001106 5638.2108725458384 74.371573954820633 765.06235708296299 1272.6339922845364 571.74807225167751 229.62759856879711 138.20642910897732 240.67185291647911 151.68942134082317 777.83491599559784 40.009206533432007 1264.4927185177803 6058.6824884712696 2256.8399636596441 249.7675439864397 4834.3709200322628 262.29279160499573 265.17815271019936 132.27601291239262 345.04469142854214 1414.1238918155432
leaf_count=541 9909 214 17992 3319 3952 54381 13426 3928 26493 299 3417 5411 3094 1095 661 1262 751 3518 185 5803 25609 10761 1229 22846 1245 1205 627 1859 6710
internal_value=0 -0.00361774 0.00767852 -0.00248836 0.00249837 -0.00628464 0.00646073 -0.00935557 -0.0067521 0.0583962 0.00847508 0.0124576 -0.0100684 0.00382148 0.0171817 -0.0038703 0.038099 0.0195141 0.0332396 0.0137384 0.0153978 0.00404015 0.0815301 0.00237892 0.00698437 -0.00362407 -0.0153242 -0.0358732 -0.0108365
internal_weight=0 33020.3 15190.3 31236.5 13501.4 17735.1 10119 3382.42 17607.9 127.254 9276.15 6626.64 11969.7 1331.94 760.195 378.878 381.317 3604.74 1067.61 2537.13 6183.54 3021.9 289.777 9006.79 5096.66 3910.12 2662.97 477.321 2185.65
internal_count=231742 162304 69438 152395 64145 88250 47702 16443 87737 513 43750 30324 61244 6863 3769 1923 1846 16146 4932 11214 26150 14178 1414 43288 24091 19197 13124 2486 10638
shrinkage=0.1


Tree=18
num_leaves=30
num_cat=0
split_feature=5 9 9 2 6 3 9 8 1 6 0 1 7 2 7 4 5 9 5 9 0 3 4 3 8 6 2 7 9
split_gain=110.266 56.9483 45.5635 43.5351 45.5807 47.8743 61.4998 39.9327 38.005 36.5454 40.5119 33.5669 33.3983 32.7543 45.145 31.7185 29.9254 33.5299 29.6273 29.0459 48.5043 28.3148 27.4618 74.7815 26.4273 26.304 25.8529 25.0494 26.2734
threshold=27.093888248498079 0.0085687236174417734 0.099999736242336976 0.27313705179118136 60.522525343333911 0.048635522011831613 0.061171450505319754 139.49459686079655 0.020180105902254584 38.365304436760617 35.149244417190069 0.16444970245473089 0.35877466998025281 1.6180535890822643 0.34437989174820188 22.975269107723438 0.73892432309277478 0.027102031178806472 7.8161232907959866 0.099999736242336976 7.9380417167631734 0.031344071459125079 41.434331319816046 0.092543150194689158 41.907420987473238 15.928647921859708 1.9375381680478581 0.40447390317251219 0.03399770143204129
decision_type=2 2 2 2 2 2 2 2 2 2 2 2 2 2 2 2 2 2 2 2 2 2 2 2 2 2 2 2 2
left_child=1 -1 13 -3 5 9 7 18 24 10 12 27 -5 -2 15 -15 19 -18 -7 -13 -21 -11 -19 -24 -6 -20 -16 -10 -29
right_child=2 3 -4 4 8 6 -8 -9 11 21 -12 16 -14 14 26 -17 17 22 25 20 -22 -23 23 -25 -26 -27 -28 28 -30
leaf_value=-0.017105031356401425 0.0033185318362352889 -0.028329006135249496 0.021354444683569031 -0.0047800251956282552 0.046440131479566361 -0.0079589458955947653 -0.012494952628560613 0.01493772894735507 -0.014761534980875979 0.051413073482262844 0.026239758487394706 -0.012616742436509051 0.0194000717780967 0.078736055413126727 0.029773992757541765 0.025707939733872798 -0.0074975988626371799 -0.0077892498007622549 -0.024321609506447676 0.09155313590806724 -0.088657273299412073 -0.01815283243801041 -0.00014723321377728901 0.030399197324479561 0.0017087384443215722 0.059457223047680731 -0.013926901111970126 -0.015556549150365133 0.021983700396371
leaf_weight=2586.3751999139786 8694.564919963479 603.18565507233143 2177.2752899825573 2848.7732256799936 134.43418630957603 91.425484478473663 579.47390455007553 1417.6646907329559 5000.3694473654032 61.448672726750374 709.19015620648861 436.98145654797554 714.49557907879353 170.42568783462048 218.04127378761768 333.58126464486122 5136.7448147833347 1528.6968286335468 40.381525486707687 17.110889196395874 117.47985152900219 1222.9374281615019 3042.5101266503334 1088.0545409321785 7533.5160628557205 520.84541349112988 357.04322488605976 343.42850145697594 407.82035313546658
leaf_count=14243 39311 2984 9169 14110 563 411 2589 6837 25344 309 3243 2408 3522 691 897 1355 26315 7398 175 89 707 6032 14826 5166 35483 2225 1510 1878 1952
internal_value=0 -0.00280654 0.00827228 -0.0017058 -0.00121908 0.00524051 0.0163011 0.024361 -0.00335775 -3.3738e-05 0.00441269 -0.00597838 6.84927e-05 0.00535797 0.0217904 0.0436389 -0.00282864 -0.00164807 0.0448297 -0.0251275 -0.0657466 -0.0148246 0.00366137 0.00789917 0.00249297 0.0534291 0.00264214 -0.0122036 0.00482242
internal_weight=0 36183.3 11950.9 33597 32993.8 8206.64 2649.79 2070.32 24787.1 5556.85 4272.46 17119.2 3563.27 9773.66 1079.09 504.007 11367.6 10796 652.652 571.572 134.591 1284.39 5659.26 4130.56 7667.95 561.227 575.084 5751.62 751.249
internal_count=231742 178809 52933 164566 161582 39453 12237 9648 122129 27216 20875 86083 17632 43764 4453 2046 56909 53705 2811 3204 796 6341 27390 19992 36046 2400 2407 29174 3830
shrinkage=0.1


Tree=19
num_leaves=30
num_cat=0
split_feature=5 8 9 2 6 6 4 2 9 6 7 3 7 4 7 5 7 6 3 7 0 1 4 3 7 0 4 0 2
split_gain=96.9935 56.2998 44.83 41.954 31.1845 36.5802 52.9721 43.3841 47.9954 42.9411 37.5806 36.6616 36.4006 71.1284 33.4562 52.8183 33.2578 31.6971 58.642 30.3761 31.63 55.0138 37.055 32.635 29.5133 29.5425 27.6069 43.8663 44.6547
threshold=9.5734482880908178 39.398457658181371 0.033429735817237578 0.27313705179118136 9.5606608801956856 169.73712984357286 55.06901977562709 1.3569826598471535 0.090921769177032638 163.54032047768575 0.5512542889587303 0.099196186394663918 0.1595954734336433 41.590929111017921 0.11287518261484412 47.674092047947617 0.27213551317365026 79.233218873283548 0.07781339940472902 0.39292869758451182 6.605844480387506 0.42312826236709961 47.363458044949518 0.099999646748114887 0.18043413171537628 79.531480289883604 48.712091979715417 30.433377711140345 0.71300261260118603
decision_type=2 2 2 2 2 2 2 2 2 2 2 2 2 2 2 2 2 2 2 2 2 2 2 2 2 2 2 2 2
left_child=2 -2 24 -3 -5 6 9 8 12 17 -9 -10 13 -7 15 -13 -11 -6 -19 -4 22 -22 -21 -24 -1 -26 -14 -28 -29
right_child=1 3 19 4 5 7 -8 10 11 16 -12 14 26 -15 -16 -17 -18 18 -20 20 21 -23 23 -25 25 -27 27 28 -30
leaf_value=-0.0012187755032628421 0.022563671299868571 -0.023540736972031923 -0.0034951582007206224 -0.037969653520983755 0.024537088369353061 0.030002320801958839 0.0014224905193182568 0.01719762794593941 0.029595097031096158 -0.011989631646073402 -0.021109131655039842 0.16725061329075552 -0.01058198252056065 -0.00077809338526138594 -0.014844547351394241 -0.005161043685069317 0.059505303630464725 -0.033987548883391866 0.014681603084853587 0.0060154914001865033 0.0088771261332381488 -0.048713107965673672 0.032083471726009991 0.10079971589058995 -0.012976223819604652 0.054211282523765073 -0.003562062518747619 0.069226361253159716 0.0034444389519869851
leaf_weight=3220.927231118083 1496.9060558974743 598.56829634308815 5737.3064317554235 182.40980078279972 1473.6809389591217 874.68374772369862 3677.2187217622995 2381.5550868064165 873.46966567635536 78.516073957085609 286.95997519791126 27.669119372963905 5693.3029103130102 5298.4532860517502 435.66549403965473 49.657447874546051 379.77252395451069 321.13852475583553 1080.7155802696943 499.81689855456352 1104.0610008537769 195.19860224425793 335.24447371065617 87.062613263726234 8452.6214299201965 65.954817458987236 2740.936309799552 177.6016857624054 246.31019686162472
leaf_count=16583 6370 2838 27910 843 6239 3727 17039 10105 3707 332 1293 111 27486 25084 1809 201 2041 1404 4588 2374 5268 1090 1610 369 45510 291 13530 808 1182
internal_value=0 0.00368864 -0.00544494 0.00263745 0.00323371 0.0035217 0.00969894 0.00125259 -0.000669537 0.0188279 0.0130783 0.0171332 -0.00231163 0.00358324 -0.00408557 0.0565316 0.0472565 0.0142971 0.00353241 0.000349015 0.0102776 0.000224865 0.0244418 0.04625 -0.0093729 -0.012456 -0.0064197 0.0010679 0.0310044
internal_weight=0 28375.2 19698.2 26878.3 26279.7 26097.3 7011.04 19086.3 16417.7 3333.82 2668.52 1386.46 15031.3 6173.14 512.992 77.3266 458.289 2875.54 1401.85 7958.69 2221.38 1299.26 922.124 422.307 11739.5 8518.58 8858.15 3164.85 423.912
internal_count=231742 130737 101005 124367 121529 120686 31643 89043 77645 14604 11398 5828 71817 28811 2121 312 2373 12231 5992 38621 10711 6358 4353 1979 62384 45801 43006 15520 1990
shrinkage=0.1


Tree=20
num_leaves=30
num_cat=0
split_feature=1 9 0 2 7 8 5 0 4 7 7 4 3 8 4 2 6 4 6 3 1 0 8 4 7 8 2 0 0
split_gain=81.3472 48.9601 41.4886 47.3351 40.0847 35.4369 35.3018 33.8362 31.6162 30.0043 29.5633 59.7958 71.0318 57.549 40.055 42.7397 40.3619 36.7123 35.2105 46.1118 27.8178 35.4856 32.3991 30.5833 38.2791 27.6115 27.4734 27.2357 25.9536
threshold=0.020180105902254584 0.0083289543069955882 19.093766039132667 0.89667929649305089 0.078027775547973896 39.398457658181371 18.620896213497748 58.838639940665637 38.473562173962272 0.13871389236562429 0.16061764876550985 53.422173303781456 0.068092320459334763 185.44576258879133 43.077592085834389 0.84541639242410749 77.531569921172533 62.421511261600692 82.778614505043706 0.09034041271063796 -0.43002900041639797 48.73656596717877 32.374256430387256 33.378506494145647 0.67880959805791619 49.698552525510678 0.80387410576177354 66.504269868713934 34.233431243057844
decision_type=2 2 2 2 2 2 2 2 2 2 2 2 2 2 2 2 2 2 2 2 2 2 2 2 2 2 2 2 2
left_child=5 -2 6 4 -4 20 -3 -5 -9 -10 14 18 -13 28 15 -6 17 -16 -12 -20 21 -1 -22 24 -24 26 -8 -7 -14
right_child=1 2 3 7 10 27 25 8 9 -11 11 12 13 -15 16 -17 -18 -19 19 -21 22 -23 23 -25 -26 -27 -28 -29 -30
leaf_value=-0.024763132505203587 -0.019179736153299806 -0.0080398777411148786 -0.015626686980419465 -0.0056367137522753685 0.019070354653316128 0.0034205772195035691 -0.0066806115938048295 0.044717738051728281 0.0089717717313380803 -0.068097980718766743 0.015372347199373127 0.0063018333656561969 0.038617779101497947 -0.024006486093979623 0.036576188577120555 0.066684026498119386 -0.0037688310781015897 0.0018006644086430387 -0.025853966345026777 -0.00084396600482808675 0.064268100282408827 0.044479129758833509 -0.02619881103664919 0.035517866705177627 0.039656373156103569 0.00063082997722435619 0.088766745241600387 0.024401089945523351 0.089205697248129004
leaf_weight=245.18705089390278 1739.0372313410044 12385.510750636458 863.03791229426861 2144.9722943156958 749.68418365716934 13052.897952318192 52.198682427406311 38.989384368062019 64.790585055947304 229.25446256995201 795.96648281812668 1497.7434946894646 189.15412171185017 86.627130165696144 674.23950991034508 251.8608245998621 1439.5802367329597 552.19990901648998 1023.1749006509781 2637.5701376050711 205.56439752876759 106.01584726572037 235.71947561204433 544.5292617380619 141.09595468640327 5099.1465343087912 71.415584430098534 649.52591936290264 218.6385682374239
leaf_count=982 9909 63835 4070 10374 3164 60370 211 199 293 1321 3663 7301 973 467 2922 1072 6707 2586 5181 12761 848 431 946 2456 654 23915 289 2751 1091
internal_value=0 -0.00285151 -0.00193746 0.00224276 0.0050603 0.00600196 -0.00513229 -0.0102411 -0.0398967 -0.0511162 0.00682512 0.00274841 0.0171509 0.050016 0.0139934 0.0310439 0.00758805 0.0209186 -0.00368955 -0.00783424 0.0207125 -0.00386132 0.028371 0.0203619 -0.00153979 0.00176292 0.0484621 0.0044151 0.0657406
internal_weight=0 32804.8 31065.8 13457.5 10979.5 15180.5 17608.3 2478.01 333.034 294.045 10116.4 6448.87 1992.16 494.42 3667.56 1001.55 2666.02 1226.44 4456.71 3660.75 1478.11 351.203 1126.91 921.345 376.815 5222.76 123.614 13702.4 407.793
internal_count=231742 162304 152395 64145 51958 69438 88250 12187 1813 1614 47888 31437 9832 2531 16451 4236 12215 5508 21605 17942 6317 1413 4904 4056 1600 24415 500 63121 2064
shrinkage=0.1


Tree=21
num_leaves=30
num_cat=0
split_feature=5 9 6 6 1 2 0 9 8 7 2 4 0 7 4 8 9 0 1 1 0 8 3 7 5 4 7 6 1
split_gain=69.0098 42.7095 42.9581 53.3737 34.946 33.9861 30.0028 24.8989 24.4434 24.4162 24.4132 24.602 22.1505 24.1908 30.8294 23.412 22.0494 41.1615 70.1237 22.0135 37.311 34.6136 30.0942 35.8522 28.6212 26.7549 40.4926 31.864 24.0523
threshold=16.6808716305591 0.033429735817237578 168.0368361076543 163.54032047768575 0.56861532540759085 1.3154655961114536 34.757697822502735 0.099999736242336976 266.44086350419587 0.46064940704316976 0.53130361078706634 16.286363425434182 68.767615818656438 0.22059977030467046 38.473562173962272 98.987151869500238 0.095414465941251789 4.9868019511888404 0.49323990775272258 -0.43002900041639797 48.73656596717877 32.374256430387256 0.099196186394663918 0.11651358722557699 47.674092047947617 33.378506494145647 0.67880959805791619 189.98883309968633 -0.32724084125831715
decision_type=2 2 2 2 2 2 2 2 2 2 2 2 2 2 2 2 2 2 2 2 2 2 2 2 2 2 2 2 2
left_child=1 2 3 8 7 -4 -5 12 -1 -7 16 -12 13 14 -2 -15 -3 18 -18 20 -9 28 25 24 -24 26 -23 -27 -21
right_child=4 10 5 6 -6 9 -8 19 -10 -11 11 -13 -14 15 -16 -17 17 -19 -20 21 -22 22 23 -25 -26 27 -28 -29 -30
leaf_value=0.00038040375602797847 0.01988882582600407 -0.0047559162555621572 -0.012369896231384021 0.050838754983531298 -0.0095143213308513438 0.014359212993913267 -0.14747833473761865 -0.024508590930621563 -0.017987484156972905 -0.021227740737325463 -0.085679470914337086 0.0035179275099534559 0.019291415977394748 0.0053987924101169173 0.0036476671027920581 -0.01178448003963832 0.16419566963174928 -0.065110201214193072 -0.035595485944401137 0.021797215174523793 0.048101898993726772 -0.036413965867763957 0.12399851747228403 -0.023119107011650313 0.010454451799887497 -0.022768494366872543 0.036260608106381639 0.034842781123355725 0.091105198623375655
leaf_weight=5794.6828730106354 1329.2678833752871 1075.2166666388512 9220.2978433072567 247.03638975322247 1610.69120657444 846.59042303264141 7.8716227561235419 290.43426114320755 828.03878416121006 249.64774563908577 31.016837790608406 10104.584313631058 932.07918892800808 1412.760440081358 9680.4086370170116 1807.216747045517 24.065363198518753 175.35781772434711 65.063914060592651 94.108217731118202 93.567028388381004 170.97696156799793 30.935498759150505 346.24435712397099 78.622045204043388 106.06584304571152 138.99290612339973 1011.9289997071028 107.00416605174541
leaf_count=28757 5629 5260 49818 1357 7439 3953 38 1165 4655 1222 145 48284 4099 6107 44452 8756 106 888 310 380 381 685 126 1409 316 447 654 4447 457
internal_value=0 -0.0031565 -0.00630965 -0.000187839 0.00458535 -0.0103908 0.0447147 0.00587346 -0.00191613 0.00625495 0.00156806 0.00324497 0.004357 0.00337876 0.00560856 -0.00424534 -0.0111187 -0.0369853 0.0183492 0.0151863 -0.00681608 0.0192387 0.0150287 -0.007343 0.0425156 0.0221697 -0.00382612 0.0293771 0.0586733
internal_weight=0 28669.5 17194.2 6877.63 19241.3 10316.5 254.908 17630.6 6622.72 1096.24 11475.3 10135.6 15161.7 14229.7 11009.7 3219.98 1339.7 264.487 89.1293 2468.88 384.001 2084.88 1883.77 455.802 109.558 1427.96 309.97 1117.99 201.112
internal_count=231742 144793 89800 34807 86949 54993 1395 79510 33412 5175 54993 48429 69043 64944 50081 14863 6564 1304 416 10467 1546 8921 8084 1851 442 6233 1339 4894 837
shrinkage=0.1


Tree=22
num_leaves=30
num_cat=0
split_feature=5 2 6 8 6 6 3 6 3 2 7 9 2 1 3 9 7 2 2 5 9 7 6 7 4 4 7 0 8
split_gain=59.4254 34.3809 34.1436 30.1934 27.2102 37.5461 48.3217 29.2193 30.3759 29.0772 38.3221 28.2307 27.691 27.131 26.561 25.3503 25.0679 41.4865 34.986 22.2016 22.2025 26.9155 20.0617 19.9305 46.3569 30.1778 104.443 68.085 29.6748
threshold=7.9202347182494472 0.27313705179118136 15.928647921859708 39.398457658181371 9.5606608801956856 77.531569921172533 0.048911701430017329 45.431153408231431 0.040677718609441901 1.6180535890822643 0.51559047899883259 0.09754768076135438 1.8511414476410708 0.1786076570581645 0.033004676432652265 0.058322794849316968 0.44980184163961273 1.4345270562271348 1.9006753813264723 2.6382320897077141 0.050904181371655526 0.2841683452399229 26.98564181627771 0.1595954734336433 47.698211596329337 48.712091979715417 0.27053789978795489 16.378000102204421 75.6258293779306
decision_type=2 2 2 2 2 2 2 2 2 2 2 2 2 2 2 2 2 2 2 2 2 2 2 2 2 2 2 2 2
left_child=2 -2 13 -3 -5 6 7 8 -6 14 -11 22 -12 -1 -7 -10 17 19 -18 -4 21 -21 -8 24 -16 28 -27 -28 -25
right_child=1 3 16 4 5 9 11 -9 15 10 12 -13 -14 -15 23 -17 18 -19 -20 20 -22 -23 -24 25 -26 26 27 -29 -30
leaf_value=0.021987522625417366 -0.020442864899314257 0.017015940967238696 -0.01483198661390501 -0.032330151986839827 -0.0030458488810679776 0.023477686332571451 -0.0076408129486417488 -0.020967950673328097 0.042885684567886051 0.020664429265954701 0.11082949701980759 -0.020415481950105448 -0.020055042457740913 -0.0026774508028224878 0.013981696070682233 -0.023658366252609083 0.0080673205549684612 0.022721845980210775 -0.044526465149281561 -0.003982729806692193 0.0039527515121195525 -0.017330989160863366 0.024418345680357365 0.0051154322067504601 -0.0017468576957253715 -0.0051668110077838815 0.0039164911258839381 0.051203472421981415 -0.0098406113169537558
leaf_weight=794.9232297539711 636.68152964115143 1470.3828173279762 4284.5263851135969 224.79194247722626 953.83248208463192 471.75830498337746 212.57204633951187 548.71084082126617 306.92221437394619 1441.1512336581945 16.88499054312706 168.70946298539639 378.79870489239693 1015.9200297892094 2733.9008499979973 70.375333622097969 1774.3354462683201 426.89596757292747 136.1889772862196 4328.1617336124182 1773.0520059615374 2320.5202684402466 2387.393720433116 1672.9389676302671 5956.6091666519642 3708.2088309377432 584.20828241109848 635.93136985599995 6408.916880890727
leaf_count=3893 3075 6367 23128 1057 4515 2156 933 2601 1429 5998 71 718 1718 5102 11856 313 9087 1950 682 22878 8338 12549 10436 6988 28043 18070 2931 3302 31558
internal_value=0 0.00255511 -0.00482281 0.00303752 0.00232589 0.00259773 0.0108238 -0.00154958 0.00645495 0.00100505 0.013096 0.019225 -0.0144698 0.00814997 3.4046e-06 0.0304736 -0.00638437 -0.00794132 0.00431825 -0.00897152 -0.00599002 -0.00864153 0.0217972 -0.00050691 0.0032011 -0.00298378 0.00318369 0.0285623 -0.00674472
internal_weight=0 30989.7 16854.5 30353 28882.6 28657.8 4648.52 1879.84 1331.13 24009.3 1836.83 2768.68 395.684 1810.84 22172.5 377.298 15043.7 13133.2 1910.52 12706.3 8421.73 6648.68 2599.97 21700.7 8690.51 13010.2 4928.35 1220.14 8081.86
internal_count=231742 144135 87607 141060 134693 133636 20945 8858 6257 112691 7787 12087 1789 8995 104904 1742 78612 68843 9769 66893 43765 35427 11369 102748 39899 62849 24303 6233 38546
shrinkage=0.1


Tree=23
num_leaves=30
num_cat=0
split_feature=1 9 5 6 1 9 6 0 5 4 7 0 3 6 3 0 1 8 5 3 7 7 6 6 3 1 1 6 3
split_gain=51.947 35.827 27.5557 35.8368 29.739 33.1365 41.199 29.5682 29.1031 27.402 26.9227 26.2382 24.6388 23.9249 63.4035 21.4162 20.7696 25.4255 20.5081 21.2932 20.3483 20.0921 19.4981 22.4356 29.4612 23.4306 19.2625 30.4926 25.517
threshold=0.020180105902254584 0.0059853064445603479 4.3326236816502908 9.5606608801956856 0.13527031216770413 0.018369391090977492 9.5606608801956856 58.838639940665637 109.25578745503786 38.129384887155197 0.1462148251986442 17.457057139022165 0.089999539119151012 163.54626212332855 0.066673075669247864 79.531480289883604 0.11432546630501748 98.266040108710882 38.888478413610279 0.026893792487510726 0.25099221881036804 0.44980184163961273 159.29521552810377 97.702339959851471 0.07781339940472902 0.53528907054103925 0.52749021907337024 51.883264057640226 0.042666848530125305
decision_type=2 2 2 2 2 2 2 2 2 2 2 2 2 2 2 2 2 2 2 2 2 2 2 2 2 2 2 2 2
left_child=15 -2 3 11 7 20 -7 21 13 -9 16 -3 -12 14 26 -1 -11 -18 -15 -20 -6 -4 23 25 -25 -16 27 28 -8
right_child=1 2 4 -5 5 6 8 9 -10 10 12 -13 -14 18 22 -17 17 -19 19 -21 -22 -23 -24 24 -26 -27 -28 -29 -30
leaf_value=0.0042163543361743699 -0.022721163402128573 -0.0038787442181356943 -0.0062147576488102031 -0.0094722898059319115 -0.001589742268462676 -0.040103964025577254 0.0044509183254629377 0.050998677279114883 -0.02730004759140996 -0.031689258457375129 0.042346372331732343 0.032446850310426316 -0.082586802050950855 -2.4484457569191187e-05 0.038731007515535737 0.029156549166119518 -0.072361993768975411 0.14741012589430041 0.066717895648721118 0.01008804429641416 -0.016418347332798389 0.022937922542240571 0.057828490451121962 -0.025934736455510973 0.021509658709588639 0.0010419239335433324 -0.011906008815022994 -0.0084128764089554438 0.031952429531530858
leaf_weight=14797.37824550271 836.22999534010887 429.70476990938187 4952.3760216832161 6658.0374743193388 4220.2016036957502 204.54417499899864 809.58348870277405 31.65327525138855 271.18010513484478 68.890539363026619 17.519185408949852 370.1056567132473 159.53661742806435 6497.7632454931736 854.60630466043949 352.50581322610378 7.7842297405004528 16.259978950023651 69.317654445767403 1575.9415919035673 1185.3086118400097 248.2629120349884 172.6760967373848 184.82289466261864 448.45751576125622 204.40227152407169 725.05580784380436 819.70316585898399 578.42453664541245
leaf_count=67976 4966 2192 24405 35613 20770 979 3842 155 1216 338 96 1781 974 31618 3664 1462 36 77 308 7042 6429 1243 1054 845 1911 875 3445 3843 2587
internal_value=0 -0.00228955 -0.00175197 -0.00706971 -0.000121541 0.00176898 0.00443228 -0.00658856 0.00512178 -0.037027 -0.047347 0.0129306 -0.070225 0.0058012 0.0114029 0.00479666 -0.00376056 0.0762597 0.00250077 0.012474 -0.00484133 -0.0048231 0.0258188 0.0225526 0.00766301 0.0314565 0.00223573 0.00688016 0.0159116
internal_weight=0 32618.3 31782.1 7457.85 24324.3 18822 13416.5 5502.28 13211.9 301.644 269.991 799.81 177.056 12940.8 4797.73 15149.9 92.9347 24.0442 8143.02 1645.26 5405.51 5200.64 1864.97 1692.29 633.28 1059.01 2932.77 2207.71 1388.01
internal_count=231742 162304 157338 39586 117752 90428 63229 27324 62250 1676 1521 3973 1070 61034 22066 69438 451 113 38968 7350 27199 25648 8349 7295 2756 4539 13717 10272 6429
shrinkage=0.1


Tree=24
num_leaves=30
num_cat=0
split_feature=5 6 0 9 1 5 0 1 9 5 6 3 3 6 9 7 4 7 0 1 8 7 3 3 7 3 6 0 0
split_gain=42.4571 31.9997 35.0366 29.0877 25.672 25.4098 25.2016 23.4449 22.9746 20.4669 27.8933 24.9121 26.2035 23.0213 20.2134 19.2237 24.6201 46.1876 27.5532 25.8545 24.5476 22.5991 20.8258 20.2694 19.188 24.3202 48.2901 20.7457 21.0532
threshold=16.6808716305591 48.532168324954576 40.259435062688986 0.03369920810386378 0.67397548430133625 0.73892432309277478 79.531480289883604 0.56861532540759085 0.018542903813566384 4.249128751446464 19.815692395203246 0.039281305714562766 0.086275380738931165 26.98564181627771 0.068928744667146602 0.18043413171537628 48.712091979715417 0.26730316775925544 47.201474667963083 0.29932079647667714 140.91884400887352 0.20927734714712343 0.096208681219302511 0.095500048279276453 0.2841683452399229 0.068092320459334763 177.87138292506776 34.757697822502735 17.009017965865045
decision_type=2 2 2 2 2 2 2 2 2 2 2 2 2 2 2 2 2 2 2 2 2 2 2 2 2 2 2 2 2
left_child=1 2 4 6 9 -5 24 -2 -8 10 -1 -11 13 14 -13 -7 21 18 20 -20 -18 -17 -22 -19 25 -3 27 28 -27
right_child=7 3 -4 5 -6 15 8 -9 -10 11 -12 12 -14 -15 -16 16 17 23 19 -21 22 -23 -24 -25 -26 26 -28 -29 -30
leaf_value=0.0058761944575355472 0.0046443293280244635 -0.011678860200673057 0.023133288719487374 -0.021130058207183697 -0.028628698915372147 -0.0085135925217386665 0.051360122634623563 -0.0079973071565337377 -0.043031436696579439 -0.00098009032066235786 -0.01367715733474853 0.0098788779556518731 -0.046851936825082999 0.029402601293651826 -0.055224001779665771 0.02833158251937315 -0.018749508665980383 0.01615644899031413 0.0058171934237766917 0.20011940428647881 0.0027523498768016828 -0.003649487991231869 0.063761211909134613 0.043411983770685558 -0.0129256887156225 0.0078471906717572214 -0.0062143540158939659 -0.010032209018244059 0.036204714949568347
leaf_weight=1528.5427002757788 17619.464089930058 3276.5196590125561 803.55113722383976 523.03405323624611 280.83111557364464 1514.875376328826 127.22514025866985 1600.2829806953669 32.340649202466011 1358.0336380302906 1395.7106366455555 305.22639313340187 59.272728309035301 937.86772936582565 56.522915631532669 236.61189413070679 668.77978482842445 1290.4890033602715 14.894211843609812 12.677100896835325 476.52977930009365 3339.3267040252686 63.395787626504898 346.0137320458889 4638.2309631407261 516.94040048122406 3919.522316172719 246.55260254442692 530.46345807611942
leaf_count=7673 79510 17265 3653 2887 1442 7146 557 7439 144 6712 7269 1423 265 4342 256 1108 3127 6336 70 57 2427 15912 316 1572 25450 2564 20883 1156 2781
internal_value=0 -0.00248999 0.00353921 -0.00435225 0.000880515 0.00022116 -0.00727319 0.00359176 0.0322289 0.00234955 -0.00345638 0.00859854 0.0181711 0.0211367 -0.000293373 0.00162347 0.00400478 0.0108985 -0.00369007 0.095156 -0.00594481 -0.00153337 0.00991575 0.0219192 -0.00775332 -0.00492756 -0.000684564 0.0160657 0.022209
internal_weight=0 28500 6725.56 21774.4 5922.01 8486.63 13287.8 19219.7 159.566 5641.18 2924.25 2716.92 1358.89 1299.62 361.749 7963.59 6448.72 2872.78 1236.28 27.5713 1208.71 3575.94 539.926 1636.5 13128.2 8490 5213.48 1293.96 1047.4
internal_count=231742 144793 33035 111758 29382 40958 70800 86949 701 27940 14942 12998 6286 6021 1679 38071 30925 13905 5997 127 5870 17020 2743 7908 70099 44649 27384 6501 5345
shrinkage=0.1


Tree=25
num_leaves=30
num_cat=0
split_feature=1 9 2 7 3 6 4 8 4 6 7 0 5 1 3 6 3 0 7 5 0 2 3 9 0 4 7 8 8
split_gain=40.5368 27.6553 22.4719 28.8193 60.2764 30.2413 38.0039 39.5262 23.8668 33.7427 32.7076 56.7628 50.3668 25.4072 24.9016 23.7442 43.2141 26.4136 23.0301 30.4424 30.5546 99.1742 68.5826 26.6762 22.7122 21.9941 20.3855 18.7935 18.4051
threshold=0.020180105902254584 0.0059853064445603479 0.27313705179118136 0.1595954734336433 0.079849339648427525 189.98883309968633 42.244120769922752 49.698552525510678 46.492938197586788 177.87138292506776 0.23590751490626513 29.020404681172547 4.4984103196175349 0.29333017088472851 0.070858234534472819 57.287916875065612 0.047455269268868096 36.044395181903496 0.35018869605099595 7.1169418722866604 6.8092617036530489 0.57549722951242488 0.089622273757159282 0.070838890944678198 11.626215452952708 62.882344730505331 0.21166275308523605 54.43815763149474 194.23278444990106
decision_type=2 2 2 2 2 2 2 2 2 2 2 2 2 2 2 2 2 2 2 2 2 2 2 2 2 2 2 2 2
left_child=-1 -2 -3 4 15 25 -7 -8 9 26 -10 18 13 -13 -14 16 -4 -18 -12 20 22 -22 -20 -24 -17 27 -5 -6 -25
right_child=1 2 3 8 5 6 7 -9 10 -11 11 12 14 -15 -16 24 17 -19 19 -21 21 -23 23 28 -26 -27 -28 -29 -30
leaf_value=0.0042320398619149066 -0.020137049940455662 -0.017347945589453968 -0.0044830432150629465 0.023048688252321779 -0.052622172680731306 0.025154595023663785 0.088115773638770448 -0.0024809199437770147 -0.0060538617124757587 -0.010254255886647657 -0.0049378161060343422 0.018503898210326147 0.03003696196691576 -0.034725594005665439 0.072658382105809133 0.00042133146580075837 0.012785088057312342 0.053007344933376305 0.0042316295371420528 0.039887599445220571 -0.073130912779590621 0.0083768445523908445 -0.00072485155349826587 0.083147188509876846 -0.014968065055878896 0.091013245765848738 -0.0017865397120399936 0.026407229939733975 0.18131478279097052
leaf_weight=15156.615863934159 822.14895947277546 876.62961906194687 1983.6844904720783 486.94644699990749 31.022892266511917 851.44823944568634 49.412770226597786 1895.1538809388876 5394.9476384520531 7049.614531353116 3179.0923114717007 214.84873223304749 475.23321931064129 153.90660035610199 192.64797346293926 1803.4009327739477 810.8104432374239 204.43025581538677 590.97349810600281 272.64258103072643 187.87533017992973 726.66214710474014 30.174586310982704 83.513211309909821 2048.1210436522961 51.467469766736031 1028.7918109893799 1001.2758123278618 24.761326834559441
leaf_count=69438 4966 4401 9625 2141 126 3662 204 9122 26959 36674 16674 1029 2594 769 861 8834 3639 874 3118 1313 1116 3687 165 348 9831 234 4963 4271 104
internal_value=0 -0.00202974 -0.00156011 -0.00111109 0.00307318 0.0130324 0.00753578 -0.000178796 -0.00334565 -0.0073439 -0.000374751 0.00462147 0.0259523 -0.00371238 0.042331 -0.00256727 0.00410469 0.0208843 0.000282065 0.00894035 0.0038079 -0.00836746 0.0190732 0.0824246 -0.00776228 0.0272131 0.00619203 0.0240322 0.105597
internal_weight=0 32521.6 31699.5 30822.9 10730.2 3879.78 2796.01 1944.57 20092.6 8565.35 11527.3 6132.33 1036.64 368.755 667.881 6850.45 2998.93 1015.24 5095.69 1916.6 1643.96 914.537 729.423 138.449 3851.52 1083.77 1515.74 1032.3 108.275
internal_count=231742 162304 157338 152937 50422 17619 12988 9326 102515 43778 58737 31778 5253 1798 3455 32803 14138 4513 26525 9851 8538 4803 3735 617 18665 4631 7104 4397 452
shrinkage=0.1


Tree=26
num_leaves=30
num_cat=0
split_feature=8 1 2 6 3 6 9 4 4 3 7 8 1 5 5 8 6 6 3 6 9 9 3 4 1 7 1 9 8
split_gain=36.9433 29.2308 21.2404 23.9227 30.6255 43.4281 41.6903 32.8665 22.8089 22.6982 21.7355 21.3062 20.3977 20.15 25.7875 19.5158 19.1649 24.4784 42.4082 53.5667 24.8188 19.096 19.2996 18.6684 18.0022 17.4723 17.2762 17.094 16.7865
threshold=272.26930939429815 0.020180105902254584 0.27313705179118136 163.54626212332855 0.064737880383714433 48.532168324954576 0.07398399148094742 66.576294886136125 39.964126532627951 0.027818080111695911 0.68563245050609123 56.546284919158687 0.15960051419213417 4.0837591631761123 20.073006519081833 94.69266298612655 35.857260212926555 94.371712730509145 0.07781339940472902 163.54032047768575 0.016416180081247594 0.048874264382097597 0.040341818306072287 55.249643496183658 0.296213785391301 0.2068628231481752 0.056858805678784853 0.0063444687174573815 39.398457658181371
decision_type=2 2 2 2 2 2 2 2 2 2 2 2 2 2 2 2 2 2 2 2 2 2 2 2 2 2 2 2 2
left_child=1 28 -3 4 5 7 8 13 15 -5 11 -11 -9 -4 -15 -6 -10 25 19 -19 -21 22 -7 26 -22 -18 -8 -13 -1
right_child=-2 2 3 9 6 21 23 12 16 10 -12 27 -14 14 -16 -17 17 18 -20 20 24 -23 -24 -25 -26 -27 -28 -29 -30
leaf_value=0.014338005547119599 -0.01520948469904723 -0.016759549241607774 -0.00033933247746581571 0.025994797398062652 0.033069798274099026 0.013846565444780698 -0.060793672141003764 0.010725995635891 -0.012381499813300313 0.026276931063972456 0.079368764277817999 -0.021690741740534265 -0.0070861718400285663 0.025771782024236939 -0.012827462339286312 -0.012338755841657195 0.032767114075975094 -0.026959608965061544 0.028103057959592167 -0.1356302961401111 0.017198425312000141 0.0034871530751418526 -0.020373736451042269 -0.047816327734708619 0.080587419348510214 0.0062588947206519453 0.0032156442054280692 -0.0035337225716756179 0.0030126190649679319
leaf_weight=1449.5936577916145 1552.7086445093155 860.81253829598427 696.43720431625843 264.03429463505745 115.98011595010757 182.69366908073425 48.596406877040863 878.13359850645065 207.81208395957947 234.23388165235519 31.565284371376038 534.63725619018078 2400.0374380946159 1238.8719067126513 201.19026106595993 514.58585114777088 1245.1231905519962 468.9200048148632 594.36177180707455 8.1138910651206952 109.86658489704132 599.80524058640003 1683.5067294985056 143.25093796849251 75.652035787701607 310.69573302567005 318.6567971855402 17186.03020067513 13469.377940773964
leaf_count=6317 9073 4347 3485 1275 480 945 214 4285 925 961 174 3264 11948 5669 886 2354 5465 2267 2638 36 722 2824 8433 663 536 1512 1372 86992 61680
internal_value=0 0.00047319 -0.00126988 -0.000829718 0.00262982 -0.00103486 0.00956948 0.00397487 0.0133121 -0.00311244 -0.00353972 -0.00368548 -0.00231477 0.0136255 0.0203791 -0.00398675 0.0169234 0.0190885 0.00870953 -0.008688 0.0355604 -0.0120349 -0.0170237 -0.0171975 0.0430476 0.0274734 -0.00525432 -0.00408152 0.00411304
internal_weight=0 46072.6 31153.6 30292.8 12042.3 7880.68 4161.62 5414.67 3651.11 18250.5 17986.5 17954.9 3278.17 2136.5 1440.06 630.566 3020.55 2812.73 1256.91 662.553 193.633 2466.01 1866.2 510.504 185.519 1555.82 367.253 17720.7 14919
internal_count=231742 222669 154672 150325 57659 38475 19184 26273 16935 92666 91391 91217 16233 10040 6555 2834 14101 13176 6199 3561 1294 12202 9378 2249 1258 6977 1586 90256 67997
shrinkage=0.1


Tree=27
num_leaves=30
num_cat=0
split_feature=8 1 5 1 6 0 7 0 7 4 5 7 4 8 7 5 5 7 9 9 0 5 8 9 4 9 0 3 2
split_gain=30.1938 23.6983 18.0328 16.7107 40.7484 27.725 26.8509 25.702 28.2829 24.3939 21.3026 17.9339 18.295 38.9604 18.972 18.1579 16.7951 22.4825 16.9336 22.3024 18.4869 16.7157 16.3993 15.6508 14.974 14.8963 37.0528 37.1524 33.3991
threshold=272.26930939429815 0.020180105902254584 122.74535906751862 0.14255762726068499 40.930586887233609 18.353067237441483 0.053715904573485108 55.865572111114638 0.13652678705649554 36.79880179841485 36.743648660180064 0.29607179839232906 41.590929111017921 114.19963648463799 0.34154721201301624 5.7178067802640138 9.5734482880908178 0.40447390317251219 0.072900409227583063 0.020376017667036488 21.942486362574897 23.943165644475702 112.8634341711917 0.027321521715698675 56.335046578862823 0.08398701728906223 9.4165095550603226 0.093623538491900679 0.6104595354079233
decision_type=2 2 2 2 2 2 2 2 2 2 2 2 2 2 2 2 2 2 2 2 2 2 2 2 2 2 2 2 2
left_child=1 -1 3 4 -3 10 -7 16 -9 22 25 23 -13 14 24 -15 17 -6 19 -18 -20 -22 -10 -8 -14 -5 27 -27 -28
right_child=-2 2 -4 5 7 6 11 8 9 -11 -12 12 13 15 -16 -17 18 -19 20 -21 21 -23 -24 -25 -26 26 28 -29 -30
leaf_value=0.0036999325530302678 -0.013812168478517317 0.012181505981889038 -0.028094219949720729 -0.0031022816086238255 -0.017256462742919833 -0.020046323171657568 0.0025179816382965639 0.02142935312741542 0.11499185523820417 -0.05414397647387046 0.0087702151082996033 -0.016036823047984216 -0.028162483771845149 -0.015048248478709836 0.096449378641531192 0.020938218251535565 0.0068077997125018906 0.0053204483134679072 0.033195921787171748 -0.01108957534651407 -0.022163049122470406 0.055118154160295953 -0.030136406620202113 0.010893121170804846 0.12995981229292999 -0.020520947298033349 -0.068833890836902167 0.025647230234415005 -0.0054602410210619909
leaf_weight=14926.58415171504 1539.5355641394854 1172.5548243224621 246.37008595466614 9853.7922825366259 2075.9629649817944 442.03383456170559 4356.1274013519287 78.729220673441887 14.82566197216511 297.10812637209892 1401.5658297538757 750.66153031587601 28.062900945544243 419.41889961063862 64.552451729774475 210.6252718269825 1094.943580493331 560.07688188552856 264.63511319458485 1912.2179396897554 151.94371356070042 34.307871222496033 16.398039072751999 4574.2738009095192 7.6138302832841864 455.27511797845364 201.1230573952198 282.42903728783131 141.78642547130585
leaf_count=67997 9073 5592 1115 51006 11233 2175 21336 350 71 1777 6425 3850 126 2173 288 1010 5581 2875 1146 9339 678 145 89 20990 33 2172 1138 1289 670
internal_value=0 0.000424446 -0.00114716 -0.000932053 -0.00497707 0.000406504 0.00409285 -0.00807181 -0.0324002 -0.0453077 -0.0028368 0.00511772 -0.0050741 0.00619468 0.0641052 -0.00301789 -0.00644677 -0.0124596 -0.00186327 -0.00457293 0.0162086 -0.00792771 0.0387735 0.00680784 0.00558266 -0.00432458 -0.0154703 -0.00284552 -0.0426301
internal_weight=0 46036 31109.4 30863 7673.7 23189.3 10853.4 6501.15 407.061 328.332 12336 10411.3 1480.93 730.273 100.229 630.044 6094.09 2636.04 3458.05 3007.16 450.887 186.252 31.2237 8930.4 35.6767 10934.4 1080.61 737.704 342.909
internal_count=231742 222669 154672 153557 38876 114681 51981 33284 2287 1937 62700 49806 7480 3630 447 3183 30997 14108 16889 14920 1969 823 160 42326 159 56275 5269 3461 1808
shrinkage=0.1


Tree=28
num_leaves=30
num_cat=0
split_feature=9 8 1 4 7 4 8 0 7 4 7 9 5 6 7 1 1 5 6 7 6 1 1 5 6 1 4 3 7
split_gain=25.3024 20.8925 19.6615 24.8209 25.557 23.5145 26.5914 18.0804 22.2632 18.3353 40.3106 20.7838 35.3017 17.6448 16.7043 36.0114 26.3852 20.5311 19.1413 16.6449 16.3598 17.668 16.0684 14.6916 14.2242 25.9037 29.545 20.6833 16.4978
threshold=0.0085687236174417734 39.398457658181371 -0.43002900041639797 22.975269107723438 0.1985879085325559 13.199646126191613 22.932840646521704 42.470195629237004 0.5512542889587303 27.518256206281627 0.30464743126299904 0.022673852482528709 43.232924174471442 49.403089344122456 0.51559047899883259 -0.9029483070177956 0.09982989935204388 6.8362919797562833 10.426110319085511 0.18154615291496842 15.928647921859708 0.12583356883376839 -0.40252038955688468 122.74535906751862 67.009824115303061 0.50113645635545268 49.369082321602974 0.026893792487510726 0.20320151464961536
decision_type=2 2 2 2 2 2 2 2 2 2 2 2 2 2 2 2 2 2 2 2 2 2 2 2 2 2 2 2 2
left_child=19 2 5 4 -4 6 -2 14 9 10 -9 -12 -13 22 17 -16 -17 20 -19 -1 21 -3 -11 24 25 26 -20 -26 -28
right_child=1 7 3 -5 -6 -7 -8 8 -10 13 11 12 -14 -15 15 16 -18 18 23 -21 -22 -23 -24 -25 27 -27 28 -29 -30
leaf_value=-9.1899940054743679e-05 0.080022235412082615 0.020902841439479656 0.11614846732845595 0.014612567132653718 -0.00016543286001076955 -0.020307940767244348 -0.08979013394319342 0.06266459812312894 -0.028442587934802661 -0.076890166413017935 0.02294150679000433 -0.056689155717275945 0.018451158050622054 0.0013459216053733046 -0.033362604460536571 0.029885041130429973 -0.0013971009474625245 -0.026284111312118375 0.031724029866109858 -0.016757134611012622 -0.0059276643072866363 -0.0025081526981071351 0.020375293910082453 -0.017143776332955937 0.037915700012878452 -0.0094155402910390505 0.0098330337622646608 -0.00016188369059239212 -0.011671912466096921
leaf_weight=1020.0133947879076 49.240003079175949 489.18987692892551 50.105863109230995 1028.4138843417168 30.322829872369766 288.53052918612957 11.346460863947867 176.40987002849579 187.6589118540287 17.387643799185753 405.76315458118916 108.65326847136021 147.27183175086975 3819.3825502097607 162.71948778629303 654.71284404397011 458.42012345790863 262.99484486877918 553.88260817527771 1453.0991432964802 10233.568381756544 945.28136229515076 732.80808663368225 446.25507606565952 143.66332820057869 797.69745846092701 2153.2915714979172 20284.976699769497 427.57587783038616
leaf_count=5602 204 2336 236 4598 125 1162 47 724 846 71 1722 465 594 17724 787 3083 2414 1266 2351 8641 54132 4770 3278 1932 669 3711 9792 96446 2014
internal_value=0 0.000504955 0.0122805 0.0187966 0.0722964 -0.00841542 0.0482203 0.000111273 0.00541856 0.00659362 0.0201902 0.00886625 -0.0134497 0.0040999 -0.000669909 0.0105787 0.0170022 -0.00106055 0.00055219 -0.00988371 -0.00452575 0.00547557 0.0181209 0.000836695 0.00116607 0.00667355 0.0107677 0.000105895 0.00627028
internal_weight=0 45067.5 1457.96 1108.84 80.4287 349.117 60.5865 43609.6 5595.34 5407.68 838.098 661.688 255.925 4569.58 38014.2 1275.85 1113.13 36738.4 25070.3 2473.11 11668 1434.47 750.196 24807.3 24361.1 3932.45 3134.75 20428.6 2580.87
internal_count=231742 217499 6372 4959 361 1413 251 211127 25424 24578 3505 2781 1059 21073 185703 6284 5497 179419 118181 14243 61238 7106 3349 116915 114983 17868 14157 97115 11806
shrinkage=0.1


Tree=29
num_leaves=30
num_cat=0
split_feature=8 2 0 9 7 2 7 3 8 2 2 4 7 7 8 8 0 6 3 1 0 4 9 7 1 8 7 4 7
split_gain=22.8768 21.2454 19.6119 18.6392 18.0054 22.0433 19.9943 13.6596 13.617 35.6554 15.2477 21.8341 55.8578 23.909 22.3173 20.4488 17.71 19.903 22.2434 25.3562 48.316 30.0438 26.8536 23.9551 53.9055 21.4318 21.0447 24.0108 75.4303
threshold=263.75154815954573 0.27313705179118136 79.531480289883604 0.0063444687174573815 0.67880959805791619 1.9228946999741743 0.62565492021931479 0.040677718609441901 39.398457658181371 1.2574718986535693 1.3337958864528858 36.997009597483377 0.21532356907070641 0.46680746192976841 61.93913404862996 47.063067252870376 17.009017965865045 60.522525343333911 0.094758225311238162 0.14502670869231227 55.865572111114638 49.868432452098681 0.013790266954869372 0.15344132863889562 0.11432546630501748 214.59836859134307 0.053715904573485108 52.39361812979427 0.23746455598830099
decision_type=2 2 2 2 2 2 2 2 2 2 2 2 2 2 2 2 2 2 2 2 2 2 2 2 2 2 2 2 2
left_child=1 7 3 -3 6 -6 8 -1 9 -5 11 12 15 16 -15 -10 -13 -18 26 20 -20 -21 -22 24 -24 -23 -19 -28 -29
