tree
version=v3
num_class=1
num_tree_per_iteration=1
label_index=0
max_feature_idx=2
objective=binary sigmoid:1
feature_names=eval_data.view_of_net eval_data.distance_to_net eval_data.dist_to_goalie
monotone_constraints=1 0 0
feature_infos=[0:3.9975004196166992] [0.00044789834646508098:0.89064759016036987] [0.00039578683208674192:0.17999923229217529]
tree_sizes=3378 3462 3470 3473 3468 3474 3474 3481 3480 3476 3482 3478 3490 3476 3508 3484 3497 3512 3498 3479 3496 3494 3495 3492 3470 3461 3493 3504 3459 3500 3467 3437 3459 3469 3435 3447 3448 3504 3438 3485 3449 3435 3476 3402 3427 3419 3460 3439 3423 3434 3489 3438 3449 3429 3516 3407 3387 3479 3435 3399 3399 3507 3407 3399 3403 3405 3409 3444 3428 3435 3512 3403 3408 3393 3408 3448 3544 3430 3433 3396 3407 3434 3448 3404 3424 3424 3437 3408 3415 3423 3429 3527 3414 3423 3375 3461 3391 3419 3418 3412 3427 3406 3406

Tree=0
num_leaves=31
num_cat=0
split_feature=2 0 2 0 1 1 1 1 0 2 1 0 2 0 0 1 1 0 1 1 0 1 1 0 0 2 1 0 1 1
split_gain=4112.1 645.365 261.156 288.817 113.088 112.015 85.198 82.9559 57.7343 55.4377 40.2636 33.299 29.5108 32.6171 26.3982 61.3359 30.9997 30.0977 34.2526 25.8554 22.8098 21.0795 20.3202 17.084 13.8104 13.6032 34.6241 15.9893 12.0715 12.0374
threshold=0.15917996317148211 0.052625156939029701 0.15917996317148211 0.24188775569200519 0.29815596342086798 0.32776418328285223 0.6395699977874757 0.25739090144634252 0.38929763436317449 0.15547702461481097 0.70965051651000988 0.012087228242307903 0.088197853416204466 0.2696783989667893 0.10680248215794565 0.42022149264812475 0.42993243038654333 0.12762332707643512 0.44671030342578893 0.1611774563789368 0.22063186019659045 0.37986135482788091 0.32920126616954809 0.11156299710273744 0.20534720271825793 0.095120631158351912 0.45703256130218511 0.13516815006732943 0.45703256130218511 0.6395699977874757
decision_type=8 8 10 10 10 10 10 10 10 10 10 10 10 8 10 10 10 10 10 10 10 10 10 10 10 10 10 10 10 10
left_child=1 10 3 7 12 8 9 19 -5 14 11 -1 -3 -14 16 -16 -6 18 -17 -2 -9 -7 -22 -20 -21 -19 27 -27 -11 -13
right_child=2 4 -4 5 6 21 -8 20 -10 28 -12 29 13 -15 15 17 -18 25 23 24 22 -23 -24 -25 -26 26 -28 -29 -30 -31
leaf_value=-1.287797916860137 -1.3139002284042569 -1.2348525810454156 -1.2696231568286354 -1.3075088980716743 -1.2348525810454156 -1.2378784737037363 -1.2348525810454156 -1.371353273258668 -1.282588358735341 -1.2348525810454156 -1.3465196277510103 -1.2348525810454156 -1.229024772265878 -1.1934612789420678 -1.18167377600445 -1.18167377600445 -1.1861426617322386 -1.1471614451626728 -1.1767928928285518 -1.3442160296625532 -1.3498719144635842 -1.1602510161444797 -1.3139002284042569 -1.1471614451626728 -1.3244069124251605 -1.1435094616429342 -1.0080430306137487 -1.0827463586360209 -1.1764248077677835 -1.2674826376219956
leaf_weight=541.5260996222496 651.29589533805847 350.11511329561472 1992.8785377517343 2085.4363186731935 100.05000856518745 88.675446040928364 110.81639070808887 618.91347320377827 1677.4030637219548 136.16913242638111 80.71908888220787 203.57875177264214 422.00705648958683 663.1381214261055 1947.0963917076588 273.85988137125969 1879.9791647344828 44.312183827161789 199.63228769600391 585.19498987495899 110.21094997227192 57.769780792295933 44.196110561490059 360.98821176588535 882.99622463434935 182.59408009052277 26.214796587824821 56.770405516028404 35.81773929297924 117.86120547354221
leaf_count=3585 4261 2537 13311 13650 662 590 707 4443 11246 901 513 1340 2776 5143 12745 1788 12222 287 1299 3934 732 369 285 2350 5732 1193 173 370 234 757
internal_value=-1.25469 -1.20149 -1.30146 -1.31079 -1.19072 -1.29306 -1.18404 -1.33474 -1.2964 -1.18195 -1.27898 -1.27266 -1.21565 -1.20729 -1.18005 -1.17428 -1.18907 -1.15553 -1.16541 -1.32451 -1.36278 -1.20726 -1.32839 -1.14998 -1.3323 -1.12891 -1.11715 -1.1291 -1.23485 -1.24717
internal_weight=0 7733.25 8794.97 6802.09 6789.56 3909.28 5354.3 2892.81 3762.84 5243.48 943.685 862.966 1435.26 1085.15 5071.5 3091.47 1980.03 1144.37 834.48 2119.49 773.321 146.445 154.407 560.62 1468.19 309.891 265.579 239.364 171.987 321.44
internal_count=110135 51582 58553 45242 45387 25855 34931 19387 24896 34224 6195 5682 10456 7919 33089 20205 12884 7460 5437 13927 5460 959 1017 3649 9666 2023 1736 1563 1135 2097
shrinkage=1


Tree=1
num_leaves=31
num_cat=0
split_feature=2 0 2 0 1 1 1 1 0 2 1 0 1 2 0 0 2 1 0 1 0 0 1 1 2 1 0 1 0 0
split_gain=3292.99 492.687 226.605 258.388 92.3707 84.1375 78.8028 60.3169 50.3555 46.2767 38.8592 33.2684 24.0983 23.5677 22.7412 21.9404 20.7275 19.5553 19.4638 49.5829 35.1754 16.6459 15.724 15.5576 13.8779 13.0503 12.927 12.2822 12.2483 11.6636
threshold=0.15917996317148211 0.055178930982947356 0.15917996317148211 0.24188775569200519 0.32776418328285223 0.29815596342086798 0.25739090144634252 0.6395699977874757 0.38929763436317449 0.15333924442529681 0.70965051651000988 0.012087228242307903 0.1611774563789368 0.066556874662637724 0.22063186019659045 0.2696783989667893 0.041895823553204543 0.33077408373355871 0.10680248215794565 0.44671030342578893 0.11820178851485254 0.17799269407987597 0.42993243038654333 0.37986135482788091 0.1320338770747185 0.6395699977874757 0.20534720271825793 0.48043717443943029 0.19131727516651156 0.24744495749473575
decision_type=8 8 10 10 10 10 10 10 10 10 10 10 10 10 10 8 10 10 10 10 10 10 10 10 10 10 10 10 10 10
left_child=1 10 3 6 8 13 12 9 -5 16 11 -1 -2 -3 -8 -15 -7 -16 22 28 24 -11 -18 -6 -21 -13 -14 -26 -20 -4
right_child=2 5 29 4 23 7 14 -9 -10 21 -12 25 26 15 17 -17 18 -19 19 20 -22 -23 -24 -25 27 -27 -28 -29 -30 -31
leaf_value=-0.030390388074878989 -0.055417434969987037 0.017599302708516007 -0.015237762812307227 -0.049060413409797721 0.014979981617965208 0.017599302708516007 -0.11270235290290209 0.017599302708516007 -0.025529249104845605 0.017599302708516007 -0.087447452524655897 0.017599302708516007 -0.08504032587322416 0.023743128116594799 -0.090685997976921576 0.051218085359251334 0.017599302708516007 -0.055417434969987037 0.064363851206930334 0.10603345834378242 0.13178095070604429 0.072138848656201487 0.059831785310758862 0.080534726930437103 0.064363851206930334 -0.010924189671553038 -0.065423773369395061 0.10603345834378242 0.083144007811680562 0.021642449571396345
leaf_weight=531.54414759576321 629.81733529269695 247.78760083019733 1886.4791946783662 2024.0906880870461 89.504009544849396 82.63190370798111 578.69426337629557 101.89184282720089 1651.351209141314 257.54382076859474 78.993735827505589 249.10156673192978 556.01007611304522 479.00756646692753 105.90238716453314 739.14873614907265 79.025453492999077 41.203463740646839 2104.5446628034115 104.86929036676884 189.63459645211697 63.315324082970619 1854.8505616486073 60.790069237351418 293.91191485524178 124.76443032920361 848.70612329989672 42.66133251786232 347.28804418444633 89.83575102686882
leaf_count=3585 4261 1795 12713 13650 590 526 4443 642 11246 1643 528 1610 3934 3111 742 5539 515 275 13180 647 1154 406 11622 369 1818 807 5732 267 2187 598
internal_value=0 0.0460512 -0.043259 -0.0521705 -0.0353459 0.0553814 -0.075489 0.061035 -0.038488 0.0626926 -0.0201828 -0.0143142 -0.0653972 0.0340848 -0.103778 0.0404143 0.0650103 -0.0686696 0.0658294 0.0707627 0.0957599 0.0258565 0.057965 0.0414952 0.080286 0.00854201 -0.0731883 0.070231 0.0643639 -0.0135613
internal_weight=0 7972.52 8562.38 6586.07 3825.74 6988.11 2760.33 5522.17 3675.44 5420.28 984.404 905.41 2034.53 1465.94 725.8 1218.16 5099.42 147.106 5016.79 3082.91 631.077 320.859 1933.88 150.294 441.443 373.866 1404.72 336.573 2451.83 1976.31
internal_count=110135 51582 58553 45242 25855 45052 19387 34607 24896 33965 6530 6002 13927 10445 5460 8650 31916 1017 31390 19253 3886 2049 12137 959 2732 2417 9666 2085 15367 13311
shrinkage=0.1


Tree=2
num_leaves=31
num_cat=0
split_feature=2 0 2 0 1 1 1 1 0 2 0 0 1 1 0 1 0 2 1 1 2 1 0 0 0 1 0 0 1 2
split_gain=2650.18 379.252 196.078 230.685 76.2313 75.1477 61.4242 53.0618 46.2906 44.5042 43.8308 35.5658 26.033 24.8325 22.8258 22.4477 20.5813 27.5209 18.8259 18.0282 38.4942 14.1134 13.5196 12.6235 12.1184 11.8089 12.4933 11.7216 11.6904 11.6827
threshold=0.15917996317148211 0.0463490728288889 0.15917996317148211 0.24188775569200519 0.32776418328285223 0.25739090144634252 0.6395699977874757 0.41797071695327764 0.11622287333011629 0.15137285739183429 0.63818210363388073 0.13706518709659579 0.70965051651000988 0.12335589900612833 0.22063186019659045 0.1611774563789368 0.17448827624320987 0.11846210062503816 0.32920126616954809 0.45963451266288763 0.11846210062503816 0.29424442350864416 1.0000000180025095e-35 0.12762332707643512 0.20534720271825793 0.45703256130218511 0.11066624522209169 0.34747564792633062 0.37986135482788091 0.098633412271738066
decision_type=8 8 10 10 10 10 8 10 10 10 10 10 10 10 10 10 8 10 10 10 10 10 10 10 10 10 10 10 10 10
left_child=1 12 3 5 10 15 7 9 25 11 27 -3 22 -12 -7 -2 -8 -18 -16 23 -21 -13 -1 -10 -17 -9 -27 -5 -6 -24
right_child=2 6 -4 4 28 14 16 8 19 -11 13 21 -14 -15 18 24 17 -19 -20 20 -22 -23 29 -25 -26 26 -28 -29 -30 -31
leaf_value=-0.029117769146411471 -0.051824843972419932 0.018043010268740757 -0.012305733019203543 -0.046857755369900313 0.013365686065773772 -0.10909112170767128 0.011358598322765487 0.028451655285037417 0.065838646861665961 0.011358598322765487 -0.020541824092419111 0.036353893584021767 -0.084506299020416023 0.045203810591757744 -0.08644589477603784 -0.080766243372473775 0.021769468024925204 0.047732452562392419 -0.051824843972419932 0.065838646861665961 0.15902166737434306 0.054957436995001108 0.011358598322765487 0.088668666163425378 -0.06132976140920831 0.051751774239972903 0.065838646861665961 -0.033392296620772657 0.069414338886078633 -0.01501247319194233
leaf_weight=486.51353868842125 609.71022321283817 394.05491237342358 1961.2637836039066 1679.9954556152225 90.241465508937836 540.0649358779192 151.81051602959633 189.79922989010811 418.44598731398582 402.50078323483467 801.87050254642963 532.9263564646244 66.616749368607998 61.883188307285309 98.815264888107777 528.3479789942503 186.64597560465336 522.26333813369274 41.34303206205368 44.794590473175049 78.112000241875648 1736.7467102408409 133.20876412093639 322.01499050855637 816.54099518060684 2205.6891229152679 172.74508532881737 1050.8234101384878 63.328260034322739 127.81161813437939
leaf_count=3340 4261 2482 13311 11627 590 4443 964 1157 2502 2536 5532 3399 470 436 732 3934 1457 3964 285 259 447 10558 874 1911 5732 13408 1023 7301 369 831
internal_value=0 0.0401573 -0.0399601 -0.0484574 -0.0325182 -0.0711315 0.0473226 0.0506478 0.0591899 0.0410879 -0.0354659 0.0457746 -0.0246054 -0.0158315 -0.0997591 -0.0611688 0.0222195 0.0321803 -0.0638007 0.0792215 0.11469 0.0505893 -0.0192673 0.0733342 -0.0689655 0.0524558 0.0543713 -0.0416762 0.0364787 -0.000907177
internal_weight=0 8172.7 8344.23 6382.96 3748.14 2634.82 7358.55 6497.83 3431.6 3066.23 3594.57 2663.73 814.151 863.754 680.223 1954.6 860.72 708.909 140.158 863.368 122.907 2269.67 747.534 740.461 1344.89 2568.23 2378.43 2730.82 153.57 261.02
internal_count=110135 51582 58553 45242 25855 19387 46067 39682 20707 18975 24896 16439 5515 5968 5460 13927 6385 5421 1017 5119 706 13957 5045 4413 9666 15588 14431 18928 959 1705
shrinkage=0.1


Tree=3
num_leaves=31
num_cat=0
split_feature=2 0 2 2 0 1 1 1 1 0 1 0 1 2 0 1 0 1 0 1 1 0 0 1 0 2 0 2 1 0
split_gain=2150.52 275.087 129.156 90.3586 205.768 70.2674 61.8303 54.6895 55.0424 39.8201 23.226 22.2437 21.8195 21.2791 17.2834 17.1095 12.5325 19.3382 21.5731 16.8671 11.225 18.3169 11.1415 11.094 10.793 9.93517 9.81292 9.50281 18.5047 12.4927
threshold=0.16696030646562579 0.0463490728288889 0.15547702461481097 0.16696030646562579 0.2392716854810715 0.25739090144634252 0.32776418328285223 0.6395699977874757 0.29424442350864416 0.38929763436317449 0.70965051651000988 0.22063186019659045 0.1611774563789368 0.088197853416204466 0.21795319020748141 0.32920126616954809 0.093852709978818907 0.42022149264812475 0.12762332707643512 0.43920803070068365 0.44409614801406866 0.11156299710273744 1.0000000180025095e-35 0.49196842312812811 0.15533289313316348 0.098633412271738066 0.20534720271825793 0.095120631158351912 0.43450327217578893 0.13516815006732943
decision_type=8 8 10 10 10 10 10 10 10 10 10 10 10 10 8 10 10 10 10 10 10 10 10 10 10 10 10 10 10 10
left_child=1 10 7 4 5 12 9 8 13 -6 22 -7 -2 24 -15 -13 19 -18 20 -10 -19 23 -1 -22 -3 -24 -14 -20 29 -29
right_child=3 2 -4 -5 6 11 -8 -9 16 -11 -12 15 26 14 -16 -17 17 18 27 -21 21 -23 25 -25 -26 -27 -28 28 -30 -31
leaf_value=-0.027070511098904113 -0.048908093679850689 0.0075991138805258669 0.0075991138805258669 -0.01604675845267494 -0.042413620454595166 -0.10575570934654865 0.030622962887537544 0.0075991138805258669 0.0075991138805258669 -0.021241597142366443 -0.080873024832737395 -0.08177290077724686 -0.076668792331533689 0.0075991138805258669 0.038406501520291042 -0.048908093679850689 0.046031118888820832 0.046031118888820832 0.067170639564348905 0.043511839542116182 0.046031118888820832 0.067170639564348905 0.0075991138805258669 0.058081406434464161 0.036606070888096448 -0.014305611448516451 -0.058500962802692749 0.067170639564348905 0.12418346673573605 0.11363799318356456
leaf_weight=481.08416103571653 585.15303517878056 231.89092279970646 902.77773930877447 1310.9149207025766 1989.4941260293126 503.29158087819815 159.73610500991344 149.77048166841269 97.939473062753677 1604.9872762486339 63.774480238556862 82.965908147394657 502.30083352327347 116.02002653479576 922.1895419806242 36.704976156353951 2208.1211324930191 273.29232354462147 50.550098717212677 1462.5293903648853 567.40048849582672 458.62378117442131 134.04247190058231 287.99589560925961 130.46729078888893 131.11734457314014 728.44529420882463 143.52775904536247 104.7454089820385 60.519058153033257
leaf_count=3359 4219 1691 6052 8959 14190 4443 983 945 625 11246 474 651 3934 733 6392 261 13123 1617 287 8667 3345 2607 874 1710 837 860 5315 820 581 335
internal_value=0 0.0326355 0.0381475 -0.0398976 -0.0449463 -0.0675615 -0.0302547 0.0426266 0.0440629 -0.03296 -0.0229493 -0.0965415 -0.0576197 0.0262964 0.0336099 -0.0577901 0.0484167 0.0512865 0.0586124 0.0407757 0.0536036 0.0584687 -0.0179991 0.0489922 0.00759911 -0.00154071 -0.0659157 0.0807377 0.0900166 0.0724774
internal_weight=0 8978.38 8168.36 7503.99 6193.08 2438.86 3754.22 7265.58 7115.81 3594.48 810.018 622.962 1815.9 1400.57 1038.21 119.671 5715.24 4154.78 1946.65 1560.47 1587.31 1314.02 746.244 855.396 362.358 265.16 1230.75 359.342 308.792 204.047
internal_count=110135 55934 50367 54201 45242 18823 26419 44315 43370 25436 5567 5355 13468 9653 7125 912 33717 24425 11302 9292 9279 7662 5093 5055 2528 1734 9249 2023 1736 1155
shrinkage=0.1


Tree=4
num_leaves=31
num_cat=0
split_feature=2 0 2 0 2 1 1 1 2 0 0 1 1 1 1 1 0 1 0 1 0 0 1 0 0 0 2 0 2 2
split_gain=1736.77 214.456 101.965 79.3612 121.212 66.7179 54.5216 46.0361 46.0951 36.6372 26.8737 26.3546 26.2262 22.5876 20.5427 20.1854 14.2734 14.154 11.7754 11.6265 16.2806 15.2563 11.6176 33.6268 9.96614 9.51155 9.20357 8.40029 8.17666 7.93315
threshold=0.16696030646562579 0.0463490728288889 0.15547702461481097 0.24522272497415545 0.16696030646562579 0.25997616350650793 0.30030822753906256 0.6395699977874757 0.039237802848219878 0.63818210363388073 0.22063186019659045 0.28183919191360479 0.33077408373355871 0.087583873420953764 0.70965051651000988 0.12030560150742532 0.27408751845359808 0.38571465015411383 0.06367086619138719 0.53700605034828197 0.092791404575109496 0.08304914087057115 0.42756211757659918 0.12762332707643512 0.19437246024608615 0.021653157658874992 0.12292279303073884 0.13516815006732943 0.14693585783243182 0.10544034093618394
decision_type=8 8 10 8 10 10 10 10 10 8 10 10 10 10 10 10 8 10 10 10 10 10 10 10 10 10 10 10 10 10
left_child=1 14 7 4 5 13 9 8 -3 -5 -7 16 -12 -2 25 -11 -10 -8 -13 20 -20 -21 24 -24 -22 -1 -23 -25 -28 -18
right_child=3 2 -4 6 -6 10 17 -9 11 15 12 18 -14 -15 -16 -17 29 -19 19 21 22 26 23 27 -26 -27 28 -29 -30 -31
leaf_value=-0.023160393618696234 -0.036648674009798647 0.0061996376098419452 0.0061996376098419452 -0.035536405225157393 -0.036648674009798647 -0.10258490325372829 0.0079842554669466055 0.0061996376098419452 0.010082979119132102 -0.01641020940898591 -0.078482382960714525 0.023286408072496805 -0.036648674009798647 -0.05678711835628563 -0.076944230892217802 0.039480495458300166 0.021950653615387793 0.067336677999125794 0.033532139613763133 0.049692217023256845 0.039080872188076349 0.070713363710743438 0.045781580009397305 0.075603021223768829 0.054140094878169488 0.0025409016536410969 0.13863342123416783 0.11973489635660356 0.074758866764080126 0.039312098213259788
leaf_weight=542.01367518305779 143.94828800857067 217.77053536474705 906.59228532016277 2480.1064880564809 1179.9486710131168 461.87987047433853 144.55529861152172 150.39372739195824 369.94010818004608 847.89444900304079 107.86921539902687 295.25633256137371 46.409336358308792 1777.1064583659172 60.500297144055367 69.94957185536623 165.11627340316772 55.646442219614983 646.596097484231 530.33948534727097 2039.6544468104839 20.957310944795609 1602.711482539773 150.23923814296722 453.21930065751076 196.08575443923473 47.42744816839695 60.499278098344803 34.706790775060654 638.85909110307693
leaf_count=3814 1070 1450 6052 18002 8049 4383 964 945 2305 6078 853 1742 327 13676 474 489 1173 310 3778 3069 11827 114 9133 822 2655 1279 265 321 197 4519
internal_value=0 0.028578 0.0333236 -0.0368181 -0.0470657 -0.061882 -0.0262316 0.0372304 0.0385433 -0.0292195 -0.0905149 0.0400188 -0.0543799 -0.0526982 -0.0209243 -0.0121507 0.0263385 0.0244814 0.0427492 0.0437779 0.0421464 0.0565346 0.0446296 0.0507194 0.0401996 -0.0163325 0.0917345 0.0882725 0.111642 0.0338183
internal_weight=0 9128.88 8330.28 7315.31 3717.16 2537.21 3598.15 7423.69 7273.29 3397.95 616.158 7055.52 154.279 1921.05 798.6 917.844 1173.92 200.202 5881.61 5586.35 4952.92 633.431 4306.32 1813.45 2492.87 738.099 103.092 210.739 82.1342 803.975
internal_count=110135 55934 50367 54201 28358 20309 25843 44315 43370 24569 5563 41920 1180 14746 5567 6567 7997 1274 33923 32181 28536 3645 24758 10276 14482 5093 576 1143 462 5692
shrinkage=0.1


Tree=5
num_leaves=31
num_cat=0
split_feature=2 0 2 0 2 1 1 2 0 1 0 1 1 1 0 1 0 1 1 0 0 1 0 1 0 1 0 0 1 0
split_gain=1390.13 166.845 95.057 72.0784 101.288 60.6081 43.2809 40.0195 31.08 30.2088 28.8751 25.2932 23.8932 22.3206 20.5388 18.2266 13.998 12.6931 11.2724 11.0205 10.3017 14.5232 9.25349 9.23014 12.6235 8.80728 8.72215 8.40255 8.34944 10.3618
threshold=0.16824909299612048 0.055178930982947356 0.15333924442529681 0.24637241661548617 0.16824909299612048 0.25997616350650793 0.30030822753906256 0.051767878234386451 0.22063186019659045 0.65627095103263866 0.47568267583847051 0.67908164858818065 0.33077408373355871 0.1611774563789368 0.021653157658874992 0.29424442350864416 0.20534720271825793 0.12335589900612833 0.37986135482788091 1.4663791656494143 0.19753261655569079 0.47256878018379217 0.21795319020748141 0.38172140717506414 0.11066624522209169 0.43920803070068365 0.15442350506782535 0.57665941119194042 0.44169108569622045 0.1652074605226517
decision_type=8 8 10 8 10 10 8 10 10 10 10 10 10 10 10 10 10 10 10 10 10 10 8 10 10 10 10 10 10 8
left_child=1 11 7 4 5 13 10 -3 -7 15 -5 14 -10 -2 -1 22 -15 19 -8 -12 23 -22 -9 26 -25 -26 -17 -19 -4 -30
right_child=3 2 28 6 -6 8 18 9 12 -11 17 -13 -14 16 -16 20 -18 27 -20 -21 21 -23 -24 24 25 -27 -28 -29 29 -31
leaf_value=-0.021126063612390986 -0.034052141979810283 0.0072105233156000911 0.0072105233156000911 -0.034052141979810283 -0.034052141979810283 -0.099625963758730784 0.0034590000887208972 0.0072105233156000911 -0.073791479952551628 0.0072105233156000911 -0.024385178362861283 -0.06025737411476785 -0.034052141979810283 -0.070040787416002545 0.0072105233156000911 0.0092323774059958393 -0.048458512934104477 -0.010550183281496673 0.051980576420037089 0.00083783774222706976 0.051998036749082599 0.17122842121523932 0.028777778922998515 0.034759370363242226 0.040297726619140307 0.04670408591504345 0.03337442205344817 0.028991441111289401 0.02670280593935305 0.19388229528402975
leaf_weight=533.67490158230066 563.86341581493616 320.60284854471684 1022.8230963870883 2031.6024312898517 1061.5493945777416 429.70446904748678 201.20151602476835 176.29883828759193 112.09944292157888 76.081489443778992 762.20577444881201 108.61088560521603 47.580447718501091 463.0017017275095 314.95928883552551 178.48921838402748 856.34230029582977 120.25381165742874 62.831122919917107 207.96177001297474 319.53102315962315 10.553595110774038 1023.7040168941021 2279.8550703674555 1205.7890031039715 669.24728149175644 926.18068319559097 97.161188557744026 197.32120858877897 3.7783949226140967
leaf_count=3808 4329 2102 6795 15130 7398 4383 1454 1104 922 467 5454 812 339 3961 1987 1053 6673 879 341 1492 1797 53 6885 12947 6758 3625 5267 678 1220 22
internal_value=0 0.0247385 0.0292409 -0.0341257 -0.0441872 -0.0576416 -0.0239171 0.0336732 -0.0856275 0.0353399 -0.0271094 -0.0148199 -0.047957 -0.0488829 -0.00900465 0.0362729 -0.0560325 -0.0147182 0.0150055 -0.0196123 0.0386735 0.0558101 0.0250906 0.0375981 0.0397581 0.0458361 0.0294736 0.00712068 0.00721052 0.0298439
internal_weight=0 9367.5 8410.26 7017.36 3534.14 2472.59 3483.22 7186.33 589.384 6865.73 3219.18 957.245 159.68 1883.21 848.634 6789.65 1319.34 1187.58 264.033 970.168 5589.65 330.085 1200 5259.56 4154.89 1875.04 1104.67 217.415 1223.92 201.1
internal_count=110135 56702 50095 53433 28005 20607 25428 42058 5644 39956 23633 6607 1261 14963 5795 39489 10634 8503 1795 6946 31500 1850 7989 29650 23330 10383 6320 1557 8037 1242
shrinkage=0.1


Tree=6
num_leaves=31
num_cat=0
split_feature=2 2 1 0 0 2 1 1 0 0 1 1 1 1 1 0 0 1 1 1 0 0 0 1 0 0 1 1 2 0
split_gain=1131.4 184.42 128.671 104.338 55.0902 38.9038 60.3369 37.0791 28.9299 25.6891 19.8117 17.8034 17.2482 15.8855 14.6424 47.8713 17.5737 13.3769 11.3214 11.0888 17.5984 10.9159 10.4498 10.2439 9.34779 8.74841 7.82944 8.0785 7.41059 7.07267
threshold=0.039237802848219878 0.15547702461481097 0.67908164858818065 0.24312404543161395 0.055178930982947356 1.0000000180025095e-35 0.25739090144634252 0.30030822753906256 0.37446561455726629 0.22063186019659045 0.1611774563789368 0.32920126616954809 0.28183919191360479 0.28799033164978033 0.42756211757659918 0.16623869538307193 0.14188315719366076 0.75676968693733226 0.36378818750381475 0.37077376246452337 0.17029923945665362 0.25904731452465063 0.20534720271825793 0.35366731882095342 0.042785810306668288 0.28136727213859564 0.25235058367252355 0.29424442350864416 0.063511431217193617 1.4663791656494143
decision_type=10 10 10 8 8 10 10 10 10 10 10 10 10 8 10 10 8 10 10 10 8 10 10 10 10 10 10 10 10 10
left_child=3 2 4 5 23 6 10 8 -5 -8 -1 -11 25 29 16 24 18 -4 -3 21 -21 -18 -12 28 -16 -6 -23 -28 -2 -10
right_child=1 14 17 7 12 -7 9 -9 13 11 22 -13 -14 -15 15 -17 19 -19 -20 20 -22 26 -24 -25 -26 -27 27 -29 -30 -31
leaf_value=-0.035841963172812998 0.0011439572808905841 -0.056172024887390884 -0.040411615749181763 -0.034634154323125901 0.017534604644475253 -0.035841963172812998 -0.096885269448876904 0.016249055494717817 -0.018965917291990677 -0.071257615820615294 -0.065998194859761064 -0.035841963172812998 0.033694442729703754 0.19460339256585624 -0.09525321128618626 0.2580187667498387 -0.0085550039652986208 -0.10138756748877767 -0.017415085297101385 0.015880329794659958 0.17446467881037886 0.010199106437230916 -0.046493043005052491 0.0077713291092664453 0.011367937466803521 0.044670869577898904 0.090149700781984365 0.010199106437230916 -0.040451330373660235 0.00075365826259925868
leaf_weight=544.7385875955224 77.174630597233772 103.64586655050516 111.86183621734381 1686.4115649759769 1065.1519802510738 400.13073129951954 405.7606111317873 228.19632112979889 1445.2938015311956 88.998456172645092 438.54741268604994 39.833804816007614 6028.8847654014826 3.5728324651718131 8.4617555364966375 7.8822008073329917 1300.3270716890693 53.036249905824661 276.27944511920214 101.37761982530355 7.5165014341473571 47.151582755148411 735.0193934366107 350.63754269480705 291.23977814614773 133.71794562041759 29.42711878567934 5.9352310001850119 96.249906927347183 208.06519410014153
leaf_count=4276 545 724 782 12899 7186 2759 4443 1420 10555 798 3934 301 33533 26 60 51 9128 394 1900 698 49 311 5937 2301 1953 779 190 39 672 1492
internal_value=0 0.0202956 0.0273866 -0.0339103 0.029246 -0.0489322 -0.0551932 -0.0227517 -0.0254137 -0.0845332 -0.0460651 -0.04563 0.031516 -0.0160292 -0.00546468 0.0147555 -0.00878761 -0.0600233 -0.0279882 -0.00389746 0.0268267 -0.00631689 -0.0537819 -0.00206127 0.0083576 0.0205613 0.0289532 0.0652877 -0.0219413 -0.0164843
internal_weight=0 10096 7916.71 6224.57 7751.82 2653.03 2252.9 3571.54 3343.34 534.593 1718.31 128.832 7227.75 1656.93 2179.24 307.584 1871.66 164.898 379.925 1491.74 108.894 1382.84 1173.57 524.062 299.702 1198.87 82.5139 35.3623 173.425 1653.36
internal_count=110135 61295 46192 48840 45016 22448 19689 26392 24972 5542 14147 1099 41498 12073 15103 2064 13039 1176 2624 10415 747 9668 9871 3518 2013 7965 540 229 1217 12047
shrinkage=0.1


Tree=7
num_leaves=31
num_cat=0
split_feature=2 2 0 1 0 1 1 2 0 0 1 1 1 0 1 0 0 1 1 0 1 0 2 0 1 0 2 0 1 0
split_gain=926.229 139.104 108.67 103.781 60.1067 33.4647 31.3516 28.1587 36.5438 25.9398 25.4456 15.1878 12.4301 12.1975 11.8615 33.1822 14.5368 9.78714 8.91882 11.7253 9.24788 8.90602 9.51834 12.4505 8.89781 12.5301 8.73503 8.21438 7.99791 7.97805
threshold=0.022403212264180187 0.15547702461481097 0.23800288140773776 0.67908164858818065 0.021653157658874992 0.30773597955703741 0.1611774563789368 1.0000000180025095e-35 0.20534720271825793 0.38929763436317449 0.24857196956872943 0.28183919191360479 0.75676968693733226 0.06367086619138719 0.42756211757659918 0.16623869538307193 0.14188315719366076 0.36378818750381475 0.54076126217842113 0.092791404575109496 0.52239069342613231 0.27647909522056585 0.1243930645287037 0.26060603559017187 0.37077376246452337 0.17029923945665362 0.098633412271738066 0.25904731452465063 0.39179995656013494 0.042785810306668288
decision_type=10 10 8 10 8 10 10 10 10 10 10 10 10 10 10 10 8 10 10 10 10 10 10 8 10 10 10 10 10 10
left_child=2 3 6 4 -2 9 -1 8 10 -4 -8 21 -5 26 16 29 17 -3 19 -15 -21 22 -6 -24 27 -26 -13 -18 -7 -16
right_child=1 14 5 12 11 28 7 -9 -10 -11 -12 13 -14 18 15 -17 24 -19 -20 20 -22 -23 23 -25 25 -27 -28 -29 -30 -31
leaf_value=-0.035591941201294518 -0.014747275111848793 -0.052370131252820334 -0.031957561027490006 -0.037594176847284166 0.0060667191257680712 0.0063972073015473446 -0.062295677384993413 -0.035591941201294518 -0.046682459600738385 -0.014379920048837867 -0.097571084431002819 0.021899024415270016 -0.097793068907381694 0.021899024415270016 -0.091163336528768915 0.20279428626475646 -0.0077398727178373599 -0.015842439604878421 0.041275330595682308 0.030618710485316947 0.10824478838734884 0.038873290300174862 0.0060667191257680712 0.026369549007292034 0.014154502365731438 0.14225812987102909 0.0060667191257680712 0.024485026031884748 0.052665435878214872 0.010161988905345715
leaf_weight=523.22906153649092 363.12566103041172 100.23614036291838 1843.3461896255612 109.50478467345238 418.48730742186308 165.6957645714283 381.49175479263067 197.56367987394333 771.57245580852032 1541.7202779650688 347.2508312612772 96.419546335935593 49.944330051541328 749.84705999493599 7.9823274016380301 8.9567180424928647 1293.9001251831651 273.48804774880409 639.08763171732426 4552.4176343530416 15.399034351110457 162.86505107581615 156.77757513523102 558.68032647669315 102.31211258471012 8.2511609047651273 392.56740012764931 84.253634601831436 48.23649687319994 293.11674152314663
leaf_count=4205 2648 724 14460 784 2823 1057 3588 1404 6734 11318 4015 605 396 4186 60 51 9128 1900 3495 24902 81 939 946 3864 698 49 2322 540 260 1953
internal_value=0 0.0175255 -0.0322623 0.0234442 0.0250158 -0.0215277 -0.0496562 -0.0566492 -0.06185 -0.0239519 -0.0779089 0.0268807 -0.0564503 0.0288673 -0.00499171 0.013118 -0.00800659 -0.0256395 0.0301137 0.0287722 0.0308804 0.0170065 0.0138658 0.0212141 -0.00358006 0.0237147 0.0136844 -0.0057698 0.0168296 0.00747579
internal_weight=0 10437.6 5820.11 8265.12 8105.67 3599 2221.11 1697.88 1500.32 3385.07 728.743 7742.55 159.449 6445.74 2172.5 310.056 1862.44 373.724 5956.75 5317.66 4567.82 1296.81 1133.95 715.458 1488.72 110.563 488.987 1378.15 213.932 301.099
internal_count=110135 63094 47041 47991 46811 27095 19946 15741 14337 25778 7603 44163 1180 35591 15103 2064 13039 2624 32664 29169 24983 8572 7633 4810 10415 747 2927 9668 1317 2013
shrinkage=0.1


Tree=8
num_leaves=31
num_cat=0
split_feature=2 0 1 2 0 2 1 1 0 0 1 1 1 1 1 1 0 0 1 0 0 1 2 0 0 0 1 0 0 0
split_gain=757.867 82.8289 81.0506 75.0573 69.7526 27.3504 55.4596 26.5779 22.4467 21.2865 19.2692 18.477 17.244 16.6334 15.9249 10.7214 11.483 10.0637 9.16803 10.1609 8.89794 10.9386 8.66497 9.90421 7.33969 7.25041 6.81234 10.7541 6.46085 6.05019
threshold=0.17578171193599704 0.2392716854810715 0.70965051651000988 0.15547702461481097 0.021653157658874992 0.17578171193599704 0.25739090144634252 0.32776418328285223 0.21170939505100253 0.63818210363388073 0.33077408373355871 0.083806961774826064 0.1611774563789368 0.29424442350864416 0.6395699977874757 0.42756211757659918 0.16623869538307193 0.25904731452465063 0.26158311963081365 0.095849249511957182 0.20969787985086444 0.29621499776840216 0.088197853416204466 0.27647909522056585 0.20534720271825793 1.4663791656494143 0.12959293276071551 0.34747564792633062 0.042785810306668288 1.0014823079109194
decision_type=8 8 10 10 8 10 10 8 10 10 10 10 10 10 10 10 10 10 8 8 10 8 10 8 10 10 10 10 10 10
left_child=2 5 3 4 -1 6 12 9 -8 26 -10 25 -2 22 -15 17 28 18 -5 -20 21 -21 -6 -24 -14 -11 -3 -28 -17 -13
right_child=1 7 -4 15 13 -7 8 -9 10 11 -12 29 24 14 -16 16 -18 -19 19 20 -22 -23 23 -25 -26 -27 27 -29 -30 -31
leaf_value=-0.015162144803236145 -0.031343830145508102 -0.031343830145508102 -0.073113757960400483 -0.043046656875167198 0.0039454581047365309 -0.031343830145508102 -0.093424150417465435 0.016688672177614959 -0.068222927242243755 -0.016645274237288711 -0.031343830145508102 0.012418142077149743 -0.058684960646849207 0.026120176217483405 0.0039454581047365309 -0.093322380532174551 0.14323105218255711 0.029225211220354944 -0.096511198165812329 -0.036715452637852052 0.010969489952650624 -0.0044815794336340187 0.0055389563172454923 0.025243084819356627 -0.0412774880617746 0.0021279749749514958 -0.028127403194602763 -0.016645274237288711 0.015750560844293712 0.065979362571332398
leaf_weight=507.99299372732639 512.63989900797606 462.2970157340169 101.02305859327316 68.200236015021801 389.64735586196184 384.66666833311319 329.3673489689827 194.57852525264025 83.231139808893204 407.20080797374249 37.521816998720169 180.8609676733613 399.42608889937401 6312.5772376060486 177.51748494058847 5.5549384728074065 6.9946115463972083 79.793945625424385 12.143414914608 116.87509073317051 142.06231184303761 1060.9913048297167 397.23546393215656 712.92155210673809 615.41507197916508 206.38370145112276 1438.4381745308638 588.47994658350945 242.81559359282255 23.873366624116898
leaf_count=3769 4219 3560 818 469 2638 2751 4171 1204 859 2991 325 1308 3934 34309 1149 43 36 501 88 812 982 7478 2366 4772 5315 1492 11467 4540 1592 177
internal_value=0 -0.028989 0.0160185 0.0168984 0.0207686 -0.0434594 -0.0490537 -0.0192283 -0.0799028 -0.0213413 -0.0430217 -0.00734959 -0.039963 0.0230531 0.0252464 -0.00205297 0.0168697 -0.00531781 -0.00728623 -0.00545535 -0.00461763 -0.00768002 0.0135617 0.0181926 -0.0481288 -0.0160294 -0.025941 -0.0230097 0.0133111 0.0186637
internal_weight=0 5864.38 10334.3 10233.3 8497.89 2362.27 1977.6 3502.11 450.12 3307.53 120.753 818.319 1527.48 7989.9 6490.09 1735.43 255.365 1480.07 1400.27 1332.07 1319.93 1177.87 1499.8 1110.16 1014.84 613.585 2489.22 2026.92 248.371 204.734
internal_count=110135 48313 61822 61004 49003 21574 18823 26739 5355 25535 1184 5968 13468 45234 35458 12001 1671 10330 9829 9360 9272 8290 9776 7138 9249 4483 19567 16007 1635 1485
shrinkage=0.1


Tree=9
num_leaves=31
num_cat=0
split_feature=2 2 0 1 0 1 1 2 0 1 0 1 0 1 1 0 1 0 1 0 0 1 1 1 1 0 2 0 0 1
split_gain=622.585 85.7533 81.9425 67.9114 43.7699 27.6728 22.2312 20.1194 32.9564 25.28 16.0935 15.5202 12.6564 14.5607 10.6397 10.5029 9.48532 11.3852 9.38255 18.7083 14.092 9.526 8.19609 8.00162 7.91068 7.84985 7.74022 7.24022 7.01528 6.41316
threshold=0.019988430663943294 0.15333924442529681 0.23800288140773776 0.67908164858818065 0.021653157658874992 0.1611774563789368 0.37986135482788091 1.0000000180025095e-35 0.20534720271825793 0.24857196956872943 0.63818210363388073 0.083806961774826064 0.092791404575109496 0.42022149264812475 0.75676968693733226 0.12762332707643512 0.44409614801406866 0.11156299710273744 0.42756211757659918 0.16623869538307193 0.14188315719366076 0.36378818750381475 0.12959293276071551 0.67908164858818065 0.49196842312812811 0.12111070007085802 0.17501939088106158 0.34747564792633062 0.042785810306668288 0.34536293148994451
decision_type=10 10 8 10 8 10 10 10 10 10 10 10 10 10 10 10 10 10 10 10 8 10 10 10 10 10 10 10 10 10
left_child=2 3 5 4 -2 -1 10 8 9 -7 22 -12 -6 -14 -5 16 -15 24 20 23 21 -3 -4 25 -18 26 28 -24 -20 -10
right_child=1 18 6 14 12 7 -8 -9 29 -11 11 -13 13 15 -16 -17 17 -19 19 -21 -22 -23 27 -25 -26 -27 -28 -29 -30 -31
leaf_value=-0.03074068034351983 -0.013329954239497857 -0.049274621759365422 -0.03074068034351983 -0.031405585578868973 0.015902091552598595 -0.055741817004415717 0.035547379537522988 -0.03074068034351983 -0.044399535114885848 -0.092658583251049531 -0.015097536359392491 0.016591881913548916 0.020200579825362632 0.020200579825362632 -0.090656282211593983 0.04553683201981884 0.020200579825362632 0.036499594991985046 -0.1050181883812905 0.13779343006741077 -0.0014265757062884698 -0.013458495273841416 -0.024309842459397553 -0.080005988736189332 0.030283124991459132 0.054805110762238152 -0.030660048347833264 -0.015108894139848884 0.013492995166476885 -0.03074068034351983
leaf_weight=500.2506260946393 375.50600770115852 99.991069205105305 477.03015811741352 102.036033667624 2568.7500032559037 349.4226248934865 75.496857069432735 166.06835153698921 691.92907103151083 300.31691443920135 609.70293970406055 207.02812057733536 2972.778233602643 293.18453006446362 43.112239383161068 392.78102138638496 617.05322477221489 501.3776218444109 5.0823237225413314 11.333205088973044 1586.2885663956404 288.5712366104126 1532.6410313472152 10.185637421905993 359.90159425139427 35.186437100172043 51.205113112926483 595.14035302400589 290.34586752951145 30.560943931341171
leaf_count=4205 2794 749 3751 765 15302 3588 398 1212 6454 4015 4483 1485 16361 1571 386 1984 3302 2575 41 57 11058 2012 12290 73 1928 221 364 4623 1808 280
internal_value=0 0.013956 -0.0274176 0.018791 0.0200087 -0.043353 -0.0181283 -0.0505066 -0.054919 -0.071261 -0.0193127 -0.00706478 0.0216333 0.0244991 -0.0490043 0.0307425 0.0274624 0.0314857 -0.00276876 0.0111298 -0.00560737 -0.0226753 -0.023153 0.00746784 0.0240667 0.00980134 0.00523305 -0.0203004 0.0114542 -0.0402227
internal_weight=0 10604.7 5535.59 8226.48 8081.33 2038.55 3497.04 1538.3 1372.23 649.74 3421.54 816.731 7705.83 5137.08 145.148 2164.3 1771.52 1478.33 2378.19 403.339 1974.85 388.562 2604.81 392.005 976.955 381.82 346.633 2127.78 295.428 722.49
internal_count=110135 63351 46784 46968 45817 19754 27030 15549 14337 7603 26632 5968 43023 27721 1151 11360 9376 7805 16383 2564 13819 2761 20664 2507 5230 2434 2213 16913 1849 6734
shrinkage=0.1


Tree=10
num_leaves=31
num_cat=0
split_feature=2 0 2 1 0 1 2 1 0 1 0 1 0 2 0 2 0 1 0 0 1 0 1 1 2 1 0 0 1 0
split_gain=505.817 69.2131 68.6548 57.1177 38.2449 29.4481 33.6242 28.7981 19.8002 13.0037 12.6702 10.6708 10.6469 9.562 8.91905 8.27843 7.92054 9.04005 14.4879 10.2231 6.53265 10.0642 14.4761 6.35188 6.22278 6.22054 12.7806 6.11744 12.4748 9.38093
threshold=0.019988430663943294 0.22915455698966983 0.15333924442529681 0.70965051651000988 0.055178930982947356 0.29621499776840216 1.0000000180025095e-35 0.32920126616954809 0.34747564792633062 0.1635687202215195 0.22063186019659045 0.38172140717506414 0.15442350506782535 0.12232907116413118 0.17448827624320987 0.13473677635192874 0.042785810306668288 0.42756211757659918 0.18538819998502734 0.14188315719366076 0.17399043589830401 0.67492634057998668 0.083806961774826064 0.36378818750381475 1.0000000180025095e-35 0.39047561585903173 0.16325347125530246 0.09878061339259149 0.43920803070068365 0.11429461464285852
decision_type=10 8 10 10 8 10 10 10 10 10 10 10 10 10 10 10 8 10 8 8 10 10 10 10 10 10 8 10 10 10
left_child=1 5 3 4 -2 9 10 8 -3 -1 -7 14 13 -13 -6 -14 -4 19 -19 23 21 -10 -23 -18 -11 26 -17 -15 -29 -30
right_child=2 7 16 -5 11 6 -8 -9 20 24 -12 12 15 27 -16 25 17 18 -20 -21 -22 22 -24 -25 -26 -27 -28 28 29 -31
leaf_value=-0.029440057450012175 -0.0045465837655547453 -0.02685827763225937 -0.068068828269129245 -0.0646820197924413 0.0098945724607672828 -0.089689145023587574 -0.029440057450012175 0.020836163139054068 -0.0193469478147692 -0.046398874005770349 -0.029440057450012175 0.033229078078923183 0.033229078078923183 0.015969321093474029 0.020942395373933956 0.033229078078923183 -0.035032974239856435 0.0092316510902989979 0.1562842450565386 -0.0012850252539210543 0.0030904018133019791 -0.012599929886675488 0.020075969866302595 -0.011964872919120116 -0.029440057450012175 0.089976271241129849 0.17591619146816284 0.019860153853927996 0.022032381227717533 0.033229078078923183
leaf_weight=483.9182121604681 710.20517199486494 1755.9488954618573 18.284486375749111 85.176068514585495 1570.4528584852815 269.49672040715814 101.0130732730031 187.84876801073551 742.02983578294516 782.94790116325021 26.88044661283493 185.7423350661993 100.72912032902241 1731.647921860218 1366.6629228442907 50.546475067734718 88.473748378455639 390.57524363696575 6.8167097568511954 1584.9937181174755 251.21540538966656 592.23194487392902 167.99284861981869 284.0917169302702 60.39832528680563 52.257915541529655 6.5039315372705451 1141.7629647105932 795.67396961152554 487.52004882693291
leaf_count=4172 4907 14764 154 764 9711 3908 745 1134 5787 7983 262 1014 521 9274 7530 269 680 2463 33 11058 1976 4395 1200 1995 458 267 34 6000 4197 2480
internal_value=0 -0.025027 0.0124896 0.0167852 0.0176314 -0.0415697 -0.0654505 -0.0173104 -0.0193523 -0.0344197 -0.0830425 0.0197345 0.0227664 0.0217028 0.0150352 0.0447554 -0.00250617 -0.00199712 0.0117541 -0.00478868 -0.0118356 -0.0143316 -0.00585291 -0.0196942 -0.0433403 0.0650509 0.0422195 0.0205091 0.023751 0.0310773
internal_weight=0 5421.92 10658.1 8284.88 8199.71 1724.65 397.39 3697.27 3509.42 1327.26 296.377 7489.5 4552.38 4342.35 2937.12 210.037 2373.24 2354.95 397.392 1957.56 1753.47 1502.25 760.225 372.565 843.346 109.308 57.0504 4156.6 2424.96 1283.19
internal_count=110135 46784 63351 46968 46204 17528 4915 29256 28122 12613 4170 41297 24056 22965 17241 1091 16383 16229 2496 13733 13358 11382 5595 2675 8441 570 303 21951 12677 6677
shrinkage=0.1


Tree=11
num_leaves=31
num_cat=0
split_feature=2 0 1 2 0 1 1 2 1 0 2 1 1 2 0 1 1 0 0 0 1 0 1 1 0 0 1 0 1 0
split_gain=414.436 51.2559 49.1818 37.831 35.5278 30.8234 20.7048 41.2748 30.5938 18.6892 13.3132 11.1953 7.53515 11.8343 10.3271 11.9117 7.22651 16.8463 8.43154 6.52826 6.85462 7.97252 9.6355 6.42431 11.3859 8.97405 6.19428 6.08158 6.04849 5.98814
threshold=0.17578171193599704 0.22302807122468951 0.70965051651000988 0.15547702461481097 0.055178930982947356 0.32920126616954809 0.1635687202215195 0.17578171193599704 0.29621499776840216 0.36661529541015631 0.066556874662637724 0.24293497204780581 0.28183919191360479 0.072328429669141783 0.19437246024608615 0.37804532051086431 0.37077376246452337 0.1652074605226517 0.13997704535722735 0.25904731452465063 0.2666983306407929 0.20969787985086444 0.31311427056789404 0.43450327217578893 0.11156299710273744 0.13516815006732943 0.53330627083778392 0.20621934533119204 0.34411697089672094 1.4663791656494143
decision_type=8 8 10 10 8 8 10 10 10 10 10 10 8 10 10 10 10 10 8 10 8 10 8 10 10 8 10 10 10 10
left_child=2 6 3 4 -1 9 -2 8 -8 -3 -6 29 13 -12 23 -16 18 -18 -5 20 -20 22 -22 25 26 -14 -25 -10 -29 -11
right_child=1 5 -4 16 10 -7 7 -9 27 11 12 -13 14 -15 15 -17 17 -19 19 -21 21 -23 -24 24 -26 -27 -28 28 -30 -31
leaf_value=-0.0046404655916142193 -0.026150625397677985 -0.024538373407896899 -0.062749300654663373 -0.03790236968645562 0.0061661180350379386 0.020440037959491841 -0.044377964841341655 -0.026150625397677985 -0.092060775659178168 -0.013657781271121244 0.087645930050580911 0.04489068930271857 0.0061661180350379386 0.0061661180350379386 0.028850524235134314 0.093036873270790799 0.0052724172501038809 0.11220442324058277 -0.020692762554005442 0.02408542063827222 -0.020692762554005442 0.0092370450076396295 0.00054958447437889032 0.012933575070848365 0.025355520282593476 0.0172488793570541 0.021135170019580214 -0.071812567104718381 -0.026150625397677985 0.0047377395051130125
leaf_weight=842.29240740090609 463.29655254632235 1971.01896263659 88.327376432716846 76.034756548702717 448.81397730112076 221.37283197790384 657.9142789542675 352.21393886208534 213.04105515033007 1368.711459890008 17.827596083283424 36.302735336124897 583.78614446520805 464.89970603585243 462.68987748026848 30.839824602007866 522.20429366827011 15.160628810524939 102.35495109111071 79.739588588476181 256.1774061396718 103.90773448348045 570.51382650434971 1591.1026217639446 803.40911470353603 2494.1689989417791 940.1234288662672 34.269541278481483 10.629691436886786 203.23233668506145
leaf_count=5956 4074 16951 818 590 2849 1408 7031 2590 3383 10500 105 284 3116 2679 2460 151 3518 79 716 495 1798 717 4088 8432 4058 14187 5010 475 125 1492
internal_value=0 -0.0222683 0.0115559 0.0121866 0.0148754 -0.0157715 -0.0365297 -0.0437677 -0.055822 -0.0180111 0.0169727 -0.0100116 0.018078 0.00616612 0.0189224 0.0328614 -0.00133435 0.00828928 -0.00568472 -0.00348316 -0.00561133 -0.00263385 -0.00673384 0.0178496 0.0208905 0.0145551 0.0169148 -0.0850116 -0.0515644 -0.0112795
internal_weight=0 5532 10494.4 10406 8679.95 3800.64 1731.37 1268.07 915.855 3579.27 7837.66 1608.25 7388.85 482.727 6906.12 493.53 1726.09 537.365 1188.73 1112.69 1032.95 930.599 826.691 6412.59 3334.64 3077.96 2531.23 257.94 44.8992 1571.94
internal_count=110135 48313 61822 61004 49003 30635 17678 13604 11014 29227 43047 12276 40198 2784 37414 2611 12001 3597 8404 7814 7319 6603 5886 34803 17500 17303 13442 3983 600 11992
shrinkage=0.1


Tree=12
num_leaves=31
num_cat=0
split_feature=2 2 0 1 2 1 0 1 0 1 1 0 1 1 1 1 2 2 0 0 0 0 0 1 1 0 2 1 0 0
split_gain=341.943 47.9268 40.6427 40.215 18.1327 45.0081 22.1288 19.28 15.4604 13.7803 13.5658 12.0106 11.3335 10.2066 9.06686 8.95818 7.04602 6.90212 11.5141 6.8132 6.79527 6.49948 6.41668 14.8797 7.69888 17.151 7.57091 6.38592 14.3208 10.6648
threshold=0.039237802848219878 0.15333924442529681 0.24312404543161395 0.67908164858818065 1.0000000180025095e-35 0.25739090144634252 0.20621934533119204 0.33077408373355871 0.067165967077016844 0.56505355238914501 0.30030822753906256 0.44940084218978887 0.1611774563789368 0.36203490197658544 0.12335589900612833 0.75676968693733226 0.063511431217193617 0.12232907116413118 0.07313187420368196 0.20409510284662249 0.57665941119194042 0.042785810306668288 0.092791404575109496 0.52592980861663829 0.42756211757659918 0.12762332707643512 0.13846152275800708 0.40937015414237982 0.16623869538307193 0.14188315719366076
decision_type=10 10 10 10 10 10 10 10 8 10 10 10 10 10 10 10 10 10 10 10 10 8 10 10 10 10 10 10 10 8
left_child=2 3 4 8 5 12 -7 -8 13 22 11 -4 -1 16 -13 -5 -2 -11 -19 -14 -16 -3 -10 24 -24 -26 -25 29 -29 -23
right_child=1 21 10 15 -6 6 7 -9 9 17 -12 14 19 -15 20 -17 -18 18 -20 -21 -22 27 23 26 25 -27 -28 28 -30 -31
leaf_value=-0.021755959743146334 0.00421284449225332 -0.063180556701358956 -0.019992926080432061 -0.024306778825465482 -0.021755959743146334 -0.087055269928759116 -0.062534775901679426 -0.021755959743146334 0.010668217761864584 0.0095596306732328024 0.010213766414395566 -0.011843026991197049 -0.046352405395582913 0.0086700597454250419 -0.0026801658212280339 -0.082438337165674724 -0.03286203589413586 0.025479719002889031 0.073399430103659388 -0.028659863650796414 0.030137580849833145 -0.022206905690852458 0.01428509891181998 0.044292299680394547 0.018885900265329492 0.048187148741496162 0.16839429402741851 0.0055375414567219866 0.10279167661886641 -0.00098734225271980428
leaf_weight=479.35805261880159 90.514398626983166 17.202801488339901 1810.0355822890997 96.055402643978596 441.13605242967606 218.74553659930825 106.98769645765424 51.824383195489645 1753.2519024163485 25.596984639763832 233.09434607625008 944.04739567637444 332.8893177062273 642.44785306602716 182.21335661411285 36.613749444484711 118.20094802230597 108.42374959588051 93.280309677124023 628.77035786211491 96.513482429087162 278.84572520852089 3149.7097759842873 10.139125764369966 1724.8831710517406 225.92886874079704 9.5420297533273679 477.87560753524303 15.636335149407385 1572.8201345950365
leaf_count=4276 641 154 15228 762 3248 3731 1294 517 10344 128 1420 7159 3832 3826 1418 384 831 567 483 6039 678 2064 16847 50 8899 1104 46 3066 76 11023
internal_value=0 0.0105918 -0.0201677 0.0142531 -0.0304781 -0.0356929 -0.0664272 -0.0380143 0.0151641 0.0166907 -0.0130338 -0.0148206 -0.0276403 0.00242851 -0.00716408 -0.0403498 -0.0167836 0.0409158 0.0476407 -0.0347843 0.00868349 -0.00193811 0.0158896 0.0176776 0.0173427 0.0222794 0.104461 -0.00148887 0.00861892 -0.00418283
internal_weight=0 10447 5525.62 8084.59 2259.71 1818.58 377.558 158.812 7951.92 7100.76 3265.9 3032.81 1441.02 851.163 1222.77 132.669 208.715 227.301 201.704 961.66 278.727 2362.38 6873.45 5120.2 5100.52 1950.81 19.6812 2345.18 493.512 1851.67
internal_count=110135 61295 48840 44912 22937 19689 5542 1811 43766 38468 25903 24483 14147 5298 9255 1146 1472 1178 1050 9871 2096 16383 37290 26946 26850 10003 96 16229 3142 13087
shrinkage=0.1


Tree=13
num_leaves=31
num_cat=0
split_feature=2 0 2 1 1 2 0 1 0 0 1 1 1 1 2 0 0 1 0 1 1 1 2 0 0 1 0 0 0 0
split_gain=276.562 41.5739 35.8883 36.6811 23.3484 28.3194 20.1305 16.9025 12.6094 12.4378 9.41981 9.07296 8.4391 7.96291 12.8267 15.1656 12.5997 11.0239 9.48781 13.1396 9.25005 7.08954 8.7152 6.41541 6.13628 5.80659 17.9498 7.73103 6.40101 5.52664
threshold=0.019988430663943294 0.22915455698966983 0.15870694071054461 0.70965051651000988 0.29621499776840216 1.0000000180025095e-35 0.012087228242307903 0.32920126616954809 0.20621934533119204 0.47568267583847051 0.1635687202215195 0.34411697089672094 0.12335589900612833 0.36378818750381475 0.1215699575841427 0.17333061248064044 0.17567554116249087 0.56505355238914501 0.067165967077016844 0.56505355238914501 0.48616881668567663 0.29424442350864416 0.14054364711046222 0.07313187420368196 1.4663791656494143 0.25997616350650793 0.24863819777965548 0.042785810306668288 0.22915455698966983 0.13997704535722735
decision_type=10 8 10 10 10 10 8 10 10 10 10 10 10 10 10 10 8 10 10 10 10 10 10 10 10 8 10 8 10 10
left_child=1 4 3 6 10 8 -2 9 -6 -3 -1 -10 24 16 17 18 -8 20 -16 -20 29 -18 -23 -21 -11 28 27 -27 -4 -15
right_child=2 7 25 -5 5 -7 13 -9 11 12 -12 -13 -14 14 15 -17 21 -19 19 23 -22 22 -24 -25 -26 26 -28 -29 -30 -31
leaf_value=-0.0228727337382728 -0.0113181780582076 -0.019015319538506943 -0.084356922573429013 -0.055941417817912169 -0.087712044689177635 -0.0228727337382728 0.0010204708528338915 0.015764188982272428 -0.061209477097028855 -0.012581338344997924 -0.034712993077193263 -0.0228727337382728 0.011758769869999929 0.021502788594849054 0.0011362170857967884 0.0742058432443541 0.0084731255794421069 0.0010204708528338915 0.014103925957689376 0.019467469439779506 0.074592405686837795 0.010458966999114127 0.030549526597991563 0.044034781679543007 0.005470280094103816 -0.091384272572755457 0.075302329672087012 -0.0028422679297249007 -0.015742122630666284 0.054797009882476849
leaf_weight=458.29034989327192 344.01445358246565 2263.5836701914668 16.075913920998573 79.257161479443312 183.20582396164536 97.642835676670074 653.15668116509914 191.87094582617283 40.607042282819748 708.57273413985968 769.58303963765502 18.835414007306099 213.27178341895342 154.67857638001442 525.90436452627182 41.989926367998123 1401.6901814416051 47.807104155421257 4399.2986728847027 116.34992608428001 66.597715348005295 455.54914060235023 410.47726288437843 109.25947818160057 202.35774428397417 9.9173085615038854 29.509001798927784 1749.5016736164689 88.137820214033127 73.57011154294014
leaf_count=4172 2635 19601 121 799 3383 745 3773 1134 589 5454 8441 198 1575 886 3028 207 8875 259 22844 606 351 2380 2187 570 1492 93 184 12573 596 384
internal_value=0 -0.0190579 0.00911944 0.0117845 -0.0326356 -0.055814 0.0123945 -0.0131099 -0.0747272 -0.0147452 -0.0262119 -0.0347069 -0.00614736 0.0133591 0.0155882 0.0143517 0.00913472 0.0343275 0.0138637 0.015311 0.0418019 0.0128681 0.0199814 0.0388481 -0.0103396 -0.0033808 -0.0020441 -0.00334135 -0.0263266 0.0322343
internal_weight=0 5147.82 10772.7 8879.6 1568.16 340.291 8800.34 3579.66 242.648 3387.79 1227.87 59.4425 1124.2 8456.33 5535.46 5192.8 2920.87 342.654 5150.81 4624.91 294.846 2267.72 866.026 225.609 910.93 1893.14 1788.93 1759.42 104.214 228.249
internal_count=110135 46784 63351 49784 17528 4915 48985 29256 4170 28122 12613 787 8521 46350 29135 27255 17215 1880 27048 24020 1621 13442 4567 1176 6946 13567 12850 12666 717 1270
shrinkage=0.1


Tree=14
num_leaves=31
num_cat=0
split_feature=2 0 1 1 0 1 1 2 1 2 2 0 1 1 2 0 1 0 2 1 0 1 1 0 2 0 1 0 0 2
split_gain=225.223 32.9699 29.866 22.4113 20.9938 19.1658 17.1516 28.8768 23.7851 12.7485 12.1462 10.4444 8.57948 8.25812 7.84307 11.5532 6.6886 6.68533 8.41488 6.47178 6.39553 11.3591 5.92892 11.3695 9.39212 9.26587 6.3415 5.68572 5.55048 5.2578
threshold=0.17615170776844027 0.22302807122468951 0.70965051651000988 0.38365194201469427 0.15635481476783755 0.36031506955623632 0.1635687202215195 0.17649567872285846 0.25739090144634252 0.15094997733831408 0.088197853416204466 0.34747564792633062 0.6395699977874757 0.17399043589830401 0.10544034093618394 0.11156299710273744 0.37804532051086431 0.15442350506782535 0.13546346127986911 0.24857196956872943 0.67492634057998668 0.083806961774826064 0.42756211757659918 0.11524017527699472 0.13397677242755893 0.10766730830073358 0.53330627083778392 0.07176105305552484 0.17029923945665362 0.13678416609764102
decision_type=8 8 10 10 8 10 10 10 10 10 10 8 10 8 10 10 10 10 10 8 10 10 10 10 10 10 10 10 10 10
left_child=2 6 3 4 14 11 -2 8 -8 10 19 -3 17 20 -1 -16 -11 22 -19 -6 -13 -22 24 26 -5 -26 -24 -14 -10 -12
right_child=1 5 -4 12 9 -7 7 -9 28 16 29 13 27 -15 15 -17 -18 18 -20 -21 21 -23 23 -25 25 -27 -28 -29 -30 -31
leaf_value=-0.00032522538845112874 -0.020426436579643544 -0.018304639924249983 -0.053196233881776772 0.018272168613523879 0.031295290469646443 0.027909446804679095 -0.034985369441757008 -0.020426436579643544 -0.083225205660026502 -0.00032522538845112874 0.0095714465623003824 -0.012886151688793816 -0.016661167664730924 0.0090712343293659296 -0.053416126383493162 -0.01097073572158181 0.12332518514972707 0.022199009217961366 0.052323432261753566 -0.00032522538845112874 -0.0079347068474161422 0.020096467074004871 0.0089144370211182156 0.022199009217961366 -0.061165329398886331 0.0023348718193404732 0.017207127875954006 0.025623267291017118 -0.054368294074478719 0.019312641440788127
leaf_weight=593.41388133913279 440.56220433115959 1843.9831319227815 78.180011056363583 473.06217526644468 79.191488802433014 117.85854315757751 565.55285119265318 287.75753279030323 156.60068565234542 1233.1574019044638 1121.2155056148767 714.90666333585978 150.14172413945198 256.77601444721222 74.698838256299496 453.12498971819878 4.4007604271173468 101.80296516418457 111.89932580292225 274.77600054442883 578.31297461688519 167.84561824053526 2069.6714048981667 803.21720865368843 23.70350619405508 752.07966638356447 1097.1494696959853 40.344741746783257 116.04935560375452 1095.4389691501856
leaf_count=4201 4074 16462 818 2677 469 666 6455 2161 2820 8397 6353 5787 995 2085 516 2946 25 510 560 1859 4395 1200 11071 4032 155 4232 5859 233 1952 6170
internal_value=0 -0.0169377 0.00838355 0.00883977 0.00391773 -0.0117652 -0.0290876 -0.0364482 -0.0466815 0.00745883 0.0114796 -0.013078 0.0131546 -0.00746766 -0.00810928 -0.0169777 -0.000325225 0.0138861 0.0312218 -0.000325225 -0.0103743 -0.00298326 0.0131762 0.0150666 0.00716666 0.000394668 0.0122152 -0.00770539 -0.0709427 0.0143854
internal_weight=0 5246.21 10630.7 10552.5 4929.42 3679.68 1566.52 1125.96 838.203 3808.18 2570.62 3561.82 5623.07 1717.84 1121.24 527.824 1237.56 5432.59 213.702 353.967 1461.07 746.159 5218.88 3970.04 1248.85 775.783 3166.82 190.486 272.65 2216.65
internal_count=110135 48057 62078 61260 30936 30595 17462 13388 11227 23273 14851 29929 30324 13467 7663 3462 8422 29096 1070 2328 11382 5595 28026 20962 7064 4387 16930 1228 4772 12523
shrinkage=0.1


Tree=15
num_leaves=31
num_cat=0
split_feature=2 1 2 0 1 2 1 0 1 1 0 0 1 0 1 2 0 0 1 1 2 0 1 0 1 2 0 2 2 1
split_gain=186.851 25.7235 26.0954 23.4817 12.1154 10.9451 34.9921 14.9489 19.7964 8.49812 9.47108 8.44756 7.56685 7.26997 6.69905 6.02938 5.93821 5.80148 5.72968 4.89203 8.90754 9.30824 7.53642 6.4311 5.65189 9.26296 7.204 8.09548 6.38308 5.33424
threshold=0.039237802848219878 0.75676968693733226 0.15333924442529681 0.24522272497415545 0.6395699977874757 0.006852873135358096 0.25997616350650793 0.20621934533119204 0.33077408373355871 0.28799033164978033 0.37446561455726629 1.0000000180025095e-35 0.087583873420953764 0.38929763436317449 0.12335589900612833 0.066556874662637724 1.4663791656494143 0.57665941119194042 0.17141485214233401 0.36378818750381475 0.1215699575841427 0.17333061248064044 0.56505355238914501 0.17567554116249087 0.48616881668567663 0.051767878234386451 0.13997704535722735 0.095120631158351912 0.075545467436313643 0.35689051449298864
decision_type=10 10 10 10 10 10 8 10 10 10 8 8 10 10 10 10 10 10 10 10 10 10 10 8 10 10 10 10 10 10
left_child=3 2 4 5 11 6 12 -8 -9 13 -11 15 -1 -5 16 -2 -15 18 -16 23 22 -22 24 -13 26 -26 28 -28 -21 -25
right_child=1 -3 -4 9 -6 -7 7 8 -10 10 -12 19 -14 14 17 -17 -18 -19 -20 20 21 -23 -24 29 25 -27 27 -29 -30 -31
leaf_value=-0.016498905150800394 0.0010239375089988317 -0.078578382349025019 -0.0012929627775222384 -0.01647348492067835 -0.01293704444103975 -0.016498905150800394 -0.073522729364371139 -0.052946701416251352 -0.016498905150800394 0.0053674113777286668 0.16210896229572336 0.0010239375089988317 -0.025087154321272877 -0.011432019930949206 -0.011432019930949206 -0.030389622315968264 0.0057251167581178512 0.024832168618088474 0.011262655736184157 0.036724351915371427 0.012143932324298071 0.061097399311791971 0.0010239375089988317 0.01031941493118068 0.0010239375089988317 0.081300697959935567 0.036724351915371427 0.094786182055694168 0.0017173889437137905 0.051856725224050819
leaf_weight=115.73092559725046 103.07763908803463 34.433821436017752 2348.6989003792405 1391.8232010826468 211.75959084182978 403.78264603018761 199.32247368246317 101.97884093225002 56.460419293493032 250.44238246977329 3.9153308123350135 568.14336284995079 1305.4942779093981 784.32613059878349 238.18266306072474 83.014142513275146 202.05452556908131 99.008165918290615 147.12752445042133 50.93113948404789 4824.4023770391941 39.157187312841415 31.395554639399052 1987.8471548110247 8.8254131227731687 49.824004203081131 31.962321951985359 31.572690770030022 102.20362204313278 31.405322715640068
leaf_count=1070 778 408 16359 12320 1505 3011 3890 1311 555 1567 26 3242 13723 6147 1921 647 1492 678 1129 302 24801 190 162 11549 44 254 161 159 571 163
internal_value=0 0.00771195 0.00799482 -0.015307 0.0106696 -0.0232612 -0.0273447 -0.055298 -0.0323707 -0.0097366 0.00778014 0.0112989 -0.0203081 -0.0112931 -0.00639055 -0.00975608 -0.0111198 0.00324112 -0.00230686 0.011804 0.0135804 0.0125381 0.0301089 0.00825416 0.035897 0.0634359 0.0284426 0.0567512 0.0166975 0.0109654
internal_weight=0 10538.7 10504.2 5299.65 8155.52 2182.77 1778.99 357.762 158.439 3116.88 254.358 7943.76 1421.23 2862.52 1470.7 186.092 986.381 484.318 385.31 7757.67 5170.27 4863.56 306.715 2587.4 275.319 58.6494 216.67 63.535 153.135 2019.25
internal_count=110135 61295 60887 48840 44528 23560 20549 5756 1866 25280 1593 43023 14793 23687 11367 1425 7639 3728 3050 41598 26644 24991 1653 14954 1491 298 1193 320 873 11712
shrinkage=0.1


Tree=16
num_leaves=31
num_cat=0
split_feature=2 0 1 1 2 0 1 2 0 0 1 1 0 1 2 0 1 0 0 1 1 1 0 1 2 0 1 1 0 0
split_gain=150.216 28.0471 22.8321 22.0687 20.1985 17.2869 15.0784 14.7952 11.9332 7.94653 7.04765 8.05129 7.88883 6.19449 6.12125 6.2754 10.1466 19.34 7.01464 11.0994 6.1638 5.82322 5.47543 12.1479 5.38296 6.21042 8.93714 5.21952 15.4126 5.71427
threshold=0.17833667993545535 0.22302807122468951 0.24570251256227496 0.75676968693733226 0.17833667993545535 0.20621934533119204 0.32776418328285223 0.15870694071054461 0.021653157658874992 0.34747564792633062 0.58583304286003124 0.53700605034828197 0.08304914087057115 0.17399043589830401 0.12671110779047015 0.092791404575109496 0.44671030342578893 0.12303159013390542 0.11429461464285852 0.45963451266288763 0.34899246692657476 0.49196842312812811 0.76693794131279003 0.07971444353461267 0.13418293744325641 0.068789839744567885 0.6395699977874757 0.25997616350650793 0.24863819777965548 0.22915455698966983
decision_type=8 8 10 10 10 10 10 10 8 8 8 10 10 10 10 10 10 10 10 10 10 10 10 10 10 8 8 8 10 10
left_child=3 2 -2 7 5 -4 9 8 -1 -3 11 14 -13 22 20 -16 -17 18 21 -20 -10 -18 -11 -24 -12 -26 -27 29 -29 -9
right_child=1 6 4 -5 -6 -7 -8 27 10 13 24 12 -14 -15 15 16 17 -19 19 -21 -22 -23 23 -25 25 26 -28 28 -30 -31
leaf_value=-0.006850343726231254 -0.018387946635779744 -0.016296861752371092 -0.075635975752257764 -0.075653070514494436 -0.018387946635779744 -0.030183128075147021 0.016635748764107321 -0.083176208033641091 0.0086738348505031419 -0.011454076318645466 0.0012221692259842426 0.016848529046613173 0.049490738099072763 0.0084791399960305828 0.0012221692259842426 0.006167929892060893 0.0052367933950695656 0.072547375076933998 0.019170083835990528 0.043222611871445452 0.022162602278653597 0.019170083835990528 -0.0064792011413191408 0.027719068727728221 0.0012221692259842426 0.060030809408301793 0.012592245157075946 -0.0016734423539079024 0.071008814030071671 -0.014226604811949118
leaf_weight=483.37736485898495 836.42140271514654 1696.6624307855964 207.38177539408207 32.525374621152878 141.33643340319395 140.27249626070261 202.41125436872244 14.059918582439421 672.7078797146678 818.3114931806922 579.74246533960104 587.08682549744844 84.722173348069191 234.33947521448135 614.74987436830997 3232.3874476253986 715.39311699569225 58.676064819097519 176.99794697761536 99.055061742663383 682.43992346525192 354.33281803131104 521.63962463289499 117.39369589835405 305.86492369323969 43.595212057232857 445.98791778087616 1585.7448356077075 29.722416758537292 82.837053142488003
leaf_count=3804 9014 15788 4264 410 1072 1811 1219 112 3897 6617 3870 3027 423 1887 3245 16949 3663 280 866 477 3592 1820 3987 862 1858 212 2942 11425 178 564
internal_value=0 -0.0144663 -0.0268985 0.00659536 -0.0441415 -0.0572965 -0.00987737 0.00684193 0.00844057 -0.0114612 0.00929468 0.0105351 0.0209651 -0.00661129 0.00947456 0.00792833 0.00925142 0.0163481 0.0138978 0.0281099 0.0154667 0.0102303 -0.00903782 -0.00150433 0.00272928 0.00968379 0.0168164 -0.00168833 -0.000336187 -0.0242313
internal_weight=0 4916.17 1325.41 10882 488.991 347.654 3590.76 10849.5 9137.12 3388.35 8653.74 7278.55 671.809 1691.68 6606.74 5251.59 4636.84 1404.46 1345.78 276.053 1355.15 1069.73 1457.34 639.033 1375.19 795.448 489.583 1712.36 1615.47 96.897
internal_count=110135 46521 16161 63614 7147 6075 30360 63204 50925 29141 47121 38239 3450 13353 34789 27300 24055 7106 6826 1343 7489 5483 11466 4849 8882 5012 3154 12279 11603 676
shrinkage=0.1


Tree=17
num_leaves=31
num_cat=0
split_feature=2 1 2 0 1 2 0 1 1 0 2 1 0 1 1 1 1 1 1 0 1 0 0 0 1 0 2 1 2 1
split_gain=123.827 18.8647 16.9106 15.4062 9.89117 19.6 21.0178 19.4058 9.11065 5.4176 5.0372 4.87789 5.40005 7.18568 5.23033 4.60608 8.15849 4.57631 4.2018 3.80724 4.32847 9.12292 8.76806 3.5433 7.98838 8.31535 5.16501 5.32333 3.33885 3.32457
threshold=0.039237802848219878 0.75676968693733226 0.15333924442529681 0.2392716854810715 0.1611774563789368 1.0000000180025095e-35 0.20534720271825793 0.34017395973205572 0.6395699977874757 1.0000000180025095e-35 0.066556874662637724 0.30030822753906256 1.0014823079109194 0.083806961774826064 0.12959293276071551 0.34536293148994451 0.25550663471221929 0.26314653456211096 0.30418185889720922 0.042785810306668288 0.4049579799175263 0.12583842873573306 0.16623869538307193 0.25904731452465063 0.28183919191360479 0.179187186062336 0.16062286496162417 0.31311427056789404 0.17615170776844027 0.24570251256227496
decision_type=10 10 10 10 8 10 10 10 10 8 10 10 10 10 10 10 10 10 10 8 10 8 10 10 8 10 10 8 10 10
left_child=3 2 8 4 -1 6 7 29 9 10 -2 12 14 -14 -5 16 -8 -16 -13 -4 21 -21 28 24 -23 26 -26 -28 -22 -6
right_child=1 -3 19 11 5 -7 15 -9 -10 -11 -12 18 13 -15 17 -17 -18 -19 -20 20 22 23 -24 -25 25 -27 27 -29 -30 -31
leaf_value=-0.014104261052208456 0.00079390686867430039 -0.072403447215685923 -0.051634045218258956 -0.014104261052208456 -0.034551908368443789 -0.014104261052208456 -0.017625056823244046 -0.085773665495693929 -0.011996434613610078 0.0094796880971294156 -0.027358847361869915 0.079271628618289958 -0.0025098223535898832 0.052327868802857717 -0.0056838052644207042 -0.014104261052208456 -0.034551908368443789 -0.014104261052208456 0.0028056631893270258 -0.026200582937250524 0.0079767788779047024 -0.013848082219364949 0.07932834210023923 0.016716990345840895 -0.013848082219364949 0.0070500316723280942 -0.013848082219364949 0.001091752846361883 -0.016846511378041426 -0.055660632914990016
leaf_weight=438.34345143288374 102.7017964720726 30.464467585086823 14.807813968509434 713.37659246474504 265.12629273533821 427.12027921527624 472.64577470719814 107.66509317234159 210.47586445510387 7817.0241365656257 81.044902689754963 7.4114628806710234 415.45013804733753 25.353371076285839 1658.6741006672382 29.809526015073061 120.28337759524584 185.17653368413448 236.42296160757542 74.904752783477306 441.98198016732931 263.51556173712015 16.356728285551071 100.62755472958088 194.40422710776329 383.28436647355556 77.488182410597801 715.67153211683035 61.755901128053665 79.806411352008581
leaf_count=4219 778 408 149 5831 3444 3242 5029 2602 1505 41598 647 58 3180 177 14489 294 1678 1625 1415 576 2767 1883 78 612 1280 2654 568 5327 465 1557
internal_value=0 0.00617486 0.00640163 -0.0126903 -0.0197368 -0.0244394 -0.0323117 -0.0487107 0.00854047 0.00908073 -0.00789187 -0.0084717 -0.00957793 0.000644237 -0.01134 -0.0203931 -0.0250231 -0.00786215 0.00512988 -0.00108835 -0.000767121 -0.00307761 0.00727324 -0.00149558 -0.00261693 0.00059697 -0.00486653 -0.000981083 0.00493356 -0.0371421
internal_weight=0 10586.5 10556 5182.67 1940.8 1502.46 1075.34 452.598 8211.25 8000.77 183.747 3241.87 2998.03 440.804 2557.23 622.739 592.929 1843.85 243.834 2344.8 2329.99 1809.9 520.095 1734.99 1634.36 1370.85 987.564 793.16 503.738 344.933
internal_count=110135 61295 60887 48840 22065 17846 14604 7603 44528 43023 1425 26775 25302 3357 21945 7001 6707 16114 1473 16359 16210 12900 3310 12324 11712 9829 7175 5895 3232 5001
shrinkage=0.1


Tree=18
num_leaves=31
num_cat=0
split_feature=2 1 0 1 2 2 0 1 1 0 0 1 1 1 1 0 2 0 1 0 0 1 1 2 0 1 2 1 0 0
split_gain=100.822 16.2209 14.8614 14.8416 19.6216 13.047 11.2565 8.48009 7.55504 7.35083 6.2902 7.74033 5.60042 5.39829 6.49842 7.71397 6.98339 4.60869 8.12604 15.5176 4.65937 6.71055 5.40036 4.41037 6.03619 5.81833 6.11642 4.22326 4.40132 4.21252
threshold=0.019988430663943294 0.75676968693733226 0.22915455698966983 0.29621499776840216 1.0000000180025095e-35 0.15870694071054461 0.20621934533119204 0.30773597955703741 0.34411697089672094 0.021653157658874992 0.67492634057998668 0.083806961774826064 0.1635687202215195 0.58583304286003124 0.54076126217842113 0.081964988261461272 0.12671110779047015 0.092791404575109496 0.43920803070068365 0.12489735707640649 0.11524017527699472 0.45176281034946447 0.48043717443943029 0.12546318024396899 0.067165967077016844 0.6395699977874757 0.15052733570337298 0.34899246692657476 0.28984682261943823 0.17448827624320987
decision_type=10 10 10 10 10 10 10 10 10 8 10 10 10 8 10 10 10 10 10 10 10 10 10 10 8 8 10 10 10 10
left_child=2 5 3 12 6 9 -5 10 -8 -2 -4 -12 -1 14 16 -16 27 -18 29 20 22 -22 -20 -15 -25 26 -26 -11 -29 -19
right_child=1 -3 7 4 -6 -7 8 -9 -10 13 11 -13 -14 23 15 -17 17 18 19 -21 21 -23 -24 24 25 -27 -28 28 -30 -31
leaf_value=-0.014558390322870091 -0.0068237569012267012 -0.069540180757886663 -0.01225222783262574 -0.076943389669552803 -0.014558390322870091 -0.0020668472805193635 -0.049364962978861456 0.0098002185024327129 -0.014558390322870091 0.0085607492152880906 -0.0069930361307124341 0.016963329758776052 -0.023676711359901514 0.00043325639059391688 0.014399358194590043 0.048370352552387516 0.00043325639059391688 0.0039280376973215144 0.0039280376973215144 0.050588905470327052 0.014119004513534967 0.030597638851765238 0.014119004513534967 0.00043325639059391688 0.059987084328666979 0.010087314368731153 0.0067607507382355832 0.019204439679586755 0.11659608095364363 0.0098748913973654203
leaf_weight=448.31528180092573 363.66134609282017 28.867430664598942 2456.4109987542033 129.93527503311634 94.007091112434864 1875.3356867432594 34.070549443364143 236.65532943606377 17.660870891064405 641.1393865197897 569.24613911658525 170.52344086766243 688.52675933763385 277.88120662420988 524.48998466134071 76.607094377279282 682.42611675709486 1854.8451509550214 555.13963393867016 103.80849009752274 162.22702789306641 187.2255675047636 590.67167881131172 406.73890918120742 49.228685438632965 607.37007001787424 13.793946325778959 675.28223770856857 4.6723329126834861 1211.1872870326042
leaf_count=4358 2838 410 22014 3383 745 13558 589 1461 198 3658 4395 1200 8441 1897 2676 377 3578 9611 2815 500 796 896 3015 2490 237 3980 68 3499 24 6428
internal_value=0 0.00532118 -0.0120178 -0.0206515 -0.0414674 0.00552011 -0.0612369 -0.00846527 -0.0217865 0.00710305 -0.0098177 -0.00173384 -0.0156038 0.00769027 0.00877038 0.0187288 0.00787275 0.0062643 0.00742282 0.013202 0.0106064 0.0207144 0.00752359 0.00189542 0.00703894 0.0130882 0.0420092 0.0143834 0.0198737 0.00440874
internal_weight=0 10892.6 4845.35 1412.52 275.674 10863.7 181.667 3432.84 51.7314 8988.4 3196.18 739.77 1136.84 8624.73 7269.72 601.097 6668.62 5347.53 4665.1 1599.07 1495.26 349.453 1145.81 1355.01 1077.13 670.393 63.0226 1321.09 679.955 3066.03
internal_count=110135 63351 46784 17714 4915 62941 4170 29070 787 49383 27609 5595 12799 46545 37873 3053 34820 27639 24061 8022 7522 1692 5830 8672 6775 4285 305 7181 3523 16039
shrinkage=0.1


Tree=19
num_leaves=31
num_cat=0
split_feature=2 0 1 2 0 1 1 1 0 2 0 2 1 1 2 2 1 1 0 2 1 2 0 1 0 1 2 2 0 2
split_gain=79.7715 15.5075 17.2728 14.5204 14.6118 14.3566 11.3848 10.6945 9.71081 8.00497 9.61196 6.4843 6.96512 8.15567 6.23049 8.9682 7.24054 5.87587 5.85829 6.28839 5.85647 5.1192 4.9325 4.86734 4.07511 16.9483 12.9522 10.1139 5.75143 7.37201
threshold=0.17833667993545535 0.22302807122468951 0.24570251256227496 0.17833667993545535 0.20621934533119204 0.67908164858818065 0.37804532051086431 0.37804532051086431 0.15635481476783755 0.10226896032691003 0.12489735707640649 0.17727660387754443 0.29219147562980657 0.31475342810153967 0.15094997733831408 0.13678416609764102 0.25471861660480505 0.37986135482788091 0.29645085334777838 0.10870866850018503 0.2682908326387406 0.078753191977739348 1.4663791656494143 0.75676968693733226 0.11156299710273744 0.45963451266288763 0.11846210062503816 0.16824909299612048 0.1573281139135361 0.15137285739183429
decision_type=8 8 10 10 10 10 10 10 8 10 10 10 8 8 10 10 8 10 10 10 8 10 10 10 10 10 10 10 10 10
left_child=5 2 -2 4 17 7 22 8 9 -1 -11 14 -13 -14 15 16 18 -4 19 -10 -17 -20 -3 -7 27 28 -27 -9 -26 -30
right_child=1 6 3 -5 -6 23 -8 24 11 10 -12 12 13 -15 -16 20 -18 -19 21 -21 -22 -23 -24 -25 25 26 -28 -29 29 -31
leaf_value=-0.0015724120246681538 -0.013990306134722186 -0.0093625207764709388 -0.056121505900970731 -0.013990306134722186 -0.023765750471409598 -0.018676586077782904 0.027466011386295411 0.006535784820311143 0.022570472750278014 -0.042808883051789405 -0.0090870908057257577 -0.0015724120246681538 0.14337419087444478 0.035540631405351089 -0.0015724120246681538 -0.0015724120246681538 -0.0015724120246681538 -0.096624153180627073 0.022570472750278014 -0.0015724120246681538 0.015682164074371625 0.063867166951881105 0.0067899925403235714 -0.066489637065281867 0.0082177884706297281 0.0082177884706297281 0.043265896315393626 -0.025897904779951776 0.01955309051453798 0.087591950159565224
leaf_weight=558.28684712201357 799.58639412000775 3233.7503448016942 121.84132039919496 139.12923653423786 131.3459353633225 97.269150294363499 90.749630257487297 3214.8945657610893 76.532751277089119 109.31952030956745 372.69374515861273 17.543068669736385 9.5367043912410718 26.512093588709831 1287.1289362236857 94.906373023986816 1253.4753333330154 50.732438638806343 35.907435536384583 58.581817358732224 986.56953617930412 43.662433311343193 200.79328714311123 27.257491912692785 2086.7318223789334 59.159508615732193 258.14995994418859 99.109014980494976 151.62028826773167 17.793596416711807
leaf_count=4006 9014 28384 2887 1072 1811 819 484 17231 441 787 2509 134 73 205 8811 521 7332 1377 208 323 5463 225 1492 410 11027 291 1248 703 757 90
internal_value=0 -0.0108804 -0.0204862 -0.0365338 -0.0488992 0.00461825 -0.00749445 0.00500687 0.00157117 -0.00701087 -0.0167351 0.00386605 0.0384098 0.064068 0.00338354 0.00626325 0.00117305 -0.0680283 0.0181459 0.00546913 0.0131735 0.0396718 -0.0084182 -0.0291423 0.00788421 0.0108698 0.0325316 0.00556582 0.00821779 0.0266992
internal_weight=0 4767.93 1242.64 443.049 303.92 10942.6 3525.29 10818.1 4930.66 1040.3 482.013 3890.36 53.5919 36.0488 3836.76 2549.64 1468.16 172.574 214.684 135.115 1081.48 79.5699 3434.54 124.527 5887.46 2573.46 317.309 3314 2256.15 169.414
internal_count=110135 46521 16161 7147 6075 63614 30360 62385 31038 7302 3296 23736 412 278 23324 14513 8529 4264 1197 764 5984 433 29876 1229 31347 13413 1539 17934 11874 847
shrinkage=0.1


Tree=20
num_leaves=31
num_cat=0
split_feature=2 1 2 0 1 2 0 1 2 0 1 2 1 2 1 2 1 1 1 0 0 1 1 0 1 2 2 2 2 0
split_gain=64.6228 11.9069 9.10797 8.39396 7.32407 11.6438 18.2299 16.8208 4.12336 3.96832 6.25302 4.53328 9.32576 4.5521 6.34437 3.81377 3.78318 8.57551 3.57225 7.99348 5.7525 5.24288 3.52327 3.37491 14.3861 8.98256 7.16946 6.99612 4.10158 3.77333
threshold=0.041895823553204543 0.70965051651000988 0.15333924442529681 0.24637241661548617 0.1611774563789368 1.0000000180025095e-35 0.20534720271825793 0.34661282598972326 0.039237802848219878 0.067165967077016844 0.56505355238914501 0.095120631158351912 0.48616881668567663 0.11551984772086145 0.27178050577640539 0.12546318024396899 0.34661282598972326 0.25550663471221929 0.12959293276071551 0.57665941119194042 1.0014823079109194 0.083806961774826064 0.58583304286003124 0.09878061339259149 0.49196842312812811 0.14462514221668246 0.051767878234386451 0.15032421052455905 0.12671110779047015 0.42540526390075689
decision_type=10 10 10 10 8 10 10 10 10 8 10 10 10 10 10 8 10 10 10 10 10 10 10 10 10 10 10 10 10 10
left_child=3 2 9 4 -1 6 7 -6 18 11 23 -2 13 -13 -15 22 17 -8 20 -20 -5 -22 -14 -11 28 26 -26 -27 -25 -30
right_child=1 -3 -4 8 5 -7 16 -9 -10 10 -12 12 15 14 -16 -17 -18 -19 19 -21 21 -23 -24 24 25 27 -28 -29 29 -31
leaf_value=-0.010140367232254838 0.0033648374497583892 -0.038349808496260115 -0.00091574878357103648 -0.010140367232254838 -0.031740227497479997 -0.010140367232254838 -0.011939493462484315 -0.08533174348829238 0.095859836924799505 0.0033648374497583892 0.022461099832525318 -0.01668575617641271 0.00187720511235241 0.0033648374497583892 -0.082984308322482048 0.0010595974723221822 -0.010140367232254838 -0.028024078435683709 -0.0048524773638212743 0.026972568232971006 -0.0014245193181056312 0.044680235403032204 -0.053191392470642196 0.013054982067998992 0.0055941394415947952 0.0055941394415947952 0.074354240927865509 0.068849744193231782 0.0055941394415947952 0.10412793142550994
leaf_weight=436.43538527935743 282.38631434738636 64.969757784157991 2336.7345252558589 694.61011906713247 335.55713264085352 458.36176835745573 571.074482627213 70.950965223833919 3.968372404575347 2155.2759457081556 250.14124548435211 40.289714269340038 20.86726751178503 3.4436851590871802 30.770708344876766 473.67728863656521 40.078062105923891 165.13334867358208 1784.5523415505886 82.573768146336079 412.52669998258352 26.233324751257896 26.212207317352295 875.27917668223381 5.2739935964345923 58.476083293557167 66.755161285400391 19.109479233622551 3889.1013517826796 3.892271786928176
leaf_count=4329 1974 815 16329 5787 5486 3486 6141 2117 22 12106 1253 292 109 28 209 2690 342 2192 15271 567 3180 177 162 4599 25 294 328 96 19709 20
internal_value=0 0.00432876 0.00459189 -0.00938651 -0.0142738 -0.0182802 -0.023938 -0.041094 -0.00600695 0.00616121 0.00692272 -0.000193048 -0.00637271 -0.0394642 -0.0662872 -0.00163835 -0.0149542 -0.0188479 -0.00614167 -0.00344501 -0.0101404 0.00133207 -0.0287831 0.00637321 0.00782344 0.0383569 0.063787 0.0147479 0.00686539 0.00559414
internal_weight=0 10602.7 10537.7 5082.06 2077.59 1641.16 1182.79 406.508 3004.46 8200.95 7323.3 877.647 595.261 74.5041 34.2144 520.757 776.286 736.208 3000.5 1867.13 1133.37 438.76 47.0795 7073.16 4917.89 149.615 72.0292 77.5856 4768.27 3892.99
internal_count=110135 61038 60223 49097 24093 19764 16278 7603 25004 43894 38430 5464 3490 529 237 2961 8675 8333 24982 15838 9144 3357 271 37177 25071 743 353 390 24328 19729
shrinkage=0.1


Tree=21
num_leaves=31
num_cat=0
split_feature=2 1 0 1 1 2 1 1 0 2 0 1 1 1 0 1 1 1 0 1 1 0 2 0 1 2 2 1 2 2
split_gain=52.5635 10.7298 7.89805 9.1075 9.05828 12.3939 15.5 7.57976 10.074 7.1357 15.0373 7.3943 6.13518 5.93126 5.84154 5.23992 4.66136 4.62105 4.11282 5.48159 3.84163 3.72241 3.50641 8.94038 6.76891 5.61055 3.45813 5.35438 4.98282 4.11768
threshold=0.17578171193599704 0.75676968693733226 0.22302807122468951 0.36031506955623632 0.1635687202215195 0.17578171193599704 0.29621499776840216 0.36378818750381475 0.17567554116249087 0.10544034093618394 0.14188315719366076 0.31311427056789404 0.29424442350864416 0.28799033164978033 0.17694571614265445 0.35036307573318487 0.38571465015411383 0.67908164858818065 0.39709596335887914 0.1138356886804104 0.17141485214233401 0.25904731452465063 0.1328234598040581 0.17333061248064044 0.58583304286003124 0.13124398142099383 0.14054364711046222 0.32617412507534033 0.14153362810611728 0.098633412271738066
decision_type=8 10 8 10 10 10 10 10 8 10 10 10 10 10 10 10 10 10 8 8 10 10 10 10 10 10 10 10 10 10
left_child=1 7 4 18 -2 6 20 8 9 -1 -11 -12 21 -7 16 -16 -8 22 -4 -20 -6 -10 24 -24 -9 -26 27 29 -28 -14
right_child=2 -3 3 -5 5 13 14 17 12 10 11 -13 26 -15 15 -17 -18 -19 19 -21 -22 -23 23 -25 25 -27 28 -29 -30 -31
leaf_value=-0.0012606473559447111 -0.010564573312617363 -0.061644766222120118 -0.0099923459339612691 0.02082866898667015 -0.064248454228895469 -0.057410943926572935 -0.0547156440846093 0.011852779362938777 -0.0012606473559447111 -0.04306763221703469 -0.024839004503247549 -0.0022432147740609433 -0.0012606473559447111 -0.010564573312617363 -0.054107344344767473 -0.010564573312617363 -0.10176645925952883 -0.015735531553339874 -0.0064632578864808532 0.0052410463567074336 -0.020046077876921309 0.0098205653098820504 0.0044697034612783499 0.047308809182997465 -0.017986282467950348 0.035726798371484243 0.057528777840309769 -0.0012606473559447111 0.012856945516826 0.022324099342840093
leaf_weight=545.71748225390911 405.07797963172197 24.967180326581001 2001.3860916011035 121.0771461352706 20.471706587821245 31.339616298675537 47.24463065341115 1747.7657973095775 1505.4539728909731 137.15643317252398 80.759898088872433 565.25821455568075 29.864041060209274 304.13082763552666 42.827258892357349 11.196445019915698 37.985720347613096 94.94025145098567 877.32934141159058 527.89892073720694 497.02409716323018 347.7580948472023 4372.0093550607562 49.265366554260254 131.11714936047792 22.833200305700302 26.037559926509857 255.45991641283035 608.64756517112255 188.81476102769375
leaf_count=3885 4074 410 18844 667 286 246 1498 9347 10001 1026 550 3483 166 2344 1025 248 1212 818 6931 4193 6745 1939 23150 237 749 126 130 1305 3546 954
internal_value=0 0.00383464 -0.00864326 -0.00612294 -0.0150062 -0.0214767 -0.0297639 0.00398731 0.000733601 -0.00650034 -0.0129951 -0.00661038 0.00397905 -0.0105646 -0.0593791 -0.0336535 -0.0756854 0.00616268 -0.00708085 -0.00293417 -0.0217947 0.000458687 0.00649149 0.00494705 0.0100821 -0.0100198 0.00986274 0.0034015 0.0146896 0.0158267
internal_weight=0 10733.8 4924.99 3527.69 1397.3 992.22 656.75 10708.9 4290.93 1328.89 783.175 646.018 2962.04 335.47 139.254 54.0237 85.2304 6417.93 3406.61 1405.23 517.496 1853.21 6322.99 4421.27 1901.72 153.95 1108.82 474.139 634.685 218.679
internal_count=110135 61822 48313 30635 17678 13604 11014 61412 26985 8944 5059 4033 18041 2590 3983 1273 2710 34427 29968 11124 7031 11940 33609 23387 10222 875 6101 2425 3676 1120
shrinkage=0.1


Tree=22
num_leaves=31
num_cat=0
split_feature=2 1 1 1 0 2 0 1 0 0 2 1 0 2 1 0 1 1 2 2 2 1 2 1 0 1 2 2 2 1
split_gain=42.8827 9.05857 7.07023 6.57981 13.6 9.99706 7.94123 5.63994 6.36409 5.53847 4.6238 4.4104 6.03712 4.15392 15.9892 7.68271 12.157 3.9379 3.89786 3.65908 3.43764 3.39594 4.59013 3.28823 5.40497 3.2529 6.96731 6.72424 5.26831 5.79353
threshold=0.041895823553204543 0.75676968693733226 0.054762216284871108 0.29424442350864416 0.2192456126213074 0.10870866850018503 0.19437246024608615 0.36203490197658544 0.17567554116249087 0.24312404543161395 0.17686564475297931 0.12959293276071551 0.57665941119194042 0.006852873135358096 0.25550663471221929 0.21170939505100253 0.33077408373355871 0.6395699977874757 0.15333924442529681 0.14054364711046222 0.13863688707351687 0.36378818750381475 1.0000000180025095e-35 0.2839448899030686 0.14099092036485675 0.2682908326387406 0.10870866850018503 0.13624630123376849 0.13884212076663974 0.27763947844505316
decision_type=10 10 8 8 10 10 10 8 10 10 10 10 10 10 8 10 10 10 10 10 10 8 10 10 10 10 10 10 10 8
left_child=2 3 -1 4 5 -2 7 8 -5 13 -8 -11 -13 14 -4 21 -17 18 -9 -10 -3 -16 -23 -7 -25 26 -6 -27 29 -29
right_child=1 20 9 6 25 23 10 17 19 11 -12 12 -14 -15 15 16 -18 -19 -20 -21 -22 22 -24 24 -26 27 -28 28 -30 -31
leaf_value=0.0084022114776389888 -0.0056206961476471546 -0.010995182548295625 -0.010630737089196939 -0.0067713371235801727 0.025902811684879797 -0.037714087742181622 0.014539871988402085 0.0063802909881542774 -0.0003240460679900161 -0.009257499973941442 0.071281748639914697 -0.0040901212914009593 0.02330428096212725 -0.009257499973941442 -0.040063575338787419 -0.034884800940661743 -0.009257499973941442 -0.0081423764164235361 -0.00041398336493585696 0.0099197739017154139 -0.089158919375396647 -0.085059331609312547 -0.034884800940661743 -0.1098073188146601 -0.0098751481230448853 -0.0056206961476471546 -0.004666286514105499 0.18277498194349426 0.021690552513337735 0.042888880483873654
leaf_weight=259.29858147352934 191.84871092438698 9.2816660068929213 1171.7707367353141 947.15136536955833 90.998471468687057 173.85077485442162 555.87760262191296 6041.020520940423 237.32241819798946 895.89269334822893 14.742096550762652 1873.8089367225766 84.054943390190601 427.29284108802676 103.84049303084612 93.617253936827183 39.477138858288527 220.46403113380075 981.58549798280001 405.00698308646679 14.288449995219706 47.673204438760877 12.952007874846457 5.7238075956702223 99.452002003788948 72.535980880260468 412.71007331460714 4.3067820370197269 134.64606822282076 9.4727442860603333
leaf_count=2055 1227 170 13540 6307 484 1225 2945 31789 1212 7389 102 16194 567 3242 2715 1284 367 1607 6759 2450 238 1635 109 42 680 397 2492 24 837 51
internal_value=0 0.00354623 -0.00767741 0.00368395 -0.00330375 -0.0165351 0.00457238 0.00383374 -0.00156047 -0.00855512 0.0160058 -0.00577148 -0.00291403 -0.0127435 -0.0158875 -0.0365884 -0.0187264 0.00501749 0.00543062 0.00612324 -0.0583789 -0.0510432 -0.0698493 -0.0292705 -0.0153136 0.00529369 0.000856235 0.0154094 0.0277176 0.0866102
internal_weight=0 10622.3 5009.68 10598.7 1195.55 470.875 9403.17 8832.55 1589.48 4750.38 570.62 2853.76 1957.86 1896.62 1469.33 297.56 133.094 7243.07 7022.61 642.329 23.5701 164.466 60.6252 279.027 105.176 724.67 503.709 220.962 148.426 13.7795
internal_count=110135 61038 49097 60630 7459 3174 53171 50124 9969 47042 3047 24150 16761 22892 19650 6110 1651 40155 38548 3662 408 4459 1744 1947 722 4285 2976 1309 912 75
shrinkage=0.1


Tree=23
num_leaves=31
num_cat=0
split_feature=2 1 0 1 1 1 0 2 2 0 2 1 0 2 2 0 1 2 1 2 2 0 1 0 1 2 1 1 0 1
split_gain=34.9745 7.78039 7.02359 17.7318 6.43172 5.19956 8.00801 11.3529 11.0885 8.00052 12.3041 9.30762 7.63598 7.53153 4.72373 4.66006 6.42941 4.47905 5.23718 4.15524 4.54255 3.94995 3.85914 3.8242 8.17598 3.64078 3.56232 4.33616 3.53595 3.36143
threshold=0.006852873135358096 0.75676968693733226 0.22915455698966983 0.25739090144634252 0.30773597955703741 0.42022149264812475 0.13706518709659579 0.14226241409778598 0.15410607308149341 0.12762332707643512 0.17361423373222354 0.43920803070068365 0.11524017527699472 0.12799039483070376 0.17615170776844027 0.20621934533119204 0.34411697089672094 0.17103811353445056 0.42260518670082098 0.12042164057493211 0.13528840988874438 0.13516815006732943 0.45703256130218511 0.76693794131279003 0.07971444353461267 0.15968700498342517 0.12335589900612833 0.26314653456211096 0.038492325693368919 0.41146315634250646
decision_type=10 10 10 8 10 10 8 8 10 10 10 10 10 10 10 10 10 10 10 10 10 10 10 10 10 10 10 10 10 10
left_child=2 5 3 -1 23 6 7 -2 -9 11 19 13 22 -7 -10 -5 -17 18 -15 -11 -21 -22 28 26 -25 -24 -4 -28 -13 -8
right_child=1 -3 4 15 -6 9 29 8 14 10 -12 12 -14 17 -16 16 -18 -19 -20 20 21 -23 25 24 -26 -27 27 -29 -30 -31
leaf_value=-0.009653066128452641 -0.0015785398546507455 -0.055690266949620551 -0.009653066128452641 -0.0527305411877802 0.011071071038980194 0.011177059540323978 0.0025748862217681058 -0.054870351064789158 -0.0050995730167365978 0.011177059540323978 0.1308926072754632 -0.061410183301629097 0.011177059540323978 0.011177059540323978 -0.04048103553531391 -0.036255039881279545 -0.009653066128452641 0.011177059540323978 -0.030832035245818391 0.043004444783365042 0.011177059540323978 0.032585196663531608 0.005137613422967497 -0.0037367665697777179 0.024293433019883386 -0.010848393528263812 -0.0037367665697777179 -0.009653066128452641 -0.0067043971479461969 0.020168838992833366
leaf_weight=968.15963220223784 875.87299781292677 22.556798927485943 447.82851253449917 129.88720098510385 228.02520797401667 78.754464969038963 5121.6438632830977 78.673045195639133 200.44596698135138 74.6998131275177 9.4726316109299642 12.686259508132933 458.95176048576832 16.536982245743275 46.484860584139824 46.916656505316496 17.183891795575619 25.822467043995857 195.99616319686174 85.823049180209637 187.9477828964591 107.00162030011415 3083.5880009792745 510.6086710691452 119.32676893472672 149.36832723021507 1825.841924212873 200.87679405510426 172.07162126153708 110.94417557120323
leaf_count=11542 5912 410 3914 3923 1412 449 30853 430 1521 365 57 97 2231 92 388 899 200 187 1048 415 914 519 16234 3987 862 1023 16802 1958 927 564
internal_value=0 0.00298037 -0.00747326 -0.0141673 -0.00513886 0.00309968 0.00125741 -0.006105 -0.0221765 0.005644 0.0180899 0.00426418 0.00561157 -0.0122076 -0.0117602 -0.0418423 -0.0197795 -0.0211262 -0.0259852 0.0157439 0.0227561 0.0168644 0.00359573 -0.00632948 0.000626773 0.00439903 -0.00810031 -0.0051231 -0.0104607 0.00294792
internal_weight=0 11115.3 4494.66 1162.15 3332.51 11092.8 6434.06 1201.48 325.604 4658.72 464.945 4193.78 3876.67 317.11 246.931 193.988 64.1005 238.356 212.533 455.472 380.772 294.949 3417.71 3104.48 629.935 3232.96 2474.55 2026.72 184.758 5232.59
internal_count=110135 64636 45499 16564 28935 64226 39668 8251 2339 24558 2270 22288 20512 1776 1909 5022 1099 1327 1140 2213 1848 1433 18281 27523 4849 17257 22674 18760 1024 31417
shrinkage=0.1


Tree=24
num_leaves=31
num_cat=0
split_feature=2 1 1 0 1 2 0 1 1 1 0 2 2 2 0 2 1 2 0 1 1 1 2 2 2 1 2 0 1 2
split_gain=29.6472 6.8451 6.08283 8.6916 9.08928 9.7749 8.17391 7.90223 5.63039 5.09133 5.97943 11.8436 8.72221 8.46732 5.41321 9.16326 6.80076 7.23283 6.02683 5.18504 5.0508 4.87931 4.55537 4.51157 4.21131 4.53241 4.02111 4.70287 5.21509 4.33779
threshold=0.17833667993545535 0.67908164858818065 0.058788921684026725 0.22190275788307193 0.24570251256227496 0.17833667993545535 0.20621934533119204 0.32920126616954809 0.38571465015411383 0.42022149264812475 0.14188315719366076 0.14226241409778598 0.15410607308149341 0.17727660387754443 0.12762332707643512 0.17541952431201938 0.43920803070068365 0.12799039483070376 0.11156299710273744 0.36378818750381475 0.29219147562980657 0.31138080358505255 0.14407274127006534 0.15183113515377047 0.17103811353445056 0.42260518670082098 0.12042164057493211 0.13516815006732943 0.43450327217578893 0.13661427795886996
decision_type=8 10 8 8 10 10 10 10 10 10 8 10 10 10 10 8 10 10 10 10 8 8 10 10 10 10 10 10 10 10
left_child=1 9 -2 4 -4 6 8 -5 -6 10 11 -1 19 -12 16 26 17 -11 -18 -13 -15 -22 -21 -24 25 -19 -16 28 -28 -29
right_child=2 -3 3 7 5 -7 -8 -9 -10 14 13 12 -14 20 15 -17 18 24 -20 22 21 -23 23 -25 -26 -27 27 29 -30 -31
leaf_value=-0.00079605735250002437 0.0067541146503198287 -0.021447944786538747 -0.010291127686296069 -0.0064189644313510366 -0.045112090006669298 -0.010291127686296069 -0.019828607108499964 0.013990000732262885 -0.092949038498661568 0.010167057134041818 0.002372580820900189 -0.096728628728924793 -0.0095762362895083497 -0.00079605735250002437 0.010167057134041818 0.16336668652656272 0.0034752419520763331 0.010167057134041818 0.010167057134041818 -0.082564747757350052 0.12390726542315914 0.040158364447946036 -0.015322862942576489 -0.074697668818458934 0.010167057134041818 -0.028091350999525561 0.010167057134041818 0.087261498013334757 0.026036396914700562 0.030606561985598382
leaf_weight=1024.3699361979961 309.70784740149975 115.41912140697241 713.05546987056732 2999.9213510006666 103.14029896445572 135.05718316137791 110.00061492994428 202.52560209855437 32.312584519386292 79.896093621850014 4810.3020599409938 14.817668266594408 293.33194067329168 17.023909859359264 73.998429104685783 4.1753732413053504 3109.2997780740261 16.612945340573788 675.64752847701311 16.226237937808037 8.2982156649231893 43.029927328228951 77.453080020844936 15.330470159649847 20.843574456870556 193.730255253613 175.83852003514767 15.559628546237944 84.882490500807762 102.80686193704605
leaf_count=6746 2466 1229 8542 27304 2979 1064 1674 1207 1285 456 28582 98 2259 134 359 24 16375 92 3292 85 58 322 403 84 148 1048 860 72 399 489
internal_value=0 0.00277675 -0.00678096 -0.00775673 -0.015454 -0.0280528 -0.0400787 -0.00512828 -0.0565237 0.00303389 0.00119722 -0.0044613 -0.0189711 0.00286919 0.00558326 0.0159029 0.00443123 -0.00978188 0.0055994 -0.0412264 0.0378181 0.053698 -0.033682 -0.0251333 -0.0189594 -0.0234874 0.0145439 0.0215236 0.0140188 0.038054
internal_weight=0 10988.9 4605.72 4296.01 1093.57 380.511 245.453 3202.45 135.453 10873.5 6320.18 1441.53 417.159 4878.65 4553.29 457.261 4096.03 311.083 3784.95 123.827 68.3521 51.3281 109.01 92.7836 231.187 210.343 453.086 379.088 260.721 118.366
internal_count=110135 63614 46521 44055 15544 7002 5938 28511 4264 62385 38771 9675 2929 29096 23614 2203 21411 1744 19667 670 514 380 572 487 1288 1140 2179 1820 1259 561
shrinkage=0.1


Tree=25
num_leaves=31
num_cat=0
split_feature=2 1 1 1 0 2 0 2 2 1 1 0 2 1 2 1 1 2 2 2 1 2 0 0 2 1 0 2 1 2
split_gain=24.8829 6.10745 4.43416 3.43692 4.21051 6.19608 10.9561 4.92736 6.2039 8.0641 5.26125 4.11825 4.4858 3.85377 3.77779 3.45442 4.23248 3.40595 3.29486 3.29278 5.49081 4.63096 4.20797 3.80045 3.15323 2.94341 3.17778 3.75033 3.40853 2.91782
threshold=0.16824909299612048 0.75676968693733226 0.054762216284871108 0.36378818750381475 0.17567554116249087 0.10544034093618394 0.14188315719366076 0.11846210062503816 0.1215699575841427 0.30418185889720922 0.35689051449298864 0.19753261655569079 0.14779462665319446 0.31636604666709905 0.16566212475299838 0.26314653456211096 0.31475342810153967 0.12042164057493211 0.13863688707351687 0.1328234598040581 0.58583304286003124 0.13124398142099383 0.17227505147457126 0.021653157658874992 0.14678917825222018 0.62568077445030224 0.059590099379420287 0.091551326215267195 0.67908164858818065 0.13397677242755893
decision_type=8 10 8 10 8 10 10 10 10 10 10 8 10 10 10 10 10 10 10 10 10 10 10 10 10 10 10 10 8 10
left_child=1 3 -2 4 5 -1 15 -6 9 -9 11 -10 24 -8 19 -7 -17 -11 29 20 -5 25 23 -21 -13 -22 -27 -28 -29 -3
right_child=2 18 -4 14 7 6 13 8 10 17 -12 12 -14 -15 -16 16 -18 -19 -20 22 21 -23 -24 -25 -26 26 27 28 -30 -31
leaf_value=-0.00079369336269338384 0.0073085293092874969 -0.044439897064006958 -0.0060460265973674961 0.009349797982722674 -0.00079369336269338384 -0.024030240340786491 -0.024030240340786491 0.017019322257488978 -0.00079369336269338384 0.065973411277027508 0.04596142338921122 0.010183263929617999 0.0031192344391749011 -0.0024751076229005495 0.026742715342511953 -0.084718083747151895 -0.037284488737210013 0.18825412481058146 -0.084591745610341801 -0.084939786296739983 -0.029438288795361263 0.028641353255507498 0.031752874875847485 0.0024245929089707174 0.03622740946552256 -0.015325398420326656 0.0068832804589420635 0.12013085910772381 0.0074581282599792981 0.0789069301121611
leaf_weight=541.85533422976732 261.00227322429419 5.8593113869428652 5244.7113935276866 1760.7937596142292 488.25202296674252 12.220889568328856 61.27667098492384 22.103218972682956 611.59974756091833 4.4342000186443311 30.571411311626434 929.92216047644615 565.91181615740061 421.81154746562243 75.518985159695148 26.886888220906258 62.63255063444376 4.6839760690927505 12.19689219072461 4.9852646663784972 77.53689044713974 27.770662844181061 49.148607477545738 4143.3707684390247 48.933639660477638 52.623667124658823 12.150165989995005 6.4745178371667835 4.5871484801173219 2.8509219102561474
leaf_count=3885 2055 115 51378 9347 3064 99 399 131 3342 23 153 5399 3597 2454 511 195 464 24 235 45 422 165 239 21524 282 394 69 34 34 57
internal_value=0 0.0029481 -0.00541294 0.00306045 0.000705463 -0.00443129 -0.0122584 0.0028439 0.00539972 0.0496614 0.00476783 0.00418382 0.00703216 -0.00597711 0.00451289 -0.0420834 -0.051531 0.128789 -0.0510441 0.00423945 0.00764428 -0.00893418 0.00266424 0.0023196 0.0114852 -0.0157379 -0.00173007 0.029092 0.0734067 -0.00406759
internal_weight=0 10069 5505.71 10048.1 3833.1 1126.68 584.829 2706.41 2218.16 31.2214 2186.94 2156.37 1544.77 483.088 6214.96 101.74 89.5194 9.11818 20.9071 6139.44 1941.94 181.143 4197.5 4148.36 978.856 153.372 75.8355 23.2118 11.0617 8.71023
internal_count=110135 56702 53433 56295 23511 7496 3611 16015 12951 178 12773 12620 9278 2853 32784 758 659 47 407 32273 10465 1118 21808 21569 5681 953 531 137 68 172
shrinkage=0.1


Tree=26
num_leaves=31
num_cat=0
split_feature=2 1 1 0 2 0 2 1 0 1 0 1 0 0 1 2 1 2 1 2 1 0 1 1 2 2 2 1 1 2
split_gain=20.4953 5.21883 4.56773 7.75994 7.41264 5.47407 5.59593 4.77216 9.1315 3.95598 3.995 3.33901 6.8365 3.18153 6.62122 3.16451 2.87308 2.81856 2.77831 2.70503 11.7473 5.56316 13.3387 6.29445 2.97562 2.61794 4.25431 3.07969 3.33116 3.17052
threshold=0.041895823553204543 0.75676968693733226 0.29815596342086798 0.2192456126213074 0.10870866850018503 0.19437246024608615 0.17501939088106158 0.2839448899030686 0.17448827624320987 0.058788921684026725 0.24522272497415545 0.1635687202215195 0.63818210363388073 0.52936869859695446 0.1138356886804104 0.13863688707351687 0.30773597955703741 0.039237802848219878 0.15910258144140246 0.039237802848219878 0.25997616350650793 0.17694571614265445 0.34536293148994451 0.37986135482788091 0.039237802848219878 0.091551326215267195 0.13492499291896823 0.30030822753906256 0.30228850245475775 0.17578171193599704
decision_type=10 10 8 10 10 10 10 10 10 8 10 10 8 10 10 10 8 10 10 8 8 10 10 10 10 10 10 10 10 10
left_child=9 2 3 4 -2 16 -7 -6 -9 -1 19 13 17 -12 -15 -3 25 -13 -16 -11 -21 23 -23 -22 -25 -4 -27 -28 -29 -30
right_child=1 15 5 -5 7 6 -8 8 -10 10 11 12 -14 14 18 -17 -18 -19 -20 20 21 22 -24 24 -26 26 27 28 29 -31
leaf_value=0.0055154909250727671 -0.0044230504577532793 -0.0025113835372091941 0.0079753184347228501 0.0034687448157957471 -0.034178998365826448 0.011045481047908173 0.061981428144680079 -0.067174471878306788 -0.0044230504577532793 -0.0066483418957779946 -0.0066483418957779946 -0.00087461319620548588 0.15389473278368246 -0.0031424637124232756 0.01622094554749081 -0.08273402122044872 0.0029038965203623817 0.07662870624470508 0.084165595951975328 -0.0079797577659556692 -0.034731301618579284 -0.034731301618579284 -0.0066483418957779946 -0.097115483083849277 -0.034731301618579284 -0.084235433137615306 0.0079753184347228501 -0.070813082754578524 -0.028249279195891153 0.0079753184347228501
leaf_weight=312.06113436073065 202.93291938304901 8.5804476439952868 23.434227965772152 751.76009290665388 169.25893084704876 498.72565675526857 22.543644294142723 24.487060457468033 135.19541508704424 417.98698421195149 600.82104218006134 1437.4632012322545 2.8685350865125647 512.70936673134565 144.79359602928162 11.517266491428016 8713.8114334158599 4.1216159313917151 6.2792506888508788 1216.2500047981739 63.261877439916134 111.05856221728027 48.407706547528505 29.65964631177485 8.2116668298840505 9.7011478096246702 13.55007068812847 12.582630075514315 41.050539903342724 8.4310364201664907
leaf_count=2466 1302 170 151 4403 1225 2582 149 179 906 3251 5484 12443 18 4138 1052 238 49141 22 45 14415 1762 2001 653 1294 53 59 94 89 285 65
internal_value=0 0.00242595 0.00252223 -0.00307119 -0.0123148 0.00329064 0.0132483 -0.0224799 -0.0100793 -0.00538048 -0.00611903 -0.00365542 -0.000330436 -0.00664834 0.000363414 -0.048484 0.0027023 -0.00063732 0.019045 -0.00964127 -0.0121081 -0.0313756 -0.0197401 -0.0497225 -0.082294 -0.0134512 -0.0218919 -0.0138934 -0.0248707 -0.0131881
internal_weight=0 10647.6 10627.5 1283.63 531.874 9343.83 521.269 328.941 159.682 4915.95 4603.89 2709.06 1444.45 1264.6 663.782 20.0977 8822.56 1441.58 151.073 1894.84 1476.85 260.599 159.466 101.133 37.8713 108.75 85.3154 75.6143 62.0642 49.4816
internal_count=110135 61038 60630 8015 3612 52615 2731 2310 1085 49097 46631 23202 12483 10719 5235 408 49884 12465 1097 23429 20178 5763 2654 3109 1347 743 592 533 439 350
shrinkage=0.1


Tree=27
num_leaves=31
num_cat=0
split_feature=2 1 1 1 0 1 0 1 0 2 1 0 2 0 1 2 1 2 1 0 1 1 2 2 1 0 1 1 2 0
split_gain=17.3424 4.78115 3.74076 3.50214 8.04311 6.86973 7.92874 4.31573 5.71794 4.21848 9.27464 3.15455 4.99582 5.20832 4.67671 3.74144 5.22762 6.84771 3.91884 3.98342 3.81684 3.50238 3.85931 2.93527 5.13113 5.25224 5.20634 2.80963 2.71457 6.12201
threshold=0.17578171193599704 0.67908164858818065 0.36378818750381475 0.076032605022192015 0.76693794131279003 0.1138356886804104 0.22190275788307193 0.32776418328285223 0.38929763436317449 0.17686564475297931 0.24570251256227496 0.17567554116249087 0.12577449530363086 0.14188315719366076 0.35689051449298864 0.11846210062503816 0.27987143397331243 0.1215699575841427 0.35689051449298864 0.19604466110467914 0.30418185889720922 0.31311427056789404 0.16062286496162417 0.17615170776844027 0.38571465015411383 0.17333061248064044 0.41367079317569738 0.33077408373355871 0.1215699575841427 0.16623869538307193
decision_type=8 10 10 10 10 10 10 10 10 10 10 8 10 10 10 10 8 10 10 8 10 10 10 8 10 10 10 8 10 10
left_child=1 2 11 -2 5 -5 9 8 -8 10 -7 12 -1 14 -14 -13 -17 20 19 -19 -18 -15 -23 -12 -25 26 -26 -22 -4 -30
right_child=3 -3 28 4 -6 6 7 -9 -10 -11 23 15 13 21 -16 16 17 18 -20 -21 27 22 -24 24 25 -27 -28 -29 29 -31
leaf_value=-0.0010266951611980965 0.0016079219589530858 -0.018359564894998941 0.010692412640824085 -0.020178833575029968 0.017534666352809616 -0.0089231265120359744 -0.0066211221397056378 0.0052778733349692899 0.0052778733349692899 -0.0075607556846371791 -0.0075607556846371791 -0.0010266951611980965 -0.021874079445692252 -0.01987788061021243 -0.079912678176678492 -0.0010266951611980965 0.024271036418760647 -0.00095020818038876102 0.041066534823047451 0.0087368085646222036 0.16979391777500177 -0.013439163929352483 -0.0010266951611980965 -0.02762445488922316 -0.10047174867181746 -0.0075607556846371791 -0.042433852066071996 0.060527550101597709 0.0027755765949741195 0.022962630595743633
leaf_weight=624.60393043607473 677.95826459676027 112.06293614208698 544.74430683255196 358.58945713937283 138.52721574157476 568.22008362039924 1767.3279543630779 210.00116009637713 499.42518711090088 245.43160842359066 28.012950524687767 488.08828123658895 74.486032724380493 67.852629855275154 17.064464740455151 541.85883475095034 11.1149317920208 639.9845345467329 31.448061510920525 1260.7448793128133 4.3475280851125691 280.5220899656415 244.02988085895777 238.96655768342316 30.278425900265574 5.0527634080499402 10.775000251829622 5.1302794218063363 5669.624491892755 154.31592230498791
leaf_count=4399 5553 1228 3280 3329 1015 7180 17434 1253 4036 1921 214 3064 633 493 141 3324 70 3634 156 7746 22 1541 1737 4925 1224 145 84 25 29561 768
internal_value=0 0.00218818 0.00240419 -0.00505003 -0.0061508 -0.00697892 -0.00566537 -0.00250157 -0.00395065 -0.0126199 -0.0165379 0.000122092 -0.00397132 -0.0104941 -0.0326921 0.00191793 0.0040097 0.00666577 0.00605443 0.00547514 0.0640264 -0.00706363 -0.00399662 -0.030358 -0.0335175 -0.0640609 -0.0773069 0.110649 0.00394188 0.00331047
internal_weight=0 10772 10660 4778.57 4100.61 3962.08 3603.49 2476.75 2266.75 1126.74 881.306 4291.28 1308.56 683.955 91.5505 2982.72 2494.63 1952.77 1932.18 1900.73 20.5927 592.405 524.552 313.086 285.073 46.1062 41.0534 9.47781 6368.68 5823.94
internal_count=110135 61822 60594 48313 42760 41745 38416 22723 21470 15693 13772 26985 8944 4545 774 18041 14977 11653 11536 11380 117 3771 3278 6592 6378 1453 1308 47 33609 30329
shrinkage=0.1


Tree=28
num_leaves=31
num_cat=0
split_feature=2 1 1 0 2 0 2 1 2 0 0 1 2 0 2 2 1 1 1 1 0 2 1 0 1 2 1 2 1 0
split_gain=14.0977 4.12514 3.18261 7.35178 7.10533 3.7865 6.38186 5.36823 5.32676 9.49336 3.79511 3.07669 4.19171 3.45873 3.41995 2.954 2.94158 2.85477 2.85443 8.31092 3.23301 3.13175 2.94024 2.6178 2.79726 2.5077 2.49429 2.45117 5.30028 7.24744
threshold=0.041895823553204543 0.75676968693733226 0.29424442350864416 0.2192456126213074 0.10870866850018503 0.179187186062336 0.17727660387754443 0.32776418328285223 0.091551326215267195 0.093852709978818907 0.16026654094457629 0.34536293148994451 0.085195243358612074 0.2563107311725617 0.12749242037534717 0.13863688707351687 0.054762216284871108 0.30773597955703741 0.41797071695327764 0.43224006891250616 1.0000000180025095e-35 0.017447362653911117 0.40937015414237982 0.20969787985086444 0.2666983306407929 0.034520003944635398 0.57791969180107128 0.10870866850018503 0.25392675399780279 0.25904731452465063
decision_type=10 10 8 10 10 10 10 8 10 10 10 10 10 10 8 10 8 10 10 10 10 8 8 10 10 8 10 10 10 10
left_child=16 2 3 4 -2 7 11 8 -4 -10 -11 -7 -13 -14 -15 -3 -1 -12 22 21 25 -20 -18 -6 -25 -21 -22 -5 -29 -30
right_child=1 15 5 27 23 6 -8 -9 9 10 17 12 13 14 -16 -17 18 -19 19 20 26 -23 -24 24 -26 -27 -28 28 29 -31
