tree
version=v3
num_class=1
num_tree_per_iteration=1
label_index=0
max_feature_idx=2
objective=binary sigmoid:1
feature_names=eval_data.view_of_net eval_data.distance_to_net eval_data.dist_to_goalie
feature_infos=[0:3.9942196006903545] [0.0030204684139168128:1.0707627393800112] [0.0005212525643174446:0.17999922884485173]
tree_sizes=1169 1192 1194 1187 1190 1184 1189 1190 1194 1193 1177 1196 1200 1194 1195 1190 1193 1194 1192 1185 1180 1192 1178 1182 1181 1195 1181 1191 1190 1199 1189 1185 1189 1200 1174 1192 1201 1178 1197 1202

Tree=0
num_leaves=10
num_cat=0
split_feature=2 2 0 0 2 1 2 1 1
split_gain=1150.54 168.926 84.7089 57.4372 43.8897 43.0392 31.9747 22.9956 22.6754
threshold=0.035025229730011952 0.15592783053764439 0.05271836741284646 0.25681685976196528 0.11763218584002633 0.36329492361823473 1.0000000180025095e-35 0.33931976173552764 0.24590236957452163
decision_type=10 10 8 8 10 10 10 10 10
left_child=3 2 -2 6 5 -4 8 -5 -1
right_child=1 -3 4 7 -6 -7 -8 -9 -10
leaf_value=-1.3558585510406607 -1.3060373474598628 -1.2921350085744985 -1.269057870350957 -1.3363587699088872 -1.212398950600351 -1.1570108247035553 -1.3116590020290348 -1.2015977471700594 -1.395138991071265
leaf_weight=224.49165831506252 122.35730051994324 484.33098122477531 262.72831472754478 646.11452302336693 1394.7032852321863 39.426241278648376 72.734617531299591 12.915492832660673 425.53150069713593
leaf_count=1321 720 2850 1546 3802 8207 232 428 76 2504
internal_value=-1.28293 -1.23965 -1.22568 -1.35507 -1.21988 -1.25444 -1.37454 -1.33372 -1.38157
internal_weight=0 2303.55 1819.22 1381.79 1696.86 302.155 722.758 659.03 650.023
internal_count=21686 13555 10705 8131 9985 1778 4253 3878 3825
shrinkage=1


Tree=1
num_leaves=10
num_cat=0
split_feature=2 2 0 0 2 1 2 1 1
split_gain=950.016 129.555 64.8453 53.1645 32.706 35.2549 29.6506 21.9103 18.8813
threshold=0.035025229730011952 0.15592783053764439 0.05271836741284646 0.25681685976196528 0.10975859881474175 0.34463592522186187 1.0000000180025095e-35 0.24590236957452163 0.34009510089073075
decision_type=10 10 8 8 10 10 10 10 10
left_child=3 2 -2 6 5 -4 7 -1 -5
right_child=1 -3 4 8 -6 -7 -8 -9 -10
leaf_value=-0.068622600876084391 -0.021090774966339154 -0.0083334676413887501 0.0080959775006145575 -0.049604152713904726 0.060580274761257269 0.10713155799086252 -0.026310543340288175 -0.10821834969179758 0.073094802054850347
leaf_weight=215.22310480475426 120.75657963752747 481.80674985051155 235.67311477661133 627.28029590845108 1479.1748282164335 42.413828045129776 71.551561117172241 398.51455867290497 12.797408223152159
leaf_count=1321 720 2850 1376 3806 8374 235 428 2504 72
internal_value=0 0.037926 0.0497939 -0.0678745 0.054665 0.0232009 -0.0872308 -0.0943331 -0.047151
internal_weight=0 2359.83 1878.02 1325.37 1757.26 278.087 685.289 613.738 640.078
internal_count=21686 13555 10705 8131 9985 1611 4253 3825 3878
shrinkage=0.1


Tree=2
num_leaves=10
num_cat=0
split_feature=2 2 0 0 2 2 1 1 1
split_gain=786.427 100.274 50.44 49.2534 27.527 25.1896 26.9092 21.2845 16.704
threshold=0.035025229730011952 0.15592783053764439 0.038720530870384982 0.25681685976196528 1.0000000180025095e-35 0.10975859881474175 0.28593106278804309 0.24590236957452163 0.32564891513585065
decision_type=10 10 8 8 10 10 10 10 8
left_child=3 2 -2 4 7 6 -4 -1 -5
right_child=1 -3 5 8 -6 -7 -8 -9 -10
leaf_value=-0.064506242984781817 -0.030924293298732974 -0.0075378486021854332 0.00092909759107691336 -0.050224110312681647 -0.024063816532230223 0.052124084834978837 0.06875545507993984 -0.10452802491561056 -0.0024892469840454468
leaf_weight=206.52453376352787 86.820539653301239 479.52186986804008 208.11931148171425 537.54690119624138 70.468047797679901 1552.0403597056866 81.359335646033287 372.66658020019531 84.883577316999435
leaf_count=1321 524 2850 1210 3359 428 8522 449 2504 519
internal_value=0 0.033385 0.0435614 -0.0638171 -0.0830773 0.0470731 0.019992 -0.0902573 -0.0437143
internal_weight=0 2407.86 1928.34 1272.09 649.659 1841.52 289.479 579.191 622.43
internal_count=21686 13555 10705 8131 4253 10181 1659 3825 3878
shrinkage=0.1


Tree=3
num_leaves=10
num_cat=0
split_feature=2 2 0 0 2 1 2 1 1
split_gain=652.1 79.284 45.6141 40.5881 25.5527 20.7379 17.7615 23.6061 14.771
threshold=0.035025229730011952 0.15852856770575188 0.25681685976196528 0.05271836741284646 1.0000000180025095e-35 0.24590236957452163 0.11763218584002633 0.48872372825463967 0.33931976173552764
decision_type=10 10 8 8 10 10 10 10 10
left_child=2 3 4 -2 5 -1 7 -5 -4
right_child=1 -3 8 6 -6 -7 -8 -9 -10
leaf_value=-0.060564693341891379 -0.018848809297527247 -0.009514562212088077 -0.042864822630243625 0.014235880004679999 -0.021983347538363344 -0.10107306138014756 0.045647240022408553 0.15809085235854486 0.061162173591236407
leaf_weight=198.40179146826267 119.06606897711754 429.70936708152294 592.17242825031281 303.13956971466541 69.477553188800812 348.13782274723053 1585.3901082128286 11.853096425533293 13.971600055694578
leaf_count=1321 722 2565 3802 1718 428 2504 8490 60 76
internal_value=0 0.0294898 -0.0599427 0.0377894 -0.0791063 -0.0863679 0.041338 0.0196491 -0.040467
internal_weight=0 2449.16 1222.16 2019.45 616.017 546.54 1900.38 314.993 606.144
internal_count=21686 13555 8131 10990 4253 3825 10268 1778 3878
shrinkage=0.1


Tree=4
num_leaves=10
num_cat=0
split_feature=2 0 0 2 2 1 1 1 2
split_gain=543.01 50.8762 43.2867 39.4686 35.2953 24.5175 24.1694 14.6276 13.0128
threshold=0.17562472162199086 0.22832478094605366 0.038720530870384982 0.1540809232869825 0.067779671822540535 0.32564891513585065 0.38707232946017117 0.24590236957452163 0.17562472162199086
decision_type=8 8 8 10 10 8 10 10 10
left_child=2 7 -1 4 6 -3 -4 -2 -9
right_child=1 5 3 -5 -6 -7 -8 8 -10
leaf_value=-0.028906488956094295 -0.056103688276325198 -0.045131145031109085 -0.011342829271656219 0.00072247276224154564 0.039310084563744782 0.022949072493119768 0.10771642420223722 -0.10059573896426804 -0.047369413954877114
leaf_weight=139.17597356438637 159.66492114961147 548.85576432943344 216.60559821128845 422.5987683981657 1739.5020834356546 58.539287596940994 18.507490813732147 302.68968904018402 54.14905957877636
leaf_count=866 1105 3659 1298 2494 9157 352 98 2332 325
internal_value=0 -0.0581895 0.0253111 0.0284588 0.0343949 -0.0385697 -0.00197079 -0.0812619 -0.0925188
internal_weight=0 1123.9 2536.39 2397.21 1974.62 607.395 235.113 516.504 356.839
internal_count=21686 7773 13913 13047 10553 4011 1396 3762 2657
shrinkage=0.1


Tree=5
num_leaves=10
num_cat=0
split_feature=2 0 1 0 2 2 0 1 1
split_gain=451.891 47.1636 36.1488 21.66 23.2917 18.9255 23.1312 15.6791 14.0383
threshold=0.17562472162199086 0.25681685976196528 0.30307828299270206 0.042807092472000367 0.15808721904071099 0.10975859881474175 0.22434229182385387 0.32564891513585065 0.24590236957452163
decision_type=8 8 8 8 10 10 8 8 10
left_child=2 8 -1 -4 5 6 -5 -3 -2
right_child=1 7 3 4 -6 -7 -8 -9 -10
leaf_value=-0.01109543755562703 -0.052969515007632299 -0.039355629769081427 -0.020784467264004888 0.060063457726015651 0.0019282304857914799 0.037042526992027633 -0.0048781577813703106 0.017050341491352011 -0.086905598724348429
leaf_weight=285.05597615242004 184.64178192615509 482.8224234431982 92.27831444144249 71.203554138541222 283.44740061461926 1596.1744857728481 238.76008293032646 54.881554871797562 358.70781750977039
leaf_count=1639 1324 3287 580 370 1699 8217 1408 319 2843
internal_value=0 -0.054595 0.0224799 0.0266742 0.0286743 0.0326515 0.01004 -0.0335985 -0.0753734
internal_weight=0 1081.05 2566.92 2281.86 2189.59 1906.14 309.964 537.704 543.35
internal_count=21686 7773 13913 12274 11694 9995 1778 3606 4167
shrinkage=0.1


Tree=6
num_leaves=10
num_cat=0
split_feature=2 2 0 2 0 1 1 1 0
split_gain=379.075 41.6863 35.8346 23.4219 20.5107 20.1583 13.5227 9.25142 11.279
threshold=0.039763961861202395 0.1540809232869825 0.25157743463175514 0.037990492373140457 0.068923389346044736 0.24590236957452163 0.32564891513585065 0.4357791959683826 0.15864781667911243
decision_type=10 10 8 8 8 10 8 10 8
left_child=2 4 3 -1 -2 -5 -4 8 -3
right_child=1 7 6 5 -6 -7 -8 -9 -10
leaf_value=-0.016421360426114983 -0.005502140165443206 -0.03500316525597702 -0.038298929352295286 -0.048905724779998022 0.030893155098425763 -0.09219028572923213 0.0026757380929358101 0.039827426539840373 0.0007361984225048953
leaf_weight=77.316328391432762 169.21072295308113 117.4038629680872 492.3077629879117 172.39872287213802 1823.4949309676886 286.23171567171812 96.299095451831818 43.973304152488708 356.25021387636662
leaf_count=486 974 706 3438 1281 9329 2504 596 258 2114
internal_value=0 0.0212349 -0.048629 -0.0673364 0.0278026 -0.0759197 -0.0315953 -0.00404904 -0.00812246
internal_weight=0 2510.33 1124.55 535.947 1992.71 458.63 588.607 517.627 473.654
internal_count=21686 13381 8305 4271 10303 3785 4034 3078 2820
shrinkage=0.1


Tree=7
num_leaves=10
num_cat=0
split_feature=2 0 2 2 0 1 2 1 1
split_gain=315.014 33.9626 33.0787 23.487 18.0778 14.3097 14.1824 12.5252 11.8106
threshold=0.035025229730011952 0.20550496383213099 0.16319386530536678 0.019354263058984088 0.05271836741284646 0.24590236957452163 0.023409423551969778 0.34009510089073075 0.41764585781433444
decision_type=10 8 10 8 8 10 10 8 10
left_child=1 3 4 -1 -2 -5 -7 -3 -6
right_child=2 7 -4 5 8 6 -8 -9 -10
leaf_value=0.015314117453563578 -0.015402325299859243 -0.037775963071502966 -0.010632215606317101 -0.049486976242887927 0.020705542498681576 -0.098744651703333922 -0.014091084746987184 0.0031170629200566089 0.037858633931095065
leaf_weight=30.168174803256989 116.3459794819355 575.84860827773809 337.29663479328156 127.68755577504635 1571.1564121693373 216.0172705501318 21.786607816815376 86.100092545151711 539.15305884182453
leaf_count=194 724 4242 2052 975 8092 2019 139 562 2687
internal_value=0 -0.0463114 0.0185515 -0.0694901 0.0229722 -0.0764899 -0.090989 -0.032457 0.0250879
internal_weight=0 1057.61 2563.95 395.66 2226.66 365.491 237.804 661.949 2110.31
internal_count=21686 8131 13555 3327 11503 3133 2158 4804 10779
shrinkage=0.1


Tree=8
num_leaves=10
num_cat=0
split_feature=2 0 2 0 0 1 1 1 1
split_gain=261.775 30.8702 27.7305 22.2221 14.0954 11.5127 10.1747 10.1375 9.46356
threshold=0.039763961861202395 0.20550496383213099 0.1536323782008569 0.098070481690472736 0.073461805826986748 0.34009510089073075 0.24590236957452163 0.54617829077212587 0.25577572218546646
decision_type=10 8 10 10 8 8 10 10 10
left_child=1 3 4 -1 -2 8 -5 -6 -3
right_child=2 5 -4 6 7 -7 -8 -9 -10
leaf_value=-0.035822359953849428 -0.0032280105887878435 -0.029881697320313566 -0.0035174525205721278 -0.045186448876244303 0.023782910400622984 0.0020896691986886677 -0.095732426763685 0.072648129964243149 -0.068924086215321562
leaf_weight=157.73252420127392 196.68520177900791 493.71085407584906 528.05207951366901 51.171562492847443 1787.1400998979807 99.561576902866364 179.59071779251099 43.488215759396553 71.014372304081917
leaf_count=1201 1110 3660 3135 405 8925 637 1800 211 602
internal_value=0 -0.042359 0.016894 -0.0647506 0.0222106 -0.0292637 -0.0845239 0.0249437 -0.0347913
internal_weight=0 1052.78 2555.37 388.495 2027.31 664.287 230.762 1830.63 564.725
internal_count=21686 8305 13381 3406 10246 4899 2205 9136 4262
shrinkage=0.1


Tree=9
num_leaves=10
num_cat=0
split_feature=2 0 1 1 1 2 2 0 0
split_gain=219.331 38.2038 22.3274 15.4187 13.6262 12.1271 12.2257 15.5862 14.755
threshold=0.17920692073139202 0.20550496383213099 0.30307828299270206 0.24590236957452163 0.34009510089073075 0.16653272865288518 0.10975859881474175 1.0000000180025095e-35 0.038720530870384982
decision_type=8 10 8 8 10 10 10 10 8
left_child=2 3 -1 -2 -3 6 7 -4 -8
right_child=1 4 5 -5 -6 -7 8 -9 -10
leaf_value=-0.012556842407346001 -0.042950614398332573 -0.031502704926542557 -0.0095543429608216292 -0.089141335402729838 0.05232186981799828 -0.0054745258438317727 -0.080328315321504584 0.035173387687752598 0.023163121477873215
leaf_weight=292.41472767293453 114.07942451536655 537.47835958003998 281.11266307532787 197.16914115846157 20.118340164422989 224.15131089091301 13.882105425000189 107.77922312915325 1806.973339125514
leaf_count=1685 935 4165 1666 2079 138 1374 90 569 8985
internal_value=0 -0.0441449 0.0135517 -0.0722114 -0.0284783 0.0166885 0.0189366 0.0028417 0.0223741
internal_weight=0 868.845 2726.31 311.249 557.597 2433.9 2209.75 388.892 1820.86
internal_count=21686 7317 14369 3014 4303 12684 11310 2235 9075
shrinkage=0.1


Tree=10
num_leaves=10
num_cat=0
split_feature=2 0 1 1 1 1 1 0 1
split_gain=182.627 34.9784 17.9423 14.9025 11.5179 10.931 11.6674 20.4776 15.2102
threshold=0.17920692073139202 0.20550496383213099 0.30307828299270206 0.24590236957452163 0.34463592522186187 0.6544784909319562 0.41764585781433444 0.11536649208280096 0.47183089605142298
decision_type=8 10 8 8 10 10 10 10 10
left_child=2 3 -1 -2 -3 6 -4 -8 -9
right_child=1 4 5 -5 -6 -7 7 8 -10
leaf_value=-0.011382594141383755 -0.039938526088929546 -0.028420203091847514 0.01160957390045963 -0.08639551463278361 0.068089102563933926 -0.044316173797982833 0.01715267174931755 0.048444871453585149 0.15013786627098449
leaf_weight=290.43195122480392 110.60226309299469 533.89664775133133 1806.298689186573 183.78801710158587 12.659344173967837 30.777354776859283 463.20659248530865 134.09957697987556 16.51981121301651
leaf_count=1685 935 4222 9469 2079 81 175 2305 657 78
internal_value=0 -0.0411527 0.0121191 -0.0689417 -0.0261849 0.014904 0.0156572 0.0275679 0.0595985
internal_weight=0 840.946 2741.33 294.39 546.556 2450.9 2420.12 613.826 150.619
internal_count=21686 7317 14369 3014 4303 12684 12509 3040 735
shrinkage=0.1


Tree=11
num_leaves=10
num_cat=0
split_feature=2 0 2 2 1 2 0 1 0
split_gain=154.589 23.5689 17.8899 15.6861 14.6801 10.973 10.5751 9.01182 7.32653
threshold=0.039763961861202395 0.25157743463175514 0.15852856770575188 0.019354263058984088 0.28209299450401232 0.025366693108346796 1.0000000180025095e-35 0.6544784909319562 0.05271836741284646
decision_type=10 8 10 8 10 10 8 10 10
left_child=1 3 6 -1 -5 -6 -2 -8 -7
right_child=2 -3 -4 4 5 8 7 -9 -10
leaf_value=0.018381568144597203 -0.033530366978946742 -0.020462110628931419 -0.0065337346876587939 -0.037249684300334034 -0.083897494627559063 -0.050932300792508073 0.017713943111369805 -0.038276411037948488 0.0647261069868518
leaf_weight=29.642037600278854 42.319863468408585 536.79307400435209 421.55469170212746 194.70621459186077 183.42959365993738 16.767286822199825 2108.5058822184801 29.143922656774521 8.1339644342660886
leaf_count=194 276 4034 2565 1735 2184 112 10371 169 46
internal_value=0 -0.0344606 0.012324 -0.0518275 -0.0569911 -0.0754415 0.0159706 0.0169506 -0.0131526
internal_weight=0 969.472 2601.52 432.679 403.037 208.331 2179.97 2137.65 24.9013
internal_count=21686 8305 13381 4271 4077 2342 10816 10540 158
shrinkage=0.1


Tree=12
num_leaves=10
num_cat=0
split_feature=2 0 2 2 1 0 2 1 0
split_gain=128.108 22.054 14.2907 13.8989 13.0648 9.86219 9.29145 7.16037 7.05702
threshold=0.035025229730011952 0.25681685976196528 0.1536323782008569 0.019354263058984088 0.24590236957452163 1.0000000180025095e-35 0.023409423551969778 0.6544784909319562 0.20627440949740847
decision_type=10 8 10 8 10 8 10 10 10
left_child=1 3 5 -1 -5 -2 8 -7 -6
right_child=2 -3 -4 4 6 7 -8 -9 -10
leaf_value=0.015488236948624777 -0.030396904864274588 -0.018641370438172707 -0.0039038939848380001 -0.032759222927287855 -0.087421680876557273 0.016202365883502472 -0.0085894191399224062 -0.035171986836057587 -0.043046561127222986
leaf_weight=30.158423811197281 47.86229120194912 506.42661269009113 528.56969410181046 155.32993686199188 155.56954174488783 2039.1126533597708 21.874414548277855 27.495366185903549 46.564815446734428
leaf_count=195 321 3878 3135 1363 2049 9936 146 163 500
internal_value=0 -0.0325948 0.0108031 -0.0498511 -0.0550457 0.0144795 -0.0704994 0.0155189 -0.0771992
internal_weight=0 915.924 2643.04 409.497 379.339 2114.47 224.009 2066.61 202.134
internal_count=21686 8131 13555 4253 4058 10420 2695 10099 2549
shrinkage=0.1


Tree=13
num_leaves=10
num_cat=0
split_feature=2 0 0 2 1 0 1 1 0
split_gain=106.109 19.162 17.1053 12.415 9.45302 7.07231 6.5428 6.82693 16.5924
threshold=0.039763961861202395 0.20550496383213099 0.098070481690472736 0.16319386530536678 0.24590236957452163 1.0000000180025095e-35 0.61958827275938644 0.4150982530702762 0.13790427774481498
decision_type=10 8 10 10 10 8 10 10 10
left_child=1 2 -1 5 -4 -2 7 -7 -9
right_child=3 -3 4 -5 -6 6 -8 8 -10
leaf_value=-0.023813985097588954 -0.028747301869366415 -0.019212470308973884 -0.031106783917731612 -0.0081747079912541203 -0.084687502065529191 0.010791842152262178 -0.022264992180854062 0.019922071898730204 0.10475326735134501
leaf_weight=140.6996396407485 40.799874052405357 609.71269926428795 44.403521820902824 332.01837477087975 127.39843890070915 1632.5306271165609 50.670682519674301 545.18232125043869 24.074972376227379
leaf_count=1201 277 4899 405 2052 1800 8077 286 2581 108
internal_value=0 -0.0295322 -0.0496667 0.00989834 -0.0708392 0.012515 0.0132624 0.01408 0.0235097
internal_weight=0 922.214 312.502 2625.28 171.802 2293.26 2252.46 2201.79 569.257
internal_count=21686 8305 3406 13381 2205 11329 11052 10766 2689
shrinkage=0.1


Tree=14
num_leaves=10
num_cat=0
split_feature=2 0 1 1 1 0 1 1 2
split_gain=89.0718 25.0956 11.6491 10.1686 9.02321 8.76579 11.4184 8.63204 7.84745
threshold=0.17562472162199086 0.25681685976196528 0.29864025141758632 0.24590236957452163 0.10343429082094559 0.16014615618922148 0.36329492361823473 0.37711503200819962 0.073368076035700211
decision_type=8 8 8 10 8 10 8 10 10
left_child=2 3 -1 -2 -3 6 -4 -7 -9
right_child=1 4 5 -5 -6 7 -8 8 -10
leaf_value=-0.011657218250162039 -0.027789113604101242 -0.033749802289636172 -0.023197357289884115 -0.061877147931448252 -0.0037333937126727357 0.020708260841552584 0.010028173593172164 0.0066249932621212345 0.11031114175497794
leaf_weight=261.28121857345104 143.58687327802181 148.22119174897671 108.93327494710684 224.07375236600637 308.78353935480118 260.43970958888531 2048.7822819948196 11.025133639574049 21.600283235311508
leaf_count=1519 1324 1207 643 2843 2399 1329 10272 50 100
internal_value=0 -0.0291154 0.00841493 -0.0485643 -0.0134687 0.0105549 0.00835077 0.0267826 0.0752724
internal_weight=0 824.665 2712.06 367.661 457.005 2450.78 2157.72 293.065 32.6254
internal_count=21686 7773 13913 4167 3606 12394 10915 1479 150
shrinkage=0.1


Tree=15
num_leaves=10
num_cat=0
split_feature=2 0 2 1 1 2 0 1 2
split_gain=74.7384 18.0213 15.482 15.5568 8.92125 8.01247 8.65566 10.8407 8.94262
threshold=0.023409423551969778 0.20550496383213099 0.019354263058984088 0.24590236957452163 0.34009510089073075 0.152531790780355 0.079961417342664959 0.54617829077212587 0.088907320771241347
decision_type=10 8 8 10 10 10 8 10 10
left_child=1 2 -1 -4 -3 6 -2 8 -8
right_child=5 4 3 -5 -6 -7 7 -9 -10
leaf_value=0.01883520215435721 -0.0066923713579170709 -0.019494820767696226 -0.028374671133170128 -0.081363495467263944 0.047685214070067039 -0.0030815147499682152 -0.0055836865041917665 0.075055741244019356 0.014497303087100481
leaf_weight=29.566438779234886 263.04882968962193 522.70681499689817 98.652643360197544 126.38750692456961 20.544124163687229 562.76624678075314 256.95239803195 27.443762868642807 1619.4567403197289
leaf_count=194 1485 4427 941 2019 144 3306 1416 125 7629
internal_value=0 -0.0272431 -0.0491962 -0.0581344 -0.0169543 0.00754972 0.0103108 0.01266 0.0117474
internal_weight=0 797.858 254.607 225.04 543.251 2729.67 2166.9 1903.85 1876.41
internal_count=21686 7725 3154 2960 4571 13961 10655 9170 9045
shrinkage=0.1


Tree=16
num_leaves=10
num_cat=0
split_feature=2 0 2 1 2 2 1 0 1
split_gain=61.7954 14.1748 9.92487 10.2126 7.57348 7.07429 6.49587 6.22517 9.81198
threshold=0.035025229730011952 0.25681685976196528 0.019354263058984088 0.24590236957452163 0.023409423551969778 0.16319386530536678 0.33860877064529621 0.20627440949740847 0.34463592522186187
decision_type=10 8 8 10 10 10 10 10 10
left_child=1 2 6 -4 7 -2 -1 -5 -9
right_child=5 -3 3 4 -6 -7 -8 8 -10
leaf_value=-0.017420174005880366 0.0090415232324282668 -0.012815493066359091 -0.024144487496704396 -0.078696901718490281 -0.0035121450533648689 -0.006623608950719298 0.080725450683307151 -0.049413778735401787 0.11739155854141099
leaf_weight=19.893910810351375 2348.941077157855 483.51702835410833 143.07373128831387 120.27486346662045 21.14878161251545 328.60970494151115 10.201914653182028 37.970673114061356 3.887484982609748
leaf_count=131 11503 3878 1363 2049 146 2052 64 464 36
internal_value=0 -0.0239692 -0.039099 -0.0441662 -0.0597956 0.00711898 0.0158493 -0.0671373 -0.0339221
internal_weight=0 839.968 356.451 326.356 183.282 2677.55 30.0958 162.133 41.8582
internal_count=21686 8131 4253 4058 2695 13555 195 2549 500
shrinkage=0.1


Tree=17
num_leaves=10
num_cat=0
split_feature=2 0 0 1 2 1 0 1 1
split_gain=51.1212 12.0676 12.8559 8.23388 6.18233 7.34933 6.15604 6.08316 5.90382
threshold=0.039763961861202395 0.20550496383213099 0.098070481690472736 0.24590236957452163 0.152531790780355 0.52790161378058342 0.15864781667911243 0.3992373568580046 0.43027082476305789
decision_type=10 8 10 10 10 10 8 10 10
left_child=1 2 -1 -4 -2 6 8 -5 -6
right_child=4 -3 3 7 5 -7 -8 -9 -10
leaf_value=-0.016591547410844825 0.0090463513014103405 -0.013467759814339059 -0.022390306652733928 -0.079690334161940268 -0.033294617742676377 0.05804229064158857 0.0019245701543721206 0.081320140022053844 0.010084421340818737
leaf_weight=131.64260613918304 2094.9207648634911 581.33826633542776 40.850367665290833 96.357321783900261 115.4049968123436 19.194346606731415 383.86203296482563 2.4050687551498404 43.088312596082687
leaf_count=1201 10075 4899 405 1777 709 104 2256 23 237
internal_value=0 -0.0215945 -0.0390111 -0.0601508 0.00654869 -0.00276911 -0.00492127 -0.0757694 -0.0215015
internal_weight=0 852.594 271.255 139.613 2656.47 561.55 542.355 98.7624 158.493
internal_count=21686 8305 3406 2205 13381 3306 3202 1800 946
shrinkage=0.1


Tree=18
num_leaves=10
num_cat=0
split_feature=2 0 1 1 1 0 1 2 2
split_gain=42.7065 16.5686 10.1423 8.92624 8.18734 6.05129 10.3279 8.85675 10.5243
threshold=0.17920692073139202 0.20550496383213099 0.24590236957452163 0.34009510089073075 0.30307828299270206 0.15632919508337675 0.38183226284369054 0.071689964422210137 0.12322798962988125
decision_type=8 10 8 10 8 10 10 10 10
left_child=4 2 -2 -3 -1 -6 7 -7 -9
right_child=1 3 -4 -5 5 6 -8 8 -10
leaf_value=-0.010771951016705372 -0.021834884273666321 -0.015272865772897305 -0.066505502989215384 0.053123958092012147 0.0051492380273016787 -0.070019255502833888 0.069670851533771339 0.090364565716035752 0.011876990372562662
leaf_weight=287.77105221897364 92.601528510451317 466.74491438269615 112.66732009872794 19.894096352159977 2197.0854004621506 12.188413664698599 36.786738455295563 18.299348622560501 257.23361979424953
leaf_count=1685 935 4165 2079 138 11055 66 165 86 1312
internal_value=0 -0.022527 -0.0463536 -0.0124768 0.00520821 0.00703191 0.0197786 0.0133996 0.0170897
internal_weight=0 691.908 205.269 486.639 2809.36 2521.59 324.508 287.721 275.533
internal_count=21686 7317 3014 4303 14369 12684 1629 1464 1398
shrinkage=0.1


Tree=19
num_leaves=10
num_cat=0
split_feature=2 0 2 1 1 0 0 0 1
split_gain=35.5577 11.4047 8.56983 11.1909 5.79651 8.29695 6.01216 5.83624 10.0141
threshold=0.023409423551969778 0.25681685976196528 0.019354263058984088 0.24590236957452163 0.10343429082094559 1.8756985868266611 0.55327294464024501 0.60633321314831268 0.15781888333087088
decision_type=10 8 8 10 8 10 10 10 8
left_child=1 2 -1 -4 5 -3 -6 8 -8
right_child=-2 4 3 -5 6 -7 7 -9 -10
leaf_value=0.016044855633758914 0.0049719209455916695 -0.038023665364037819 -0.01934991503354011 -0.059933167409464541 -0.0068324826590976679 0.024960107334690358 0.18651554443343288 0.014475624702545129 -0.044578358252365502
leaf_weight=30.012663975358009 2754.1803093254566 112.69909327477217 131.86490388959646 140.17852672562003 263.42912174761295 25.681176900863647 5.6254187822341892 27.658309012651443 2.8127093911170968
leaf_count=195 13961 983 1327 2549 2139 224 48 236 24
internal_value=0 -0.0197189 -0.034667 -0.0402617 -0.00940816 -0.0263349 -0.00158805 0.0366854 0.109484
internal_weight=0 739.962 302.056 272.043 437.906 138.38 299.526 36.0964 8.43813
internal_count=21686 7725 4071 3876 3654 1207 2447 308 72
shrinkage=0.1


Tree=20
num_leaves=10
num_cat=0
split_feature=2 1 0 0 0 1 0 2 1
split_gain=29.5432 8.57843 8.04971 12.2767 9.45475 8.8229 6.20811 7.6171 7.13281
threshold=0.039763961861202395 0.25804414637854717 0.098070481690472736 0.049603608735317141 0.17788134816501552 0.32564891513585065 0.2303831461707235 0.037990492373140457 0.3992373568580046
decision_type=10 10 10 10 10 10 10 8 8
left_child=1 -1 3 -3 -4 -6 8 -8 -7
right_child=-2 2 4 -5 5 6 7 -9 -10
leaf_value=-0.010739476384284534 0.0048378652092893005 -0.02126587640422517 -0.079238666820493547 0.1081343363301351 -0.058180985500000053 -0.042887913590505908 -0.087313224076576948 0.061432948685195637 0.20883141770121383
leaf_weight=598.35012933239341 2673.3938106819987 51.289518572390079 55.096572674810886 8.5547497496008855 49.241720523685217 26.223697785288099 4.1240390241146114 20.837842345237732 1.1762030273675907
leaf_count=5276 13381 470 1193 69 645 491 22 130 9
internal_value=0 -0.0169118 -0.033967 -0.00276809 -0.045882 -0.0277937 0.000782926 0.0368581 -0.0320823
internal_weight=0 814.894 216.544 59.8443 156.7 101.604 52.3618 24.9619 27.3999
internal_count=21686 8305 3029 539 2490 1297 652 152 500
shrinkage=0.1


Tree=21
num_leaves=10
num_cat=0
split_feature=2 0 1 1 1 2 1 0 1
split_gain=25.0802 7.77367 9.36356 8.30606 7.66323 7.62192 8.16764 5.91226 5.54203
threshold=0.16653272865288518 0.25974479539443562 0.24005458370802249 0.25230364591220961 0.32308093806250543 0.17643600506301974 0.24590236957452163 0.30781118914357841 0.61958827275938644
decision_type=8 8 10 10 10 8 10 10 10
left_child=7 5 -3 -4 -5 -2 -7 8 -1
right_child=1 2 3 4 -6 6 -8 -9 -10
leaf_value=0.0060332147584335697 -0.0039715137430130871 -0.010277146710742716 0.10680715725380988 -0.047122985991003757 0.052892158668633144 -0.01480133629219741 -0.048488787604099921 -0.039456881700283108 -0.026858117497019871
leaf_weight=2485.7715032249689 126.00943693518639 453.66665159165859 12.555977709591387 13.280955731868746 18.103802174329758 130.2802247107029 160.80699258297682 29.787027209997177 52.305736541748047
leaf_count=12300 784 3679 106 119 101 1340 2784 181 292
internal_value=0 -0.0144481 -0.00600799 0.038069 0.0105692 -0.0245174 -0.0334115 0.00483556 0.00535538
internal_weight=0 914.704 497.607 43.9407 31.3848 417.097 291.087 2567.86 2538.08
internal_count=21686 8913 4005 326 220 4908 4124 12773 12592
shrinkage=0.1


Tree=22
num_leaves=10
num_cat=0
split_feature=2 1 1 0 0 1 0 2 1
split_gain=21.3582 7.9712 7.49357 5.47944 10.3195 5.3648 4.94913 4.88124 5.74044
threshold=0.067779671822540535 0.4150982530702762 0.56959649903955933 0.18322041642602233 0.027618918113095921 0.03898230485415758 0.021311454016646015 0.152531790780355 0.50811182360363538
decision_type=10 10 8 10 10 8 8 10 10
left_child=1 5 3 4 -3 -1 -2 -8 -9
right_child=6 2 -4 -5 -6 -7 7 8 -10
leaf_value=0.028714796708962122 -0.037814965097325584 0.011933042974158745 -0.094943630986737235 -0.042901624393712152 0.15942484068882881 -0.015842470822264615 0.00745143465833929 -0.005343249926644293 0.043267241903820121
leaf_weight=27.858392253518105 27.205909118056297 9.6560065895319074 3.5186164528131476 4.1146573126316062 9.3248234242200834 899.98189109191298 1933.8129840642214 536.00829189270735 25.446512117981911
leaf_count=248 183 65 24 18 44 8776 9032 3163 133
internal_value=0 -0.0129569 0.0410023 0.0617137 0.0843922 -0.0145046 0.00460574 0.00506826 -0.0031401
internal_weight=0 954.454 26.6141 23.0955 18.9808 927.84 2522.47 2495.27 561.455
internal_count=21686 9175 151 127 109 9024 12511 12328 3296
shrinkage=0.1


Tree=23
num_leaves=10
num_cat=0
split_feature=2 1 1 1 1 1 0 0 0
split_gain=17.4456 6.40527 6.23229 4.96008 6.78864 4.79977 4.78576 9.20077 5.51447
threshold=0.067779671822540535 0.4150982530702762 0.43325180094476917 0.44705650706162176 0.56959649903955933 0.72024508211170746 0.20550496383213099 0.12438185367973485 0.20627440949740847
decision_type=10 10 10 10 10 10 8 10 8
left_child=1 6 -3 -4 -5 -2 7 -1 -8
right_child=5 2 3 4 -6 -7 8 -9 -10
leaf_value=-0.0088914811435007075 0.0043927069680569876 0.12179460283875049 -0.079770670718123021 0.07088862033902274 -0.088999820776298033 -0.070279711352860416 0.11669032429658568 -0.045714180328969491 -0.0091089949122241803
leaf_weight=164.2815920189023 2517.4398736134171 6.4720742255449322 4.7962578088045147 12.317929476499556 3.3853255659341803 8.6374934762716276 3.5037823468446723 115.60926875472069 634.99641208723187
leaf_count=1501 12457 36 26 65 24 54 44 2154 5325
internal_value=0 -0.0117875 0.0362445 0.00923471 0.0364197 0.00413738 -0.0131981 -0.0241011 -0.00841867
internal_weight=0 945.363 26.9716 20.4995 15.7033 2526.08 918.391 279.891 638.5
internal_count=21686 9175 151 115 89 12511 9024 3655 5369
shrinkage=0.1


Tree=24
num_leaves=10
num_cat=0
split_feature=2 0 1 1 1 1 2 1 0
split_gain=15.2697 6.17173 7.49927 6.62394 6.28132 6.04544 6.32483 6.63449 5.04569
threshold=0.16373212118713679 0.25974479539443562 0.24135995138357269 0.25230364591220961 0.32308093806250543 0.03898230485415758 0.17643600506301974 0.2969991785493083 0.3113852401339548
decision_type=8 8 10 10 10 10 8 10 10
left_child=-1 5 -3 -4 -5 -2 -7 -8 -6
right_child=1 2 3 4 8 6 7 -9 -10
leaf_value=0.0038553879125737909 0.16170224852129714 -0.0072911394786397757 0.099591870326713336 -0.042416935642992974 0.082346464603829897 -0.0046294659059201498 -0.016577330572626309 -0.048138746716000866 -0.033836704905727842
leaf_weight=2529.2511952742934 1.8262805491685856 462.43278490751982 11.965766519308088 12.59185539186001 13.136188432574274 157.06020002067089 158.89301599562168 114.66868109628558 5.224647879600524
leaf_count=12488 19 3786 95 119 69 973 1933 2172 32
internal_value=0 -0.0110844 -0.00357997 0.0364067 0.0119804 -0.019854 -0.020624 -0.0298069 0.0492861
internal_weight=0 937.799 505.351 42.9185 30.9527 432.448 430.622 273.562 18.3608
internal_count=21686 9198 4101 315 220 5097 5078 4105 101
shrinkage=0.1


Tree=25
num_leaves=10
num_cat=0
split_feature=1 0 2 1 1 0 0 2 2
split_gain=13.1001 9.40835 7.73032 6.96101 6.37243 9.71602 9.62523 6.12006 7.10139
threshold=0.35387140744841522 0.17274036476244362 0.086759799662095585 0.072730471291379828 0.27450518778783023 0.070355984706197305 0.10907702352963249 0.082364282693209029 0.13354382071140991
decision_type=8 10 8 10 10 10 10 10 10
left_child=1 2 4 -4 -1 -6 -7 -3 -9
right_child=-2 7 3 -5 5 6 -8 8 -10
leaf_value=-0.03057043665614902 0.0042206370956044152 -0.0098286743507594171 0.060666600705833712 -0.037187059964650923 -0.0065131624259367471 0.17497856375609544 0.025693280430769433 0.034624903438353498 -0.00058034959171955603
leaf_weight=42.119473926723003 2292.3563379272819 528.98072959110141 7.5265426188707343 213.05805043503642 42.238849565386772 6.8005151376128223 11.835618697106836 75.001997604966164 242.71358366310596
leaf_count=285 11658 5272 79 2333 289 37 64 361 1308
internal_value=0 -0.0087827 -0.0232866 -0.0338482 -0.000666822 0.0200235 0.080169 -0.00323977 0.00773043
internal_weight=0 1170.28 323.579 220.585 102.994 60.875 18.6361 846.696 317.716
internal_count=21686 10028 3087 2412 675 390 101 6941 1669
shrinkage=0.1


Tree=26
num_leaves=10
num_cat=0
split_feature=2 0 2 1 0 1 0 2 0
split_gain=11.2235 7.19724 7.80596 6.24627 5.5153 4.13391 4.12642 5.17215 8.80024
threshold=0.11763218584002633 0.038720530870384982 0.12104789686735115 0.38850220090512083 0.15192873668190979 0.22557176824074712 1.0000000180025095e-35 0.084359323187077964 0.195242027719471
decision_type=10 8 10 10 8 8 10 8 8
left_child=3 -2 4 -1 -3 -4 -5 -8 -9
right_child=1 2 5 6 -6 -7 7 8 -10
leaf_value=-0.010217488012361962 -0.066036293971036955 -0.031101659466765432 -0.05918337700238379 -0.022743481499989143 0.085144061243422622 0.0040166070385596695 0.054824778964183411 -0.021522639495208291 0.16507002241236368
leaf_weight=1077.5724323652685 14.627152279019354 5.1778140813112286 10.397559359669684 19.007474906742573 19.275641024112701 2248.0737327709794 36.790526688098907 24.748968333005909 2.815084993839263
leaf_count=9835 104 24 55 130 88 11022 174 237 17
internal_value=0 0.0038861 0.0043341 -0.00817731 0.06053 0.00372565 0.0181948 0.0302862 -0.00246615
internal_weight=0 2297.55 2282.92 1160.93 24.4535 2258.47 83.3621 64.3546 27.5641
internal_count=21686 11293 11189 10393 112 11077 558 428 254
shrinkage=0.1


Tree=27
num_leaves=10
num_cat=0
split_feature=1 0 2 1 0 2 2 1 1
split_gain=9.21108 7.77583 6.75709 5.74548 4.94388 9.47906 7.99076 4.85783 6.42004
threshold=0.35387140744841522 0.17274036476244362 0.084359323187077964 0.072730471291379828 0.17788134816501552 1.0000000180025095e-35 0.050371432490650771 0.27450518778783023 0.2805085105018788
decision_type=8 10 8 10 10 10 8 10 10
left_child=1 2 7 -4 5 -2 -6 -1 -9
right_child=4 -3 3 -5 6 -7 -8 8 -10
leaf_value=-0.0260488273140791 -0.086732279517086064 -0.0023938975805291077 0.053378117381539948 -0.033882887799297649 -0.056932769829684975 0.003359570932182455 0.058826333712323299 0.13812237445511016 0.0097882223507507523
leaf_weight=40.560915321111679 11.739756632596253 840.10384626686573 7.8286822587251654 208.5741162262857 7.2631553262472144 2245.3841886892915 33.317066989839077 4.1918961927294722 55.618408896028996
leaf_count=282 336 6941 79 2343 35 11066 221 28 355
internal_value=0 -0.00742818 -0.0207794 -0.0307261 0.00351295 0.00289099 0.0381075 0.000665885 0.0187827
internal_weight=0 1156.88 316.774 216.403 2297.7 2257.12 40.5802 100.371 59.8103
internal_count=21686 10028 3087 2422 11658 11402 256 665 383
shrinkage=0.1


Tree=28
num_leaves=10
num_cat=0
split_feature=2 0 2 1 0 1 1 0 2
split_gain=8.34739 6.00244 6.2008 4.91011 4.23436 3.8149 4.7246 8.14133 3.41766
threshold=0.11763218584002633 0.038720530870384982 0.12104789686735115 0.38850220090512083 0.15192873668190979 0.03898230485415758 0.081501217244711335 0.44842972870628622 0.11515039636767715
decision_type=10 8 10 10 8 8 8 10 10
left_child=3 -2 4 5 -3 -1 -7 8 -8
right_child=1 2 -4 -5 -6 6 7 -9 -10
leaf_value=0.027440802012132254 -0.062036229371235707 -0.027891470024326983 0.0031869991846168021 0.016265118988936168 0.074234265892024948 -0.032628571122345802 -0.010241563839691888 0.020135004808603616 -0.067053915567716074
leaf_weight=28.085497796535492 13.961013123393057 5.1050217151641872 2262.573029525578 83.425660874694586 19.83160662651062 84.120490811765194 850.28723940998316 93.400013647973537 10.722240328788756
leaf_count=248 104 24 11077 558 88 806 7889 840 52
internal_value=0 0.00333462 0.00373359 -0.00709865 0.0533271 -0.00892606 -0.00990955 -0.00790712 -0.0109491
internal_weight=0 2301.47 2287.51 1150.04 24.9366 1066.62 1038.53 954.409 861.009
internal_count=21686 11293 11189 10393 112 9835 9587 8781 7941
shrinkage=0.1


Tree=29
num_leaves=10
num_cat=0
split_feature=2 2 2 0 0 0 1 0 1
split_gain=7.40836 5.09937 6.77718 9.07036 5.20138 4.21358 6.88021 4.05565 7.75968
threshold=0.16373212118713679 0.16103049662508215 0.15852856770575188 0.19818884179513255 0.30781118914357841 0.25974479539443562 0.20395644503667096 0.086213704784933107 0.53702005810264886
decision_type=8 10 10 8 10 8 10 10 10
left_child=1 2 4 -4 7 -2 -7 -1 -9
right_child=5 -3 3 -5 -6 6 -8 8 -10
leaf_value=-6.6748033106677168e-05 -0.015320184806611389 0.034579336495321161 -0.078999822286836177 0.0065419809025460841 -0.04074345281160982 -0.0067874352161159286 0.025328156597822112 0.006887143727108822 0.065083416964574661
leaf_weight=1457.3075594380498 413.87153251841664 49.040064245462418 23.857784107327461 25.800629138946533 27.175502367317677 418.07918462902308 79.37075386941433 930.66105163097382 23.489782691001892
leaf_count=7299 5097 285 137 148 171 3464 637 4345 103
internal_value=0 0.00264597 0.00201661 -0.0345555 0.00276134 -0.00786546 -0.00166322 0.00325161 0.00831985
internal_weight=0 2537.33 2488.29 49.6584 2438.63 911.321 497.45 2411.46 954.151
internal_count=21686 12488 12203 285 11918 9198 4101 11747 4448
shrinkage=0.1


Tree=30
num_leaves=10
num_cat=0
split_feature=2 0 0 1 0 1 0 0 1
split_gain=6.34945 5.81047 3.745 5.36697 4.65592 3.75823 11.7149 5.95259 9.60309
threshold=0.10975859881474175 0.038720530870384982 0.3525357350489503 0.22557176824074712 0.28811048805228373 0.30589688813395249 0.19718210536729933 0.15943061488462443 0.35387140744841522
decision_type=10 8 10 8 10 8 10 10 8
left_child=-1 -2 3 -3 5 6 -5 8 -7
right_child=1 2 -4 4 -6 7 -8 -9 -10
leaf_value=-0.0063687298505804143 -0.061284549238431942 -0.068100148619227793 0.10267036287886165 -0.065227091472393389 0.073821177117915082 -0.048718763519886146 0.002336876145652205 0.018330524894323835 0.0032130885168845085
leaf_weight=1105.4486462548375 14.051240257918833 10.552657738327978 3.7799689024686804 32.600340619683266 9.3447383940219861 36.305749885737896 120.59923306107521 260.8504074215889 1851.8378146514297
leaf_count=10219 109 57 20 192 47 236 652 1300 8854
internal_value=0 0.00282763 0.00321495 0.00305306 0.00337789 0.00309195 -0.0120405 0.00417073 0.00221453
internal_weight=0 2339.92 2325.87 2322.09 2311.54 2302.19 153.2 2148.99 1888.14
internal_count=21686 11467 11358 11338 11281 11234 844 10390 9090
shrinkage=0.1


Tree=31
num_leaves=10
num_cat=0
split_feature=1 0 1 2 0 2 1 0 2
split_gain=5.43124 12.5399 7.70778 4.57427 4.4534 8.72374 5.74621 8.00241 5.69009
threshold=0.40870325695576454 0.13891354024719235 0.5565828937838152 0.10189400359656407 0.15632919508337675 0.084359323187077964 0.27450518778783023 0.070355984706197305 0.082364282693209029
decision_type=8 10 10 10 10 8 10 10 10
left_child=4 -2 3 -3 5 6 -1 -8 -6
right_child=1 2 -4 -5 8 -7 7 -9 -10
leaf_value=-0.02365493383191427 0.0021061743752869943 0.011202512644166234 -0.058102608076269928 0.092477822458062978 -0.007984629063809057 -0.022457359452277365 0.0043704384717929631 0.072104225684127207 0.0069808646792842294
leaf_weight=37.91037030518055 1945.4076503515244 9.161651208996771 5.1255890130996695 28.361603125929832 558.3840474486351 304.18968607857823 63.613103553652763 24.03209675848484 466.15886493772268
leaf_count=271 9519 39 22 126 6116 2622 433 123 2415
internal_value=0 0.00328211 0.0569217 0.0726337 -0.00475939 -0.0133038 0.00887309 0.0229429 -0.00117545
internal_weight=0 1988.06 42.6488 37.5233 1454.29 429.745 125.556 87.6452 1024.54
internal_count=21686 9706 187 165 11980 3449 827 556 8531
shrinkage=0.1


Tree=32
num_leaves=10
num_cat=0
split_feature=1 0 1 2 0 2 1 1 2
split_gain=4.53821 11.5689 6.11263 6.56109 4.02124 16.1126 6.73755 5.32841 4.48122
threshold=0.41764585781433444 0.11536649208280096 0.4357791959683826 0.12716151040774837 0.13891354024719235 0.1290078372867616 0.36466411065844007 0.40870325695576454 0.09943617797727175
decision_type=8 10 10 10 10 10 10 10 10
left_child=4 -2 3 -3 5 6 8 -6 -1
right_child=1 2 -4 -5 7 -7 -8 -9 -10
leaf_value=-0.0059138510297786911 0.00072052474316023816 0.085739860378341304 0.044975967491791495 -0.0052428246046555002 -0.0023985391560753478 -0.054472814404654082 0.03227672072872171 0.055229083815747815 -0.069646312168239785
leaf_weight=171.87146798707545 1773.3012045547366 9.0745414048433286 94.69345386326313 62.628113031387329 1176.3256115168333 75.751292824745178 47.417972957715392 16.266759440302849 11.789286531507967
leaf_count=1700 8711 40 419 292 9669 429 283 72 71
internal_value=0 0.00308622 0.0282977 0.00627176 -0.00423927 -0.014449 -0.00132858 -0.00161251 -0.0100049
internal_weight=0 1939.7 166.396 71.7027 1499.42 306.83 231.079 1192.59 183.661
internal_count=21686 9462 751 332 12224 2483 2054 9741 1771
shrinkage=0.1


Tree=33
num_leaves=10
num_cat=0
split_feature=2 1 1 1 0 1 1 0 0
split_gain=4.35069 4.05359 3.27195 7.05453 6.76907 4.06999 6.80509 3.40997 6.63807
threshold=0.088907320771241347 0.67808216198290083 0.056552447367221467 0.081501217244711335 0.55327294464024501 0.12298808268473353 0.12631018237895261 0.11536649208280096 0.070355984706197305
decision_type=10 10 8 8 10 8 8 8 10
left_child=2 -2 -1 -4 5 -5 -7 8 -8
right_child=1 -3 3 4 -6 6 7 -9 -10
leaf_value=0.020158009805494929 0.0025392806325241872 -0.045308151744402843 -0.039621947597136394 -0.039407585374877124 0.029922023076072658 0.12030533968979318 -0.0034741407097710212 -0.0096450496369912941 0.043813591001157504
leaf_weight=46.903234116733074 2413.0478521212935 17.836951531469822 61.622824981808662 36.675806306302547 53.287437215447426 4.2872637361288062 153.27268537133932 613.24586440436542 36.81595391407609
leaf_count=434 11818 113 620 365 482 43 1346 6209 256
internal_value=0 0.00218819 -0.00563102 -0.00689205 -0.00464501 -0.0068267 -0.00534713 -0.00601772 0.00568444
internal_weight=0 2430.88 1006.11 959.208 897.585 844.298 807.622 803.335 190.089
internal_count=21686 11931 9755 9321 8701 8219 7854 7811 1602
shrinkage=0.1


Tree=34
num_leaves=10
num_cat=0
split_feature=2 0 1 1 2 2 1 2 2
split_gain=3.54812 3.75028 6.63446 5.95622 5.31406 6.71307 5.20277 4.9035 3.64757
threshold=0.088907320771241347 0.079961417342664959 0.53702005810264886 0.6544784909319562 0.14776518778766567 0.14058939177615631 0.54107320719567376 0.15106039993605341 0.12322798962988125
decision_type=10 8 10 10 10 10 10 8 10
left_child=-1 6 -3 4 5 -4 -2 -6 -8
right_child=1 2 3 -5 7 -7 8 -9 -10
leaf_value=-0.0051037692284089846 -0.039220357105977009 0.0023933014533757645 0.031001491247174995 -0.052426994236959956 -0.06512393873058045 0.14272001367231757 -0.089676042449958651 0.064938865380471236 0.0012526134738058787
leaf_weight=1001.872051121667 49.92896082252264 2202.645057298243 10.272113069891931 5.4829867631196967 5.3179024606943104 11.290440887212752 4.558460257947444 6.3718319982290277 136.98806213587523
leaf_count=9755 277 10766 44 26 23 49 27 29 690
internal_value=0 0.00196723 0.00311478 0.0441412 0.0600644 0.0894988 -0.0114658 0.0057706 -0.00167571
internal_weight=0 2432.86 2241.38 38.7353 33.2523 21.5626 191.475 11.6897 141.547
internal_count=21686 11931 10937 171 145 93 994 52 717
shrinkage=0.1


Tree=35
num_leaves=10
num_cat=0
split_feature=2 1 0 2 1 0 1 2 0
split_gain=3.32241 4.01193 7.16949 6.27152 9.56758 6.74023 5.94765 5.27338 5.54735
threshold=0.152531790780355 0.44097532992364036 0.195242027719471 0.16103049662508215 0.27119849974488103 0.11114940850835835 0.30589688813395249 0.15852856770575188 0.11331692148215017
decision_type=8 10 8 10 10 10 10 8 10
left_child=-1 2 3 4 -2 -5 -7 -6 -9
right_child=1 -3 -4 5 7 6 -8 8 -10
leaf_value=0.0021038465906543175 -0.0026643549791079118 0.021480356186559926 -0.00036605315379432789 -0.10544672807711933 -0.020725424018421201 -0.059439500574769835 0.0086495463158482166 0.0099255269160394167 -0.075696656383358513
leaf_weight=2293.9065794199705 76.586615864187479 56.473753362894058 743.52019556984305 6.1049355864524832 42.78389497846365 14.251953616738318 128.48687265068293 8.6208626739680749 61.887587744742632
leaf_count=11177 992 304 6279 43 220 96 851 206 1518
internal_value=0 -0.00450375 -0.00585966 -0.0179185 -0.0299659 -0.0025498 0.0018511 -0.0484219 -0.0652279
internal_weight=0 1138.72 1082.24 338.723 189.879 148.844 142.739 113.292 70.5085
internal_count=21686 10509 10205 3926 2936 990 947 1944 1724
shrinkage=0.1


Tree=36
num_leaves=10
num_cat=0
split_feature=1 1 0 1 0 2 1 2 1
split_gain=3.08591 2.91784 8.7004 6.20437 4.41315 13.5991 5.30396 4.71459 6.40154
threshold=0.72024508211170746 0.41764585781433444 0.11536649208280096 0.44705650706162176 0.13891354024719235 0.1290078372867616 0.36466411065844007 0.088907320771241347 0.25577572218546646
decision_type=10 10 10 10 8 10 10 10 10
left_child=1 4 -3 -4 5 6 -1 8 -6
right_child=-2 2 3 -5 7 -7 -8 -9 -10
leaf_value=-0.0086074623605137245 -0.062133854029157803 -0.00053104149226801596 0.01187761320568974 0.052558896690285274 -0.0020464122137976901 -0.050225394748733811 0.028763520217899376 0.0029835267676158526 -0.025353725653632277
leaf_weight=181.6186290178448 7.996581830084323 511.75456641241908 109.74662506580353 56.940136149525642 616.8063876517117 73.454231932759285 48.019144015386701 1678.267976641655 145.67309850826859
leaf_count=1771 61 2427 499 246 5227 429 283 8278 2465
internal_value=0 5.98121e-05 0.00593194 0.0257743 -0.00139213 -0.0127728 -0.000792883 2.11253e-05 -0.00649932
internal_weight=0 3422.28 678.441 166.687 2743.84 303.092 229.638 2440.75 762.479
internal_count=21686 21625 3172 745 18453 2483 2054 15970 7692
shrinkage=0.1


Tree=37
num_leaves=10
num_cat=0
split_feature=1 1 0 1 2 0 2 1 2
split_gain=2.64398 2.88349 7.13459 5.84555 5.04567 8.4646 4.55478 6.61888 6.08831
threshold=0.6544784909319562 0.41764585781433444 0.11536649208280096 0.44705650706162176 0.09621412497098504 0.12244188671594201 0.053840184549352105 0.45880692380604088 0.041613112153465699
decision_type=10 10 10 10 10 10 10 10 10
left_child=1 -1 6 -4 -5 -6 8 -8 -3
right_child=-2 2 3 4 5 -7 7 -9 -10
leaf_value=-0.0012583302997349005 -0.030830079594114559 0.0086911918422726119 0.010647259216709073 -0.024604780582554907 0.027575005520968095 0.11274533850090261 -0.035567458479351804 0.0024967092186013152 0.14842056335303286
leaf_weight=2739.9642700068653 27.73644719645381 9.0882190614938718 110.16240291297436 7.7472437769174567 28.597385585308075 19.712326884269714 51.138939343392849 428.16710639744997 4.74715931713581
leaf_count=18453 183 54 499 32 124 83 251 1981 26
internal_value=0 0.000170406 0.0061075 0.0240246 0.0503136 0.062328 6.83175e-05 -0.0015645 0.0566348
internal_weight=0 3399.33 659.361 166.219 56.057 48.3097 493.141 479.306 13.8354
internal_count=21686 21503 3050 738 239 207 2312 2232 80
shrinkage=0.1


Tree=38
num_leaves=10
num_cat=0
split_feature=1 2 2 2 0 0 1 0 1
split_gain=2.38984 2.23372 6.08539 4.6729 6.75947 3.83407 2.9639 2.93679 5.95617
threshold=0.72024508211170746 0.16319386530536678 0.16103049662508215 0.15852856770575188 0.19818884179513255 0.30781118914357841 0.25998293654317023 0.25974479539443562 0.20395644503667096
decision_type=10 8 10 10 8 10 10 8 10
left_child=1 2 3 5 -5 -1 -6 -3 -9
right_child=-2 7 -4 4 6 -7 -8 8 -10
leaf_value=0.0019695384918227872 -0.056304068343472194 -0.010624050985447215 0.040274897920857672 -0.070952228218748567 -0.0093469446103142794 -0.036491733452086769 0.086964076440805865 -0.0038884001232289776 0.026049704599568492
leaf_weight=2410.6349684372544 7.541888613253831 399.40248892456293 39.978939421474934 21.879585713148117 22.365913018584255 26.200390063226223 3.7278857976198188 414.78775524348021 79.131338194012642
leaf_count=11693 61 5117 228 137 126 171 22 3491 640
internal_value=0 4.96874e-05 0.00157028 0.000947548 -0.0299597 0.00155601 0.00441251 -0.00424795 0.000908018
internal_weight=0 3418.11 2524.79 2484.81 47.9734 2436.84 26.0938 893.322 493.919
internal_count=21686 21625 12377 12149 285 11864 148 9248 4131
shrinkage=0.1


Tree=39
num_leaves=10
num_cat=0
split_feature=1 2 2 2 0 0 1 0 1
split_gain=2.01572 2.08002 4.39333 7.93165 6.03124 9.44955 7.13744 4.93549 4.79931
threshold=0.72024508211170746 0.13767659152149772 0.13146583807009857 0.1312479844562244 0.18919065550852135 0.13341748505370146 0.24590236957452163 1.0000000180025095e-35 0.21773487318949583
decision_type=10 10 8 10 8 10 10 10 10
left_child=1 2 3 7 5 -4 -7 -1 -9
right_child=-2 -3 4 -5 -6 6 -8 8 -10
leaf_value=-0.0049496066962902213 -0.052666960246540363 0.0028440448815202839 -0.0045602143404139288 0.081619547220632124 -0.0015495927167092764 0.016645046269072827 -0.051409291986508593 -0.061886277955206771 0.011160270969142986
leaf_weight=516.03697681427002 7.2709641121327868 1491.9273704215884 186.20770832896233 12.561600983142851 665.88578880578279 18.254758447408676 98.926672805100679 9.19257555156946 417.52667365223169
leaf_count=2857 61 7547 1503 57 5679 234 1596 58 2094
internal_value=0 4.15977e-05 -0.00213083 0.00268173 -0.00687411 -0.0185605 -0.0408077 0.00162994 0.00958667
internal_weight=0 3416.52 1924.59 955.318 969.275 303.389 117.181 942.756 426.719
internal_count=21686 21625 14078 5066 9012 3333 1830 5009 2152
shrinkage=0.1


end of trees

feature_importances:
eval_data.distance_to_net=138
eval_data.dist_to_goalie=114
eval_data.view_of_net=108

parameters:
[boosting: gbdt]
[objective: binary]
[metric: binary_logloss]
[tree_learner: serial]
[device_type: cpu]
[data: ]
[valid: ]
[num_iterations: 40]
[learning_rate: 0.1]
[num_leaves: 10]
[num_threads: -1]
[force_col_wise: 0]
[force_row_wise: 0]
[histogram_pool_size: -1]
[max_depth: -1]
[min_data_in_leaf: 20]
[min_sum_hessian_in_leaf: 0.001]
[bagging_fraction: 1]
[pos_bagging_fraction: 1]
[neg_bagging_fraction: 1]
[bagging_freq: 0]
[bagging_seed: 3]
[feature_fraction: 1]
[feature_fraction_bynode: 1]
[feature_fraction_seed: 2]
[extra_trees: 0]
[extra_seed: 6]
[early_stopping_round: 0]
[first_metric_only: 0]
[max_delta_step: 0]
[lambda_l1: 0]
[lambda_l2: 0]
[min_gain_to_split: 0]
[drop_rate: 0.1]
[max_drop: 50]
[skip_drop: 0.5]
[xgboost_dart_mode: 0]
[uniform_drop: 0]
[drop_seed: 4]
[top_rate: 0.2]
[other_rate: 0.1]
[min_data_per_group: 100]
[max_cat_threshold: 32]
[cat_l2: 10]
[cat_smooth: 10]
[max_cat_to_onehot: 4]
[top_k: 20]
[monotone_constraints: ]
[monotone_constraints_method: basic]
[monotone_penalty: 0]
[feature_contri: ]
[forcedsplits_filename: ]
[refit_decay_rate: 0.9]
[cegb_tradeoff: 1]
[cegb_penalty_split: 0]
[cegb_penalty_feature_lazy: ]
[cegb_penalty_feature_coupled: ]
[path_smooth: 0]
[interaction_constraints: ]
[verbosity: -1]
[saved_feature_importance_type: 0]
[max_bin: 255]
[max_bin_by_feature: ]
[min_data_in_bin: 3]
[bin_construct_sample_cnt: 200000]
[data_random_seed: 1]
[is_enable_sparse: 1]
[enable_bundle: 1]
[use_missing: 1]
[zero_as_missing: 0]
[feature_pre_filter: 1]
[pre_partition: 0]
[two_round: 0]
[header: 0]
[label_column: ]
[weight_column: ]
[group_column: ]
[ignore_column: ]
[categorical_feature: ]
[forcedbins_filename: ]
[objective_seed: 5]
[num_class: 1]
[is_unbalance: 0]
[scale_pos_weight: 1]
[sigmoid: 1]
[boost_from_average: 1]
[reg_sqrt: 0]
[alpha: 0.9]
[fair_c: 1]
[poisson_max_delta_step: 0.7]
[tweedie_variance_power: 1.5]
[lambdarank_truncation_level: 20]
[lambdarank_norm: 1]
[label_gain: ]
[eval_at: ]
[multi_error_top_k: 1]
[auc_mu_weights: ]
[num_machines: 1]
[local_listen_port: 12400]
[time_out: 120]
[machine_list_filename: ]
[machines: ]
[gpu_platform_id: -1]
[gpu_device_id: -1]
[gpu_use_dp: 0]

end of parameters

pandas_categorical:[]
